{
    "in_shape": 1,
    "layers": [
        {
            "type": "dense",
            "shape": 8,
            "weights": [
                [
                    [
                        [
                            0.22996225953102112,
                            0.7109195590019226,
                            -0.13641203939914703,
                            -0.4652821123600006,
                            -0.09741183370351791,
                            -0.3047565519809723,
                            -0.1011800691485405,
                            0.4025438725948334
                        ]
                    ]
                ],
                [
                    [
                        0.009969497099518776,
                        0.02268785983324051,
                        -0.006583963055163622,
                        0.004360882565379143,
                        0.011500184424221516,
                        0.1053268313407898,
                        -0.00882977806031704,
                        -0.02175353467464447
                    ]
                ]
            ],
            "activation": "tanh"
        },
        {
            "type": "dense",
            "shape": 8,
            "weights": [
                [
                    [
                        [
                            0.040857113897800446,
                            0.08224444091320038,
                            -0.052353743463754654,
                            -0.8324623703956604,
                            0.2414853423833847,
                            -0.11194556206464767,
                            0.6256523728370667,
                            0.06285661458969116
                        ],
                        [
                            -0.31731757521629333,
                            0.3286775052547455,
                            0.5846560597419739,
                            0.24872633814811707,
                            0.5089554190635681,
                            -0.1542809158563614,
                            0.36098796129226685,
                            -0.2425842136144638
                        ],
                        [
                            -0.8714504241943359,
                            0.0768929049372673,
                            -0.49597543478012085,
                            0.0282700527459383,
                            -0.2694108188152313,
                            -0.13063521683216095,
                            -0.10677040368318558,
                            -0.12795528769493103
                        ],
                        [
                            0.2981294095516205,
                            0.742392897605896,
                            -0.38717886805534363,
                            0.2877730429172516,
                            -0.16123826801776886,
                            -0.11060425639152527,
                            0.18342921137809753,
                            0.040830500423908234
                        ],
                        [
                            -0.05296406149864197,
                            -0.030407238751649857,
                            0.11870262026786804,
                            -0.020713578909635544,
                            0.07886374741792679,
                            -0.7442668676376343,
                            -0.2994678020477295,
                            0.5227266550064087
                        ],
                        [
                            -0.27834782004356384,
                            0.10600186139345169,
                            -0.014338178560137749,
                            0.09944579750299454,
                            0.19411267340183258,
                            0.585502028465271,
                            -0.012232356704771519,
                            0.7035536766052246
                        ],
                        [
                            -0.022031767293810844,
                            -0.5220073461532593,
                            -0.12560635805130005,
                            0.46839210391044617,
                            -0.22689083218574524,
                            -0.1268196403980255,
                            0.6052436232566833,
                            0.1391400396823883
                        ],
                        [
                            0.138407900929451,
                            -0.17415964603424072,
                            -0.5373271107673645,
                            0.13943393528461456,
                            0.7841124534606934,
                            -0.08767376095056534,
                            -0.03805902227759361,
                            -0.06529635190963745
                        ]
                    ]
                ],
                [
                    [
                        0.004963529761880636,
                        0.009174268692731857,
                        0.005201996304094791,
                        -0.005977334454655647,
                        0.01281792763620615,
                        0.0011343298247084022,
                        -0.04360412806272507,
                        0.012399265542626381
                    ]
                ]
            ],
            "activation": "tanh"
        },
        {
            "type": "dense",
            "shape": 8,
            "weights": [
                [
                    [
                        [
                            0.5819612145423889,
                            -0.3901953399181366,
                            0.3952747583389282,
                            0.2588249444961548,
                            -0.24578088521957397,
                            0.09361843764781952,
                            -0.13603563606739044,
                            -0.2597412168979645
                        ],
                        [
                            0.1018376350402832,
                            -0.15966796875,
                            -0.7451379895210266,
                            0.2708185613155365,
                            0.0755438357591629,
                            0.30103638768196106,
                            -0.4983832836151123,
                            0.1627711057662964
                        ],
                        [
                            0.04102624952793121,
                            -0.2682022154331207,
                            -0.1571582555770874,
                            -0.2779722213745117,
                            -0.3796246647834778,
                            0.6005815267562866,
                            0.660106360912323,
                            0.04845966771245003
                        ],
                        [
                            0.10570461302995682,
                            0.869689404964447,
                            0.15012674033641815,
                            0.3321557343006134,
                            -0.17499522864818573,
                            0.43248286843299866,
                            -0.2226652354001999,
                            0.1617656946182251
                        ],
                        [
                            0.5477176904678345,
                            0.1630783975124359,
                            -0.3926081657409668,
                            -0.45783552527427673,
                            -0.47131022810935974,
                            -0.4748123288154602,
                            0.2081535905599594,
                            -0.21595293283462524
                        ],
                        [
                            0.15168175101280212,
                            -0.10357152670621872,
                            0.3357410728931427,
                            -0.3545582592487335,
                            -0.012971094809472561,
                            0.21852999925613403,
                            -0.5223472118377686,
                            0.594479501247406
                        ],
                        [
                            0.09428096562623978,
                            -0.11054612696170807,
                            -0.06364957988262177,
                            0.2780075669288635,
                            -0.23388145864009857,
                            -0.4384438991546631,
                            0.36539173126220703,
                            0.697096049785614
                        ],
                        [
                            -0.578641951084137,
                            -0.08565782010555267,
                            0.07591833919286728,
                            0.12060507386922836,
                            -0.7118124961853027,
                            -0.05366642773151398,
                            -0.3690461814403534,
                            -0.08696115761995316
                        ]
                    ]
                ],
                [
                    [
                        0.010103652253746986,
                        -0.0019963961094617844,
                        -0.00825917162001133,
                        0.07618275284767151,
                        -0.006330996286123991,
                        0.015103621408343315,
                        -0.0041302843019366264,
                        -0.0072986469604074955
                    ]
                ]
            ],
            "activation": "tanh"
        },
        {
            "type": "dense",
            "shape": 8,
            "weights": [
                [
                    [
                        [
                            0.2054436057806015,
                            -0.5565915703773499,
                            0.4672381281852722,
                            0.034754443913698196,
                            0.4397023916244507,
                            -0.3141118586063385,
                            -0.05136130377650261,
                            -0.35737577080726624
                        ],
                        [
                            0.7635728120803833,
                            0.5091512799263,
                            -0.5419606566429138,
                            0.04176056385040283,
                            -0.6547139883041382,
                            -0.6655019521713257,
                            0.37835654616355896,
                            -0.5509595274925232
                        ],
                        [
                            0.1600206047296524,
                            0.6189130544662476,
                            0.46344810724258423,
                            0.24579079449176788,
                            0.1473488062620163,
                            0.2578403949737549,
                            0.49982118606567383,
                            -0.2175101488828659
                        ],
                        [
                            0.3082130253314972,
                            0.1293187439441681,
                            -0.26911914348602295,
                            0.4873030483722687,
                            -0.031835105270147324,
                            0.39243385195732117,
                            -0.4073314070701599,
                            -0.5660343766212463
                        ],
                        [
                            -0.6042958498001099,
                            0.23546548187732697,
                            -0.14915937185287476,
                            0.4811490476131439,
                            0.05591229349374771,
                            -0.505538821220398,
                            0.009442148730158806,
                            -0.2130701094865799
                        ],
                        [
                            -0.02591094747185707,
                            -0.07291115820407867,
                            0.5188080072402954,
                            0.21780133247375488,
                            -0.8637294769287109,
                            -0.001963232643902302,
                            -0.07380067557096481,
                            -0.13286475837230682
                        ],
                        [
                            -0.553921103477478,
                            -0.10921090096235275,
                            -0.01444646529853344,
                            -0.6773700714111328,
                            0.05801946669816971,
                            0.2414640486240387,
                            -0.0774001032114029,
                            -0.5231597423553467
                        ],
                        [
                            0.12454240769147873,
                            0.47840678691864014,
                            0.26942989230155945,
                            -0.13144086301326752,
                            0.07604474574327469,
                            -0.29639148712158203,
                            -0.6837493777275085,
                            0.09647487848997116
                        ]
                    ]
                ],
                [
                    [
                        0.01633334904909134,
                        -0.01049179956316948,
                        -0.03449583053588867,
                        0.018889620900154114,
                        -0.0012292400933802128,
                        0.0031812426168471575,
                        -0.004296520724892616,
                        0.009042970836162567
                    ]
                ]
            ],
            "activation": "tanh"
        },
        {
            "type": "dense",
            "shape": 8,
            "weights": [
                [
                    [
                        [
                            0.7147642374038696,
                            -0.1600792557001114,
                            0.29514533281326294,
                            0.45660826563835144,
                            -0.01662815548479557,
                            -0.07423646748065948,
                            -0.49328023195266724,
                            -0.03830767050385475
                        ],
                        [
                            0.11310965567827225,
                            0.018108787015080452,
                            -0.15931019186973572,
                            -0.3177802264690399,
                            -0.11157235503196716,
                            -0.9167906641960144,
                            -0.3559137284755707,
                            -0.2726905941963196
                        ],
                        [
                            -0.7161024212837219,
                            -0.5421783924102783,
                            0.35159605741500854,
                            0.320881724357605,
                            0.32827308773994446,
                            -0.03473195806145668,
                            -0.09701255708932877,
                            -0.0131531972438097
                        ],
                        [
                            0.2429354041814804,
                            0.19435149431228638,
                            0.41869643330574036,
                            -0.4310387074947357,
                            0.23824827373027802,
                            0.15180492401123047,
                            -0.08581660687923431,
                            -0.7834675312042236
                        ],
                        [
                            0.03443783521652222,
                            -0.7183268070220947,
                            -0.5202814340591431,
                            0.04767082631587982,
                            -0.16781051456928253,
                            0.2549723982810974,
                            0.13222241401672363,
                            -0.36504462361335754
                        ],
                        [
                            0.05204573646187782,
                            -0.05722904950380325,
                            0.31298619508743286,
                            0.2759403884410858,
                            -0.38595736026763916,
                            -0.2851470112800598,
                            0.6974310278892517,
                            -0.20217826962471008
                        ],
                        [
                            0.3900049328804016,
                            -0.20743724703788757,
                            0.002113347640261054,
                            -0.12679417431354523,
                            0.6919516921043396,
                            -0.2540823519229889,
                            0.41431787610054016,
                            0.21559099853038788
                        ],
                        [
                            0.11830104887485504,
                            -0.43195202946662903,
                            0.3505496084690094,
                            -0.6194390058517456,
                            -0.29434511065483093,
                            0.09109955281019211,
                            -0.05399163067340851,
                            0.3815745711326599
                        ]
                    ]
                ],
                [
                    [
                        0.059934355318546295,
                        0.008462827652692795,
                        0.019117919728159904,
                        -0.008712563663721085,
                        0.0008588794735260308,
                        0.005341317038983107,
                        0.00320815434679389,
                        -0.005742797162383795
                    ]
                ]
            ],
            "activation": "tanh"
        },
        {
            "type": "dense",
            "shape": 8,
            "weights": [
                [
                    [
                        [
                            -0.1828612983226776,
                            -0.38285449147224426,
                            0.04065873101353645,
                            0.34318727254867554,
                            -0.08618240803480148,
                            -0.14615094661712646,
                            0.5789413452148438,
                            -0.5865336060523987
                        ],
                        [
                            -0.4311451017856598,
                            -0.0463925302028656,
                            0.2638499140739441,
                            -0.7357564568519592,
                            -0.08384080976247787,
                            -0.13666898012161255,
                            -0.22241267561912537,
                            -0.5648818612098694
                        ],
                        [
                            0.6261827349662781,
                            -0.2692490220069885,
                            0.14350375533103943,
                            -0.3992510437965393,
                            -0.3709355294704437,
                            0.40880393981933594,
                            0.2031918168067932,
                            -0.10982770472764969
                        ],
                        [
                            -0.014026783406734467,
                            0.6711801290512085,
                            -0.0633113905787468,
                            0.020492706447839737,
                            -0.6349999904632568,
                            -0.35646092891693115,
                            0.3442807197570801,
                            0.26958581805229187
                        ],
                        [
                            0.2971480190753937,
                            0.454360693693161,
                            -0.5115119814872742,
                            -0.13923975825309753,
                            0.3479750156402588,
                            0.07870946824550629,
                            0.16067661345005035,
                            -0.4891546964645386
                        ],
                        [
                            0.6049643754959106,
                            0.19742758572101593,
                            0.3183576762676239,
                            0.3617827892303467,
                            -0.048510827124118805,
                            -0.6203000545501709,
                            -0.40329650044441223,
                            -0.12946096062660217
                        ],
                        [
                            0.2144707590341568,
                            0.20831790566444397,
                            0.49328526854515076,
                            -0.15764087438583374,
                            0.5205968022346497,
                            -0.348614901304245,
                            0.5160600543022156,
                            0.39038822054862976
                        ],
                        [
                            -0.03762495145201683,
                            0.5620535612106323,
                            0.6081950664520264,
                            0.3959263563156128,
                            0.0049874307587742805,
                            0.4801374077796936,
                            -0.0136496527120471,
                            -0.12427666783332825
                        ]
                    ]
                ],
                [
                    [
                        0.005060731433331966,
                        0.0025837321300059557,
                        0.002383811865001917,
                        -0.00973187293857336,
                        -0.018373241648077965,
                        0.0008998563280329108,
                        0.04553854092955589,
                        -0.001383101218380034
                    ]
                ]
            ],
            "activation": "tanh"
        },
        {
            "type": "dense",
            "shape": 8,
            "weights": [
                [
                    [
                        [
                            -0.03547348454594612,
                            -0.07946544885635376,
                            0.5187930464744568,
                            -0.1026279628276825,
                            -0.21591420471668243,
                            -0.6388710737228394,
                            -0.16105811297893524,
                            0.586912989616394
                        ],
                        [
                            0.3340020179748535,
                            -0.4730265736579895,
                            -0.011266660876572132,
                            0.586538553237915,
                            0.0543447770178318,
                            -0.3192253112792969,
                            -0.4234570264816284,
                            -0.2358984500169754
                        ],
                        [
                            0.07368215918540955,
                            0.11413563042879105,
                            0.5322417616844177,
                            0.10643709450960159,
                            0.8324019908905029,
                            0.1367906928062439,
                            -0.21247971057891846,
                            0.13713912665843964
                        ],
                        [
                            -0.5573825240135193,
                            -0.28027087450027466,
                            -0.31821125745773315,
                            -0.22980687022209167,
                            0.5232180953025818,
                            -0.49981269240379333,
                            -0.08335914462804794,
                            -0.014669833704829216
                        ],
                        [
                            -0.3386714458465576,
                            -0.4574648439884186,
                            0.14869026839733124,
                            -0.18037167191505432,
                            -0.15971194207668304,
                            0.5148240923881531,
                            -0.5236951112747192,
                            0.19984138011932373
                        ],
                        [
                            0.4253051280975342,
                            -0.5976801514625549,
                            -0.13566634058952332,
                            -0.15152189135551453,
                            0.08136182278394699,
                            0.23521193861961365,
                            0.6686517000198364,
                            0.29066020250320435
                        ],
                        [
                            -0.011337312869727612,
                            0.16206756234169006,
                            -0.5450574159622192,
                            0.36991116404533386,
                            0.06936706602573395,
                            0.10809970647096634,
                            -0.18134956061840057,
                            0.6306732892990112
                        ],
                        [
                            -0.7666743993759155,
                            0.005746437702327967,
                            0.4483426809310913,
                            0.7879663109779358,
                            0.10376323014497757,
                            -0.12365223467350006,
                            0.2075844258069992,
                            0.1771920919418335
                        ]
                    ]
                ],
                [
                    [
                        -0.004726626444607973,
                        0.016438480466604233,
                        0.005927387159317732,
                        -0.0030416706576943398,
                        -0.000505140284076333,
                        -0.001843975973315537,
                        -0.003333660075441003,
                        0.0015091490931808949
                    ]
                ]
            ],
            "activation": "tanh"
        },
        {
            "type": "dense",
            "shape": 1,
            "weights": [
                [
                    [
                        [
                            -0.30008140206336975
                        ],
                        [
                            0.04339582473039627
                        ],
                        [
                            0.7875022292137146
                        ],
                        [
                            0.3576267659664154
                        ],
                        [
                            0.4772298038005829
                        ],
                        [
                            -0.5814200639724731
                        ],
                        [
                            -0.4645404517650604
                        ],
                        [
                            0.14695613086223602
                        ]
                    ]
                ],
                [
                    [
                        -0.002310312120243907
                    ]
                ]
            ]
        }
    ]
}