{
    "in_shape": [
        null,
        2
    ],
    "layers": [
        {
            "type": "unknown",
            "activation": "",
            "shape": [
                [
                    null,
                    2
                ]
            ],
            "weights": []
        },
        {
            "type": "dense",
            "activation": "relu",
            "shape": [
                null,
                8
            ],
            "weights": [
                [
                    [
                        -0.6572403907775879,
                        0.43701454997062683,
                        -0.7753750085830688,
                        -0.1916881501674652,
                        -0.009380456991493702,
                        0.9799971580505371,
                        0.01147376373410225,
                        0.5573623180389404
                    ],
                    [
                        -0.03428167104721069,
                        0.7264229655265808,
                        0.018169404938817024,
                        -0.241813525557518,
                        0.2527962028980255,
                        -0.027073223143815994,
                        -0.3548639416694641,
                        0.02354625053703785
                    ]
                ],
                [
                    0.4152891933917999,
                    0.17741645872592926,
                    -0.49153047800064087,
                    0.10004520416259766,
                    0.029035599902272224,
                    0.34178823232650757,
                    -0.06595225632190704,
                    -0.4156928062438965
                ]
            ]
        },
        {
            "type": "dense",
            "activation": "relu",
            "shape": [
                null,
                8
            ],
            "weights": [
                [
                    [
                        0.46139150857925415,
                        0.6249605417251587,
                        0.18231169879436493,
                        -0.050342004746198654,
                        0.7721620798110962,
                        -0.09725857526063919,
                        0.06961122155189514,
                        0.6998708844184875
                    ],
                    [
                        0.3192639648914337,
                        0.3346330225467682,
                        0.5098344683647156,
                        -0.2964605391025543,
                        0.23230521380901337,
                        -1.2024091482162476,
                        -0.554321825504303,
                        -0.08163323253393173
                    ],
                    [
                        -0.4928741157054901,
                        0.8777104616165161,
                        -0.1346786916255951,
                        -0.13596707582473755,
                        0.35905492305755615,
                        0.3905240595340729,
                        0.17634747922420502,
                        -0.2718544602394104
                    ],
                    [
                        0.222367525100708,
                        -0.2976093590259552,
                        -0.08372684568166733,
                        0.5229578018188477,
                        0.330997496843338,
                        0.42985039949417114,
                        0.050891950726509094,
                        -0.10012353211641312
                    ],
                    [
                        0.4826217591762543,
                        0.08523762226104736,
                        -0.5525286793708801,
                        -3.121778964996338,
                        0.3374762535095215,
                        0.6529278755187988,
                        -1.0509554147720337,
                        0.11350232362747192
                    ],
                    [
                        0.5425293445587158,
                        0.16500912606716156,
                        0.21715757250785828,
                        0.24462012946605682,
                        0.2877112030982971,
                        0.06259084492921829,
                        0.31974276900291443,
                        -0.8929776549339294
                    ],
                    [
                        -0.06403669714927673,
                        0.20208190381526947,
                        0.026829972863197327,
                        -0.6900992393493652,
                        0.045795150101184845,
                        -0.2982919216156006,
                        0.43326684832572937,
                        0.15883979201316833
                    ],
                    [
                        0.5123897790908813,
                        -0.2648269236087799,
                        0.6995540261268616,
                        -0.18526872992515564,
                        -0.5668975710868835,
                        0.12290223687887192,
                        -0.06017693504691124,
                        0.16582919657230377
                    ]
                ],
                [
                    0.1693401038646698,
                    0.1955452561378479,
                    -0.11970799416303635,
                    -0.0712503120303154,
                    0.3756283223628998,
                    -0.607147753238678,
                    -0.10301661491394043,
                    0.6383530497550964
                ]
            ]
        },
        {
            "type": "dense",
            "activation": "",
            "shape": [
                null,
                1
            ],
            "weights": [
                [
                    [
                        0.6567682027816772
                    ],
                    [
                        -0.5175430774688721
                    ],
                    [
                        0.5977857708930969
                    ],
                    [
                        -0.5673972964286804
                    ],
                    [
                        -0.8294289708137512
                    ],
                    [
                        -0.13986611366271973
                    ],
                    [
                        0.2371361255645752
                    ],
                    [
                        1.195152997970581
                    ]
                ],
                [
                    -0.18919812142848969
                ]
            ]
        }
    ]
}