{
    "in_shape": [
        null,
        2
    ],
    "layers": [
        {
            "type": "unknown",
            "activation": "",
            "shape": [
                [
                    null,
                    2
                ]
            ],
            "weights": []
        },
        {
            "type": "dense",
            "activation": "tanh",
            "shape": [
                null,
                8
            ],
            "weights": [
                [
                    [
                        0.4217224717140198,
                        -0.554365336894989,
                        -0.43252986669540405,
                        -0.731250524520874,
                        0.194162517786026,
                        -0.48831963539123535,
                        -0.22760798037052155,
                        -0.23689843714237213
                    ],
                    [
                        -0.13801886141300201,
                        -0.38333603739738464,
                        -0.14311638474464417,
                        -0.05268784984946251,
                        -0.04477216675877571,
                        -0.07980471104383469,
                        0.003208849346265197,
                        -0.007105330936610699
                    ]
                ],
                [
                    -0.28911760449409485,
                    -1.2755032777786255,
                    0.08253615349531174,
                    0.6709882020950317,
                    0.311531126499176,
                    0.40841907262802124,
                    0.03525663539767265,
                    -0.14664235711097717
                ]
            ]
        },
        {
            "type": "dense",
            "activation": "tanh",
            "shape": [
                null,
                8
            ],
            "weights": [
                [
                    [
                        0.03133886307477951,
                        -0.3642057478427887,
                        -0.8256577253341675,
                        -0.0674847662448883,
                        0.1410762369632721,
                        0.3432035744190216,
                        0.03530709072947502,
                        -0.29554304480552673
                    ],
                    [
                        0.08095555752515793,
                        -0.28945106267929077,
                        -0.037023790180683136,
                        -0.014288836158812046,
                        -0.5732141137123108,
                        -0.34966981410980225,
                        0.4749718904495239,
                        -0.5775948166847229
                    ],
                    [
                        0.7059556245803833,
                        0.023404594510793686,
                        0.06167569011449814,
                        0.006795144639909267,
                        -0.052636388689279556,
                        -0.17014707624912262,
                        -0.16746433079242706,
                        0.13728941977024078
                    ],
                    [
                        -0.10100105404853821,
                        -0.0020928799640387297,
                        -0.32401904463768005,
                        -0.4999905228614807,
                        1.2905118465423584,
                        -0.46447455883026123,
                        0.5735448598861694,
                        0.8767624497413635
                    ],
                    [
                        -0.6698940396308899,
                        -0.35373711585998535,
                        0.5221140384674072,
                        1.6478315591812134,
                        0.06160224974155426,
                        0.9340416789054871,
                        -0.24985742568969727,
                        0.6379503011703491
                    ],
                    [
                        -0.2186465710401535,
                        0.3766576647758484,
                        0.5392735004425049,
                        0.11033228784799576,
                        0.9310736656188965,
                        -0.15691065788269043,
                        -0.017938438802957535,
                        -0.14950303733348846
                    ],
                    [
                        -0.6612831950187683,
                        -0.32132652401924133,
                        -1.2068254947662354,
                        -1.3895248174667358,
                        -0.1457083821296692,
                        -1.097313404083252,
                        -0.7772688269615173,
                        0.3094163239002228
                    ],
                    [
                        -0.42291828989982605,
                        -1.0255632400512695,
                        -0.30213695764541626,
                        -1.4729105234146118,
                        0.01985904388129711,
                        -0.1497209072113037,
                        -0.5880623459815979,
                        0.28475773334503174
                    ]
                ],
                [
                    0.05701262131333351,
                    -0.1445666253566742,
                    0.09552566707134247,
                    0.2155076116323471,
                    0.3906071186065674,
                    -0.18623483180999756,
                    -0.001389545388519764,
                    0.1388663649559021
                ]
            ]
        },
        {
            "type": "dense",
            "activation": "tanh",
            "shape": [
                null,
                8
            ],
            "weights": [
                [
                    [
                        -0.3813649117946625,
                        1.1789066791534424,
                        0.9812440872192383,
                        0.6487483978271484,
                        -0.09416484087705612,
                        -0.4878772795200348,
                        -0.794786810874939,
                        -0.8588860630989075
                    ],
                    [
                        -0.489298015832901,
                        0.6763145923614502,
                        -0.11276337504386902,
                        0.5840430855751038,
                        1.3104944229125977,
                        -0.5721299648284912,
                        -0.584841251373291,
                        -0.1678159534931183
                    ],
                    [
                        -0.5657129883766174,
                        -0.11521080136299133,
                        0.25452423095703125,
                        -0.2528917193412781,
                        1.055890679359436,
                        -1.4966124296188354,
                        -0.7999500632286072,
                        -0.06854679435491562
                    ],
                    [
                        -0.2352636605501175,
                        0.28180786967277527,
                        -0.5882008671760559,
                        -1.596842646598816,
                        -0.011849861592054367,
                        -0.7647993564605713,
                        0.23262427747249603,
                        -0.04155904799699783
                    ],
                    [
                        0.14706185460090637,
                        -0.4256105124950409,
                        -0.1448708027601242,
                        0.1396523118019104,
                        0.003196942852810025,
                        -0.13534533977508545,
                        -0.8763560652732849,
                        0.36256828904151917
                    ],
                    [
                        0.6342029571533203,
                        0.17587082087993622,
                        0.15496672689914703,
                        -0.6231451630592346,
                        0.12287647277116776,
                        -0.437195748090744,
                        0.37291672825813293,
                        0.34799614548683167
                    ],
                    [
                        -0.7331029772758484,
                        0.18061067163944244,
                        1.6231732368469238,
                        -0.24158154428005219,
                        0.836470365524292,
                        -0.6656913757324219,
                        -0.9774009585380554,
                        -1.033129334449768
                    ],
                    [
                        0.6131922006607056,
                        -0.6620801687240601,
                        -0.8997224569320679,
                        -0.42739084362983704,
                        0.18484966456890106,
                        -0.23808574676513672,
                        0.0335213765501976,
                        -0.22063623368740082
                    ]
                ],
                [
                    0.0019609215669333935,
                    -0.0888911783695221,
                    -0.11068081110715866,
                    0.10017386078834534,
                    0.0008541528368368745,
                    0.1739507019519806,
                    -0.012755515053868294,
                    -0.0302509143948555
                ]
            ]
        },
        {
            "type": "dense",
            "activation": "",
            "shape": [
                null,
                1
            ],
            "weights": [
                [
                    [
                        -0.6649909019470215
                    ],
                    [
                        0.9970059394836426
                    ],
                    [
                        0.749639093875885
                    ],
                    [
                        0.5934241414070129
                    ],
                    [
                        0.7764050364494324
                    ],
                    [
                        -0.6770001649856567
                    ],
                    [
                        -1.7439571619033813
                    ],
                    [
                        -1.107248306274414
                    ]
                ],
                [
                    0.01750999316573143
                ]
            ]
        }
    ]
}