{
    "in_shape": [
        null,
        2
    ],
    "layers": [
        {
            "type": "unknown",
            "activation": "",
            "shape": [
                [
                    null,
                    2
                ]
            ],
            "weights": []
        },
        {
            "type": "dense",
            "activation": "tanh",
            "shape": [
                null,
                8
            ],
            "weights": [
                [
                    [
                        0.2873978018760681,
                        0.561949610710144,
                        0.38830941915512085,
                        -0.03968841955065727,
                        0.3715492784976959,
                        0.4899648129940033,
                        -0.28519880771636963,
                        0.14365853369235992
                    ],
                    [
                        -0.06703922897577286,
                        0.02720962092280388,
                        0.1814417541027069,
                        -0.054651688784360886,
                        0.005888220854103565,
                        -0.19600388407707214,
                        0.004032582975924015,
                        0.034783754497766495
                    ]
                ],
                [
                    0.319131463766098,
                    -0.3265882730484009,
                    0.20439256727695465,
                    0.6891545653343201,
                    0.11803266406059265,
                    -0.4066733121871948,
                    0.00686309952288866,
                    -0.6085677742958069
                ]
            ]
        },
        {
            "type": "dense",
            "activation": "tanh",
            "shape": [
                null,
                8
            ],
            "weights": [
                [
                    [
                        -0.911364734172821,
                        -0.1528933048248291,
                        -0.0988239273428917,
                        -0.20115147531032562,
                        -0.9279890060424805,
                        -0.1496315747499466,
                        0.04032665118575096,
                        -0.016797447577118874
                    ],
                    [
                        -0.0779409408569336,
                        -0.5449985265731812,
                        -0.6709505915641785,
                        -0.276090532541275,
                        -0.6375350952148438,
                        0.4152330160140991,
                        0.44125762581825256,
                        -0.5402127504348755
                    ],
                    [
                        0.8950141072273254,
                        -0.08304782956838608,
                        -0.5712004899978638,
                        -0.4204353392124176,
                        0.09273877739906311,
                        0.36071527004241943,
                        -0.13517001271247864,
                        0.09487906843423843
                    ],
                    [
                        -0.5873286128044128,
                        0.2468034029006958,
                        -0.5710557103157043,
                        1.1636635065078735,
                        -0.2628897726535797,
                        0.7567841410636902,
                        -0.9808646440505981,
                        -1.0440542697906494
                    ],
                    [
                        -0.2650306522846222,
                        0.9545742869377136,
                        -0.33777695894241333,
                        -0.47220104932785034,
                        0.006576077546924353,
                        0.1137004867196083,
                        0.7124397158622742,
                        -0.5406429171562195
                    ],
                    [
                        -0.3358875513076782,
                        -0.35894253849983215,
                        -0.44326987862586975,
                        0.33303385972976685,
                        0.10511524975299835,
                        -0.015224386937916279,
                        0.35258516669273376,
                        0.5869495868682861
                    ],
                    [
                        0.0033243708312511444,
                        -0.472059965133667,
                        0.28736385703086853,
                        0.18876303732395172,
                        -0.34862300753593445,
                        1.087134838104248,
                        -0.5358890891075134,
                        1.1655595302581787
                    ],
                    [
                        0.9144095778465271,
                        -0.05703151971101761,
                        1.0467802286148071,
                        -0.3781164288520813,
                        0.011201671324670315,
                        -0.3244971036911011,
                        1.5061441659927368,
                        0.32211676239967346
                    ]
                ],
                [
                    0.049612678587436676,
                    -0.003968691918998957,
                    -0.009336408227682114,
                    -0.11038694530725479,
                    -0.03960305079817772,
                    0.1105303168296814,
                    -0.1843549907207489,
                    -0.015182825736701488
                ]
            ]
        },
        {
            "type": "dense",
            "activation": "tanh",
            "shape": [
                null,
                8
            ],
            "weights": [
                [
                    [
                        -0.11258859932422638,
                        0.27859970927238464,
                        -0.45780280232429504,
                        -0.7949841022491455,
                        0.6070553660392761,
                        -0.32907405495643616,
                        0.07491890341043472,
                        0.010134785436093807
                    ],
                    [
                        -0.2120005041360855,
                        0.9037393927574158,
                        0.505803108215332,
                        -2.7818241119384766,
                        -0.08854032307863235,
                        0.9749621748924255,
                        1.2610080242156982,
                        0.24556072056293488
                    ],
                    [
                        0.04740545153617859,
                        0.16070476174354553,
                        -0.04631437361240387,
                        0.17892996966838837,
                        1.9087926149368286,
                        1.1559197902679443,
                        -0.22728149592876434,
                        0.08839340507984161
                    ],
                    [
                        -0.5012903809547424,
                        0.6186155080795288,
                        0.7986025810241699,
                        -0.33462202548980713,
                        0.029914332553744316,
                        0.22971627116203308,
                        0.07003924995660782,
                        0.07476098835468292
                    ],
                    [
                        -0.6192846894264221,
                        0.2832125723361969,
                        0.07818455994129181,
                        -0.12110144644975662,
                        0.8854594230651855,
                        0.050660911947488785,
                        0.8685556650161743,
                        0.2719864249229431
                    ],
                    [
                        0.6981592178344727,
                        -0.22930938005447388,
                        -0.4458593428134918,
                        -0.4085731506347656,
                        -0.39199894666671753,
                        -1.240097165107727,
                        -0.4133313298225403,
                        -1.2923671007156372
                    ],
                    [
                        -0.302631676197052,
                        0.6530383825302124,
                        -1.687476396560669,
                        0.38331127166748047,
                        -0.14314988255500793,
                        0.3441336452960968,
                        0.010999386198818684,
                        0.37297096848487854
                    ],
                    [
                        1.133102297782898,
                        -0.18988536298274994,
                        -0.12564466893672943,
                        1.4056453704833984,
                        0.841447114944458,
                        -0.4157995283603668,
                        -0.38883334398269653,
                        0.0987178310751915
                    ]
                ],
                [
                    0.11067146062850952,
                    0.06695829331874847,
                    -0.17018863558769226,
                    -0.18181565403938293,
                    0.257324755191803,
                    -0.24552437663078308,
                    -0.06493920087814331,
                    -0.24257144331932068
                ]
            ]
        },
        {
            "type": "dense",
            "activation": "",
            "shape": [
                null,
                1
            ],
            "weights": [
                [
                    [
                        -1.2881889343261719
                    ],
                    [
                        0.6292879581451416
                    ],
                    [
                        0.8047846555709839
                    ],
                    [
                        -0.7132818698883057
                    ],
                    [
                        0.6644092202186584
                    ],
                    [
                        1.490424394607544
                    ],
                    [
                        1.675181269645691
                    ],
                    [
                        0.5018823742866516
                    ]
                ],
                [
                    -0.06230360269546509
                ]
            ]
        }
    ]
}