{
    "in_shape": [
        null,
        2
    ],
    "layers": [
        {
            "type": "unknown",
            "activation": "",
            "shape": [
                [
                    null,
                    2
                ]
            ],
            "weights": []
        },
        {
            "type": "dense",
            "activation": "tanh",
            "shape": [
                null,
                8
            ],
            "weights": [
                [
                    [
                        -0.476970911026001,
                        0.21173733472824097,
                        0.3769688904285431,
                        -0.12748178839683533,
                        -0.5013944506645203,
                        1.2654792070388794,
                        0.23471105098724365,
                        -1.3483712673187256
                    ],
                    [
                        0.0663105845451355,
                        -0.020345689728856087,
                        0.04429681599140167,
                        -2.1190638542175293,
                        0.10857654362916946,
                        -0.06835756450891495,
                        0.01866181567311287,
                        -0.04600214213132858
                    ]
                ],
                [
                    0.0731719359755516,
                    0.3926750421524048,
                    -0.04340197518467903,
                    -1.5248839855194092,
                    -0.33350610733032227,
                    0.5884939432144165,
                    -0.44628778100013733,
                    0.738188624382019
                ]
            ]
        },
        {
            "type": "dense",
            "activation": "tanh",
            "shape": [
                null,
                8
            ],
            "weights": [
                [
                    [
                        -0.2461693286895752,
                        0.037230346351861954,
                        0.7068883776664734,
                        -0.18256781995296478,
                        0.2257077693939209,
                        -0.3740752637386322,
                        0.21071745455265045,
                        0.12094248831272125
                    ],
                    [
                        0.09949585795402527,
                        1.1361125707626343,
                        0.4910910129547119,
                        0.35298728942871094,
                        -0.666926920413971,
                        -0.1364120990037918,
                        0.7492293119430542,
                        0.4145175516605377
                    ],
                    [
                        -0.3419289290904999,
                        -0.13137778639793396,
                        -0.17447210848331451,
                        0.06994569301605225,
                        0.29756954312324524,
                        0.6505753993988037,
                        -0.2532854974269867,
                        0.3007429242134094
                    ],
                    [
                        0.00920692179352045,
                        -0.33348023891448975,
                        0.13217779994010925,
                        0.25951558351516724,
                        0.24008271098136902,
                        -0.08297909051179886,
                        0.7515939474105835,
                        0.3127332627773285
                    ],
                    [
                        -0.23351389169692993,
                        -0.09911861270666122,
                        -0.27677297592163086,
                        0.3214595913887024,
                        -0.10084738582372665,
                        0.010287859477102757,
                        0.5624977350234985,
                        -0.5252484083175659
                    ],
                    [
                        -0.22874100506305695,
                        0.18484865128993988,
                        0.16923187673091888,
                        0.32666903734207153,
                        0.5106407403945923,
                        0.11396491527557373,
                        -0.8933184742927551,
                        -0.46208181977272034
                    ],
                    [
                        -0.5743827223777771,
                        0.0855281800031662,
                        0.3812297284603119,
                        0.79078209400177,
                        -0.6167342066764832,
                        -0.8503814935684204,
                        0.0648980587720871,
                        0.7831341028213501
                    ],
                    [
                        -0.38780996203422546,
                        -0.1583343744277954,
                        0.5044074058532715,
                        -0.45840558409690857,
                        -0.5646015405654907,
                        0.5663215517997742,
                        0.1414560228586197,
                        -0.19783705472946167
                    ]
                ],
                [
                    0.2669415771961212,
                    0.14778080582618713,
                    0.1059509739279747,
                    0.19864393770694733,
                    0.06492996215820312,
                    0.12601324915885925,
                    -0.07369428128004074,
                    -0.047954168170690536
                ]
            ]
        },
        {
            "type": "dense",
            "activation": "tanh",
            "shape": [
                null,
                8
            ],
            "weights": [
                [
                    [
                        0.042847342789173126,
                        0.0581803023815155,
                        0.8133043646812439,
                        -0.687995970249176,
                        0.2844984829425812,
                        0.0416250079870224,
                        -0.3935433328151703,
                        -0.22993825376033783
                    ],
                    [
                        -0.36296266317367554,
                        -0.40889471769332886,
                        -0.7261731028556824,
                        0.12642590701580048,
                        -0.7371329069137573,
                        0.5337532162666321,
                        0.46212032437324524,
                        -0.8393819332122803
                    ],
                    [
                        -0.2548953890800476,
                        0.5857508182525635,
                        -0.6183186173439026,
                        -0.8671267628669739,
                        -0.880866289138794,
                        0.4889102876186371,
                        0.7151743769645691,
                        -0.41485971212387085
                    ],
                    [
                        -0.8489642143249512,
                        -0.904508113861084,
                        -0.10623600333929062,
                        -0.30203837156295776,
                        -0.005680421367287636,
                        -0.08062195777893066,
                        -0.07479582726955414,
                        -0.47040942311286926
                    ],
                    [
                        0.31928515434265137,
                        -0.4400559663772583,
                        1.1512460708618164,
                        0.9228183627128601,
                        -0.010489106178283691,
                        -0.3960469365119934,
                        -0.2742946445941925,
                        0.35643911361694336
                    ],
                    [
                        0.4792717695236206,
                        1.6720341444015503,
                        -0.03428472578525543,
                        0.5211431980133057,
                        -0.1160188615322113,
                        -1.0082917213439941,
                        -0.664418637752533,
                        0.10088925808668137
                    ],
                    [
                        0.2348962277173996,
                        -0.5905637741088867,
                        -0.32203173637390137,
                        -1.4497475624084473,
                        -0.3603663444519043,
                        -0.19561736285686493,
                        -0.1602502018213272,
                        0.3333618938922882
                    ],
                    [
                        -0.21286582946777344,
                        -0.25027963519096375,
                        -0.3612959384918213,
                        -0.47549083828926086,
                        -0.36860498785972595,
                        0.8694402575492859,
                        -0.35087206959724426,
                        0.15603110194206238
                    ]
                ],
                [
                    -0.06380565464496613,
                    0.1160045638680458,
                    0.0021759148221462965,
                    -0.12568005919456482,
                    -0.12149585038423538,
                    -0.09623458236455917,
                    0.05355900526046753,
                    -0.09974538534879684
                ]
            ]
        },
        {
            "type": "dense",
            "activation": "",
            "shape": [
                null,
                1
            ],
            "weights": [
                [
                    [
                        -1.0950714349746704
                    ],
                    [
                        -0.5427637100219727
                    ],
                    [
                        -1.1322683095932007
                    ],
                    [
                        -0.7121448516845703
                    ],
                    [
                        -0.7555835247039795
                    ],
                    [
                        1.3738396167755127
                    ],
                    [
                        0.7840908765792847
                    ],
                    [
                        -0.7110565900802612
                    ]
                ],
                [
                    0.05376850813627243
                ]
            ]
        }
    ]
}