{
    "in_shape": [
        null,
        2
    ],
    "layers": [
        {
            "type": "unknown",
            "activation": "",
            "shape": [
                [
                    null,
                    2
                ]
            ],
            "weights": []
        },
        {
            "type": "dense",
            "activation": "tanh",
            "shape": [
                null,
                4
            ],
            "weights": [
                [
                    [
                        1.1675622772600036e-05,
                        -0.3205903172492981,
                        0.22020666301250458,
                        0.09635665267705917
                    ],
                    [
                        -2.6409754753112793,
                        0.016649626195430756,
                        0.0006164550432004035,
                        0.021235451102256775
                    ]
                ],
                [
                    -1.824303388595581,
                    0.36481693387031555,
                    -0.23001711070537567,
                    -0.1520889699459076
                ]
            ]
        },
        {
            "type": "dense",
            "activation": "tanh",
            "shape": [
                null,
                4
            ],
            "weights": [
                [
                    [
                        0.3485853970050812,
                        -0.5924136638641357,
                        0.00675579346716404,
                        -0.562035322189331
                    ],
                    [
                        0.03359626978635788,
                        -0.6264147162437439,
                        -0.6874185800552368,
                        0.16108573973178864
                    ],
                    [
                        0.9293376803398132,
                        0.8956131339073181,
                        -0.9067347645759583,
                        0.9247909784317017
                    ],
                    [
                        0.04025052487850189,
                        0.6653127670288086,
                        -0.2905512750148773,
                        -0.9658578634262085
                    ]
                ],
                [
                    0.07778117805719376,
                    -0.09433682262897491,
                    -0.10159911215305328,
                    -0.02386602759361267
                ]
            ]
        },
        {
            "type": "dense",
            "activation": "tanh",
            "shape": [
                null,
                4
            ],
            "weights": [
                [
                    [
                        -0.30668675899505615,
                        -0.566565752029419,
                        -0.018670126795768738,
                        0.9292612075805664
                    ],
                    [
                        -1.8048171997070312,
                        -0.39652591943740845,
                        0.44713982939720154,
                        -0.13217753171920776
                    ],
                    [
                        -0.36024296283721924,
                        0.4901081621646881,
                        -1.1497652530670166,
                        -0.12630686163902283
                    ],
                    [
                        0.032746851444244385,
                        1.5596866607666016,
                        0.9875453114509583,
                        0.7999271750450134
                    ]
                ],
                [
                    -0.08779428154230118,
                    -0.04898761957883835,
                    0.05140639469027519,
                    0.08776882290840149
                ]
            ]
        },
        {
            "type": "dense",
            "activation": "tanh",
            "shape": [
                null,
                4
            ],
            "weights": [
                [
                    [
                        -0.1335856318473816,
                        -1.1967582702636719,
                        -0.8040947914123535,
                        0.10421378910541534
                    ],
                    [
                        -1.0458109378814697,
                        0.015390191227197647,
                        0.6492753624916077,
                        -0.833000123500824
                    ],
                    [
                        -0.05076924338936806,
                        -0.3225449323654175,
                        0.022970646619796753,
                        -1.795135736465454
                    ],
                    [
                        0.5667437314987183,
                        -0.871418297290802,
                        2.015852451324463,
                        -1.112194538116455
                    ]
                ],
                [
                    -0.048924077302217484,
                    0.13795310258865356,
                    0.12580543756484985,
                    -0.1353146880865097
                ]
            ]
        },
        {
            "type": "dense",
            "activation": "tanh",
            "shape": [
                null,
                4
            ],
            "weights": [
                [
                    [
                        1.6926661729812622,
                        0.8457538485527039,
                        -0.48713669180870056,
                        1.0946581363677979
                    ],
                    [
                        1.0413434505462646,
                        -0.8200267553329468,
                        0.6184988021850586,
                        -1.1844176054000854
                    ],
                    [
                        0.33381015062332153,
                        0.07035121321678162,
                        -2.305307149887085,
                        -0.12596231698989868
                    ],
                    [
                        -0.047172244638204575,
                        0.21587666869163513,
                        0.5669503211975098,
                        -0.6511824727058411
                    ]
                ],
                [
                    0.10140618681907654,
                    0.127037912607193,
                    -0.14388400316238403,
                    -0.0697537288069725
                ]
            ]
        },
        {
            "type": "dense",
            "activation": "",
            "shape": [
                null,
                1
            ],
            "weights": [
                [
                    [
                        1.2919063568115234
                    ],
                    [
                        0.2768184244632721
                    ],
                    [
                        -0.9892518520355225
                    ],
                    [
                        2.963491678237915
                    ]
                ],
                [
                    0.03836826607584953
                ]
            ]
        }
    ]
}