{
    "in_shape": [
        null,
        2
    ],
    "layers": [
        {
            "type": "unknown",
            "activation": "",
            "shape": [
                [
                    null,
                    2
                ]
            ],
            "weights": []
        },
        {
            "type": "dense",
            "activation": "tanh",
            "shape": [
                null,
                4
            ],
            "weights": [
                [
                    [
                        -0.39699217677116394,
                        0.19055001437664032,
                        -0.6526009440422058,
                        1.3084831237792969
                    ],
                    [
                        -0.0481160543859005,
                        0.001722606597468257,
                        0.06017828732728958,
                        0.07939773797988892
                    ]
                ],
                [
                    -0.30818086862564087,
                    0.06411368399858475,
                    0.19783982634544373,
                    -0.39901357889175415
                ]
            ]
        },
        {
            "type": "dense",
            "activation": "tanh",
            "shape": [
                null,
                4
            ],
            "weights": [
                [
                    [
                        -0.5726042985916138,
                        -0.3901079595088959,
                        -0.07065850496292114,
                        0.7014238834381104
                    ],
                    [
                        -0.542192280292511,
                        -0.8662273287773132,
                        1.1929845809936523,
                        -0.42354321479797363
                    ],
                    [
                        1.105507493019104,
                        -0.48651838302612305,
                        0.2695104479789734,
                        -0.2836375832557678
                    ],
                    [
                        -0.05968174338340759,
                        0.3975807726383209,
                        0.34448641538619995,
                        0.35974252223968506
                    ]
                ],
                [
                    -0.2794794738292694,
                    0.015305889770388603,
                    -0.28278225660324097,
                    -0.25994938611984253
                ]
            ]
        },
        {
            "type": "dense",
            "activation": "tanh",
            "shape": [
                null,
                4
            ],
            "weights": [
                [
                    [
                        0.2120821624994278,
                        0.6621825695037842,
                        0.10877787321805954,
                        -0.720176100730896
                    ],
                    [
                        1.1730608940124512,
                        0.7429110407829285,
                        -0.5278493165969849,
                        -0.7523691654205322
                    ],
                    [
                        -0.47952961921691895,
                        -0.2775110900402069,
                        1.439634084701538,
                        0.233189195394516
                    ],
                    [
                        -0.226628839969635,
                        0.8191644549369812,
                        -0.21502602100372314,
                        0.4266553521156311
                    ]
                ],
                [
                    0.02223897911608219,
                    -0.17164751887321472,
                    -0.19281327724456787,
                    -0.02766013704240322
                ]
            ]
        },
        {
            "type": "dense",
            "activation": "tanh",
            "shape": [
                null,
                4
            ],
            "weights": [
                [
                    [
                        1.6189309358596802,
                        0.44615793228149414,
                        -0.7810171842575073,
                        -0.9281786680221558
                    ],
                    [
                        0.5510531663894653,
                        2.136970281600952,
                        -0.5998017191886902,
                        -0.5578754544258118
                    ],
                    [
                        -0.49996519088745117,
                        -0.42420122027397156,
                        0.9764322638511658,
                        1.0516208410263062
                    ],
                    [
                        -0.934914231300354,
                        -0.3150882422924042,
                        0.6573587656021118,
                        -0.04786216467618942
                    ]
                ],
                [
                    0.023638302460312843,
                    -0.19742903113365173,
                    0.007391359191387892,
                    -0.01437463704496622
                ]
            ]
        },
        {
            "type": "dense",
            "activation": "",
            "shape": [
                null,
                1
            ],
            "weights": [
                [
                    [
                        -1.473585605621338
                    ],
                    [
                        -1.2543615102767944
                    ],
                    [
                        1.1884039640426636
                    ],
                    [
                        1.7351579666137695
                    ]
                ],
                [
                    0.1061284989118576
                ]
            ]
        }
    ]
}