{
    "in_shape": [
        null,
        2
    ],
    "layers": [
        {
            "type": "unknown",
            "activation": "",
            "shape": [
                [
                    null,
                    2
                ]
            ],
            "weights": []
        },
        {
            "type": "dense",
            "activation": "tanh",
            "shape": [
                null,
                8
            ],
            "weights": [
                [
                    [
                        -0.3181050419807434,
                        0.011748687364161015,
                        0.5998864769935608,
                        -0.34329456090927124,
                        -0.2011527717113495,
                        0.3069804906845093,
                        0.7101183533668518,
                        1.0461369752883911
                    ],
                    [
                        0.18986496329307556,
                        0.21125613152980804,
                        -0.08058202266693115,
                        -0.10834681242704391,
                        -0.011557994410395622,
                        0.021117202937602997,
                        0.08862892538309097,
                        -0.040700796991586685
                    ]
                ],
                [
                    0.5797494053840637,
                    0.1702042669057846,
                    -0.2100048065185547,
                    0.38646769523620605,
                    0.1948154717683792,
                    -0.03793076053261757,
                    -0.830694317817688,
                    0.317154198884964
                ]
            ]
        },
        {
            "type": "dense",
            "activation": "tanh",
            "shape": [
                null,
                8
            ],
            "weights": [
                [
                    [
                        0.2605151832103729,
                        0.21652232110500336,
                        0.023034945130348206,
                        -0.4044157564640045,
                        -0.28370973467826843,
                        0.17616604268550873,
                        0.08056991547346115,
                        -0.6714618802070618
                    ],
                    [
                        -0.0012945379130542278,
                        0.4919719696044922,
                        0.2444632202386856,
                        -0.33982014656066895,
                        0.09774147719144821,
                        -0.4271308183670044,
                        -0.25487378239631653,
                        0.4571516811847687
                    ],
                    [
                        -0.004342834465205669,
                        -0.3308131694793701,
                        0.026140954345464706,
                        -0.6955687999725342,
                        -0.4080718159675598,
                        0.14585945010185242,
                        0.2366330921649933,
                        0.25773853063583374
                    ],
                    [
                        -0.994230329990387,
                        0.4631718695163727,
                        0.2240106761455536,
                        -0.03992936387658119,
                        -0.27401068806648254,
                        -0.2103104293346405,
                        0.1778014898300171,
                        -0.298476904630661
                    ],
                    [
                        0.3856164813041687,
                        0.7208089828491211,
                        -0.31105756759643555,
                        -0.21547873318195343,
                        -0.3838163912296295,
                        1.0636159181594849,
                        0.8306450843811035,
                        0.7458895444869995
                    ],
                    [
                        -0.47475534677505493,
                        -0.36535021662712097,
                        1.4493526220321655,
                        0.41184332966804504,
                        0.047147154808044434,
                        -0.2732372283935547,
                        -0.1052374616265297,
                        -0.379915714263916
                    ],
                    [
                        0.03500322252511978,
                        -0.005040063057094812,
                        -0.025764042511582375,
                        -0.0955750048160553,
                        -0.5385771989822388,
                        0.5591766238212585,
                        -1.4206550121307373,
                        0.3471524119377136
                    ],
                    [
                        -0.08136013150215149,
                        0.30074289441108704,
                        0.5185086131095886,
                        -0.4795357584953308,
                        1.1070678234100342,
                        0.5465452075004578,
                        0.03756595402956009,
                        -0.09800773113965988
                    ]
                ],
                [
                    -0.013156438246369362,
                    0.06424886733293533,
                    -0.15733300149440765,
                    -0.11606306582689285,
                    0.051672764122486115,
                    0.0038926596753299236,
                    0.05834343656897545,
                    0.0367777943611145
                ]
            ]
        },
        {
            "type": "dense",
            "activation": "tanh",
            "shape": [
                null,
                8
            ],
            "weights": [
                [
                    [
                        0.3171544075012207,
                        -0.2099924236536026,
                        -0.11319895088672638,
                        -0.640663206577301,
                        0.992262065410614,
                        0.15167106688022614,
                        0.05991135165095329,
                        -0.16931918263435364
                    ],
                    [
                        0.29371270537376404,
                        0.33514371514320374,
                        0.5620929598808289,
                        -0.3551667034626007,
                        -0.07399103790521622,
                        -0.7658430337905884,
                        -0.23979702591896057,
                        0.36855366826057434
                    ],
                    [
                        -0.12284056842327118,
                        0.6073597073554993,
                        0.1461155116558075,
                        0.9098384380340576,
                        -0.20536665618419647,
                        -0.007719053886830807,
                        0.021409234032034874,
                        -0.9216333031654358
                    ],
                    [
                        -0.9170334339141846,
                        -1.989755392074585,
                        -0.042816758155822754,
                        0.3800968527793884,
                        0.22692613303661346,
                        0.4500359892845154,
                        0.20497697591781616,
                        -0.01996193267405033
                    ],
                    [
                        -0.6067805290222168,
                        1.1548805236816406,
                        0.3362341523170471,
                        -0.1891477257013321,
                        -0.3496969938278198,
                        0.27576589584350586,
                        -0.2734968066215515,
                        -0.3761676251888275
                    ],
                    [
                        1.01705801486969,
                        1.4436739683151245,
                        1.2738888263702393,
                        -0.13409557938575745,
                        0.37959036231040955,
                        -0.05505942925810814,
                        1.1568776369094849,
                        0.867046594619751
                    ],
                    [
                        0.28965139389038086,
                        0.15440428256988525,
                        0.5369633436203003,
                        -0.5211333632469177,
                        0.010393030010163784,
                        0.0657363086938858,
                        0.3297540247440338,
                        -0.21870362758636475
                    ],
                    [
                        0.37909579277038574,
                        -0.36221998929977417,
                        0.7889566421508789,
                        -1.085293173789978,
                        0.6973570585250854,
                        -0.9863161444664001,
                        1.900160789489746,
                        0.6444870829582214
                    ]
                ],
                [
                    0.15663915872573853,
                    -0.0136137455701828,
                    -0.039080578833818436,
                    -0.371922105550766,
                    0.03462278097867966,
                    -0.1250934600830078,
                    -0.11042284965515137,
                    0.09586258232593536
                ]
            ]
        },
        {
            "type": "dense",
            "activation": "",
            "shape": [
                null,
                1
            ],
            "weights": [
                [
                    [
                        -1.4799326658248901
                    ],
                    [
                        -0.38205787539482117
                    ],
                    [
                        -0.9376091361045837
                    ],
                    [
                        1.1025789976119995
                    ],
                    [
                        -0.44283610582351685
                    ],
                    [
                        0.9230330586433411
                    ],
                    [
                        -1.4234654903411865
                    ],
                    [
                        -1.2941514253616333
                    ]
                ],
                [
                    -0.08223690837621689
                ]
            ]
        }
    ]
}