{
    "in_shape": [
        null,
        2
    ],
    "layers": [
        {
            "type": "unknown",
            "activation": "",
            "shape": [
                [
                    null,
                    2
                ]
            ],
            "weights": []
        },
        {
            "type": "dense",
            "activation": "tanh",
            "shape": [
                null,
                8
            ],
            "weights": [
                [
                    [
                        0.919413685798645,
                        -0.2613559365272522,
                        0.526268482208252,
                        0.2867389917373657,
                        -0.34896284341812134,
                        -0.15703047811985016,
                        0.014722013846039772,
                        -0.23596073687076569
                    ],
                    [
                        0.12457233667373657,
                        0.042375702410936356,
                        0.07392136752605438,
                        0.16708625853061676,
                        0.07174494117498398,
                        0.1217535212635994,
                        0.32534441351890564,
                        -0.013841847889125347
                    ]
                ],
                [
                    -0.5527176260948181,
                    -0.623721182346344,
                    -0.5707483291625977,
                    0.1301131546497345,
                    -0.46042752265930176,
                    -0.21482977271080017,
                    0.036472927778959274,
                    0.10612072795629501
                ]
            ]
        },
        {
            "type": "dense",
            "activation": "tanh",
            "shape": [
                null,
                8
            ],
            "weights": [
                [
                    [
                        -0.07200415432453156,
                        -0.024655424058437347,
                        0.6429110765457153,
                        -0.44996097683906555,
                        0.10574953258037567,
                        -0.17661936581134796,
                        -0.17778940498828888,
                        0.303095281124115
                    ],
                    [
                        0.21534568071365356,
                        0.6790992021560669,
                        0.46642938256263733,
                        -0.09327681362628937,
                        1.926855206489563,
                        0.35746312141418457,
                        0.3786729872226715,
                        0.16803167760372162
                    ],
                    [
                        0.21527625620365143,
                        0.7494197487831116,
                        -0.15973030030727386,
                        0.40850120782852173,
                        -0.27655184268951416,
                        0.7688334584236145,
                        0.41208967566490173,
                        0.07740693539381027
                    ],
                    [
                        0.2335725724697113,
                        0.09902599453926086,
                        -0.20055904984474182,
                        -0.43309059739112854,
                        0.23653078079223633,
                        -0.20042848587036133,
                        0.6027387976646423,
                        -0.3721950054168701
                    ],
                    [
                        -0.7113544940948486,
                        0.49955934286117554,
                        -0.015998700633645058,
                        -0.0630975291132927,
                        0.6578598022460938,
                        -0.04644711688160896,
                        -0.5443022847175598,
                        -0.4051187336444855
                    ],
                    [
                        -0.12487628310918808,
                        0.0770195722579956,
                        -0.19154810905456543,
                        0.5252683758735657,
                        0.2005353718996048,
                        -0.5602788925170898,
                        0.048055149614810944,
                        0.4532412588596344
                    ],
                    [
                        0.7242152690887451,
                        -0.05434827134013176,
                        -0.317339152097702,
                        -0.17503030598163605,
                        -0.03607054799795151,
                        0.16463305056095123,
                        -0.49323800206184387,
                        0.09730271995067596
                    ],
                    [
                        0.0633452758193016,
                        -0.037360820919275284,
                        -0.5921674966812134,
                        -1.1622627973556519,
                        0.5694352984428406,
                        0.5987895727157593,
                        0.5927430391311646,
                        0.9035963416099548
                    ]
                ],
                [
                    0.01291503757238388,
                    -0.2019338458776474,
                    -0.027799470350146294,
                    0.03796383738517761,
                    -0.1706242710351944,
                    0.11200667917728424,
                    0.0031970813870429993,
                    -0.0005721154157072306
                ]
            ]
        },
        {
            "type": "dense",
            "activation": "tanh",
            "shape": [
                null,
                8
            ],
            "weights": [
                [
                    [
                        -0.06360280513763428,
                        -1.559065341949463,
                        0.2940957844257355,
                        -0.13602390885353088,
                        -0.16738277673721313,
                        0.5771860480308533,
                        0.5535180568695068,
                        -0.2876822054386139
                    ],
                    [
                        -0.13989655673503876,
                        0.07985714823007584,
                        0.6280636787414551,
                        0.07513155043125153,
                        -0.18235807120800018,
                        -0.3440270721912384,
                        0.23917198181152344,
                        -0.8527010679244995
                    ],
                    [
                        0.1393321007490158,
                        0.03601141273975372,
                        -0.3255547285079956,
                        -0.5408311486244202,
                        0.38338151574134827,
                        -0.34541839361190796,
                        0.09544547647237778,
                        0.2993182837963104
                    ],
                    [
                        -0.19771713018417358,
                        0.591890811920166,
                        0.37096935510635376,
                        -0.9019520282745361,
                        0.9805166125297546,
                        0.0234830342233181,
                        -0.5812116265296936,
                        -0.16422122716903687
                    ],
                    [
                        -0.4149649739265442,
                        1.8400920629501343,
                        -0.1507527381181717,
                        -0.12283835560083389,
                        0.09643599390983582,
                        0.056867461651563644,
                        0.34978628158569336,
                        0.19170287251472473
                    ],
                    [
                        0.8778089284896851,
                        -0.05425133556127548,
                        0.9102545380592346,
                        0.9817420244216919,
                        -0.04274307191371918,
                        0.8963685631752014,
                        0.4184977114200592,
                        -0.9605405926704407
                    ],
                    [
                        1.6959348917007446,
                        -0.2266545593738556,
                        1.8395377397537231,
                        0.619896411895752,
                        -1.181837558746338,
                        0.8176030516624451,
                        0.5470349788665771,
                        -0.8656768202781677
                    ],
                    [
                        0.5255556702613831,
                        -0.13030435144901276,
                        0.0480109304189682,
                        0.07227768748998642,
                        -1.219664216041565,
                        0.6253788471221924,
                        -0.02835344523191452,
                        -0.44488149881362915
                    ]
                ],
                [
                    0.02335946075618267,
                    -0.24107229709625244,
                    -0.052722230553627014,
                    0.06616894900798798,
                    0.05523685738444328,
                    0.12376656383275986,
                    0.045610975474119186,
                    0.1248980313539505
                ]
            ]
        },
        {
            "type": "dense",
            "activation": "",
            "shape": [
                null,
                1
            ],
            "weights": [
                [
                    [
                        -0.5214384198188782
                    ],
                    [
                        0.5366153717041016
                    ],
                    [
                        -1.5969738960266113
                    ],
                    [
                        -1.7208417654037476
                    ],
                    [
                        1.477402687072754
                    ],
                    [
                        -0.8142125010490417
                    ],
                    [
                        -0.6647859811782837
                    ],
                    [
                        1.1364368200302124
                    ]
                ],
                [
                    -0.02200464904308319
                ]
            ]
        }
    ]
}