{
    "in_shape": [
        null,
        2
    ],
    "layers": [
        {
            "type": "unknown",
            "activation": "",
            "shape": [
                [
                    null,
                    2
                ]
            ],
            "weights": []
        },
        {
            "type": "dense",
            "activation": "tanh",
            "shape": [
                null,
                16
            ],
            "weights": [
                [
                    [
                        0.35533371567726135,
                        -0.9820300340652466,
                        -0.8288355469703674,
                        -0.26827752590179443,
                        0.26936230063438416,
                        -0.42213425040245056,
                        -0.6981878876686096,
                        -0.3041090965270996,
                        0.4637798070907593,
                        -0.18914425373077393,
                        -0.19841744005680084,
                        0.32978788018226624,
                        0.19081608951091766,
                        0.2699556350708008,
                        -0.5099766850471497,
                        0.256456196308136
                    ],
                    [
                        -0.3782137632369995,
                        1.1167314052581787,
                        -0.05373482033610344,
                        -0.005006809718906879,
                        -0.008882453665137291,
                        0.07224992662668228,
                        0.06268823891878128,
                        -0.1841772347688675,
                        0.07764513790607452,
                        0.1420263797044754,
                        -0.0108465775847435,
                        -0.08068764209747314,
                        -0.0782366394996643,
                        0.0048118531703948975,
                        0.08126096427440643,
                        0.11099839210510254
                    ]
                ],
                [
                    -0.21619167923927307,
                    0.8209308385848999,
                    0.4926413893699646,
                    -0.15452468395233154,
                    0.06502224504947662,
                    -0.14200718700885773,
                    -0.37974992394447327,
                    -0.25383681058883667,
                    -0.4668812155723572,
                    -0.06950793415307999,
                    0.025240862742066383,
                    0.10270688682794571,
                    0.4716081917285919,
                    -0.06296008080244064,
                    -0.1536315679550171,
                    -0.19504675269126892
                ]
            ]
        },
        {
            "type": "dense",
            "activation": "tanh",
            "shape": [
                null,
                16
            ],
            "weights": [
                [
                    [
                        0.19025634229183197,
                        0.2371748983860016,
                        0.3399392068386078,
                        -0.010492196306586266,
                        0.43023183941841125,
                        -0.14423726499080658,
                        -0.20352301001548767,
                        -0.04174429178237915,
                        -0.042537327855825424,
                        -0.19768448173999786,
                        -0.014287038706243038,
                        0.11722730100154877,
                        0.12016257643699646,
                        0.3446623980998993,
                        0.3685204088687897,
                        0.3361981511116028
                    ],
                    [
                        0.0077009801752865314,
                        0.5427137613296509,
                        0.12970657646656036,
                        0.3518301248550415,
                        -0.2164113074541092,
                        0.10953274369239807,
                        0.10381101071834564,
                        -0.05092082545161247,
                        0.47314316034317017,
                        0.08228184282779694,
                        -0.43445709347724915,
                        -0.3790930509567261,
                        0.47671830654144287,
                        -0.3132878243923187,
                        0.06138718128204346,
                        0.027837084606289864
                    ],
                    [
                        0.10421903431415558,
                        -0.00915021076798439,
                        -0.1385163515806198,
                        0.06039056181907654,
                        0.49973368644714355,
                        0.3928822875022888,
                        0.40645432472229004,
                        -0.49303415417671204,
                        -0.17551103234291077,
                        0.25948017835617065,
                        0.04533892497420311,
                        -0.9518548846244812,
                        -0.13881950080394745,
                        -0.5093596577644348,
                        0.3632985055446625,
                        -0.38377299904823303
                    ],
                    [
                        -0.387969434261322,
                        0.17016592621803284,
                        -0.006780284456908703,
                        0.13885611295700073,
                        0.28762829303741455,
                        0.08618753403425217,
                        -0.4090093970298767,
                        -0.4331059455871582,
                        0.07829932868480682,
                        -0.5273382067680359,
                        0.6500543355941772,
                        0.24125421047210693,
                        0.04152211174368858,
                        -0.0870947390794754,
                        -0.4407169818878174,
                        0.03983010724186897
                    ],
                    [
                        0.023015933111310005,
                        -0.10490421205759048,
                        -0.5748810768127441,
                        -0.3934548795223236,
                        0.2122369408607483,
                        -0.22609083354473114,
                        0.4850136637687683,
                        0.42962920665740967,
                        -0.035934872925281525,
                        -0.36009714007377625,
                        -0.7085371613502502,
                        0.0636293962597847,
                        0.404023140668869,
                        0.005329502280801535,
                        0.42962557077407837,
                        -0.5243988633155823
                    ],
                    [
                        0.4289037585258484,
                        -0.1319628357887268,
                        -0.2757287621498108,
                        -0.17755135893821716,
                        -0.112954281270504,
                        0.3732389807701111,
                        -0.5511146783828735,
                        -0.420037180185318,
                        -0.13851626217365265,
                        0.11284947395324707,
                        0.6146236658096313,
                        -0.14512981474399567,
                        0.4315015971660614,
                        0.2580449879169464,
                        0.12625697255134583,
                        0.12473621219396591
                    ],
                    [
                        0.32783153653144836,
                        0.06980042159557343,
                        -0.0994597002863884,
                        0.1884061098098755,
                        0.0951826274394989,
                        -0.3980700373649597,
                        -0.4455387592315674,
                        0.09838079661130905,
                        -0.0601012296974659,
                        -0.33755168318748474,
                        1.3064937591552734,
                        0.05551893264055252,
                        -0.23302626609802246,
                        -0.07814160734415054,
                        0.09992127120494843,
                        -0.07913370430469513
                    ],
                    [
                        -0.1503385752439499,
                        -0.12471240013837814,
                        0.06876308470964432,
                        -0.32798999547958374,
                        0.015289776027202606,
                        -0.36837124824523926,
                        0.3666077256202698,
                        0.10646945238113403,
                        -0.1093575730919838,
                        0.15718498826026917,
                        0.5551304221153259,
                        0.16995678842067719,
                        0.4343371093273163,
                        -0.3315542936325073,
                        0.06879793107509613,
                        0.06674250960350037
                    ],
                    [
                        -0.40263107419013977,
                        0.1611073762178421,
                        0.38102200627326965,
                        0.08396732062101364,
                        0.11282363533973694,
                        0.07390567660331726,
                        -0.6570949554443359,
                        0.5211412310600281,
                        -0.48691442608833313,
                        0.09056390821933746,
                        0.25172731280326843,
                        0.31841617822647095,
                        0.17545615136623383,
                        0.34696871042251587,
                        0.03804219886660576,
                        -0.19074301421642303
                    ],
                    [
                        0.13088728487491608,
                        0.41717442870140076,
                        -0.13254263997077942,
                        -0.7301033139228821,
                        -0.015153385698795319,
                        -0.21504075825214386,
                        -0.09285567700862885,
                        0.18994468450546265,
                        -0.11799918115139008,
                        0.17077913880348206,
                        0.006739042233675718,
                        -0.2277711182832718,
                        -0.1367495208978653,
                        -0.0434902049601078,
                        0.08509519696235657,
                        0.05853018909692764
                    ],
                    [
                        -0.39233726263046265,
                        0.00996058527380228,
                        0.2037731558084488,
                        0.2662050426006317,
                        -0.4049915671348572,
                        -0.04675187170505524,
                        0.16865310072898865,
                        -0.5168430805206299,
                        0.15229250490665436,
                        -0.1537134051322937,
                        -0.13451921939849854,
                        -0.6904088854789734,
                        -0.08102811127901077,
                        0.39422404766082764,
                        -0.029087234288454056,
                        -0.27089792490005493
                    ],
                    [
                        -0.21298609673976898,
                        0.1820342242717743,
                        -0.041487403213977814,
                        0.0811958760023117,
                        -0.3853297829627991,
                        0.19151873886585236,
                        0.05681862309575081,
                        0.004619608633220196,
                        -0.4595550000667572,
                        -0.41919201612472534,
                        -0.2474544793367386,
                        -0.18401670455932617,
                        -0.039854995906353,
                        -0.2932116389274597,
                        -0.03350292518734932,
                        0.30081596970558167
                    ],
                    [
                        0.5125270485877991,
                        -0.021120253950357437,
                        0.37265998125076294,
                        -0.041045401245355606,
                        0.03388148173689842,
                        0.11697828024625778,
                        0.23955324292182922,
                        0.1346690058708191,
                        -0.1597406566143036,
                        -0.24026300013065338,
                        -0.3996516168117523,
                        -0.26436570286750793,
                        0.1930142641067505,
                        -0.06740265339612961,
                        -0.4517964720726013,
                        -0.4695189893245697
                    ],
                    [
                        0.5128850936889648,
                        -0.6031448245048523,
                        -0.2536579966545105,
                        -0.5402038097381592,
                        0.15148064494132996,
                        -0.8766356110572815,
                        -0.22993360459804535,
                        0.16379588842391968,
                        -0.32802021503448486,
                        0.3010431230068207,
                        -0.4553792178630829,
                        0.33064204454421997,
                        0.3194737732410431,
                        -0.5753554701805115,
                        0.8295593857765198,
                        -0.4277639389038086
                    ],
                    [
                        -0.0696318969130516,
                        -0.4708828032016754,
                        0.09630290418863297,
                        0.09011231362819672,
                        0.25152456760406494,
                        0.10986433923244476,
                        -0.018162695690989494,
                        0.31633540987968445,
                        0.014879763126373291,
                        -0.12451546639204025,
                        -0.18008644878864288,
                        -0.436110258102417,
                        0.14192989468574524,
                        -0.05784723907709122,
                        -0.09438841044902802,
                        0.36681070923805237
                    ],
                    [
                        -0.15817271173000336,
                        -0.08698990941047668,
                        0.5870204567909241,
                        -0.3021957576274872,
                        -0.32875752449035645,
                        0.27352210879325867,
                        -0.2558387517929077,
                        -0.08806687593460083,
                        0.15967096388339996,
                        -0.40081238746643066,
                        0.11714471876621246,
                        0.39223557710647583,
                        -0.21142637729644775,
                        -0.09419199824333191,
                        0.21652331948280334,
                        0.08577599376440048
                    ]
                ],
                [
                    0.020986085757613182,
                    0.0708014965057373,
                    -0.035316888242959976,
                    0.10918299853801727,
                    -0.005747220944613218,
                    0.0705823004245758,
                    0.18319323658943176,
                    -0.14269670844078064,
                    0.03027505613863468,
                    0.0240692850202322,
                    -0.32774242758750916,
                    -0.32418760657310486,
                    -0.012864978052675724,
                    0.008639292791485786,
                    -0.020512668415904045,
                    0.0945403054356575
                ]
            ]
        },
        {
            "type": "dense",
            "activation": "tanh",
            "shape": [
                null,
                16
            ],
            "weights": [
                [
                    [
                        0.42026951909065247,
                        0.22636282444000244,
                        0.7517619132995605,
                        0.25307348370552063,
                        0.7928978204727173,
                        0.3517760634422302,
                        -0.7247343063354492,
                        -0.3289608657360077,
                        0.7971155643463135,
                        0.4003438651561737,
                        0.6211131811141968,
                        -0.21375437080860138,
                        0.792622447013855,
                        0.31583231687545776,
                        0.010152415372431278,
                        -0.7115378975868225
                    ],
                    [
                        -0.2506030797958374,
                        -0.3025469183921814,
                        -0.3581388294696808,
                        -0.4898133873939514,
                        0.06602071970701218,
                        -0.017752116546034813,
                        0.6793942451477051,
                        0.19187448918819427,
                        -0.061809077858924866,
                        -0.011756532825529575,
                        -0.04416880011558533,
                        0.8618072867393494,
                        0.11670336872339249,
                        -0.48112961649894714,
                        0.5043026804924011,
                        0.7709565162658691
                    ],
                    [
                        -0.6346246600151062,
                        -0.38562342524528503,
                        -0.338670551776886,
                        -0.5761088728904724,
                        -0.5618046522140503,
                        -0.11416354030370712,
                        0.8505537509918213,
                        0.9410090446472168,
                        -0.39692845940589905,
                        -0.46248579025268555,
                        -0.3215649425983429,
                        0.314164400100708,
                        -0.8941076397895813,
                        -0.5911263823509216,
                        -0.03602460399270058,
                        -0.07702813297510147
                    ],
                    [
                        0.09523244947195053,
                        -0.12378521263599396,
                        0.4756496846675873,
                        -0.34193041920661926,
                        -0.40378111600875854,
                        -0.16372554004192352,
                        -0.06653206050395966,
                        0.17450781166553497,
                        -0.1832793951034546,
                        0.4079461991786957,
                        -0.44882732629776,
                        0.9347403049468994,
                        -0.07196949422359467,
                        -0.0111375218257308,
                        0.2494008094072342,
                        0.06506151705980301
                    ],
                    [
                        0.13290207087993622,
                        0.4993068277835846,
                        0.19943515956401825,
                        0.21244996786117554,
                        0.5666064620018005,
                        0.7428141832351685,
                        -0.14974260330200195,
                        0.19269169867038727,
                        -0.03659950941801071,
                        -0.06603452563285828,
                        -0.3015502393245697,
                        -0.009226975031197071,
                        -0.18735037744045258,
                        0.4738680124282837,
                        0.28442564606666565,
                        0.04579722136259079
                    ],
                    [
                        -0.08738376200199127,
                        0.31542015075683594,
                        -0.14536543190479279,
                        -0.338420569896698,
                        -0.14105625450611115,
                        -0.256889283657074,
                        0.42957890033721924,
                        -0.030518706887960434,
                        -0.22864730656147003,
                        -0.21908524632453918,
                        -0.3368600904941559,
                        0.7901140451431274,
                        0.3095617890357971,
                        -0.2968980073928833,
                        -0.03225172683596611,
                        -0.30836278200149536
                    ],
                    [
                        0.1399846076965332,
                        -0.07349544018507004,
                        0.22299550473690033,
                        0.02366669289767742,
                        -0.1437532752752304,
                        -0.2812703251838684,
                        0.6680338382720947,
                        -0.3006163239479065,
                        0.3450603485107422,
                        -0.16862961649894714,
                        -0.29682573676109314,
                        -0.22834770381450653,
                        -0.32210320234298706,
                        0.21285803616046906,
                        0.11310136318206787,
                        -0.02636769600212574
                    ],
                    [
                        -0.20349830389022827,
                        0.23523303866386414,
                        0.27129989862442017,
                        -0.02548636868596077,
                        0.20549988746643066,
                        -0.40855807065963745,
                        0.11379915475845337,
                        0.301868200302124,
                        0.4160216748714447,
                        0.16297335922718048,
                        0.16261914372444153,
                        -0.059061449021101,
                        0.045714396983385086,
                        0.270887166261673,
                        -0.7448687553405762,
                        0.188153475522995
                    ],
                    [
                        0.30972740054130554,
                        -0.22875796258449554,
                        -0.11656706035137177,
                        -0.3345286548137665,
                        0.4773554503917694,
                        -0.6095438599586487,
                        0.022682171314954758,
                        -0.16925927996635437,
                        -0.19722990691661835,
                        0.10553139448165894,
                        -0.09786072373390198,
                        0.10672861337661743,
                        -0.1270619034767151,
                        -0.18427322804927826,
                        0.2315928041934967,
                        0.05088115483522415
                    ],
                    [
                        0.6569592356681824,
                        0.601051390171051,
                        0.3298823833465576,
                        -0.21662186086177826,
                        0.45455649495124817,
                        0.021149229258298874,
                        -0.4439847469329834,
                        -0.47833535075187683,
                        0.224877268075943,
                        0.28132835030555725,
                        0.33413755893707275,
                        -0.569462776184082,
                        0.3320045471191406,
                        -0.23684503138065338,
                        -0.3171537518501282,
                        0.09809795767068863
                    ],
                    [
                        -0.1708986759185791,
                        -0.19248844683170319,
                        -0.08228456974029541,
                        -0.2851654887199402,
                        0.050475165247917175,
                        1.8636022806167603,
                        -0.48374664783477783,
                        -0.4397222399711609,
                        0.19987653195858002,
                        -0.22110192477703094,
                        -0.3448517918586731,
                        -0.33282387256622314,
                        -0.1769433170557022,
                        0.3305480480194092,
                        -0.21454069018363953,
                        -0.05862380191683769
                    ],
                    [
                        -0.7464537620544434,
                        0.2663862705230713,
                        -0.3316558599472046,
                        -0.3099905550479889,
                        -0.12671227753162384,
                        -0.0791236162185669,
                        0.2699175775051117,
                        -0.2158360481262207,
                        -0.2984897792339325,
                        -0.06519930064678192,
                        0.6282520294189453,
                        -0.9003962874412537,
                        -0.25188037753105164,
                        0.3486979901790619,
                        0.0744328573346138,
                        -0.07947128266096115
                    ],
                    [
                        0.4453452527523041,
                        -0.12696543335914612,
                        0.16828298568725586,
                        0.16925330460071564,
                        0.1720590740442276,
                        -0.4069715440273285,
                        0.24753466248512268,
                        -0.16298477351665497,
                        -0.17808008193969727,
                        0.45480796694755554,
                        0.40834149718284607,
                        -0.4902970492839813,
                        0.29876723885536194,
                        0.5847936868667603,
                        -0.28074321150779724,
                        -0.3178088665008545
                    ],
                    [
                        -0.8047357797622681,
                        0.017243346199393272,
                        -0.34516170620918274,
                        0.0874318927526474,
                        -0.09260451048612595,
                        0.2930002808570862,
                        0.2294340431690216,
                        -0.034670546650886536,
                        -0.1834718883037567,
                        0.53873211145401,
                        -0.4266319274902344,
                        0.7997797131538391,
                        -0.6634815335273743,
                        -0.4705101251602173,
                        -0.2807157337665558,
                        -0.0862550437450409
                    ],
                    [
                        0.10355725884437561,
                        0.3193711042404175,
                        0.040445372462272644,
                        0.24119138717651367,
                        0.39636534452438354,
                        0.36053553223609924,
                        -0.3099352717399597,
                        -0.2090262919664383,
                        0.18013621866703033,
                        0.36470815539360046,
                        0.13561774790287018,
                        -2.21807861328125,
                        0.9061330556869507,
                        0.27148428559303284,
                        -0.1564978063106537,
                        -0.35347551107406616
                    ],
                    [
                        -0.4838578999042511,
                        -0.23846083879470825,
                        0.09663808345794678,
                        -0.15007050335407257,
                        0.21087193489074707,
                        0.17982187867164612,
                        0.1897377371788025,
                        -0.10180292278528214,
                        -0.8543260097503662,
                        -0.4429509937763214,
                        -0.1549370437860489,
                        0.31109970808029175,
                        -0.16940616071224213,
                        -0.4669632613658905,
                        -0.3147074580192566,
                        0.21954981982707977
                    ]
                ],
                [
                    -0.0012395749799907207,
                    0.0018738843500614166,
                    0.09065835922956467,
                    0.05702334642410278,
                    -0.007172837387770414,
                    -0.18252843618392944,
                    0.04711056500673294,
                    -0.04309801384806633,
                    -0.08065367490053177,
                    0.01699032448232174,
                    0.0752483531832695,
                    -0.010371590033173561,
                    0.11309406161308289,
                    -0.14118753373622894,
                    0.062344543635845184,
                    0.04331846907734871
                ]
            ]
        },
        {
            "type": "dense",
            "activation": "",
            "shape": [
                null,
                1
            ],
            "weights": [
                [
                    [
                        0.7139531970024109
                    ],
                    [
                        0.3953695595264435
                    ],
                    [
                        0.48528236150741577
                    ],
                    [
                        0.16972161829471588
                    ],
                    [
                        0.5136755704879761
                    ],
                    [
                        0.27874353528022766
                    ],
                    [
                        -0.5788367986679077
                    ],
                    [
                        -0.278329461812973
                    ],
                    [
                        0.8496510982513428
                    ],
                    [
                        0.5645334124565125
                    ],
                    [
                        0.1663140505552292
                    ],
                    [
                        -0.6471160054206848
                    ],
                    [
                        0.9897599220275879
                    ],
                    [
                        0.9941796660423279
                    ],
                    [
                        -0.5139909386634827
                    ],
                    [
                        -0.5974525213241577
                    ]
                ],
                [
                    -0.011665656231343746
                ]
            ]
        }
    ]
}