{
    "in_shape": [
        null,
        2
    ],
    "layers": [
        {
            "type": "unknown",
            "activation": "",
            "shape": [
                [
                    null,
                    2
                ]
            ],
            "weights": []
        },
        {
            "type": "dense",
            "activation": "tanh",
            "shape": [
                null,
                16
            ],
            "weights": [
                [
                    [
                        -0.44565749168395996,
                        -0.19090886414051056,
                        -0.23944254219532013,
                        -0.33143290877342224,
                        -0.13017356395721436,
                        0.2430792897939682,
                        -0.5727707147598267,
                        0.6764236092567444,
                        -0.32783693075180054,
                        -0.3118860423564911,
                        -0.51828932762146,
                        -0.3727339208126068,
                        -0.6578904390335083,
                        0.28140440583229065,
                        -0.1893603801727295,
                        -0.008291028439998627
                    ],
                    [
                        -0.08831345289945602,
                        -0.0120915612205863,
                        0.09564109891653061,
                        -0.5274884700775146,
                        -0.07203616201877594,
                        -0.18497540056705475,
                        -1.0684961080551147,
                        -0.018491148948669434,
                        -0.09240461140871048,
                        0.05946698039770126,
                        -0.07299172133207321,
                        -0.11727168411016464,
                        -0.9192529916763306,
                        -0.001235096249729395,
                        -0.018090419471263885,
                        0.15351808071136475
                    ]
                ],
                [
                    0.41366925835609436,
                    0.06949304789304733,
                    -0.058007001876831055,
                    -0.29986461997032166,
                    0.0878523737192154,
                    -0.25014936923980713,
                    -0.7872197031974792,
                    0.27024173736572266,
                    0.2504027187824249,
                    -0.2656967043876648,
                    0.3738142251968384,
                    -0.015062219463288784,
                    -0.8537395000457764,
                    0.06108466535806656,
                    0.07772920280694962,
                    -0.1521151214838028
                ]
            ]
        },
        {
            "type": "dense",
            "activation": "tanh",
            "shape": [
                null,
                16
            ],
            "weights": [
                [
                    [
                        -0.08525600284337997,
                        -0.26306939125061035,
                        -0.6160905957221985,
                        -0.3904239237308502,
                        0.16186203062534332,
                        0.12915965914726257,
                        0.6694662570953369,
                        0.16418229043483734,
                        0.22005324065685272,
                        0.01099671982228756,
                        -0.2467280477285385,
                        -0.03786632418632507,
                        -0.23631902039051056,
                        0.016352511942386627,
                        0.35682445764541626,
                        0.14886750280857086
                    ],
                    [
                        0.5948060750961304,
                        0.4185403883457184,
                        -0.13726407289505005,
                        -0.5283167958259583,
                        -0.7944604754447937,
                        -0.4258115589618683,
                        -1.0987428426742554,
                        -0.3333941400051117,
                        0.03526945039629936,
                        -0.6270143389701843,
                        0.22108794748783112,
                        0.25266286730766296,
                        -0.507346510887146,
                        -0.0799785628914833,
                        0.9902089834213257,
                        -0.19854244589805603
                    ],
                    [
                        0.37046337127685547,
                        -0.6153712868690491,
                        0.4507879316806793,
                        -0.09675556421279907,
                        -0.005329114384949207,
                        0.3199167251586914,
                        -0.05741874873638153,
                        0.26597917079925537,
                        -0.0689091831445694,
                        0.2157568484544754,
                        -0.3137573301792145,
                        0.08152199536561966,
                        -0.012938792817294598,
                        -0.4129973351955414,
                        -0.04574037343263626,
                        0.04441269114613533
                    ],
                    [
                        -0.29210105538368225,
                        -0.16604791581630707,
                        0.4242279529571533,
                        -0.1800718456506729,
                        0.1230536699295044,
                        0.10747876018285751,
                        -0.3556313216686249,
                        0.02409781888127327,
                        -0.1270231008529663,
                        -0.3142336308956146,
                        -0.389581561088562,
                        -0.20461948215961456,
                        -0.11051201820373535,
                        0.10374946892261505,
                        -0.6594728231430054,
                        0.3144068717956543
                    ],
                    [
                        -0.020242173224687576,
                        0.28551629185676575,
                        0.16142572462558746,
                        0.18469683825969696,
                        0.32884135842323303,
                        0.4756679832935333,
                        0.29460108280181885,
                        0.31707000732421875,
                        0.2895411252975464,
                        -0.24520878493785858,
                        -0.030315037816762924,
                        0.13716459274291992,
                        0.20674066245555878,
                        -0.022660622373223305,
                        0.37846118211746216,
                        -0.23486292362213135
                    ],
                    [
                        -0.19464951753616333,
                        -0.028220390900969505,
                        -0.03825271502137184,
                        0.06790667027235031,
                        -0.4110080599784851,
                        0.24016036093235016,
                        0.16283485293388367,
                        -0.4692290127277374,
                        -0.220603346824646,
                        -0.0213336031883955,
                        0.3363202214241028,
                        -0.3647233545780182,
                        -0.08747361600399017,
                        -0.26636824011802673,
                        -0.13466672599315643,
                        -0.050323233008384705
                    ],
                    [
                        -0.04503168910741806,
                        0.16592803597450256,
                        0.32469409704208374,
                        -0.21556000411510468,
                        0.1888796091079712,
                        -0.1725042462348938,
                        0.23606957495212555,
                        -0.18698430061340332,
                        -0.023213306441903114,
                        0.29971083998680115,
                        0.2005733847618103,
                        0.403237521648407,
                        0.04994434490799904,
                        0.05306809023022652,
                        -0.251156210899353,
                        0.4776957631111145
                    ],
                    [
                        0.16745145618915558,
                        0.18863065540790558,
                        0.10416017472743988,
                        -0.20004820823669434,
                        0.12271337956190109,
                        -0.5524218082427979,
                        1.300212025642395,
                        0.635005533695221,
                        -0.3779992163181305,
                        -0.2724081575870514,
                        0.5602706670761108,
                        -0.15959863364696503,
                        -0.05273151397705078,
                        -0.13993266224861145,
                        -0.1461837738752365,
                        -0.27784788608551025
                    ],
                    [
                        -0.2067951112985611,
                        0.060792285948991776,
                        0.07872477918863297,
                        0.28280872106552124,
                        0.08812475949525833,
                        -0.2794617712497711,
                        0.1648295670747757,
                        0.15992701053619385,
                        0.13192281126976013,
                        0.4447857439517975,
                        -0.5812534093856812,
                        -0.22088289260864258,
                        -0.29672032594680786,
                        -0.28265181183815,
                        0.8766315579414368,
                        0.029921893030405045
                    ],
                    [
                        -0.309856116771698,
                        0.042897455394268036,
                        0.2140282243490219,
                        -0.09231317043304443,
                        0.1601572185754776,
                        0.09559936821460724,
                        -0.2546817660331726,
                        -0.3056963086128235,
                        0.3551945686340332,
                        -0.043947771191596985,
                        -0.3960825204849243,
                        0.24628090858459473,
                        -0.1663910299539566,
                        -0.9304673075675964,
                        -0.46713510155677795,
                        -0.026911957189440727
                    ],
                    [
                        -0.11082237213850021,
                        -0.602692723274231,
                        0.16148829460144043,
                        0.3003915846347809,
                        0.2503491938114166,
                        -0.16567745804786682,
                        -0.17534992098808289,
                        -0.010837210342288017,
                        0.5399540066719055,
                        0.0051912167109549046,
                        0.2794668972492218,
                        -0.02719004638493061,
                        -0.45127782225608826,
                        -0.13875573873519897,
                        0.554839015007019,
                        -0.16376134753227234
                    ],
                    [
                        -0.1700652688741684,
                        -0.09203295409679413,
                        0.04407186433672905,
                        -0.37445464730262756,
                        -0.2316129505634308,
                        -0.02623457834124565,
                        -0.17833398282527924,
                        -0.08858996629714966,
                        -0.029163623228669167,
                        0.3049769699573517,
                        -0.1806342452764511,
                        0.1771249771118164,
                        0.29960763454437256,
                        0.09520909190177917,
                        -0.12598170340061188,
                        -0.5739045143127441
                    ],
                    [
                        -0.05652422085404396,
                        0.010564266704022884,
                        0.02588261105120182,
                        0.2682003080844879,
                        -0.32614752650260925,
                        0.23010851442813873,
                        -0.055831387639045715,
                        0.27456343173980713,
                        -0.24161580204963684,
                        0.10351910442113876,
                        -0.1287388652563095,
                        0.6201107501983643,
                        -0.535307765007019,
                        -0.11675307154655457,
                        -0.6559858322143555,
                        0.07612940669059753
                    ],
                    [
                        -0.10519898682832718,
                        0.1770792007446289,
                        0.4811136722564697,
                        0.11843836307525635,
                        0.1653376668691635,
                        0.3716103732585907,
                        2.079741954803467,
                        0.38420507311820984,
                        0.4759705364704132,
                        0.5111944675445557,
                        -0.10197584331035614,
                        -0.6707825660705566,
                        0.1332632601261139,
                        0.5732369422912598,
                        -0.6256816387176514,
                        0.024725783616304398
                    ],
                    [
                        0.45474973320961,
                        0.4010927677154541,
                        -0.3835330605506897,
                        -0.41148555278778076,
                        0.05898458883166313,
                        -0.22311781346797943,
                        -0.8849245309829712,
                        -0.6331342458724976,
                        -0.7618656754493713,
                        -0.3482549488544464,
                        0.24317634105682373,
                        0.22765710949897766,
                        -0.7899835705757141,
                        0.12655283510684967,
                        0.7904565334320068,
                        -0.6442118883132935
                    ],
                    [
                        -0.5239976048469543,
                        -0.1892639845609665,
                        0.21084387600421906,
                        0.005171680357307196,
                        -0.17908157408237457,
                        -0.131715327501297,
                        0.42762815952301025,
                        0.0862666592001915,
                        -0.1367439180612564,
                        -0.2688710391521454,
                        -0.09418783336877823,
                        0.21411962807178497,
                        -0.030650345608592033,
                        0.2713184058666229,
                        0.040560606867074966,
                        -0.13773755729198456
                    ]
                ],
                [
                    -0.014803148806095123,
                    0.016593430191278458,
                    -0.015112919732928276,
                    -0.10359901934862137,
                    -0.010147498920559883,
                    0.02067381702363491,
                    -0.05806303769350052,
                    0.01492074504494667,
                    -0.029862316325306892,
                    0.01211711298674345,
                    0.1771509051322937,
                    -0.08658838272094727,
                    0.07692138850688934,
                    0.05517696216702461,
                    0.45240330696105957,
                    -0.006214367225766182
                ]
            ]
        },
        {
            "type": "dense",
            "activation": "tanh",
            "shape": [
                null,
                16
            ],
            "weights": [
                [
                    [
                        0.2927156388759613,
                        -0.6957767605781555,
                        0.06047673523426056,
                        0.13689222931861877,
                        -0.43978068232536316,
                        0.042509086430072784,
                        0.09183528274297714,
                        -0.5578942894935608,
                        0.12869484722614288,
                        -0.33410924673080444,
                        -0.25212326645851135,
                        -0.1955777257680893,
                        -0.05532076209783554,
                        -0.08385428041219711,
                        -0.02664269506931305,
                        0.2918924391269684
                    ],
                    [
                        -0.04904960095882416,
                        -0.6060940623283386,
                        0.028923718258738518,
                        0.4854000210762024,
                        -0.05099065974354744,
                        0.00041392736602574587,
                        0.6740416884422302,
                        0.22972504794597626,
                        0.12305718660354614,
                        0.29188087582588196,
                        -0.33388856053352356,
                        -0.11952982097864151,
                        -0.265127569437027,
                        -0.7062200307846069,
                        -0.1329054832458496,
                        -0.017977843061089516
                    ],
                    [
                        -0.1827845722436905,
                        0.24496233463287354,
                        -0.07650362700223923,
                        0.048860758543014526,
                        -0.10967729985713959,
                        0.39765864610671997,
                        -0.14941665530204773,
                        0.5484450459480286,
                        0.31933146715164185,
                        0.11805982887744904,
                        0.17615501582622528,
                        0.6586775183677673,
                        -0.12711653113365173,
                        0.8078194260597229,
                        0.6538143157958984,
                        0.15309558808803558
                    ],
                    [
                        -0.21811485290527344,
                        0.06822105497121811,
                        0.0569668672978878,
                        -0.61850905418396,
                        -0.07772406935691833,
                        0.3550018072128296,
                        0.09584107249975204,
                        0.10831103473901749,
                        0.04745211824774742,
                        -0.12745602428913116,
                        0.21414212882518768,
                        0.17219692468643188,
                        0.5347460508346558,
                        0.4430074095726013,
                        0.5316420197486877,
                        -0.5099356174468994
                    ],
                    [
                        -0.11002803593873978,
                        0.3314754068851471,
                        0.8523648977279663,
                        -0.872687816619873,
                        0.4803234338760376,
                        0.45411381125450134,
                        -0.743103563785553,
                        0.7769559621810913,
                        0.5367556810379028,
                        -0.529366135597229,
                        -0.17798210680484772,
                        0.21822652220726013,
                        0.11580399423837662,
                        0.7910747528076172,
                        0.24140721559524536,
                        -0.7703579068183899
                    ],
                    [
                        -0.34126943349838257,
                        0.03979155421257019,
                        0.14692817628383636,
                        -0.5023114085197449,
                        0.17300410568714142,
                        -0.19260399043560028,
                        0.14890341460704803,
                        -0.21238824725151062,
                        0.47328639030456543,
                        0.17196333408355713,
                        0.36359381675720215,
                        0.03637026250362396,
                        -0.008773435838520527,
                        0.5232824087142944,
                        0.1751004308462143,
                        0.010081683285534382
                    ],
                    [
                        0.35531550645828247,
                        -0.235170379281044,
                        0.7777795791625977,
                        -0.025342648848891258,
                        0.3985540270805359,
                        0.06973430514335632,
                        0.05688066408038139,
                        -0.17136354744434357,
                        -0.11530262976884842,
                        0.09552554786205292,
                        0.2978406548500061,
                        0.1579987108707428,
                        -0.15999135375022888,
                        -0.766261637210846,
                        0.014814965426921844,
                        0.16228745877742767
                    ],
                    [
                        0.08571333438158035,
                        0.3608870506286621,
                        0.2260139435529709,
                        0.06558190286159515,
                        -0.27637550234794617,
                        0.02264014445245266,
                        -0.20960624516010284,
                        0.5702987909317017,
                        0.39503213763237,
                        -0.558951735496521,
                        0.5195004343986511,
                        0.13907139003276825,
                        -0.10295098274946213,
                        -0.2914668619632721,
                        0.06622234731912613,
                        -0.26703402400016785
                    ],
                    [
                        -0.5770049095153809,
                        0.2023582011461258,
                        0.2945926785469055,
                        -0.5704517364501953,
                        0.4265708327293396,
                        0.3021928071975708,
                        -0.9409007430076599,
                        -0.0015459052519872785,
                        0.2529158592224121,
                        -0.50482577085495,
                        0.3212556540966034,
                        1.0256284475326538,
                        0.12601536512374878,
                        0.6286961436271667,
                        -0.025667669251561165,
                        -1.0544513463974
                    ],
                    [
                        -0.9908640384674072,
                        0.5319127440452576,
                        0.7535940408706665,
                        -0.2752208709716797,
                        0.36035406589508057,
                        0.7274556756019592,
                        -0.43753790855407715,
                        0.2078397572040558,
                        0.025487104430794716,
                        -0.5011289119720459,
                        0.2517940104007721,
                        0.08206282556056976,
                        -0.008673552423715591,
                        0.555117130279541,
                        0.47573086619377136,
                        -0.4363836348056793
                    ],
                    [
                        0.13173286616802216,
                        -0.07977571338415146,
                        0.18824124336242676,
                        0.11417816579341888,
                        0.07279197126626968,
                        -0.4352991580963135,
                        -0.119695745408535,
                        0.05729558691382408,
                        -0.055100973695516586,
                        -0.44153520464897156,
                        -0.534471869468689,
                        0.2525500953197479,
                        0.18710094690322876,
                        -0.7784480452537537,
                        0.27167803049087524,
                        0.2783079743385315
                    ],
                    [
                        0.05735904723405838,
                        -0.22458204627037048,
                        -0.7405796647071838,
                        -0.427423894405365,
                        -0.536260187625885,
                        -0.09965715557336807,
                        0.33257150650024414,
                        0.022869594395160675,
                        -0.6282171607017517,
                        0.21415795385837555,
                        -0.01977669633924961,
                        -0.004654180258512497,
                        -0.4853733777999878,
                        -0.11205825209617615,
                        0.009855087846517563,
                        0.07625626772642136
                    ],
                    [
                        -0.014632496051490307,
                        0.06982272863388062,
                        0.681062638759613,
                        0.2887378931045532,
                        0.01853511668741703,
                        -0.4696075916290283,
                        0.330849289894104,
                        0.04722125455737114,
                        -0.07435993105173111,
                        -0.15203702449798584,
                        0.008759843185544014,
                        0.053086817264556885,
                        -0.013934317976236343,
                        0.31573614478111267,
                        0.37828680872917175,
                        -0.210188627243042
                    ],
                    [
                        -0.2463751584291458,
                        -0.05007762461900711,
                        0.9931201338768005,
                        0.017747052013874054,
                        -0.3712688386440277,
                        -0.034272536635398865,
                        0.15553046762943268,
                        -0.06418673694133759,
                        -0.0763196051120758,
                        0.23228789865970612,
                        -0.14561237394809723,
                        0.11318090558052063,
                        0.26568615436553955,
                        -0.12309259176254272,
                        -0.424699068069458,
                        0.3789342939853668
                    ],
                    [
                        -0.033686570823192596,
                        -0.5272611975669861,
                        0.18344031274318695,
                        -0.2924324870109558,
                        0.11008850485086441,
                        -0.10456335544586182,
                        -1.5410040616989136,
                        -0.14113633334636688,
                        -0.050251685082912445,
                        0.13630090653896332,
                        0.013650104403495789,
                        -0.14216017723083496,
                        -0.10477504879236221,
                        -0.032349277287721634,
                        0.15683205425739288,
                        -0.6456306576728821
                    ],
                    [
                        -0.3491751253604889,
                        -0.15550819039344788,
                        0.07814271003007889,
                        -0.09893573075532913,
                        0.3956320881843567,
                        0.18202443420886993,
                        0.1250811219215393,
                        0.46828627586364746,
                        -0.1735844910144806,
                        -0.4614567458629608,
                        0.49774035811424255,
                        0.10712545365095139,
                        0.2638590335845947,
                        0.8349099159240723,
                        -0.05048825964331627,
                        -0.014986303634941578
                    ]
                ],
                [
                    -0.04907407984137535,
                    -0.048004861921072006,
                    0.08398052304983139,
                    -0.06837701797485352,
                    -0.04325815662741661,
                    -0.07506274431943893,
                    -0.0015624548541381955,
                    0.0042678723111748695,
                    1.64368702826323e-05,
                    -0.03345714136958122,
                    -0.03597172349691391,
                    -0.028910307213664055,
                    0.062408480793237686,
                    -0.023560328409075737,
                    -0.0022848034277558327,
                    0.09800702333450317
                ]
            ]
        },
        {
            "type": "dense",
            "activation": "",
            "shape": [
                null,
                1
            ],
            "weights": [
                [
                    [
                        -0.31752097606658936
                    ],
                    [
                        0.8324321508407593
                    ],
                    [
                        0.6963711977005005
                    ],
                    [
                        -0.2569762170314789
                    ],
                    [
                        0.6629964709281921
                    ],
                    [
                        0.5025693774223328
                    ],
                    [
                        -0.5076717734336853
                    ],
                    [
                        0.3945891857147217
                    ],
                    [
                        0.38602587580680847
                    ],
                    [
                        -0.5909029841423035
                    ],
                    [
                        0.8553856015205383
                    ],
                    [
                        0.624402642250061
                    ],
                    [
                        0.036853596568107605
                    ],
                    [
                        0.9168614745140076
                    ],
                    [
                        0.8419371247291565
                    ],
                    [
                        -0.6132625341415405
                    ]
                ],
                [
                    0.005000704899430275
                ]
            ]
        }
    ]
}