{
    "in_shape": [
        null,
        2
    ],
    "layers": [
        {
            "type": "unknown",
            "activation": "",
            "shape": [
                [
                    null,
                    2
                ]
            ],
            "weights": []
        },
        {
            "type": "dense",
            "activation": "tanh",
            "shape": [
                null,
                16
            ],
            "weights": [
                [
                    [
                        -1.039719581604004,
                        0.17999950051307678,
                        0.04007798060774803,
                        0.31412437558174133,
                        -0.16329868137836456,
                        1.046076774597168,
                        -0.1939791440963745,
                        -0.7713984251022339,
                        0.057898543775081635,
                        0.3233335018157959,
                        -0.30228686332702637,
                        0.5612320303916931,
                        -0.2561282813549042,
                        -0.26791971921920776,
                        0.5584207773208618,
                        0.05888873711228371
                    ],
                    [
                        -0.09306807816028595,
                        0.005782824940979481,
                        -0.16532884538173676,
                        -0.057942748069763184,
                        -0.14008410274982452,
                        0.12302783876657486,
                        0.32661303877830505,
                        0.027642633765935898,
                        0.6919646859169006,
                        0.09669448435306549,
                        0.15311084687709808,
                        0.05183148756623268,
                        -0.008190580643713474,
                        -0.01142757385969162,
                        -0.009354114532470703,
                        0.38700905442237854
                    ]
                ],
                [
                    0.8267647624015808,
                    -0.01128500048071146,
                    0.06350839138031006,
                    0.16983136534690857,
                    0.17162054777145386,
                    -0.15482325851917267,
                    0.04991989582777023,
                    0.10011903941631317,
                    0.12690147757530212,
                    -0.5749193429946899,
                    -0.1468977928161621,
                    -0.30770519375801086,
                    0.013475818559527397,
                    -0.0012366834562271833,
                    0.3176949620246887,
                    0.21599885821342468
                ]
            ]
        },
        {
            "type": "dense",
            "activation": "tanh",
            "shape": [
                null,
                16
            ],
            "weights": [
                [
                    [
                        -0.11198785156011581,
                        0.13409289717674255,
                        0.40942731499671936,
                        -0.1599700152873993,
                        -0.017884155735373497,
                        -0.1779782772064209,
                        0.35855919122695923,
                        -0.4277679920196533,
                        -0.44979533553123474,
                        0.20214514434337616,
                        -0.30724602937698364,
                        -0.05239131301641464,
                        0.13960769772529602,
                        -0.6992084383964539,
                        -0.09795144945383072,
                        -1.2182281017303467
                    ],
                    [
                        -0.2010352909564972,
                        0.009020566940307617,
                        0.40657153725624084,
                        0.2990642488002777,
                        0.6051257848739624,
                        -0.20214302837848663,
                        0.3482365906238556,
                        -0.8399405479431152,
                        -0.5579946041107178,
                        -0.5780678391456604,
                        0.06399433314800262,
                        0.07401226460933685,
                        0.47641193866729736,
                        0.6741397380828857,
                        -0.3880520164966583,
                        -0.031342774629592896
                    ],
                    [
                        0.11286374181509018,
                        0.2691117227077484,
                        0.10824573040008545,
                        0.1390053629875183,
                        -0.07388285547494888,
                        -0.5379656553268433,
                        0.296269029378891,
                        -0.05328173190355301,
                        -0.1757049709558487,
                        0.05705931410193443,
                        0.4184199273586273,
                        0.06054404005408287,
                        0.025401748716831207,
                        -0.3231131136417389,
                        0.3748370110988617,
                        0.12702247500419617
                    ],
                    [
                        0.617081344127655,
                        -0.10635461658239365,
                        -0.2464381456375122,
                        -0.12185650318861008,
                        -0.09423433244228363,
                        0.027542708441615105,
                        0.019155841320753098,
                        -0.480431467294693,
                        0.34617140889167786,
                        -0.06339242309331894,
                        -0.7560733556747437,
                        0.06883396208286285,
                        -0.015757491812109947,
                        -0.5779851078987122,
                        0.1496317982673645,
                        0.2600901126861572
                    ],
                    [
                        -0.2659023404121399,
                        -0.11602246016263962,
                        -0.04180474951863289,
                        0.6798682808876038,
                        -0.26742032170295715,
                        -0.3634813129901886,
                        -0.33086636662483215,
                        -0.1001889556646347,
                        0.11717354506254196,
                        -0.07574376463890076,
                        -0.2544303238391876,
                        -0.09447462111711502,
                        0.24538521468639374,
                        -0.27730852365493774,
                        -0.038925252854824066,
                        -0.29303833842277527
                    ],
                    [
                        0.13444240391254425,
                        0.47748953104019165,
                        0.07420223206281662,
                        -0.11794392764568329,
                        0.2694821059703827,
                        -0.19555267691612244,
                        -0.39904847741127014,
                        -0.3132360279560089,
                        0.40841376781463623,
                        -0.1401897370815277,
                        -0.0905611589550972,
                        -0.4321533441543579,
                        -0.0034292656928300858,
                        0.4803082048892975,
                        0.22163347899913788,
                        -0.016877824440598488
                    ],
                    [
                        0.10608626157045364,
                        -0.047840528190135956,
                        -0.1459595263004303,
                        0.036886826157569885,
                        0.0674636960029602,
                        -0.40776994824409485,
                        0.29063236713409424,
                        0.3887646198272705,
                        0.21962150931358337,
                        0.20372380316257477,
                        -0.0693383663892746,
                        -0.015288612805306911,
                        0.44687092304229736,
                        0.12086057662963867,
                        -0.06163506954908371,
                        -0.2722559869289398
                    ],
                    [
                        0.3066593110561371,
                        0.44604068994522095,
                        0.08811546117067337,
                        0.0022872702684253454,
                        -0.9612149596214294,
                        0.039036840200424194,
                        -0.029211262241005898,
                        1.0730830430984497,
                        0.2219158411026001,
                        -0.40748849511146545,
                        0.20159971714019775,
                        0.34272414445877075,
                        -0.01971917226910591,
                        0.1661033183336258,
                        -0.2712455987930298,
                        -0.3936099112033844
                    ],
                    [
                        0.356836199760437,
                        0.09173561632633209,
                        0.18151213228702545,
                        0.4756712317466736,
                        -0.07168085873126984,
                        0.09483776986598969,
                        0.1852489709854126,
                        -0.1132080927491188,
                        -0.4066186547279358,
                        -0.10505913943052292,
                        -0.23265737295150757,
                        -0.2835068106651306,
                        -0.3154737055301666,
                        -0.07440889626741409,
                        0.03790721669793129,
                        -0.0488584004342556
                    ],
                    [
                        -0.3335784673690796,
                        0.10058945417404175,
                        -0.3006884753704071,
                        -0.22236576676368713,
                        -0.21746225655078888,
                        -0.3893681764602661,
                        0.1705438494682312,
                        -0.2222566455602646,
                        -0.21187861263751984,
                        0.09898263216018677,
                        -0.15776655077934265,
                        0.11729177087545395,
                        -0.5669475793838501,
                        0.7816805839538574,
                        -0.13928501307964325,
                        0.558151125907898
                    ],
                    [
                        0.07910174876451492,
                        0.04077921062707901,
                        0.13163617253303528,
                        -0.18716159462928772,
                        0.1566828489303589,
                        -0.2921209931373596,
                        -0.32765859365463257,
                        0.0446864552795887,
                        -0.5107624530792236,
                        -0.03659262880682945,
                        -0.12314800173044205,
                        0.2997075915336609,
                        0.14015240967273712,
                        0.0031346087343990803,
                        -0.30411019921302795,
                        0.2586694657802582
                    ],
                    [
                        0.08461189270019531,
                        -0.5608912706375122,
                        0.3653283417224884,
                        -0.36683347821235657,
                        -0.17912694811820984,
                        -0.1510709822177887,
                        -0.24185477197170258,
                        -0.020332662388682365,
                        -0.0036511237267404795,
                        0.19021597504615784,
                        -0.05345185101032257,
                        0.3555167615413666,
                        -0.35388073325157166,
                        0.8329762816429138,
                        0.5316236615180969,
                        0.26260682940483093
                    ],
                    [
                        0.4608262777328491,
                        0.08790775388479233,
                        -0.8718820810317993,
                        -0.20001818239688873,
                        -0.3122811019420624,
                        0.27857986092567444,
                        -0.4084368050098419,
                        0.5674277544021606,
                        0.34252649545669556,
                        -0.17262999713420868,
                        -0.2280069887638092,
                        0.6728713512420654,
                        -0.36094582080841064,
                        -0.24024079740047455,
                        0.5159085392951965,
                        -0.4079742729663849
                    ],
                    [
                        0.709466814994812,
                        0.18529470264911652,
                        -0.27788934111595154,
                        0.03949150815606117,
                        -0.5248966813087463,
                        0.352418452501297,
                        -0.4714353382587433,
                        0.243338942527771,
                        0.7904241681098938,
                        0.6168733835220337,
                        0.01103260274976492,
                        0.6113733649253845,
                        -0.2937053442001343,
                        -0.145776629447937,
                        -0.04537585750222206,
                        0.004109018947929144
                    ],
                    [
                        0.42809998989105225,
                        -0.6689717173576355,
                        -0.25033560395240784,
                        -0.16259203851222992,
                        0.12910887598991394,
                        -0.29519349336624146,
                        -0.10000315308570862,
                        -1.355787992477417,
                        0.05966680496931076,
                        -0.13120919466018677,
                        0.06162910908460617,
                        -0.49777624011039734,
                        -0.198532834649086,
                        -0.5557825565338135,
                        -0.30736392736434937,
                        -0.37427088618278503
                    ],
                    [
                        0.15104207396507263,
                        -0.023309847339987755,
                        -0.2768726646900177,
                        -0.2098093181848526,
                        -0.5045927166938782,
                        0.18876749277114868,
                        -0.03698533773422241,
                        -0.4917745292186737,
                        -0.15772724151611328,
                        0.06072169542312622,
                        0.08689601719379425,
                        -0.13637301325798035,
                        0.3988473117351532,
                        0.034995999187231064,
                        0.27184030413627625,
                        0.1083555519580841
                    ]
                ],
                [
                    0.00583077734336257,
                    0.046731073409318924,
                    0.0007753082318231463,
                    -0.0017944460269063711,
                    -0.07899154722690582,
                    0.029881149530410767,
                    0.002423805883154273,
                    -0.20675130188465118,
                    0.0864141583442688,
                    -0.06937728822231293,
                    -0.0059946319088339806,
                    0.05932769924402237,
                    -0.047538746148347855,
                    -0.27985137701034546,
                    0.0268679391592741,
                    -0.0514371395111084
                ]
            ]
        },
        {
            "type": "dense",
            "activation": "tanh",
            "shape": [
                null,
                16
            ],
            "weights": [
                [
                    [
                        -0.25566813349723816,
                        -0.1944114714860916,
                        -0.5239348411560059,
                        -0.2923744320869446,
                        -0.25875163078308105,
                        0.12784124910831451,
                        0.06261899322271347,
                        0.43565884232521057,
                        -0.7186439633369446,
                        -0.8765183687210083,
                        0.6643996238708496,
                        0.18573850393295288,
                        -0.33165234327316284,
                        0.47103002667427063,
                        -0.5514702200889587,
                        -0.035138268023729324
                    ],
                    [
                        -0.20789623260498047,
                        0.2503263056278229,
                        -0.33858808875083923,
                        -0.318986713886261,
                        0.4140922725200653,
                        0.10183733701705933,
                        0.014078442938625813,
                        -0.30953195691108704,
                        -0.04052867367863655,
                        0.2311074137687683,
                        -0.46454954147338867,
                        -0.5157095789909363,
                        0.038542233407497406,
                        0.16140645742416382,
                        0.3290613889694214,
                        0.5250013470649719
                    ],
                    [
                        0.14712058007717133,
                        0.327499121427536,
                        0.32936039566993713,
                        -0.0630016028881073,
                        0.8945534229278564,
                        0.2235129475593567,
                        -0.2500418424606323,
                        -0.1987505406141281,
                        1.5393717288970947,
                        0.05721885710954666,
                        0.2567400634288788,
                        -0.5824676752090454,
                        0.1427045464515686,
                        -0.5194275379180908,
                        0.48375335335731506,
                        0.3318484127521515
                    ],
                    [
                        0.21263179183006287,
                        0.3112920820713043,
                        -0.036485884338617325,
                        0.2834790050983429,
                        0.40314117074012756,
                        -0.1470857411623001,
                        0.3262871205806732,
                        -0.5659266710281372,
                        -0.037692781537771225,
                        -0.2756700813770294,
                        -0.08260567486286163,
                        -0.023359335958957672,
                        0.22045302391052246,
                        0.45052000880241394,
                        0.012062969617545605,
                        0.08634985983371735
                    ],
                    [
                        0.03837215527892113,
                        0.16903898119926453,
                        0.49274224042892456,
                        0.32650429010391235,
                        0.061110969632864,
                        -0.09810025244951248,
                        -0.42915546894073486,
                        0.18971826136112213,
                        0.2764630913734436,
                        -0.5667113661766052,
                        -0.3439282774925232,
                        0.6101536750793457,
                        0.08441602438688278,
                        -0.29719656705856323,
                        0.2309809774160385,
                        0.5108209252357483
                    ],
                    [
                        0.5429731011390686,
                        -0.3798889219760895,
                        -0.379494845867157,
                        -0.25444692373275757,
                        0.298334002494812,
                        -0.29773810505867004,
                        0.43123242259025574,
                        0.4669172167778015,
                        -0.98876953125,
                        0.018567804247140884,
                        0.11394555866718292,
                        0.19819743931293488,
                        -0.6705203652381897,
                        0.6634401679039001,
                        -0.153453528881073,
                        -0.3166535794734955
                    ],
                    [
                        -0.11529399454593658,
                        -0.41980084776878357,
                        -0.03853621333837509,
                        0.4195568561553955,
                        0.6252763271331787,
                        -0.13948145508766174,
                        -0.4059368968009949,
                        -0.2943189740180969,
                        0.5961143374443054,
                        0.1791856735944748,
                        -0.0913318544626236,
                        -0.07985405623912811,
                        0.2654759883880615,
                        -0.10096791386604309,
                        0.03877219185233116,
                        0.3636191189289093
                    ],
                    [
                        -0.19695428013801575,
                        0.17023324966430664,
                        -0.16401956975460052,
                        0.18874803185462952,
                        0.22147566080093384,
                        0.2790144383907318,
                        0.9112234115600586,
                        0.06224546954035759,
                        -0.3025144636631012,
                        1.4826468229293823,
                        0.18570756912231445,
                        -0.07328695803880692,
                        -0.09427481144666672,
                        -0.2118961364030838,
                        0.1522115170955658,
                        0.43776416778564453
                    ],
                    [
                        0.37801578640937805,
                        -0.08679097145795822,
                        -0.02334713377058506,
                        -0.3058503568172455,
                        0.21797117590904236,
                        -0.15178044140338898,
                        -0.12171842157840729,
                        -0.19495642185211182,
                        -0.9075688719749451,
                        -0.23778735101222992,
                        0.3156149983406067,
                        0.13886380195617676,
                        0.33436205983161926,
                        -0.12667839229106903,
                        0.3449035882949829,
                        -0.07027668505907059
                    ],
                    [
                        -0.01373070478439331,
                        0.14927056431770325,
                        -0.14871951937675476,
                        -0.11154287308454514,
                        -0.1946430802345276,
                        -0.7567580342292786,
                        0.12249749153852463,
                        0.19647632539272308,
                        -0.21737468242645264,
                        -0.2646006643772125,
                        0.17406047880649567,
                        0.11558202654123306,
                        0.0672520324587822,
                        -0.1801304966211319,
                        -0.712644100189209,
                        -0.018468566238880157
                    ],
                    [
                        0.16275654733181,
                        0.21119198203086853,
                        -0.3872480094432831,
                        0.2999984323978424,
                        0.2924898564815521,
                        0.06076636537909508,
                        0.29554620385169983,
                        0.3107750415802002,
                        -0.17353084683418274,
                        0.29662996530532837,
                        -0.27250951528549194,
                        -0.5199798345565796,
                        -0.03568520396947861,
                        -0.3436346650123596,
                        0.15589860081672668,
                        -0.16355617344379425
                    ],
                    [
                        0.25863537192344666,
                        0.06908608227968216,
                        -0.9051402807235718,
                        0.0028427811339497566,
                        -0.3693411648273468,
                        -0.2816004753112793,
                        0.510309636592865,
                        0.353536456823349,
                        -0.19231213629245758,
                        0.439009428024292,
                        0.4710245728492737,
                        0.048468951135873795,
                        -0.11839951574802399,
                        0.5415430068969727,
                        0.2956903576850891,
                        -0.10409891605377197
                    ],
                    [
                        -0.5151174068450928,
                        0.37991487979888916,
                        0.34708839654922485,
                        0.31578677892684937,
                        0.5572106838226318,
                        -0.3401835560798645,
                        -0.5282559990882874,
                        -0.9628989696502686,
                        0.1651700884103775,
                        0.1923358142375946,
                        -0.02458370104432106,
                        -0.5205402374267578,
                        -0.40913403034210205,
                        -0.2831936776638031,
                        0.6909797191619873,
                        0.3364441394805908
                    ],
                    [
                        -0.3781995475292206,
                        0.4798486828804016,
                        0.30647239089012146,
                        0.23929788172245026,
                        0.4113912880420685,
                        0.1828487664461136,
                        -0.3241976797580719,
                        0.07538452744483948,
                        -0.05970323085784912,
                        0.1914781630039215,
                        0.06222940981388092,
                        -0.013631768524646759,
                        0.1738055795431137,
                        0.15644484758377075,
                        0.001842681784182787,
                        -0.2932322323322296
                    ],
                    [
                        0.18598979711532593,
                        -0.17252787947654724,
                        -0.8932458162307739,
                        -0.335471510887146,
                        -0.4489869773387909,
                        0.2319451868534088,
                        0.1101052388548851,
                        0.1777278482913971,
                        -0.4019054174423218,
                        -0.23450760543346405,
                        0.2279861569404602,
                        0.6788334250450134,
                        -0.49873286485671997,
                        0.059574637562036514,
                        -0.7408435344696045,
                        -0.411696195602417
                    ],
                    [
                        0.4062701463699341,
                        0.1722809374332428,
                        0.14579468965530396,
                        0.346559077501297,
                        -0.005853952374309301,
                        0.3531288504600525,
                        0.020836463198065758,
                        -0.0950000137090683,
                        -0.25759652256965637,
                        0.29603707790374756,
                        -0.11780331283807755,
                        -0.5384316444396973,
                        0.18751591444015503,
                        -0.010903529822826385,
                        -0.04331106320023537,
                        0.3846162259578705
                    ]
                ],
                [
                    -0.19318807125091553,
                    -0.08532191067934036,
                    -0.13890300691127777,
                    -0.009385699406266212,
                    -0.055119458585977554,
                    0.024301491677761078,
                    0.013579174876213074,
                    0.03580700606107712,
                    0.08953133225440979,
                    -0.014791817404329777,
                    0.05111255124211311,
                    0.05354652926325798,
                    -0.04362119734287262,
                    -0.017816437408328056,
                    -0.006071773823350668,
                    -0.06633319705724716
                ]
            ]
        },
        {
            "type": "dense",
            "activation": "",
            "shape": [
                null,
                1
            ],
            "weights": [
                [
                    [
                        -0.20360654592514038
                    ],
                    [
                        0.21268273890018463
                    ],
                    [
                        0.39658603072166443
                    ],
                    [
                        0.3028600215911865
                    ],
                    [
                        0.8671781420707703
                    ],
                    [
                        0.06415002793073654
                    ],
                    [
                        -0.30257561802864075
                    ],
                    [
                        -1.1527515649795532
                    ],
                    [
                        0.8740466237068176
                    ],
                    [
                        0.3342818319797516
                    ],
                    [
                        -0.9811028242111206
                    ],
                    [
                        -0.6988644003868103
                    ],
                    [
                        0.2951722741127014
                    ],
                    [
                        -0.6478814482688904
                    ],
                    [
                        0.5814419984817505
                    ],
                    [
                        1.184813380241394
                    ]
                ],
                [
                    -0.053903911262750626
                ]
            ]
        }
    ]
}