{
    "in_shape": [
        null,
        2
    ],
    "layers": [
        {
            "type": "unknown",
            "activation": "",
            "shape": [
                [
                    null,
                    2
                ]
            ],
            "weights": []
        },
        {
            "type": "dense",
            "activation": "tanh",
            "shape": [
                null,
                4
            ],
            "weights": [
                [
                    [
                        -0.2083919495344162,
                        0.3318161964416504,
                        0.504557728767395,
                        -1.2755353450775146
                    ],
                    [
                        -0.00039175577694550157,
                        0.0604715421795845,
                        -0.07321172207593918,
                        -0.08677525818347931
                    ]
                ],
                [
                    0.0685194656252861,
                    0.015841051936149597,
                    0.123649962246418,
                    0.4301656186580658
                ]
            ]
        },
        {
            "type": "dense",
            "activation": "tanh",
            "shape": [
                null,
                4
            ],
            "weights": [
                [
                    [
                        -1.085983157157898,
                        0.9532195925712585,
                        1.187255620956421,
                        0.4198530316352844
                    ],
                    [
                        -0.32625430822372437,
                        0.5804676413536072,
                        -0.3933444023132324,
                        0.48124247789382935
                    ],
                    [
                        -0.4124724864959717,
                        0.6691504120826721,
                        0.2777898609638214,
                        -1.1218193769454956
                    ],
                    [
                        -0.6636336445808411,
                        -0.39648520946502686,
                        -0.25435224175453186,
                        -0.10490033775568008
                    ]
                ],
                [
                    0.1370919942855835,
                    -0.035510770976543427,
                    0.10354534536600113,
                    -0.49557390809059143
                ]
            ]
        },
        {
            "type": "dense",
            "activation": "tanh",
            "shape": [
                null,
                4
            ],
            "weights": [
                [
                    [
                        -0.5725666284561157,
                        -1.3836479187011719,
                        0.9392153024673462,
                        0.07488274574279785
                    ],
                    [
                        0.8881568312644958,
                        1.05130934715271,
                        -0.9830873012542725,
                        1.8869518041610718
                    ],
                    [
                        0.10539818555116653,
                        0.5777199268341064,
                        -1.9311761856079102,
                        1.26093590259552
                    ],
                    [
                        1.0389196872711182,
                        0.4341840147972107,
                        0.19102519750595093,
                        -0.3094896376132965
                    ]
                ],
                [
                    -0.09719235450029373,
                    0.1519678831100464,
                    -0.092556893825531,
                    -0.12133704125881195
                ]
            ]
        },
        {
            "type": "dense",
            "activation": "",
            "shape": [
                null,
                1
            ],
            "weights": [
                [
                    [
                        -2.338773488998413
                    ],
                    [
                        -1.3829885721206665
                    ],
                    [
                        1.4928380250930786
                    ],
                    [
                        -0.9012655019760132
                    ]
                ],
                [
                    -0.07697238028049469
                ]
            ]
        }
    ]
}