{
    "in_shape": [
        null,
        2
    ],
    "layers": [
        {
            "type": "unknown",
            "activation": "",
            "shape": [
                [
                    null,
                    2
                ]
            ],
            "weights": []
        },
        {
            "type": "dense",
            "activation": "tanh",
            "shape": [
                null,
                16
            ],
            "weights": [
                [
                    [
                        -0.24364455044269562,
                        -0.6114346981048584,
                        0.08084362000226974,
                        -0.5860092043876648,
                        0.1871054321527481,
                        0.5397374033927917,
                        0.27413052320480347,
                        0.16663634777069092,
                        0.4374507963657379,
                        -0.18652649223804474,
                        -0.9217464327812195,
                        -0.31988686323165894,
                        0.660323441028595,
                        -0.12344419211149216,
                        0.23172259330749512,
                        0.7728027105331421
                    ],
                    [
                        -0.009333107620477676,
                        0.8731945753097534,
                        0.5053645968437195,
                        0.01037436444312334,
                        0.14669078588485718,
                        -0.1880616843700409,
                        0.00460315914824605,
                        -0.016984613612294197,
                        0.052802495658397675,
                        -0.06876330077648163,
                        -0.05735508352518082,
                        0.05487363412976265,
                        -0.03392728045582771,
                        -0.03326727822422981,
                        -0.002066455315798521,
                        -0.032811470329761505
                    ]
                ],
                [
                    0.09729200601577759,
                    0.35726720094680786,
                    0.5747528672218323,
                    -0.09781103581190109,
                    0.10619515180587769,
                    -0.4142216145992279,
                    -0.11981100589036942,
                    0.20520806312561035,
                    -0.07673066854476929,
                    0.03215682506561279,
                    0.33377236127853394,
                    -0.08989676833152771,
                    0.08046173304319382,
                    0.09199140220880508,
                    0.05511428788304329,
                    0.336366206407547
                ]
            ]
        },
        {
            "type": "dense",
            "activation": "tanh",
            "shape": [
                null,
                16
            ],
            "weights": [
                [
                    [
                        0.723044753074646,
                        -0.05323904752731323,
                        -0.6314839124679565,
                        0.14924059808254242,
                        -0.44524598121643066,
                        -0.3188195824623108,
                        -0.09131836891174316,
                        0.5231011509895325,
                        0.1349293291568756,
                        -0.7257446050643921,
                        -0.6632114052772522,
                        -0.11294550448656082,
                        0.25987759232521057,
                        0.5885846614837646,
                        -0.288953572511673,
                        -0.6190687417984009
                    ],
                    [
                        0.17054058611392975,
                        0.12614697217941284,
                        -0.24862274527549744,
                        -0.045642174780368805,
                        0.10216940939426422,
                        -0.12061476707458496,
                        -0.21701958775520325,
                        0.091812364757061,
                        0.07267534732818604,
                        0.038183100521564484,
                        -0.36313071846961975,
                        0.05625231936573982,
                        0.27007028460502625,
                        -0.45030367374420166,
                        -0.04368848726153374,
                        0.6705309152603149
                    ],
                    [
                        0.11365392804145813,
                        -0.06690634787082672,
                        0.043875809758901596,
                        0.1372660994529724,
                        -0.42536303400993347,
                        0.0021919491700828075,
                        0.15355971455574036,
                        0.23257780075073242,
                        -0.004074146039783955,
                        0.07300037145614624,
                        -0.1762879341840744,
                        0.2371218204498291,
                        -0.30523985624313354,
                        0.3508904278278351,
                        0.46146535873413086,
                        0.3395090401172638
                    ],
                    [
                        0.01597970351576805,
                        0.3963066339492798,
                        -0.21675986051559448,
                        0.36697641015052795,
                        -0.12218185514211655,
                        -0.11121370643377304,
                        0.6231439709663391,
                        -0.03376114368438721,
                        -0.10481768101453781,
                        -0.9066253900527954,
                        -0.11942450702190399,
                        -0.4853954613208771,
                        0.13563625514507294,
                        -0.10011830180883408,
                        0.366123765707016,
                        -0.6473562717437744
                    ],
                    [
                        -0.0657203271985054,
                        -0.037115003913640976,
                        -0.21048475801944733,
                        0.15620461106300354,
                        0.41436806321144104,
                        -0.367496520280838,
                        -0.08762416243553162,
                        0.28054317831993103,
                        0.2122957706451416,
                        0.18623991310596466,
                        0.042631495743989944,
                        0.3024216592311859,
                        0.23621778190135956,
                        0.023537682369351387,
                        0.4701652228832245,
                        -0.30020871758461
                    ],
                    [
                        0.28278326988220215,
                        -0.04512815549969673,
                        0.46506330370903015,
                        0.08515243977308273,
                        0.3654975891113281,
                        -0.19055067002773285,
                        -0.09765944629907608,
                        -0.05526825785636902,
                        -0.21931228041648865,
                        -0.30358999967575073,
                        0.040255479514598846,
                        -0.5790063738822937,
                        0.176296204328537,
                        0.33155563473701477,
                        0.1336241066455841,
                        0.07095102965831757
                    ],
                    [
                        -0.3236926198005676,
                        0.31772857904434204,
                        0.5422587394714355,
                        -0.5572789311408997,
                        0.36771708726882935,
                        0.5549511909484863,
                        -0.35171616077423096,
                        -0.9778679013252258,
                        0.36081957817077637,
                        0.04755903035402298,
                        0.8891032338142395,
                        0.4245440363883972,
                        0.03731046989560127,
                        -0.07125531882047653,
                        0.3477175831794739,
                        0.4837050437927246
                    ],
                    [
                        -0.20005618035793304,
                        0.046242717653512955,
                        -0.23287522792816162,
                        -0.16372250020503998,
                        -0.0031345884781330824,
                        0.22470296919345856,
                        -0.1716073453426361,
                        0.5633758306503296,
                        0.8288729786872864,
                        0.5530620217323303,
                        0.13990256190299988,
                        0.17787089943885803,
                        -0.12214074283838272,
                        -0.29695266485214233,
                        0.1030479371547699,
                        0.6494678854942322
                    ],
                    [
                        0.05926720052957535,
                        -0.3064464330673218,
                        -0.05927351489663124,
                        -0.502769947052002,
                        0.2932884693145752,
                        -0.2953099310398102,
                        0.5164749026298523,
                        -0.10685781389474869,
                        0.047652196139097214,
                        -0.1793643832206726,
                        0.067988321185112,
                        -0.10294212400913239,
                        -0.13957001268863678,
                        0.18190063536167145,
                        -0.2948189377784729,
                        -0.10763979703187943
                    ],
                    [
                        -0.37296462059020996,
                        0.3554975092411041,
                        -0.27174991369247437,
                        -0.3473978638648987,
                        0.2598666548728943,
                        0.0013578353682532907,
                        -0.18170085549354553,
                        0.29996418952941895,
                        -0.1293957531452179,
                        -0.0489116907119751,
                        -0.31108933687210083,
                        0.15639235079288483,
                        -0.30725806951522827,
                        0.23601536452770233,
                        0.0447516106069088,
                        0.269069105386734
                    ],
                    [
                        -0.1540452539920807,
                        0.27254530787467957,
                        0.28723445534706116,
                        0.7574132680892944,
                        0.043606460094451904,
                        0.12064889073371887,
                        0.1399269998073578,
                        0.2851216197013855,
                        0.5637500286102295,
                        -0.06179701164364815,
                        -1.2229422330856323,
                        0.41091108322143555,
                        -0.014746304601430893,
                        -0.015191100537776947,
                        -0.09052208065986633,
                        -0.13282905519008636
                    ],
                    [
                        0.22312787175178528,
                        -0.13661807775497437,
                        -0.11743353307247162,
                        0.3489682376384735,
                        0.4699540138244629,
                        0.6171795129776001,
                        -0.09367600083351135,
                        0.05842050164937973,
                        -0.13381193578243256,
                        -0.2121059149503708,
                        -0.14173519611358643,
                        -0.041210681200027466,
                        -0.33886781334877014,
                        -0.12342658638954163,
                        0.19260135293006897,
                        -0.23490172624588013
                    ],
                    [
                        0.43191468715667725,
                        0.40495818853378296,
                        0.02273113653063774,
                        -0.08878234773874283,
                        0.20169346034526825,
                        0.09001433849334717,
                        0.35166630148887634,
                        -0.008682435378432274,
                        -0.218343585729599,
                        0.46465542912483215,
                        0.49976587295532227,
                        0.33496612310409546,
                        0.129057377576828,
                        0.14804504811763763,
                        -0.36698174476623535,
                        0.3942677080631256
                    ],
                    [
                        0.3394480049610138,
                        -0.13357026875019073,
                        0.03245965763926506,
                        -0.3579142093658447,
                        -0.24872268736362457,
                        -0.018045753240585327,
                        0.10469935834407806,
                        0.5099741816520691,
                        -0.11768700927495956,
                        -0.1458401083946228,
                        -0.472245454788208,
                        0.4055151045322418,
                        0.18159101903438568,
                        -0.3140847980976105,
                        0.2284983992576599,
                        -0.19414637982845306
                    ],
                    [
                        0.010011285543441772,
                        0.5082899332046509,
                        0.29166966676712036,
                        -0.133368581533432,
                        0.21010588109493256,
                        -0.18337617814540863,
                        -0.4815567135810852,
                        -0.44015881419181824,
                        0.34519898891448975,
                        0.6712530255317688,
                        0.19779321551322937,
                        0.3415489196777344,
                        -0.7915480136871338,
                        -0.5341614484786987,
                        0.183152973651886,
                        0.471096009016037
                    ],
                    [
                        0.3473476469516754,
                        -0.06457767635583878,
                        -0.23359830677509308,
                        -0.5245589017868042,
                        -0.014160500839352608,
                        0.06390228867530823,
                        0.1230892464518547,
                        -0.13427817821502686,
                        0.3476334512233734,
                        1.1444281339645386,
                        -0.13229826092720032,
                        -0.11243969947099686,
                        -0.05502750724554062,
                        0.01567845046520233,
                        0.15034539997577667,
                        0.5478563904762268
                    ]
                ],
                [
                    0.003380071371793747,
                    0.05185593292117119,
                    -0.1897147297859192,
                    0.011476087383925915,
                    -0.07127286493778229,
                    0.021530933678150177,
                    -0.03983704000711441,
                    0.08105488866567612,
                    0.06463635712862015,
                    0.2497100830078125,
                    -0.1790148764848709,
                    -0.007517899852246046,
                    0.016938526183366776,
                    0.027624815702438354,
                    -0.007429178804159164,
                    -0.02788439206779003
                ]
            ]
        },
        {
            "type": "dense",
            "activation": "tanh",
            "shape": [
                null,
                16
            ],
            "weights": [
                [
                    [
                        0.04785728454589844,
                        -0.3321978449821472,
                        -0.43059852719306946,
                        0.38264426589012146,
                        0.8568055629730225,
                        0.025530070066452026,
                        0.3974980115890503,
                        0.3512743413448334,
                        0.07056492567062378,
                        0.012966942973434925,
                        0.3389645218849182,
                        -0.44951286911964417,
                        -0.0014381245709955692,
                        -0.02998046576976776,
                        0.10654345154762268,
                        -0.2431628555059433
                    ],
                    [
                        -0.6559066772460938,
                        0.22420203685760498,
                        0.15775401890277863,
                        -0.13404205441474915,
                        0.02932174876332283,
                        -0.13314567506313324,
                        -0.3404335081577301,
                        0.2642906606197357,
                        -0.2556478977203369,
                        -0.07585224509239197,
                        -0.20270486176013947,
                        0.19564704596996307,
                        0.4049489498138428,
                        0.14322103559970856,
                        0.16123110055923462,
                        -0.2996453046798706
                    ],
                    [
                        -0.8083333373069763,
                        0.18435758352279663,
                        0.7222785353660583,
                        -0.07859327644109726,
                        -0.15493905544281006,
                        0.42777255177497864,
                        0.06727159023284912,
                        -0.4379708766937256,
                        0.09166669845581055,
                        0.0373418964445591,
                        -0.1942797601222992,
                        -0.07861850410699844,
                        -0.1818103790283203,
                        -0.41360074281692505,
                        0.0224467646330595,
                        0.13287197053432465
                    ],
                    [
                        0.12614412605762482,
                        -0.17950816452503204,
                        0.4004834294319153,
                        0.16144782304763794,
                        -0.32618266344070435,
                        -0.0017501272959634662,
                        -0.30942004919052124,
                        -0.31590110063552856,
                        -0.36524176597595215,
                        -0.15063266456127167,
                        -0.39619767665863037,
                        -0.35303837060928345,
                        0.1521098017692566,
                        -0.271162211894989,
                        0.4009455442428589,
                        -0.282950758934021
                    ],
                    [
                        -0.6445682048797607,
                        -0.16031894087791443,
                        0.3088790774345398,
                        -0.17837689816951752,
                        -0.5418238639831543,
                        0.004834683146327734,
                        -0.1998240202665329,
                        -0.365508496761322,
                        -0.0811728984117508,
                        0.07206786423921585,
                        -0.6358256936073303,
                        -0.0015241154469549656,
                        -0.5594359040260315,
                        -0.04144551604986191,
                        -1.092661738395691,
                        -0.41462141275405884
                    ],
                    [
                        -0.524358332157135,
                        -0.13854341208934784,
                        0.779342532157898,
                        -0.7694146037101746,
                        -0.30474990606307983,
                        -0.18997368216514587,
                        -0.2291138768196106,
                        -0.19869515299797058,
                        -0.30297979712486267,
                        -0.414999783039093,
                        0.09208465367555618,
                        0.5115935802459717,
                        -0.2976657748222351,
                        -0.6977176070213318,
                        -0.3376983404159546,
                        -0.31804198026657104
                    ],
                    [
                        0.14987950026988983,
                        0.1843748837709427,
                        -0.9115164875984192,
                        0.3064844012260437,
                        0.1633181869983673,
                        -0.6660656929016113,
                        0.8603977560997009,
                        0.16893664002418518,
                        0.24998536705970764,
                        0.42660632729530334,
                        0.0655878558754921,
                        -0.9125979542732239,
                        0.5290960073471069,
                        -0.2611100375652313,
                        0.61528480052948,
                        0.4042636454105377
                    ],
                    [
                        0.032418496906757355,
                        0.13946408033370972,
                        -0.05433822050690651,
                        -0.36389830708503723,
                        0.1699458211660385,
                        -0.3721850514411926,
                        -0.10334666073322296,
                        -0.12493105977773666,
                        0.037843041121959686,
                        0.14255711436271667,
                        0.2664985954761505,
                        0.20830105245113373,
                        -0.5452200770378113,
                        0.35515671968460083,
                        0.9671932458877563,
                        -0.10173674672842026
                    ],
                    [
                        -0.03742866590619087,
                        0.2602441906929016,
                        -0.07468687742948532,
                        0.16310030221939087,
                        -0.34128323197364807,
                        -0.1768406629562378,
                        -0.43327584862709045,
                        0.2724841833114624,
                        -0.06020132452249527,
                        -0.5782090425491333,
                        -0.0002634288102854043,
                        0.5416194796562195,
                        -0.6621664762496948,
                        -0.2547243535518646,
                        0.3139074444770813,
                        0.06633538752794266
                    ],
                    [
                        0.13959334790706635,
                        -0.17984017729759216,
                        -0.0934177041053772,
                        0.19897136092185974,
                        0.4556168019771576,
                        -0.14622823894023895,
                        0.45522284507751465,
                        0.2882978022098541,
                        -0.5893857479095459,
                        0.11538952589035034,
                        -0.09772846847772598,
                        0.5297679901123047,
                        -0.4484458267688751,
                        0.12501849234104156,
                        -0.13970734179019928,
                        0.27509117126464844
                    ],
                    [
                        0.1480312943458557,
                        -0.09315556287765503,
                        -0.19088004529476166,
                        0.19940993189811707,
                        -0.21678650379180908,
                        0.07472748309373856,
                        1.1352936029434204,
                        0.16852110624313354,
                        0.16427293419837952,
                        0.05606943741440773,
                        0.04655839875340462,
                        0.04847223311662674,
                        -0.01809275522828102,
                        0.0873660296201706,
                        -0.14023691415786743,
                        -0.4209604263305664
                    ],
                    [
                        -0.08858026564121246,
                        0.07525952160358429,
                        -0.021076489239931107,
                        0.17176395654678345,
                        -0.004192256834357977,
                        -0.04414958506822586,
                        -0.3353235125541687,
                        -0.5929698348045349,
                        -0.35559114813804626,
                        -0.3032960295677185,
                        0.13440345227718353,
                        1.0866401195526123,
                        -0.09615089744329453,
                        -0.17219406366348267,
                        -0.050583288073539734,
                        -0.18586434423923492
                    ],
                    [
                        -0.04250960424542427,
                        -0.6511005163192749,
                        -0.7007299661636353,
                        0.07626982778310776,
                        0.012113644741475582,
                        0.23459865152835846,
                        0.28429943323135376,
                        0.3661476969718933,
                        0.23345443606376648,
                        0.5972822904586792,
                        0.3833099901676178,
                        -0.18190540373325348,
                        0.28431418538093567,
                        0.09431930631399155,
                        0.5647881031036377,
                        0.4415583312511444
                    ],
                    [
                        -0.008551047183573246,
                        -0.5960921049118042,
                        0.0006425735191442072,
                        0.1651066690683365,
                        0.3955910801887512,
                        -0.44554170966148376,
                        0.31944283843040466,
                        0.1268858015537262,
                        0.6418066620826721,
                        0.009393302723765373,
                        -0.12280003726482391,
                        -0.18475209176540375,
                        0.4497852623462677,
                        0.36643218994140625,
                        0.2151826024055481,
                        0.44249436259269714
                    ],
                    [
                        -0.05941455438733101,
                        0.09331883490085602,
                        -0.30782175064086914,
                        -0.37511515617370605,
                        -0.13142932951450348,
                        0.17294375598430634,
                        0.048703473061323166,
                        -0.2721647024154663,
                        -0.2630012333393097,
                        -0.6524397134780884,
                        -0.21643692255020142,
                        -0.15468621253967285,
                        0.08301094174385071,
                        0.10411848872900009,
                        0.07628127187490463,
                        0.18448621034622192
                    ],
                    [
                        0.43271583318710327,
                        0.0745452344417572,
                        -0.12330009043216705,
                        -0.3046059012413025,
                        0.4801732897758484,
                        0.27568861842155457,
                        -0.27544939517974854,
                        0.18427057564258575,
                        -0.001919466769322753,
                        0.04810139536857605,
                        -0.5604199767112732,
                        0.8405758738517761,
                        -0.30985626578330994,
                        -0.31384164094924927,
                        0.05623573437333107,
                        -0.2021598517894745
                    ]
                ],
                [
                    0.1061786487698555,
                    0.057831771671772,
                    0.017438199371099472,
                    -0.001898092101328075,
                    0.03297499567270279,
                    0.008286263793706894,
                    -0.011897669173777103,
                    0.04494796693325043,
                    -0.05920196697115898,
                    -0.003078606678172946,
                    0.011636823415756226,
                    0.18852098286151886,
                    0.008041705004870892,
                    0.025162972509860992,
                    0.05008064582943916,
                    0.014775444753468037
                ]
            ]
        },
        {
            "type": "dense",
            "activation": "",
            "shape": [
                null,
                1
            ],
            "weights": [
                [
                    [
                        -0.38784176111221313
                    ],
                    [
                        0.22661709785461426
                    ],
                    [
                        0.48884111642837524
                    ],
                    [
                        -0.49346208572387695
                    ],
                    [
                        -0.913312554359436
                    ],
                    [
                        0.12399042397737503
                    ],
                    [
                        -0.6680121421813965
                    ],
                    [
                        -0.22857467830181122
                    ],
                    [
                        -0.7645185589790344
                    ],
                    [
                        -0.444708913564682
                    ],
                    [
                        -0.5665040016174316
                    ],
                    [
                        0.34445109963417053
                    ],
                    [
                        -0.26112887263298035
                    ],
                    [
                        -0.5078228116035461
                    ],
                    [
                        -0.6087526679039001
                    ],
                    [
                        -0.5314679145812988
                    ]
                ],
                [
                    -0.005891601555049419
                ]
            ]
        }
    ]
}