{
    "in_shape": [
        null,
        2
    ],
    "layers": [
        {
            "type": "unknown",
            "activation": "",
            "shape": [
                [
                    null,
                    2
                ]
            ],
            "weights": []
        },
        {
            "type": "dense",
            "activation": "tanh",
            "shape": [
                null,
                16
            ],
            "weights": [
                [
                    [
                        0.5838232636451721,
                        0.28565695881843567,
                        -0.09993299841880798,
                        0.5576359629631042,
                        -0.282417893409729,
                        -0.5388493537902832,
                        -0.26980769634246826,
                        -0.39238837361335754,
                        1.614837884902954,
                        -1.0299898386001587,
                        0.20261557400226593,
                        0.4160712659358978,
                        -0.250397264957428,
                        0.4077718257904053,
                        0.508613646030426,
                        -0.2799933850765228
                    ],
                    [
                        0.1620676964521408,
                        -0.07916721701622009,
                        0.2484346479177475,
                        -0.06206609308719635,
                        0.0009258835925720632,
                        -0.077529177069664,
                        0.010734026320278645,
                        -0.17206420004367828,
                        -0.07429991662502289,
                        -0.06167253106832504,
                        0.003853287547826767,
                        -0.005697023589164019,
                        0.0061423080042004585,
                        -0.2272680699825287,
                        -0.3971468210220337,
                        -0.026412449777126312
                    ]
                ],
                [
                    0.16618619859218597,
                    0.08137623220682144,
                    0.04973718896508217,
                    0.4183063209056854,
                    0.25602617859840393,
                    0.16694042086601257,
                    -0.18244796991348267,
                    -0.1632966697216034,
                    0.6361533403396606,
                    0.35640180110931396,
                    -0.04059423506259918,
                    0.0003002271696459502,
                    -0.1383952647447586,
                    -0.06924807280302048,
                    -0.5945847034454346,
                    0.34217000007629395
                ]
            ]
        },
        {
            "type": "dense",
            "activation": "tanh",
            "shape": [
                null,
                16
            ],
            "weights": [
                [
                    [
                        0.055739108473062515,
                        -0.0315445177257061,
                        -0.11275370419025421,
                        -0.21345172822475433,
                        -0.26932138204574585,
                        0.5870600342750549,
                        -0.06464487314224243,
                        -0.18402227759361267,
                        0.513797402381897,
                        -0.01472457218915224,
                        -0.08652403950691223,
                        -0.08602976053953171,
                        0.24872317910194397,
                        -0.41684120893478394,
                        -0.22282996773719788,
                        0.11455078423023224
                    ],
                    [
                        0.1525745540857315,
                        0.17924810945987701,
                        0.4751240313053131,
                        -0.46784257888793945,
                        0.4420040547847748,
                        -0.15178118646144867,
                        0.04991452768445015,
                        -0.05744588375091553,
                        0.26067063212394714,
                        -0.25915274024009705,
                        -0.016575096175074577,
                        -0.43145567178726196,
                        0.11459361761808395,
                        -0.15255437791347504,
                        0.02630806341767311,
                        -0.29271116852760315
                    ],
                    [
                        -0.06300904601812363,
                        0.06614840775728226,
                        0.144752636551857,
                        -0.019552698358893394,
                        0.048691630363464355,
                        -0.026254380121827126,
                        0.5228340029716492,
                        -0.05515456199645996,
                        -0.19174107909202576,
                        0.349388986825943,
                        -0.43215304613113403,
                        -0.32304829359054565,
                        0.039386410266160965,
                        0.13995733857154846,
                        -0.4318515360355377,
                        0.06586787104606628
                    ],
                    [
                        -0.19140014052391052,
                        0.377605140209198,
                        -0.4239790141582489,
                        0.26182833313941956,
                        0.42273613810539246,
                        -0.11143934726715088,
                        0.42124104499816895,
                        0.318581759929657,
                        0.16295431554317474,
                        -0.02164255455136299,
                        -0.039114195853471756,
                        -0.3667563796043396,
                        0.15122534334659576,
                        -0.5043206810951233,
                        -0.45723822712898254,
                        -1.0839611291885376
                    ],
                    [
                        0.01199618261307478,
                        -0.05070234835147858,
                        0.12369243055582047,
                        -0.24145761132240295,
                        -0.14533299207687378,
                        -0.31181401014328003,
                        -0.7200397849082947,
                        -1.4434690475463867,
                        -0.18689312040805817,
                        -0.728049099445343,
                        -0.4327451288700104,
                        -0.3976755738258362,
                        0.6208217740058899,
                        -0.4734855592250824,
                        -0.6893754005432129,
                        -0.1329895704984665
                    ],
                    [
                        -0.08894029259681702,
                        0.1797100305557251,
                        0.1414993703365326,
                        0.29437533020973206,
                        -0.3987073004245758,
                        0.44992220401763916,
                        0.14904125034809113,
                        -1.001291275024414,
                        -0.27929821610450745,
                        0.4261287748813629,
                        0.22850793600082397,
                        -0.19505369663238525,
                        0.14713165163993835,
                        0.32858964800834656,
                        0.24439285695552826,
                        0.3671509921550751
                    ],
                    [
                        -0.723295271396637,
                        0.07916440069675446,
                        0.35806798934936523,
                        -0.2039480060338974,
                        0.20970946550369263,
                        -0.37170401215553284,
                        -2.4617741107940674,
                        0.41560474038124084,
                        0.452217698097229,
                        -0.46889254450798035,
                        -0.216114342212677,
                        -0.4559018611907959,
                        0.6945593953132629,
                        -0.09210185706615448,
                        -0.2413696050643921,
                        0.6703601479530334
                    ],
                    [
                        0.03844888135790825,
                        -0.3523951470851898,
                        -0.04872973635792732,
                        0.16689255833625793,
                        -0.18659979104995728,
                        -0.1414717435836792,
                        0.09516601264476776,
                        0.0966644436120987,
                        0.33968913555145264,
                        0.2948162853717804,
                        -0.4723101556301117,
                        -0.10159183293581009,
                        -0.1581193506717682,
                        0.08900555223226547,
                        0.5154354572296143,
                        -0.130385160446167
                    ],
                    [
                        -0.364198237657547,
                        0.04324059933423996,
                        0.052372027188539505,
                        -0.004668809473514557,
                        0.6019070744514465,
                        0.26451975107192993,
                        -0.1841116100549698,
                        0.013304194435477257,
                        -0.020928123965859413,
                        -0.6398011445999146,
                        -0.5456387400627136,
                        0.1196565330028534,
                        0.0377594493329525,
                        0.051858581602573395,
                        -0.3406267464160919,
                        -0.9814409017562866
                    ],
                    [
                        -0.07309580594301224,
                        -0.23496675491333008,
                        -0.28354448080062866,
                        -0.27035441994667053,
                        -0.06472773849964142,
                        0.01903914287686348,
                        0.2659159302711487,
                        -1.343532919883728,
                        -0.04996391385793686,
                        0.5258782505989075,
                        0.2434336245059967,
                        0.264295369386673,
                        0.7973213791847229,
                        0.26598766446113586,
                        0.224948450922966,
                        -0.029256945475935936
                    ],
                    [
                        0.08532170951366425,
                        -0.692552924156189,
                        0.07268427312374115,
                        0.49620524048805237,
                        -0.49029093980789185,
                        0.19780679047107697,
                        1.0037102699279785,
                        0.8898802399635315,
                        -0.45576170086860657,
                        0.7038366198539734,
                        0.4777792990207672,
                        0.32979488372802734,
                        -0.35045722126960754,
                        -0.0012288875877857208,
                        0.5380743145942688,
                        -0.499180406332016
                    ],
                    [
                        -0.12974467873573303,
                        -0.09422480314970016,
                        -0.5518383383750916,
                        0.049917738884687424,
                        -0.3056914508342743,
                        0.11207738518714905,
                        1.4669008255004883,
                        0.8115206360816956,
                        -0.3617112338542938,
                        -0.11729970574378967,
                        0.010765128768980503,
                        -0.07620391249656677,
                        -0.5563663840293884,
                        0.057483475655317307,
                        0.5406934022903442,
                        0.179587721824646
                    ],
                    [
                        -0.45078718662261963,
                        0.3966248333454132,
                        0.32100778818130493,
                        -0.13796135783195496,
                        0.6751734614372253,
                        -0.4749060571193695,
                        -2.1799421310424805,
                        -0.686123788356781,
                        0.21611954271793365,
                        -0.20285499095916748,
                        -0.5227335691452026,
                        -0.07215359807014465,
                        0.25263968110084534,
                        -0.7192081212997437,
                        -0.10641586035490036,
                        0.6897013783454895
                    ],
                    [
                        -0.2859480679035187,
                        0.49711641669273376,
                        0.3199459910392761,
                        -0.062256570905447006,
                        -0.37942036986351013,
                        -0.4065539836883545,
                        -0.13513334095478058,
                        -0.06865236163139343,
                        0.2967178225517273,
                        -0.020483382046222687,
                        -0.19181276857852936,
                        0.43554043769836426,
                        0.16435377299785614,
                        -0.0016013948479667306,
                        -0.11067773401737213,
                        -0.07067584991455078
                    ],
                    [
                        -0.5532780885696411,
                        -0.13837504386901855,
                        0.03044816292822361,
                        -0.47331568598747253,
                        -0.0277943667024374,
                        -0.007235501427203417,
                        -0.22311291098594666,
                        0.09280528128147125,
                        0.0718231126666069,
                        0.2290360927581787,
                        0.13642773032188416,
                        0.01598353497684002,
                        -0.5686084032058716,
                        -0.04460808262228966,
                        -0.22397437691688538,
                        -0.17831003665924072
                    ],
                    [
                        -0.4398282766342163,
                        -0.1736181527376175,
                        0.4066678583621979,
                        0.2690952718257904,
                        0.25699082016944885,
                        -0.22400495409965515,
                        0.2097897082567215,
                        -2.2608859539031982,
                        0.4647775888442993,
                        -0.5204992294311523,
                        0.17287471890449524,
                        -0.03562069311738014,
                        0.3631252646446228,
                        -0.057714011520147324,
                        -0.42095422744750977,
                        0.31345969438552856
                    ]
                ],
                [
                    0.04134603589773178,
                    0.01672513037919998,
                    -0.11663343012332916,
                    0.036871545016765594,
                    -0.06525444984436035,
                    0.0827384814620018,
                    0.15438435971736908,
                    -0.3238939940929413,
                    -0.06257127225399017,
                    -0.047306034713983536,
                    0.012022579088807106,
                    -0.04734770581126213,
                    0.052783768624067307,
                    0.047862909734249115,
                    0.04782451316714287,
                    -0.07826951146125793
                ]
            ]
        },
        {
            "type": "dense",
            "activation": "",
            "shape": [
                null,
                1
            ],
            "weights": [
                [
                    [
                        0.45730751752853394
                    ],
                    [
                        -0.31866946816444397
                    ],
                    [
                        -0.5675850510597229
                    ],
                    [
                        0.48965832591056824
                    ],
                    [
                        -0.7627444267272949
                    ],
                    [
                        0.3422817587852478
                    ],
                    [
                        0.6470866203308105
                    ],
                    [
                        -0.36240872740745544
                    ],
                    [
                        -0.8825187683105469
                    ],
                    [
                        0.8333718776702881
                    ],
                    [
                        0.8260311484336853
                    ],
                    [
                        0.5105192065238953
                    ],
                    [
                        -0.4675692021846771
                    ],
                    [
                        0.324659526348114
                    ],
                    [
                        0.915956974029541
                    ],
                    [
                        -0.3496721088886261
                    ]
                ],
                [
                    0.03150331228971481
                ]
            ]
        }
    ]
}