{
    "in_shape": [
        null,
        2
    ],
    "layers": [
        {
            "type": "unknown",
            "activation": "",
            "shape": [
                [
                    null,
                    2
                ]
            ],
            "weights": []
        },
        {
            "type": "dense",
            "activation": "tanh",
            "shape": [
                null,
                8
            ],
            "weights": [
                [
                    [
                        -0.3301337659358978,
                        -0.35353654623031616,
                        0.03534305468201637,
                        0.10087686777114868,
                        -0.13214856386184692,
                        -0.8264014720916748,
                        0.8291786313056946,
                        1.3849865198135376
                    ],
                    [
                        0.011883417144417763,
                        0.045064929872751236,
                        0.05784442275762558,
                        0.022012878209352493,
                        -0.0009188116528093815,
                        -0.04514314979314804,
                        1.07626473903656,
                        -0.07433486729860306
                    ]
                ],
                [
                    -0.11098621785640717,
                    -0.03357219696044922,
                    -0.03545231372117996,
                    -0.1710686832666397,
                    -0.12505240738391876,
                    0.4270138740539551,
                    0.46789389848709106,
                    0.28297629952430725
                ]
            ]
        },
        {
            "type": "dense",
            "activation": "tanh",
            "shape": [
                null,
                8
            ],
            "weights": [
                [
                    [
                        -0.18148435652256012,
                        0.12728840112686157,
                        0.20110145211219788,
                        -0.8112024068832397,
                        0.037239447236061096,
                        -0.3864406943321228,
                        -0.7053480744361877,
                        0.6598437428474426
                    ],
                    [
                        0.48811599612236023,
                        -0.4447515606880188,
                        -0.6829051375389099,
                        -0.04483181983232498,
                        0.03646430745720863,
                        -0.22162996232509613,
                        0.10750535875558853,
                        -0.23544298112392426
                    ],
                    [
                        0.08866675943136215,
                        -0.36253514885902405,
                        0.42165544629096985,
                        0.34860682487487793,
                        0.024960866197943687,
                        0.010082869790494442,
                        -0.5815333724021912,
                        -0.4239470362663269
                    ],
                    [
                        0.18081997334957123,
                        -0.9306230545043945,
                        0.18606293201446533,
                        -0.13242816925048828,
                        0.09876666963100433,
                        0.7331545352935791,
                        0.4257979393005371,
                        0.10055191814899445
                    ],
                    [
                        -0.8280002474784851,
                        -0.5605065822601318,
                        0.11447574943304062,
                        -0.02808251418173313,
                        -0.4847085475921631,
                        -0.2407912313938141,
                        0.18122069537639618,
                        0.0552712082862854
                    ],
                    [
                        0.5099381804466248,
                        0.08034594357013702,
                        0.8560676574707031,
                        0.011187022551894188,
                        -0.8300466537475586,
                        -0.31047162413597107,
                        0.22633421421051025,
                        -0.13376650214195251
                    ],
                    [
                        0.10840155929327011,
                        0.10106158256530762,
                        0.29660800099372864,
                        0.10205484181642532,
                        0.1343768984079361,
                        -0.6928092837333679,
                        0.14822489023208618,
                        0.5948176980018616
                    ],
                    [
                        -0.33927085995674133,
                        -0.45470139384269714,
                        0.1337660849094391,
                        -0.4374229311943054,
                        0.797732949256897,
                        -0.4592834711074829,
                        0.0872173085808754,
                        -0.31660255789756775
                    ]
                ],
                [
                    -0.0006281581008806825,
                    0.15881159901618958,
                    0.011544273234903812,
                    -0.07333778589963913,
                    0.030033590272068977,
                    -0.07416383177042007,
                    0.053835537284612656,
                    -0.0942545235157013
                ]
            ]
        },
        {
            "type": "dense",
            "activation": "tanh",
            "shape": [
                null,
                8
            ],
            "weights": [
                [
                    [
                        -0.3874545693397522,
                        -0.49326834082603455,
                        -0.2727581262588501,
                        0.13878417015075684,
                        -1.0419914722442627,
                        0.28946423530578613,
                        -0.4445476233959198,
                        -0.07071340084075928
                    ],
                    [
                        -0.7491750717163086,
                        0.19219452142715454,
                        0.32419052720069885,
                        0.44617897272109985,
                        0.08046932518482208,
                        0.5447526574134827,
                        -0.5026400089263916,
                        -0.0597592331469059
                    ],
                    [
                        -0.08406640589237213,
                        -0.026784345507621765,
                        -0.13590671122074127,
                        -0.8930164575576782,
                        0.03721866011619568,
                        -0.23195786774158478,
                        -0.517083466053009,
                        -0.6051719188690186
                    ],
                    [
                        0.3426739275455475,
                        0.5838232040405273,
                        0.30129244923591614,
                        0.21706677973270416,
                        -0.5361082553863525,
                        0.5630460977554321,
                        -0.19838649034500122,
                        -0.37722715735435486
                    ],
                    [
                        -0.04451717436313629,
                        0.07358832657337189,
                        0.952001690864563,
                        -0.3276156783103943,
                        -0.17018543183803558,
                        0.3132401704788208,
                        0.33850613236427307,
                        0.7343620657920837
                    ],
                    [
                        0.5481684803962708,
                        -0.019780028611421585,
                        0.11356112360954285,
                        0.6379032135009766,
                        -0.12240173667669296,
                        -0.4234575927257538,
                        -0.6842585802078247,
                        0.3480600118637085
                    ],
                    [
                        0.3542289137840271,
                        -0.8329483866691589,
                        0.7296708226203918,
                        0.2178296148777008,
                        -0.040712058544158936,
                        0.40701520442962646,
                        -0.17468322813510895,
                        -0.4805610775947571
                    ],
                    [
                        -0.6675966382026672,
                        0.14047737419605255,
                        0.6014911532402039,
                        0.05281886085867882,
                        -0.08220616728067398,
                        -0.5803607106208801,
                        0.1556689739227295,
                        -0.15773946046829224
                    ]
                ],
                [
                    -0.0781053826212883,
                    0.032467033714056015,
                    0.1799328476190567,
                    -0.026844725012779236,
                    0.034182656556367874,
                    0.13322728872299194,
                    -0.018379662185907364,
                    0.06601432710886002
                ]
            ]
        },
        {
            "type": "dense",
            "activation": "tanh",
            "shape": [
                null,
                8
            ],
            "weights": [
                [
                    [
                        0.010468197986483574,
                        -0.3144386112689972,
                        0.13401071727275848,
                        0.7896243333816528,
                        -0.2398347407579422,
                        -0.9659889936447144,
                        0.6560235023498535,
                        -0.3184222877025604
                    ],
                    [
                        -0.643095076084137,
                        -0.0686454325914383,
                        -0.6934981346130371,
                        0.02439872734248638,
                        -0.02877112105488777,
                        -0.25905779004096985,
                        -0.8086063861846924,
                        0.3007263243198395
                    ],
                    [
                        -0.07078775763511658,
                        0.7247062921524048,
                        -0.3868422210216522,
                        0.5125869512557983,
                        0.22878164052963257,
                        0.04749681428074837,
                        0.29882097244262695,
                        0.4710542559623718
                    ],
                    [
                        0.10442587733268738,
                        -1.0750912427902222,
                        0.0967438742518425,
                        0.6083787083625793,
                        0.3281641900539398,
                        -0.33509063720703125,
                        0.031964417546987534,
                        0.6790302395820618
                    ],
                    [
                        0.008736356161534786,
                        0.5559567809104919,
                        0.7057862281799316,
                        0.20272646844387054,
                        -0.718038022518158,
                        0.119942307472229,
                        -0.6139021515846252,
                        0.2393336445093155
                    ],
                    [
                        0.8327046632766724,
                        -0.15149717032909393,
                        -1.0522325038909912,
                        0.5682196021080017,
                        1.0140990018844604,
                        -0.3368849456310272,
                        -0.09770281612873077,
                        -0.30858299136161804
                    ],
                    [
                        -0.4169193208217621,
                        0.6324058175086975,
                        0.10362311452627182,
                        -0.08707444369792938,
                        0.8219605684280396,
                        -0.0897907093167305,
                        -0.2866593897342682,
                        0.15403439104557037
                    ],
                    [
                        0.12166959792375565,
                        0.15704913437366486,
                        -0.06275739520788193,
                        -0.41241782903671265,
                        -0.037715762853622437,
                        -0.7585631608963013,
                        -0.061898767948150635,
                        0.742474377155304
                    ]
                ],
                [
                    0.055115774273872375,
                    0.0317348949611187,
                    -0.19146886467933655,
                    -0.015122218057513237,
                    0.14197874069213867,
                    -0.04565051570534706,
                    -0.06864161044359207,
                    -0.017322717234492302
                ]
            ]
        },
        {
            "type": "dense",
            "activation": "tanh",
            "shape": [
                null,
                8
            ],
            "weights": [
                [
                    [
                        0.06489308178424835,
                        -0.10863329470157623,
                        0.010112186893820763,
                        -0.5199150443077087,
                        0.7803159952163696,
                        1.0229384899139404,
                        0.31138673424720764,
                        -0.10801231861114502
                    ],
                    [
                        0.3426593244075775,
                        0.04627082496881485,
                        -0.5289042592048645,
                        1.2479411363601685,
                        -0.7699548602104187,
                        -0.02195742540061474,
                        0.017670761793851852,
                        -0.14722928404808044
                    ],
                    [
                        -0.017031354829669,
                        -0.3011561334133148,
                        -0.03978902846574783,
                        -0.30412232875823975,
                        -1.092629313468933,
                        0.036573901772499084,
                        0.49804240465164185,
                        0.42738068103790283
                    ],
                    [
                        -0.1870204210281372,
                        -1.198413372039795,
                        -0.20113858580589294,
                        -1.0625356435775757,
                        0.5263580679893494,
                        0.04923136159777641,
                        -0.48560377955436707,
                        -0.9554768800735474
                    ],
                    [
                        -0.7415399551391602,
                        -0.5976482033729553,
                        0.2987106740474701,
                        0.3442915081977844,
                        1.28875732421875,
                        0.2844785749912262,
                        0.01125424075871706,
                        -0.2345636636018753
                    ],
                    [
                        -0.09669559448957443,
                        0.7197058200836182,
                        -0.8359857201576233,
                        0.3818638324737549,
                        0.00026634405367076397,
                        0.1627461165189743,
                        0.001422237721271813,
                        0.6984725594520569
                    ],
                    [
                        -0.3544286787509918,
                        -0.7491258382797241,
                        0.4797925055027008,
                        -0.8555456399917603,
                        0.015719333663582802,
                        0.9761728048324585,
                        -1.0187830924987793,
                        -0.40963035821914673
                    ],
                    [
                        0.5990450978279114,
                        -0.8229735493659973,
                        -0.16045409440994263,
                        0.26626327633857727,
                        0.2365366369485855,
                        -0.6290465593338013,
                        -0.18534424901008606,
                        0.5156461596488953
                    ]
                ],
                [
                    -0.004420298617333174,
                    -0.09875262528657913,
                    -0.02611870877444744,
                    0.05102219432592392,
                    0.32721012830734253,
                    -0.012841378338634968,
                    0.0704011544585228,
                    0.0175356175750494
                ]
            ]
        },
        {
            "type": "dense",
            "activation": "",
            "shape": [
                null,
                1
            ],
            "weights": [
                [
                    [
                        -0.1331670880317688
                    ],
                    [
                        -0.38215580582618713
                    ],
                    [
                        0.4582286775112152
                    ],
                    [
                        -1.127591848373413
                    ],
                    [
                        0.7413617372512817
                    ],
                    [
                        1.2583993673324585
                    ],
                    [
                        -0.49839603900909424
                    ],
                    [
                        -0.7778000235557556
                    ]
                ],
                [
                    0.005549142602831125
                ]
            ]
        }
    ]
}