{
    "in_shape": [
        null,
        2
    ],
    "layers": [
        {
            "type": "unknown",
            "activation": "",
            "shape": [
                [
                    null,
                    2
                ]
            ],
            "weights": []
        },
        {
            "type": "dense",
            "activation": "tanh",
            "shape": [
                null,
                8
            ],
            "weights": [
                [
                    [
                        -0.2321593165397644,
                        1.8397632837295532,
                        0.04467136040329933,
                        -0.466050386428833,
                        -0.3321678340435028,
                        -0.20662356913089752,
                        0.15731948614120483,
                        0.5669158101081848
                    ],
                    [
                        -0.0032843821682035923,
                        -0.10777149349451065,
                        -2.6679773330688477,
                        0.037482667714357376,
                        -0.03091343492269516,
                        0.016823774203658104,
                        -0.026776310056447983,
                        0.037789199501276016
                    ]
                ],
                [
                    0.07510875910520554,
                    0.7691913843154907,
                    -1.6344858407974243,
                    0.29851412773132324,
                    0.7329369187355042,
                    -0.25136038661003113,
                    0.44662514328956604,
                    -0.19195415079593658
                ]
            ]
        },
        {
            "type": "dense",
            "activation": "tanh",
            "shape": [
                null,
                8
            ],
            "weights": [
                [
                    [
                        -0.9474130868911743,
                        -0.27911847829818726,
                        0.47938597202301025,
                        -0.18181350827217102,
                        -0.65609210729599,
                        -0.05343113839626312,
                        -0.22765159606933594,
                        -1.9764926433563232
                    ],
                    [
                        -0.3835758566856384,
                        0.2825934588909149,
                        -0.25206270813941956,
                        0.24249717593193054,
                        1.3475043773651123,
                        0.5230499505996704,
                        -0.44312649965286255,
                        0.23567335307598114
                    ],
                    [
                        0.0021033191587775946,
                        0.35798224806785583,
                        0.22666406631469727,
                        -0.32431164383888245,
                        0.1564900428056717,
                        -0.23800121247768402,
                        -0.560154139995575,
                        0.5585272312164307
                    ],
                    [
                        0.5697270631790161,
                        0.3401038646697998,
                        0.21493132412433624,
                        0.3033085763454437,
                        0.4025926887989044,
                        -0.6105139851570129,
                        0.1740698367357254,
                        0.595989465713501
                    ],
                    [
                        -0.5263096690177917,
                        -1.9134907722473145,
                        0.7418341040611267,
                        0.14534741640090942,
                        -0.7800506949424744,
                        0.5085268020629883,
                        -0.6097314357757568,
                        -3.366696834564209
                    ],
                    [
                        -0.2701497972011566,
                        0.2029484510421753,
                        1.4991549253463745,
                        0.20875193178653717,
                        -0.7085975408554077,
                        0.872061014175415,
                        -0.6616653800010681,
                        -1.091382384300232
                    ],
                    [
                        0.7661857008934021,
                        0.02744905650615692,
                        -1.5976256132125854,
                        0.006975708529353142,
                        -0.09829854220151901,
                        -0.6044718623161316,
                        -0.06645824015140533,
                        -0.15659615397453308
                    ],
                    [
                        -0.822339653968811,
                        -0.43545249104499817,
                        0.4468109905719757,
                        1.8894096612930298,
                        -0.7468371391296387,
                        0.3213093876838684,
                        -0.5391159653663635,
                        0.6736318469047546
                    ]
                ],
                [
                    -0.02469712309539318,
                    -0.39666903018951416,
                    -0.08557882905006409,
                    0.16466082632541656,
                    -0.13581570982933044,
                    -0.05582207441329956,
                    -0.13627469539642334,
                    0.04597640037536621
                ]
            ]
        },
        {
            "type": "dense",
            "activation": "",
            "shape": [
                null,
                1
            ],
            "weights": [
                [
                    [
                        2.8001949787139893
                    ],
                    [
                        0.7945684194564819
                    ],
                    [
                        -0.8604562282562256
                    ],
                    [
                        0.6724073886871338
                    ],
                    [
                        0.7788916826248169
                    ],
                    [
                        -1.3917323350906372
                    ],
                    [
                        0.7806727290153503
                    ],
                    [
                        0.5295665264129639
                    ]
                ],
                [
                    0.0497797355055809
                ]
            ]
        }
    ]
}