{
    "in_shape": [
        null,
        2
    ],
    "layers": [
        {
            "type": "unknown",
            "activation": "",
            "shape": [
                [
                    null,
                    2
                ]
            ],
            "weights": []
        },
        {
            "type": "dense",
            "activation": "tanh",
            "shape": [
                null,
                4
            ],
            "weights": [
                [
                    [
                        -1.153130292892456,
                        -0.5280726552009583,
                        0.5375800728797913,
                        0.27137723565101624
                    ],
                    [
                        0.04079523682594299,
                        0.05095576494932175,
                        0.06463120877742767,
                        0.0014752020360901952
                    ]
                ],
                [
                    -0.15544894337654114,
                    0.653093159198761,
                    -0.0697220042347908,
                    -0.04754624515771866
                ]
            ]
        },
        {
            "type": "dense",
            "activation": "tanh",
            "shape": [
                null,
                4
            ],
            "weights": [
                [
                    [
                        0.06901607662439346,
                        -1.0240579843521118,
                        0.5411009788513184,
                        -1.20316481590271
                    ],
                    [
                        -0.5428293943405151,
                        -0.22144314646720886,
                        -0.7265267968177795,
                        0.12583985924720764
                    ],
                    [
                        0.7776744365692139,
                        -1.6165915727615356,
                        0.7678068280220032,
                        0.5878267884254456
                    ],
                    [
                        -1.9874223470687866,
                        -0.9541476964950562,
                        -4.9918107986450195,
                        -1.537784457206726
                    ]
                ],
                [
                    0.033958353102207184,
                    0.6815741658210754,
                    0.5584287047386169,
                    -0.3618197739124298
                ]
            ]
        },
        {
            "type": "dense",
            "activation": "",
            "shape": [
                null,
                1
            ],
            "weights": [
                [
                    [
                        -3.968757152557373
                    ],
                    [
                        -1.0557103157043457
                    ],
                    [
                        -0.9943791627883911
                    ],
                    [
                        -2.2277371883392334
                    ]
                ],
                [
                    -0.082677461206913
                ]
            ]
        }
    ]
}