{
    "in_shape": [
        null,
        2
    ],
    "layers": [
        {
            "type": "unknown",
            "activation": "",
            "shape": [
                [
                    null,
                    2
                ]
            ],
            "weights": []
        },
        {
            "type": "dense",
            "activation": "tanh",
            "shape": [
                null,
                16
            ],
            "weights": [
                [
                    [
                        -0.21204683184623718,
                        -0.32101544737815857,
                        -0.25846007466316223,
                        0.3135254681110382,
                        -0.23457401990890503,
                        -0.5644170045852661,
                        -0.1136062815785408,
                        0.05875156819820404,
                        -0.6346500515937805,
                        -0.290316641330719,
                        0.2769434452056885,
                        -0.5213937759399414,
                        -0.20749907195568085,
                        -0.2857876420021057,
                        -0.24428707361221313,
                        -0.49780210852622986
                    ],
                    [
                        -0.0025048113893717527,
                        -0.23451335728168488,
                        0.10258875787258148,
                        0.059460368007421494,
                        0.25617268681526184,
                        0.03987445682287216,
                        -0.827052652835846,
                        -0.06876830756664276,
                        0.045448530465364456,
                        -0.08415128290653229,
                        0.6423579454421997,
                        0.10567738860845566,
                        -0.005197202321141958,
                        -0.0989600196480751,
                        -0.010137568227946758,
                        -0.0561562143266201
                    ]
                ],
                [
                    -0.01664014719426632,
                    0.02809564210474491,
                    -0.23924066126346588,
                    -0.2684149146080017,
                    0.07179000228643417,
                    -0.3483020067214966,
                    -0.07370901852846146,
                    0.18799497187137604,
                    -0.537647008895874,
                    0.23572778701782227,
                    0.6030628681182861,
                    -0.26507505774497986,
                    0.16436603665351868,
                    0.12997688353061676,
                    0.05840855836868286,
                    0.3922111690044403
                ]
            ]
        },
        {
            "type": "dense",
            "activation": "tanh",
            "shape": [
                null,
                16
            ],
            "weights": [
                [
                    [
                        -0.05912928283214569,
                        -0.14600110054016113,
                        -0.2572791278362274,
                        -0.4903317391872406,
                        0.8164136409759521,
                        0.16943547129631042,
                        0.1382983773946762,
                        -0.3310290575027466,
                        -0.2893920838832855,
                        0.45601293444633484,
                        -0.2653208374977112,
                        0.1291813999414444,
                        -0.30941241979599,
                        -0.05915180221199989,
                        -0.2183685004711151,
                        -0.5488755106925964
                    ],
                    [
                        -0.1626017838716507,
                        -0.14846396446228027,
                        0.1548386514186859,
                        0.4541316628456116,
                        -0.017140517011284828,
                        0.2007715255022049,
                        0.01236412301659584,
                        0.15256693959236145,
                        -0.01414807140827179,
                        -0.0123424818739295,
                        0.2927779257297516,
                        0.05719861760735512,
                        0.05639467388391495,
                        0.1996741145849228,
                        -0.7285577654838562,
                        0.04875959828495979
                    ],
                    [
                        0.1733318716287613,
                        -0.5067764520645142,
                        0.07692582905292511,
                        0.4068862795829773,
                        -0.01715906523168087,
                        0.3608062267303467,
                        -0.36429354548454285,
                        0.1198119968175888,
                        -0.17490124702453613,
                        -0.07999413460493088,
                        -0.3568609654903412,
                        0.24508778750896454,
                        -0.3007252514362335,
                        0.29960402846336365,
                        0.17075389623641968,
                        0.21485984325408936
                    ],
                    [
                        -0.3217177093029022,
                        0.36282774806022644,
                        -0.19293862581253052,
                        0.024732673540711403,
                        -0.24111980199813843,
                        0.20857839286327362,
                        -0.6354396343231201,
                        -0.5296004414558411,
                        -0.2802296578884125,
                        0.3273129165172577,
                        0.4515903890132904,
                        0.10352212935686111,
                        0.1186278760433197,
                        0.15086650848388672,
                        -0.10742272436618805,
                        0.07716114819049835
                    ],
                    [
                        0.023377548903226852,
                        0.050340332090854645,
                        0.3285052478313446,
                        0.046510063111782074,
                        -0.3287137746810913,
                        0.5471480488777161,
                        0.16182541847229004,
                        -0.27722927927970886,
                        0.05345955118536949,
                        -0.10341531038284302,
                        -0.26640453934669495,
                        -0.11963040381669998,
                        0.11604787409305573,
                        -0.2398645281791687,
                        -0.039228491485118866,
                        -0.4542725682258606
                    ],
                    [
                        -0.3878137171268463,
                        0.038216471672058105,
                        0.3745488226413727,
                        -0.3646170198917389,
                        -0.11359882354736328,
                        0.3671385943889618,
                        0.17503291368484497,
                        0.3049268126487732,
                        -0.237248495221138,
                        -0.3769931197166443,
                        0.08446026593446732,
                        0.08333590626716614,
                        -1.0836403369903564,
                        0.08265238255262375,
                        -0.06156124547123909,
                        0.18923607468605042
                    ],
                    [
                        -0.18008938431739807,
                        -0.3909761607646942,
                        -0.05010843649506569,
                        -0.016436124220490456,
                        -0.13163359463214874,
                        0.13097421824932098,
                        -0.2966557443141937,
                        -0.03182492405176163,
                        -0.24834029376506805,
                        -0.1798877716064453,
                        0.5625807046890259,
                        0.41766178607940674,
                        0.04212464392185211,
                        -0.2551940679550171,
                        0.30771732330322266,
                        -0.2832280993461609
                    ],
                    [
                        0.24776823818683624,
                        -0.07672765105962753,
                        -0.02362547069787979,
                        -0.13905370235443115,
                        0.18461745977401733,
                        -0.007211300544440746,
                        0.3517276644706726,
                        -0.46017226576805115,
                        -0.3971334397792816,
                        -0.008062697015702724,
                        -0.2507627010345459,
                        -0.20501957833766937,
                        0.16417481005191803,
                        -0.38889992237091064,
                        0.013642645440995693,
                        0.5189527869224548
                    ],
                    [
                        0.15183784067630768,
                        0.10495734959840775,
                        -0.5261338949203491,
                        0.31490111351013184,
                        -0.2341979742050171,
                        0.49090665578842163,
                        0.10125567018985748,
                        0.2467574030160904,
                        -0.4917846620082855,
                        0.1259157955646515,
                        0.2537708580493927,
                        -0.09352816641330719,
                        -0.9776929616928101,
                        0.055251047015190125,
                        0.25391915440559387,
                        -0.30516043305397034
                    ],
                    [
                        -0.019948571920394897,
                        -0.16468113660812378,
                        0.29965198040008545,
                        -0.2113533467054367,
                        -0.34533998370170593,
                        -0.3834001123905182,
                        0.15735334157943726,
                        0.21516624093055725,
                        -0.349762499332428,
                        0.47193658351898193,
                        -0.47114843130111694,
                        -0.13004302978515625,
                        0.12126386165618896,
                        0.04740280285477638,
                        -0.07183701545000076,
                        -0.052702274173498154
                    ],
                    [
                        0.4214097559452057,
                        -0.06583728641271591,
                        -0.11619358509778976,
                        -0.3793932795524597,
                        0.2359331101179123,
                        -0.12160450965166092,
                        0.48155686259269714,
                        -0.05876706540584564,
                        -0.39300745725631714,
                        -0.12043590098619461,
                        0.11614906042814255,
                        -0.21555617451667786,
                        0.4968978762626648,
                        0.2487034648656845,
                        -0.19716626405715942,
                        -0.12280049175024033
                    ],
                    [
                        0.09361011534929276,
                        -0.10325352847576141,
                        0.24582333862781525,
                        -0.2460409551858902,
                        -0.1400395780801773,
                        0.49262672662734985,
                        0.339498370885849,
                        0.22981643676757812,
                        0.34867188334465027,
                        0.46980682015419006,
                        0.24803294241428375,
                        0.21077266335487366,
                        0.05643386393785477,
                        0.06791681796312332,
                        0.1829000860452652,
                        0.3443489968776703
                    ],
                    [
                        0.13558220863342285,
                        -0.5889360904693604,
                        -0.33737120032310486,
                        -0.20298290252685547,
                        0.1170153096318245,
                        -0.5181236267089844,
                        0.8245620131492615,
                        -0.6750695109367371,
                        0.007636364083737135,
                        0.30708932876586914,
                        -0.26175087690353394,
                        0.13500557839870453,
                        -0.3880390226840973,
                        -0.014996601268649101,
                        -0.25543147325515747,
                        -0.20033562183380127
                    ],
                    [
                        0.31046950817108154,
                        0.2836860716342926,
                        0.42671191692352295,
                        0.061440467834472656,
                        -0.09031534194946289,
                        -0.09054926037788391,
                        0.3379316031932831,
                        -0.21878394484519958,
                        -0.00898168794810772,
                        -0.2626730501651764,
                        -0.3003251552581787,
                        0.2695426046848297,
                        -0.006865121424198151,
                        0.5941408276557922,
                        0.22701653838157654,
                        -0.027968237176537514
                    ],
                    [
                        0.46387577056884766,
                        0.060169048607349396,
                        -0.5280529856681824,
                        -0.290968656539917,
                        0.3692573606967926,
                        -0.22488024830818176,
                        0.6149191856384277,
                        -0.28921738266944885,
                        -0.377770334482193,
                        0.26420721411705017,
                        -0.6484777331352234,
                        0.7903071045875549,
                        -0.29312461614608765,
                        -0.5233591794967651,
                        -0.5360302925109863,
                        -0.24899211525917053
                    ],
                    [
                        0.05945060774683952,
                        -0.14010445773601532,
                        -0.4155983328819275,
                        -0.5845269560813904,
                        -0.3888120949268341,
                        0.1946987807750702,
                        0.33584263920783997,
                        0.10843586176633835,
                        0.20266582071781158,
                        -0.32001423835754395,
                        -0.6172449588775635,
                        0.0204100850969553,
                        0.0184506643563509,
                        0.31395360827445984,
                        -0.24446533620357513,
                        0.1520446240901947
                    ]
                ],
                [
                    -0.08925042301416397,
                    0.11813108623027802,
                    -0.02590169571340084,
                    -0.02030743472278118,
                    -0.013750332407653332,
                    -0.10516317933797836,
                    0.2890436053276062,
                    -0.002835354534909129,
                    0.010364389047026634,
                    -0.06473036110401154,
                    -0.22217559814453125,
                    -0.052251122891902924,
                    0.43004727363586426,
                    0.03486959636211395,
                    0.0272616446018219,
                    0.013054045848548412
                ]
            ]
        },
        {
            "type": "dense",
            "activation": "tanh",
            "shape": [
                null,
                16
            ],
            "weights": [
                [
                    [
                        -0.04011601582169533,
                        -0.08917039632797241,
                        0.5700060129165649,
                        0.09551206976175308,
                        0.05857330560684204,
                        0.023443354293704033,
                        -0.2997538447380066,
                        -0.1825350821018219,
                        -0.21875490248203278,
                        0.39346039295196533,
                        0.24047914147377014,
                        0.7828138470649719,
                        -0.04408576712012291,
                        0.26730111241340637,
                        -0.3727451264858246,
                        0.4295223653316498
                    ],
                    [
                        0.04594945162534714,
                        0.4461716115474701,
                        0.3204452097415924,
                        0.0484774075448513,
                        0.3290364742279053,
                        0.08848722279071808,
                        0.2717510759830475,
                        -0.32313239574432373,
                        0.39538848400115967,
                        -0.20611849427223206,
                        -0.04783601686358452,
                        0.11480963230133057,
                        -0.13767528533935547,
                        -0.2189967781305313,
                        -0.16394172608852386,
                        0.014832689426839352
                    ],
                    [
                        0.12179503589868546,
                        0.3047183156013489,
                        -0.5995854735374451,
                        -0.8673937320709229,
                        -0.5438072085380554,
                        -0.105879046022892,
                        1.0829254388809204,
                        -0.5094096660614014,
                        0.6229292750358582,
                        -0.1301276683807373,
                        0.07631386071443558,
                        -0.012994044460356236,
                        -0.08615224808454514,
                        -0.11190582811832428,
                        -0.6115744709968567,
                        -0.25470027327537537
                    ],
                    [
                        0.4181278347969055,
                        0.11263175308704376,
                        -0.19067364931106567,
                        -0.1314588338136673,
                        0.046529848128557205,
                        -0.3702492117881775,
                        0.45481887459754944,
                        0.23877839744091034,
                        -0.1267285943031311,
                        0.008087395690381527,
                        0.3008483648300171,
                        -0.14727181196212769,
                        0.031920239329338074,
                        -0.20676246285438538,
                        0.08164142072200775,
                        0.5820950865745544
                    ],
                    [
                        -0.5046072602272034,
                        -0.5815448760986328,
                        0.0894460380077362,
                        0.35481077432632446,
                        0.8824852108955383,
                        0.8380117416381836,
                        -0.7943950295448303,
                        0.4246135354042053,
                        -0.12713725864887238,
                        0.9197566509246826,
                        -1.0042216777801514,
                        -0.03078628145158291,
                        0.2917051911354065,
                        1.14863920211792,
                        0.6660510301589966,
                        0.933386504650116
                    ],
                    [
                        -0.2777992784976959,
                        -0.268993616104126,
                        0.17001143097877502,
                        -0.11897668987512589,
                        -0.3067023754119873,
                        -0.44150155782699585,
                        0.03305189684033394,
                        -0.09305783361196518,
                        0.3290923833847046,
                        -0.02564108744263649,
                        -0.40748992562294006,
                        -0.09504964202642441,
                        0.18349778652191162,
                        -0.5993747711181641,
                        0.21192272007465363,
                        0.2666114866733551
                    ],
                    [
                        -0.3293628990650177,
                        0.13550671935081482,
                        -0.26068878173828125,
                        -0.04234703257679939,
                        -0.037318818271160126,
                        -0.09081564098596573,
                        0.11682011932134628,
                        -0.0103911766782403,
                        -0.019529353827238083,
                        -0.300924688577652,
                        0.16264007985591888,
                        1.2331005334854126,
                        -0.46993470191955566,
                        0.13168711960315704,
                        -0.3456728756427765,
                        -0.06841375678777695
                    ],
                    [
                        0.25110429525375366,
                        0.6680082678794861,
                        -0.5166019797325134,
                        -0.04091522470116615,
                        -0.9094278812408447,
                        -0.15036816895008087,
                        -0.2649332880973816,
                        -0.13925032317638397,
                        0.28220334649086,
                        -0.5517345666885376,
                        0.3875645399093628,
                        0.008651986718177795,
                        -0.23276185989379883,
                        -1.1511285305023193,
                        -0.7150070071220398,
                        1.405768944096053e-05
                    ],
                    [
                        0.02727975882589817,
                        0.45256665349006653,
                        -0.08163410425186157,
                        -0.6103973984718323,
                        -0.259130597114563,
                        -0.15168455243110657,
                        0.18030284345149994,
                        -0.43542513251304626,
                        -0.2428024709224701,
                        -0.019589794799685478,
                        -0.19411101937294006,
                        -0.033241789788007736,
                        -0.42823511362075806,
                        0.1432368904352188,
                        0.30979055166244507,
                        -0.029375063255429268
                    ],
                    [
                        -0.1428290605545044,
                        -0.48262718319892883,
                        0.3359508812427521,
                        -0.15302136540412903,
                        0.6060453057289124,
                        0.6094696521759033,
                        -0.11345876008272171,
                        0.29894956946372986,
                        -0.3871409296989441,
                        -0.2686138153076172,
                        -0.4149395525455475,
                        -0.4373912513256073,
                        0.19838643074035645,
                        0.04508782550692558,
                        0.18446986377239227,
                        0.4597259759902954
                    ],
                    [
                        -0.2039651870727539,
                        -0.40126532316207886,
                        -0.10269096493721008,
                        0.4571840763092041,
                        -0.01711590401828289,
                        -0.03825679048895836,
                        0.3851374685764313,
                        -0.10364437103271484,
                        -0.08463693410158157,
                        -0.10986878722906113,
                        -0.07884101569652557,
                        -1.2027686834335327,
                        -0.4677887558937073,
                        -0.0941852331161499,
                        0.18116599321365356,
                        0.2808360755443573
                    ],
                    [
                        -0.2919357717037201,
                        -0.14103564620018005,
                        -0.09858830273151398,
                        0.2854456901550293,
                        -0.20795923471450806,
                        0.5282585620880127,
                        -0.02017229050397873,
                        -0.20490498840808868,
                        -0.30951109528541565,
                        0.279200941324234,
                        0.34015265107154846,
                        -0.12066194415092468,
                        0.36339041590690613,
                        -0.5754812359809875,
                        0.4137214124202728,
                        0.2294062376022339
                    ],
                    [
                        -0.250068724155426,
                        -0.15494292974472046,
                        0.37544485926628113,
                        -0.40121349692344666,
                        0.22747673094272614,
                        0.13270048797130585,
                        -0.1459779292345047,
                        -0.03642813116312027,
                        0.4413813054561615,
                        -0.22136525809764862,
                        0.41543692350387573,
                        -0.038585733622312546,
                        -0.07756156474351883,
                        1.1895250082015991,
                        0.4092830419540405,
                        0.16538690030574799
                    ],
                    [
                        0.054998334497213364,
                        0.3862038552761078,
                        -0.09477061778306961,
                        -0.3739108741283417,
                        -0.4269517660140991,
                        -0.1313624233007431,
                        0.19488660991191864,
                        0.33503758907318115,
                        0.269538551568985,
                        0.12317115813493729,
                        0.41913750767707825,
                        0.3646247386932373,
                        -0.63344407081604,
                        -0.8850468993186951,
                        -0.4569202661514282,
                        -0.4048319458961487
                    ],
                    [
                        -0.44244101643562317,
                        0.055107735097408295,
                        -0.2401227355003357,
                        -0.1885370910167694,
                        0.30978336930274963,
                        -0.4909941554069519,
                        -0.18448789417743683,
                        -0.2500034272670746,
                        -0.15346857905387878,
                        -0.07727178931236267,
                        0.22904501855373383,
                        -0.3270665407180786,
                        0.1702575981616974,
                        -0.5876054763793945,
                        -0.4816628694534302,
                        -0.13056057691574097
                    ],
                    [
                        0.5321794748306274,
                        -0.32374852895736694,
                        -0.5307844877243042,
                        -0.8100807070732117,
                        -0.5199344754219055,
                        -0.14039775729179382,
                        0.17164021730422974,
                        -0.6115311980247498,
                        0.2911713123321533,
                        -0.02822219580411911,
                        0.010835780762135983,
                        0.7858466506004333,
                        -0.5079596042633057,
                        -0.7161678075790405,
                        -0.4769163429737091,
                        -0.38933461904525757
                    ]
                ],
                [
                    0.0008272173581644893,
                    0.006302550435066223,
                    -0.036577533930540085,
                    -0.008637642487883568,
                    0.07796615362167358,
                    -0.03600706905126572,
                    -0.010167975910007954,
                    0.003466965164989233,
                    0.06753750890493393,
                    -0.007265391293913126,
                    -0.00729265995323658,
                    0.19577471911907196,
                    -0.0379636324942112,
                    0.034445129334926605,
                    0.01979650929570198,
                    0.0010102549567818642
                ]
            ]
        },
        {
            "type": "dense",
            "activation": "",
            "shape": [
                null,
                1
            ],
            "weights": [
                [
                    [
                        0.4223036468029022
                    ],
                    [
                        0.9088281989097595
                    ],
                    [
                        -0.3814048767089844
                    ],
                    [
                        -1.1454001665115356
                    ],
                    [
                        -0.7240168452262878
                    ],
                    [
                        -0.8532194495201111
                    ],
                    [
                        0.7715716361999512
                    ],
                    [
                        -0.30009767413139343
                    ],
                    [
                        0.41504421830177307
                    ],
                    [
                        -0.4681003987789154
                    ],
                    [
                        0.4285525679588318
                    ],
                    [
                        0.4126124083995819
                    ],
                    [
                        -0.5271545648574829
                    ],
                    [
                        -0.36285117268562317
                    ],
                    [
                        -0.680069625377655
                    ],
                    [
                        -0.6342969536781311
                    ]
                ],
                [
                    0.01950649730861187
                ]
            ]
        }
    ]
}