{
    "in_shape": [
        null,
        2
    ],
    "layers": [
        {
            "type": "unknown",
            "activation": "",
            "shape": [
                [
                    null,
                    2
                ]
            ],
            "weights": []
        },
        {
            "type": "dense",
            "activation": "tanh",
            "shape": [
                null,
                8
            ],
            "weights": [
                [
                    [
                        0.35423028469085693,
                        1.000733733177185,
                        -0.34238651394844055,
                        -1.0730911493301392,
                        0.23067040741443634,
                        -0.40269196033477783,
                        0.2792518734931946,
                        0.4369204044342041
                    ],
                    [
                        -0.14058692753314972,
                        -0.039857473224401474,
                        -0.07819242775440216,
                        -0.08544488251209259,
                        0.0035938278306275606,
                        0.3549990653991699,
                        0.16043326258659363,
                        -0.11402585357427597
                    ]
                ],
                [
                    0.02696811407804489,
                    0.23590178787708282,
                    0.23073460161685944,
                    0.8455378413200378,
                    -0.10060062259435654,
                    0.3631719946861267,
                    0.1474221646785736,
                    0.7497607469558716
                ]
            ]
        },
        {
            "type": "dense",
            "activation": "tanh",
            "shape": [
                null,
                8
            ],
            "weights": [
                [
                    [
                        0.27123910188674927,
                        0.23140427470207214,
                        0.4206068515777588,
                        -0.402895450592041,
                        0.10477124899625778,
                        -0.39941614866256714,
                        -0.2249879688024521,
                        -0.5579975843429565
                    ],
                    [
                        -0.0861804410815239,
                        0.10289960354566574,
                        0.061072513461112976,
                        0.3160174489021301,
                        0.4947783648967743,
                        -0.7585078477859497,
                        -0.4952907860279083,
                        0.22627869248390198
                    ],
                    [
                        -0.028308622539043427,
                        -0.1320141851902008,
                        -0.0508379228413105,
                        0.4529719352722168,
                        -0.8575548529624939,
                        -0.6385517716407776,
                        -0.1731027215719223,
                        -0.14327678084373474
                    ],
                    [
                        0.19770821928977966,
                        -0.9174073934555054,
                        0.24272973835468292,
                        -0.2556617558002472,
                        0.02821742184460163,
                        -0.2893577218055725,
                        -0.16555537283420563,
                        0.0663793534040451
                    ],
                    [
                        1.0158582925796509,
                        -0.889625608921051,
                        -0.5723954439163208,
                        1.0608538389205933,
                        -0.5815269351005554,
                        -0.09256298094987869,
                        0.10218555480241776,
                        0.9013687372207642
                    ],
                    [
                        0.28708508610725403,
                        -0.24554552137851715,
                        -0.36065366864204407,
                        -0.17318502068519592,
                        -0.21026064455509186,
                        0.13194908201694489,
                        0.23306728899478912,
                        -0.4211534559726715
                    ],
                    [
                        -0.1634361296892166,
                        -0.16299749910831451,
                        0.0941125750541687,
                        0.4221629798412323,
                        0.269904226064682,
                        0.31812623143196106,
                        -0.6277287602424622,
                        -0.4644770324230194
                    ],
                    [
                        -0.22203949093818665,
                        -0.2500440180301666,
                        -0.8216265439987183,
                        -0.04712563753128052,
                        0.5558905601501465,
                        -0.15495045483112335,
                        -0.9265424609184265,
                        -0.2703990936279297
                    ]
                ],
                [
                    0.021141335368156433,
                    -0.07591228187084198,
                    -0.21975842118263245,
                    -0.12930500507354736,
                    0.004708738997578621,
                    0.33370503783226013,
                    -0.6423507928848267,
                    0.13286954164505005
                ]
            ]
        },
        {
            "type": "dense",
            "activation": "tanh",
            "shape": [
                null,
                8
            ],
            "weights": [
                [
                    [
                        0.4487946331501007,
                        0.04058152437210083,
                        -0.8677939772605896,
                        -1.237058401107788,
                        0.44839704036712646,
                        0.505510151386261,
                        1.1661767959594727,
                        0.26397305727005005
                    ],
                    [
                        0.28329983353614807,
                        0.888282835483551,
                        -0.07045689970254898,
                        0.4587477743625641,
                        -1.0132803916931152,
                        -0.4098900556564331,
                        -0.6014511585235596,
                        -0.1757378727197647
                    ],
                    [
                        -0.3615933954715729,
                        -1.0503613948822021,
                        0.32312899827957153,
                        0.10085029900074005,
                        -0.7848019003868103,
                        0.7280855178833008,
                        -0.44488078355789185,
                        -0.43768417835235596
                    ],
                    [
                        0.6970260739326477,
                        0.9727407097816467,
                        0.34419387578964233,
                        -0.4901999831199646,
                        0.08086381107568741,
                        0.44703713059425354,
                        0.25209465622901917,
                        1.0346548557281494
                    ],
                    [
                        -0.11692164838314056,
                        -0.5328478813171387,
                        0.7379541993141174,
                        0.8344102501869202,
                        -0.752282977104187,
                        -1.8890407085418701,
                        -0.2271389365196228,
                        -0.5923290252685547
                    ],
                    [
                        -0.655135989189148,
                        0.3163694441318512,
                        0.2746380567550659,
                        0.21314162015914917,
                        -0.3332945704460144,
                        0.035332683473825455,
                        0.4857734143733978,
                        -0.23016317188739777
                    ],
                    [
                        0.5719621181488037,
                        0.08078531175851822,
                        0.026881515979766846,
                        0.03435457870364189,
                        0.037848372012376785,
                        1.1412551403045654,
                        -0.1131349727511406,
                        -0.6608036160469055
                    ],
                    [
                        0.7020361423492432,
                        0.07971609383821487,
                        -0.5538344979286194,
                        -0.010310713201761246,
                        0.33747464418411255,
                        1.192779779434204,
                        0.9531777501106262,
                        0.956925094127655
                    ]
                ],
                [
                    -0.0522555448114872,
                    0.0661243423819542,
                    -0.1255262941122055,
                    -0.01422585267573595,
                    -0.04816993325948715,
                    -0.16677220165729523,
                    0.08762457966804504,
                    0.16504144668579102
                ]
            ]
        },
        {
            "type": "dense",
            "activation": "",
            "shape": [
                null,
                1
            ],
            "weights": [
                [
                    [
                        1.2053879499435425
                    ],
                    [
                        0.48030003905296326
                    ],
                    [
                        -0.6228268146514893
                    ],
                    [
                        -1.4054275751113892
                    ],
                    [
                        1.266187071800232
                    ],
                    [
                        0.8194804787635803
                    ],
                    [
                        1.0564073324203491
                    ],
                    [
                        1.3175326585769653
                    ]
                ],
                [
                    -0.016235236078500748
                ]
            ]
        }
    ]
}