{
    "in_shape": [
        null,
        2
    ],
    "layers": [
        {
            "type": "dense",
            "shape": [
                null,
                8
            ],
            "weights": [
                [
                    [
                        -0.475477010011673,
                        0.21327979862689972,
                        0.3754498362541199,
                        -0.12748178839683533,
                        -0.5024135708808899,
                        1.2633169889450073,
                        0.2363293617963791,
                        -1.346405267715454
                    ],
                    [
                        0.06661857664585114,
                        -0.020463770255446434,
                        0.044681016355752945,
                        -2.1190638542175293,
                        0.10757358372211456,
                        -0.06673005223274231,
                        0.019028358161449432,
                        -0.04505498334765434
                    ]
                ],
                [
                    0.07347003370523453,
                    0.39255133271217346,
                    -0.04301319271326065,
                    -1.5248839855194092,
                    -0.33449888229370117,
                    0.5901244878768921,
                    -0.4459308385848999,
                    0.7391244769096375
                ]
            ],
            "activation": "tanh"
        },
        {
            "type": "dense",
            "shape": [
                null,
                8
            ],
            "weights": [
                [
                    [
                        -0.24766729772090912,
                        0.03697386011481285,
                        0.7066761255264282,
                        -0.18260075151920319,
                        0.22585643827915192,
                        -0.37395963072776794,
                        0.20862804353237152,
                        0.12076132744550705
                    ],
                    [
                        0.09796711802482605,
                        1.136473536491394,
                        0.4915667176246643,
                        0.35373055934906006,
                        -0.6675743460655212,
                        -0.13693909347057343,
                        0.7470652461051941,
                        0.41504552960395813
                    ],
                    [
                        -0.34348997473716736,
                        -0.1308661252260208,
                        -0.17384247481822968,
                        0.07084666937589645,
                        0.2967551052570343,
                        0.6499078273773193,
                        -0.25552719831466675,
                        0.30142566561698914
                    ],
                    [
                        0.010719219222664833,
                        -0.3334839344024658,
                        0.13208766281604767,
                        0.25918707251548767,
                        0.24029451608657837,
                        -0.08280481398105621,
                        0.7537024021148682,
                        0.31259724497795105
                    ],
                    [
                        -0.23499539494514465,
                        -0.09964399039745331,
                        -0.2770688235759735,
                        0.32131657004356384,
                        -0.10059313476085663,
                        0.010486275888979435,
                        0.5604248642921448,
                        -0.5255192518234253
                    ],
                    [
                        -0.2302984893321991,
                        0.18634702265262604,
                        0.170828714966774,
                        0.32851168513298035,
                        0.5088144540786743,
                        0.11242906749248505,
                        -0.8916255235671997,
                        -0.46043726801872253
                    ],
                    [
                        -0.572924792766571,
                        0.0858028382062912,
                        0.38147395849227905,
                        0.7908660769462585,
                        -0.616928219795227,
                        -0.8505337834358215,
                        0.06696169078350067,
                        0.7833545207977295
                    ],
                    [
                        -0.38846611976623535,
                        -0.15946151316165924,
                        0.5031833648681641,
                        -0.45974263548851013,
                        -0.5632405877113342,
                        0.5674774646759033,
                        0.13933631777763367,
                        -0.19910085201263428
                    ]
                ],
                [
                    0.26542913913726807,
                    0.14778445661067963,
                    0.10604113340377808,
                    0.19897232949733734,
                    0.064718097448349,
                    0.1258389949798584,
                    -0.0758025199174881,
                    -0.047818154096603394
                ]
            ],
            "activation": "tanh"
        },
        {
            "type": "dense",
            "shape": [
                null,
                8
            ],
            "weights": [
                [
                    [
                        0.0415007583796978,
                        0.059416916221380234,
                        0.8126824498176575,
                        -0.6904932260513306,
                        0.2833273410797119,
                        0.0429474301636219,
                        -0.3922530710697174,
                        -0.23160023987293243
                    ],
                    [
                        -0.36360377073287964,
                        -0.40979915857315063,
                        -0.7272270917892456,
                        0.12811797857284546,
                        -0.7377817034721375,
                        0.5342820882797241,
                        0.4625983238220215,
                        -0.8392432928085327
                    ],
                    [
                        -0.25460898876190186,
                        0.5848714113235474,
                        -0.6186994910240173,
                        -0.8652892112731934,
                        -0.8807188272476196,
                        0.48859167098999023,
                        0.7148886919021606,
                        -0.41398581862449646
                    ],
                    [
                        -0.8503425121307373,
                        -0.9046089053153992,
                        -0.10731948912143707,
                        -0.3039209246635437,
                        -0.006862979382276535,
                        -0.07933943718671799,
                        -0.07364020496606827,
                        -0.47159814834594727
                    ],
                    [
                        0.3176579177379608,
                        -0.4407156705856323,
                        1.1497656106948853,
                        0.9209216833114624,
                        -0.011916844174265862,
                        -0.3945443034172058,
                        -0.27293476462364197,
                        0.3551371991634369
                    ],
                    [
                        0.47929248213768005,
                        1.671162724494934,
                        -0.03489486500620842,
                        0.5229368209838867,
                        -0.116108737885952,
                        -1.0083727836608887,
                        -0.6644899845123291,
                        0.1016300618648529
                    ],
                    [
                        0.23637159168720245,
                        -0.5895096063613892,
                        -0.3204941153526306,
                        -1.449587345123291,
                        -0.35902896523475647,
                        -0.19696134328842163,
                        -0.16148421168327332,
                        0.33427563309669495
                    ],
                    [
                        -0.21272429823875427,
                        -0.24938975274562836,
                        -0.360565185546875,
                        -0.477226585149765,
                        -0.3683668076992035,
                        0.8693680763244629,
                        -0.35094624757766724,
                        0.15540634095668793
                    ]
                ],
                [
                    -0.06403370946645737,
                    0.11514651030302048,
                    0.001390401041135192,
                    -0.12395966798067093,
                    -0.12180376797914505,
                    -0.09608621895313263,
                    0.05370046943426132,
                    -0.099368155002594
                ]
            ],
            "activation": "tanh"
        },
        {
            "type": "dense",
            "shape": [
                null,
                1
            ],
            "weights": [
                [
                    [
                        -1.096543788909912
                    ],
                    [
                        -0.5427565574645996
                    ],
                    [
                        -1.131165862083435
                    ],
                    [
                        -0.7109647393226624
                    ],
                    [
                        -0.7553447484970093
                    ],
                    [
                        1.373860239982605
                    ],
                    [
                        0.7840672731399536
                    ],
                    [
                        -0.7114478349685669
                    ]
                ],
                [
                    0.05384761840105057
                ]
            ],
            "activation": ""
        }
    ]
}