{
    "in_shape": [
        null,
        2
    ],
    "layers": [
        {
            "type": "dense",
            "shape": [
                null,
                4
            ],
            "weights": [
                [
                    [
                        -0.21059337258338928,
                        0.3336050808429718,
                        0.49714037775993347,
                        -1.2628757953643799
                    ],
                    [
                        -0.000441256765043363,
                        0.06069178134202957,
                        -0.07282476127147675,
                        -0.08818768709897995
                    ]
                ],
                [
                    0.0685059130191803,
                    0.016090963035821915,
                    0.12407845258712769,
                    0.4287097752094269
                ]
            ],
            "activation": "tanh"
        },
        {
            "type": "dense",
            "shape": [
                null,
                4
            ],
            "weights": [
                [
                    [
                        -1.0859897136688232,
                        0.9544409513473511,
                        1.187864065170288,
                        0.41961869597435
                    ],
                    [
                        -0.3262546956539154,
                        0.5805144906044006,
                        -0.39371997117996216,
                        0.48052889108657837
                    ],
                    [
                        -0.4123086631298065,
                        0.6684660911560059,
                        0.2776168882846832,
                        -1.1214410066604614
                    ],
                    [
                        -0.6635504961013794,
                        -0.39538145065307617,
                        -0.25308188796043396,
                        -0.10384815186262131
                    ]
                ],
                [
                    0.13710390031337738,
                    -0.035285547375679016,
                    0.10331381857395172,
                    -0.49622583389282227
                ]
            ],
            "activation": "tanh"
        },
        {
            "type": "dense",
            "shape": [
                null,
                4
            ],
            "weights": [
                [
                    [
                        -0.5729588866233826,
                        -1.3840556144714355,
                        0.939716100692749,
                        0.07387465238571167
                    ],
                    [
                        0.8869314193725586,
                        1.0499223470687866,
                        -0.9818975329399109,
                        1.8835551738739014
                    ],
                    [
                        0.1055016964673996,
                        0.5776405930519104,
                        -1.9313009977340698,
                        1.2589627504348755
                    ],
                    [
                        1.038869023323059,
                        0.4343172013759613,
                        0.1911073923110962,
                        -0.3074864447116852
                    ]
                ],
                [
                    -0.09772041440010071,
                    0.1515730917453766,
                    -0.09197976440191269,
                    -0.12051253765821457
                ]
            ],
            "activation": "tanh"
        },
        {
            "type": "dense",
            "shape": [
                null,
                1
            ],
            "weights": [
                [
                    [
                        -2.3383474349975586
                    ],
                    [
                        -1.3759316205978394
                    ],
                    [
                        1.4922840595245361
                    ],
                    [
                        -0.8973821401596069
                    ]
                ],
                [
                    -0.07644685357809067
                ]
            ],
            "activation": ""
        }
    ]
}