{
    "in_shape": [
        null,
        2
    ],
    "layers": [
        {
            "type": "dense",
            "shape": [
                null,
                8
            ],
            "weights": [
                [
                    [
                        0.32661154866218567,
                        1.006264328956604,
                        -0.31081658601760864,
                        -1.0528331995010376,
                        0.25108602643013,
                        -0.4147913455963135,
                        0.29008209705352783,
                        0.4241935610771179
                    ],
                    [
                        -0.1423126459121704,
                        0.04270118102431297,
                        -0.09101886302232742,
                        -0.03573570400476456,
                        0.005370498169213533,
                        0.3471066355705261,
                        0.1522175371646881,
                        -0.10866714268922806
                    ]
                ],
                [
                    0.025179052725434303,
                    0.3181748390197754,
                    0.2179286777973175,
                    0.8953365683555603,
                    -0.09874555468559265,
                    0.3552747964859009,
                    0.1390644758939743,
                    0.7550168037414551
                ]
            ],
            "activation": "tanh"
        },
        {
            "type": "dense",
            "shape": [
                null,
                8
            ],
            "weights": [
                [
                    [
                        0.2606291174888611,
                        0.2517317533493042,
                        0.41961464285850525,
                        -0.39791780710220337,
                        0.0918879434466362,
                        -0.37916550040245056,
                        -0.2691270112991333,
                        -0.5589680075645447
                    ],
                    [
                        -0.06021691486239433,
                        0.0899348184466362,
                        -0.005307640414685011,
                        0.39130932092666626,
                        0.4554581344127655,
                        -0.788536548614502,
                        -0.5760380029678345,
                        0.2626796364784241
                    ],
                    [
                        -0.028395574539899826,
                        -0.12830141186714172,
                        -0.0389302559196949,
                        0.4390522837638855,
                        -0.8737177848815918,
                        -0.6268458962440491,
                        -0.17329981923103333,
                        -0.1412210762500763
                    ],
                    [
                        0.19580429792404175,
                        -0.9308984875679016,
                        0.2893426716327667,
                        -0.31479665637016296,
                        0.06886056065559387,
                        -0.2969505190849304,
                        -0.09922291338443756,
                        0.044297248125076294
                    ],
                    [
                        0.9953364729881287,
                        -0.8625794649124146,
                        -0.5968266725540161,
                        1.0985163450241089,
                        -0.5978550314903259,
                        -0.08180205523967743,
                        0.0399845726788044,
                        0.8977036476135254
                    ],
                    [
                        0.2945212423801422,
                        -0.2579955458641052,
                        -0.36265987157821655,
                        -0.17524990439414978,
                        -0.1980171799659729,
                        0.1188259944319725,
                        0.2741148769855499,
                        -0.4217860996723175
                    ],
                    [
                        -0.1573350429534912,
                        -0.17337360978126526,
                        0.09154839813709259,
                        0.42147889733314514,
                        0.2831093370914459,
                        0.30572372674942017,
                        -0.5883856415748596,
                        -0.46579864621162415
                    ],
                    [
                        -0.23032580316066742,
                        -0.23606514930725098,
                        -0.8569129705429077,
                        0.0028547844849526882,
                        0.5302274227142334,
                        -0.1546362340450287,
                        -0.9938220977783203,
                        -0.26153045892715454
                    ]
                ],
                [
                    0.02846178412437439,
                    -0.0881376788020134,
                    -0.22182178497314453,
                    -0.13133123517036438,
                    0.016949009150266647,
                    0.3207993805408478,
                    -0.6013827323913574,
                    0.1321628987789154
                ]
            ],
            "activation": "tanh"
        },
        {
            "type": "dense",
            "shape": [
                null,
                8
            ],
            "weights": [
                [
                    [
                        0.35189107060432434,
                        -0.032506804913282394,
                        -0.7848573327064514,
                        -1.1492382287979126,
                        0.35527482628822327,
                        0.45802488923072815,
                        1.0791620016098022,
                        0.20222215354442596
                    ],
                    [
                        0.2589099109172821,
                        0.890286922454834,
                        -0.06748037040233612,
                        0.46721941232681274,
                        -1.0281617641448975,
                        -0.39248886704444885,
                        -0.6131070852279663,
                        -0.1370721459388733
                    ],
                    [
                        -0.37343358993530273,
                        -1.0810058116912842,
                        0.3238847851753235,
                        0.10788940638303757,
                        -0.7928957939147949,
                        0.8043107986450195,
                        -0.44934752583503723,
                        -0.44326746463775635
                    ],
                    [
                        0.7136803865432739,
                        1.0395346879959106,
                        0.32549533247947693,
                        -0.5118573307991028,
                        0.0959518775343895,
                        0.43374526500701904,
                        0.26179537177085876,
                        1.1091047525405884
                    ],
                    [
                        -0.09321166574954987,
                        -0.4747912883758545,
                        0.7237504720687866,
                        0.8140572309494019,
                        -0.7346892356872559,
                        -1.9236077070236206,
                        -0.2271636724472046,
                        -0.5356829762458801
                    ],
                    [
                        -0.6446750164031982,
                        0.32164493203163147,
                        0.27459707856178284,
                        0.20881547033786774,
                        -0.3242262005805969,
                        0.021875612437725067,
                        0.5037651062011719,
                        -0.25725817680358887
                    ],
                    [
                        0.5565688014030457,
                        0.04952765628695488,
                        0.024906249716877937,
                        0.04042421653866768,
                        0.03016153909265995,
                        1.2143077850341797,
                        -0.1074109822511673,
                        -0.654625654220581
                    ],
                    [
                        0.663069486618042,
                        0.1021416112780571,
                        -0.546352744102478,
                        -0.0006481900345534086,
                        0.3158447742462158,
                        1.1904783248901367,
                        0.9259607791900635,
                        0.9911893010139465
                    ]
                ],
                [
                    -0.03926188126206398,
                    0.07967054098844528,
                    -0.12825781106948853,
                    -0.021621065214276314,
                    -0.036929529160261154,
                    -0.18299268186092377,
                    0.1065760999917984,
                    0.14284169673919678
                ]
            ],
            "activation": "tanh"
        },
        {
            "type": "dense",
            "shape": [
                null,
                1
            ],
            "weights": [
                [
                    [
                        1.1897480487823486
                    ],
                    [
                        0.5097575783729553
                    ],
                    [
                        -0.5943098068237305
                    ],
                    [
                        -1.3096510171890259
                    ],
                    [
                        1.2632687091827393
                    ],
                    [
                        0.833488941192627
                    ],
                    [
                        1.0561912059783936
                    ],
                    [
                        1.3348249197006226
                    ]
                ],
                [
                    -0.00750746438279748
                ]
            ],
            "activation": ""
        }
    ]
}