{
    "in_shape": [
        null,
        2
    ],
    "layers": [
        {
            "type": "dense",
            "shape": [
                null,
                8
            ],
            "weights": [
                [
                    [
                        -0.3281089663505554,
                        -0.35536444187164307,
                        0.04054268077015877,
                        0.1001160517334938,
                        -0.12990529835224152,
                        -0.8241857290267944,
                        0.8292004466056824,
                        1.3816090822219849
                    ],
                    [
                        0.01183201652020216,
                        0.04511375352740288,
                        0.05757039412856102,
                        0.023142408579587936,
                        -0.0001276444090763107,
                        -0.04482549801468849,
                        1.076112151145935,
                        -0.06895402073860168
                    ]
                ],
                [
                    -0.11097587645053864,
                    -0.033605076372623444,
                    -0.03572266176342964,
                    -0.1700262874364853,
                    -0.12422342598438263,
                    0.4272468686103821,
                    0.4678709805011749,
                    0.28838586807250977
                ]
            ],
            "activation": "tanh"
        },
        {
            "type": "dense",
            "shape": [
                null,
                8
            ],
            "weights": [
                [
                    [
                        -0.18036529421806335,
                        0.1364934742450714,
                        0.19008708000183105,
                        -0.8094549179077148,
                        0.024536995217204094,
                        -0.3826773464679718,
                        -0.7031058073043823,
                        0.6577747464179993
                    ],
                    [
                        0.48825815320014954,
                        -0.4459528625011444,
                        -0.6824394464492798,
                        -0.04498067870736122,
                        0.043769486248493195,
                        -0.2221434861421585,
                        0.10876762866973877,
                        -0.236240416765213
                    ],
                    [
                        0.08854541927576065,
                        -0.36542800068855286,
                        0.4246068000793457,
                        0.3480408489704132,
                        0.03585869446396828,
                        0.008589898236095905,
                        -0.5808755159378052,
                        -0.4241212010383606
                    ],
                    [
                        0.18006601929664612,
                        -0.936953067779541,
                        0.1939900666475296,
                        -0.13376621901988983,
                        0.10658186674118042,
                        0.7300999164581299,
                        0.4237448573112488,
                        0.10235875844955444
                    ],
                    [
                        -0.8275558948516846,
                        -0.5553646683692932,
                        0.10840049386024475,
                        -0.027078667655587196,
                        -0.4996911883354187,
                        -0.23832599818706512,
                        0.1812477856874466,
                        0.05486411973834038
                    ],
                    [
                        0.5100662112236023,
                        0.08300652354955673,
                        0.8516296744346619,
                        0.011555858887732029,
                        -0.8312080502510071,
                        -0.30910319089889526,
                        0.22793333232402802,
                        -0.1351613998413086
                    ],
                    [
                        0.108238585293293,
                        0.09842207282781601,
                        0.29928988218307495,
                        0.10146647691726685,
                        0.14488787949085236,
                        -0.6942500472068787,
                        0.1488799899816513,
                        0.5946735739707947
                    ],
                    [
                        -0.33849501609802246,
                        -0.4544053077697754,
                        0.13523735105991364,
                        -0.4366394579410553,
                        0.7950244545936584,
                        -0.45897039771080017,
                        0.08666488528251648,
                        -0.31608712673187256
                    ]
                ],
                [
                    -0.0007911674911156297,
                    0.15617193281650543,
                    0.014226230792701244,
                    -0.07392615079879761,
                    0.04054458439350128,
                    -0.07560493797063828,
                    0.05449068918824196,
                    -0.09439868479967117
                ]
            ],
            "activation": "tanh"
        },
        {
            "type": "dense",
            "shape": [
                null,
                8
            ],
            "weights": [
                [
                    [
                        -0.3873033821582794,
                        -0.4947669208049774,
                        -0.2726030945777893,
                        0.13807223737239838,
                        -1.0421726703643799,
                        0.29012247920036316,
                        -0.44389164447784424,
                        -0.07045437395572662
                    ],
                    [
                        -0.7496063709259033,
                        0.19072763621807098,
                        0.32255831360816956,
                        0.44665834307670593,
                        0.08025907725095749,
                        0.5454798936843872,
                        -0.501973032951355,
                        -0.05784615874290466
                    ],
                    [
                        -0.08387894183397293,
                        -0.02873058430850506,
                        -0.13540329039096832,
                        -0.8929345607757568,
                        0.03662490099668503,
                        -0.23080740869045258,
                        -0.5169903039932251,
                        -0.6050769090652466
                    ],
                    [
                        0.3425508141517639,
                        0.5828473567962646,
                        0.301448792219162,
                        0.21575039625167847,
                        -0.5358156561851501,
                        0.5631864666938782,
                        -0.19727039337158203,
                        -0.3770102560520172
                    ],
                    [
                        -0.04263128340244293,
                        0.07366263121366501,
                        0.9569994211196899,
                        -0.33006373047828674,
                        -0.17076505720615387,
                        0.3133905231952667,
                        0.3377493619918823,
                        0.7300387024879456
                    ],
                    [
                        0.5478066802024841,
                        -0.018305180594325066,
                        0.11204666644334793,
                        0.6390517950057983,
                        -0.12210728228092194,
                        -0.42419373989105225,
                        -0.6846612095832825,
                        0.34888580441474915
                    ],
                    [
                        0.3528514504432678,
                        -0.8296278715133667,
                        0.7318459749221802,
                        0.212458997964859,
                        -0.03796162083745003,
                        0.4038817286491394,
                        -0.17238104343414307,
                        -0.48233985900878906
                    ],
                    [
                        -0.6674597859382629,
                        0.13885028660297394,
                        0.6016757488250732,
                        0.05242643132805824,
                        -0.08252034336328506,
                        -0.5795465707778931,
                        0.15612582862377167,
                        -0.15747325122356415
                    ]
                ],
                [
                    -0.07786858081817627,
                    0.031247833743691444,
                    0.1812589019536972,
                    -0.02841881290078163,
                    0.03414202481508255,
                    0.13368265330791473,
                    -0.01767461933195591,
                    0.06531260162591934
                ]
            ],
            "activation": "tanh"
        },
        {
            "type": "dense",
            "shape": [
                null,
                8
            ],
            "weights": [
                [
                    [
                        0.008590897545218468,
                        -0.31667158007621765,
                        0.13292481005191803,
                        0.7893862724304199,
                        -0.23892484605312347,
                        -0.9651941061019897,
                        0.6550747752189636,
                        -0.3170818090438843
                    ],
                    [
                        -0.6417545080184937,
                        -0.06567785888910294,
                        -0.6939071416854858,
                        0.024873390793800354,
                        -0.028312284499406815,
                        -0.2601320445537567,
                        -0.8076621294021606,
                        0.29918089509010315
                    ],
                    [
                        -0.07028380036354065,
                        0.7397570610046387,
                        -0.38980141282081604,
                        0.5128816366195679,
                        0.23157808184623718,
                        0.04567961022257805,
                        0.2994322180747986,
                        0.468583881855011
                    ],
                    [
                        0.10269274562597275,
                        -1.0797398090362549,
                        0.09774357825517654,
                        0.6075506210327148,
                        0.3271549940109253,
                        -0.3337213695049286,
                        0.030558886006474495,
                        0.681108295917511
                    ],
                    [
                        0.006805554963648319,
                        0.5535852909088135,
                        0.7046226859092712,
                        0.20253869891166687,
                        -0.7170682549476624,
                        0.12082909047603607,
                        -0.6148242950439453,
                        0.24073486030101776
                    ],
                    [
                        0.8340648412704468,
                        -0.14740106463432312,
                        -1.0518827438354492,
                        0.5682514309883118,
                        1.013871192932129,
                        -0.3377196788787842,
                        -0.09699935466051102,
                        -0.31007155776023865
                    ],
                    [
                        -0.41728684306144714,
                        0.6340668797492981,
                        0.09897217154502869,
                        -0.0861540213227272,
                        0.8263477683067322,
                        -0.09168550372123718,
                        -0.2860240638256073,
                        0.15163303911685944
                    ],
                    [
                        0.12033426761627197,
                        0.15543678402900696,
                        -0.06602820754051208,
                        -0.4117545485496521,
                        -0.034677546471357346,
                        -0.7589704394340515,
                        -0.06191541627049446,
                        0.742377519607544
                    ]
                ],
                [
                    0.05667703226208687,
                    0.03471595421433449,
                    -0.19079016149044037,
                    -0.01496200729161501,
                    0.14143435657024384,
                    -0.046375542879104614,
                    -0.06780589371919632,
                    -0.018694590777158737
                ]
            ],
            "activation": "tanh"
        },
        {
            "type": "dense",
            "shape": [
                null,
                8
            ],
            "weights": [
                [
                    [
                        0.06363256275653839,
                        -0.1097547635436058,
                        0.009442366659641266,
                        -0.5210616588592529,
                        0.7830960154533386,
                        1.0241203308105469,
                        0.31171655654907227,
                        -0.10737530142068863
                    ],
                    [
                        0.33905425667762756,
                        0.04274503141641617,
                        -0.5275074243545532,
                        1.2633253335952759,
                        -0.7658376097679138,
                        -0.018870951607823372,
                        0.014258560724556446,
                        -0.15063081681728363
                    ],
                    [
                        -0.015207767486572266,
                        -0.29960691928863525,
                        -0.03944631293416023,
                        -0.3044931888580322,
                        -1.09565007686615,
                        0.034960415214300156,
                        0.49855926632881165,
                        0.4276331663131714
                    ],
                    [
                        -0.18483732640743256,
                        -1.1970270872116089,
                        -0.20203091204166412,
                        -1.0592215061187744,
                        0.5228475332260132,
                        0.047142550349235535,
                        -0.4846557378768921,
                        -0.9547917246818542
                    ],
                    [
                        -0.7433866262435913,
                        -0.5993216633796692,
                        0.2981422245502472,
                        0.34608420729637146,
                        1.291748285293579,
                        0.2860780656337738,
                        0.010695163160562515,
                        -0.23486249148845673
                    ],
                    [
                        -0.09854836761951447,
                        0.717709481716156,
                        -0.8364171981811523,
                        0.38110899925231934,
                        0.003739798441529274,
                        0.16450661420822144,
                        0.0013358223950490355,
                        0.6987403631210327
                    ],
                    [
                        -0.35263410210609436,
                        -0.7481237649917603,
                        0.4792976379394531,
                        -0.8538388013839722,
                        0.012972824275493622,
                        0.9745721220970154,
                        -1.0178581476211548,
                        -0.40888506174087524
                    ],
                    [
                        0.6001482009887695,
                        -0.8216109275817871,
                        -0.15955109894275665,
                        0.26766476035118103,
                        0.23353493213653564,
                        -0.6301604509353638,
                        -0.18611618876457214,
                        0.5145222544670105
                    ]
                ],
                [
                    -0.006194105371832848,
                    -0.1001683846116066,
                    -0.026377348229289055,
                    0.05081982538104057,
                    0.330194890499115,
                    -0.011263850145041943,
                    0.06992045789957047,
                    0.017314324155449867
                ]
            ],
            "activation": "tanh"
        },
        {
            "type": "dense",
            "shape": [
                null,
                1
            ],
            "weights": [
                [
                    [
                        -0.13281121850013733
                    ],
                    [
                        -0.38161900639533997
                    ],
                    [
                        0.4565349221229553
                    ],
                    [
                        -1.1275348663330078
                    ],
                    [
                        0.7418887615203857
                    ],
                    [
                        1.2584761381149292
                    ],
                    [
                        -0.49767786264419556
                    ],
                    [
                        -0.7770279049873352
                    ]
                ],
                [
                    0.006183107849210501
                ]
            ],
            "activation": ""
        }
    ]
}