{
    "in_shape": [
        null,
        2
    ],
    "layers": [
        {
            "type": "dense",
            "shape": [
                null,
                8
            ],
            "weights": [
                [
                    [
                        0.3488474488258362,
                        1.007878303527832,
                        -0.34321093559265137,
                        -1.0619887113571167,
                        0.2338344156742096,
                        -0.395791620016098,
                        0.2810359299182892,
                        0.43591204285621643
                    ],
                    [
                        -0.1407621204853058,
                        -0.03699924051761627,
                        -0.07853531837463379,
                        -0.08568250387907028,
                        0.0036221081390976906,
                        0.3545982241630554,
                        0.15839333832263947,
                        -0.11461230367422104
                    ]
                ],
                [
                    0.02680143527686596,
                    0.23865389823913574,
                    0.2304566353559494,
                    0.8452157974243164,
                    -0.10055278986692429,
                    0.3627273142337799,
                    0.14529283344745636,
                    0.7491222620010376
                ]
            ],
            "activation": "tanh"
        },
        {
            "type": "dense",
            "shape": [
                null,
                8
            ],
            "weights": [
                [
                    [
                        0.27114322781562805,
                        0.23178373277187347,
                        0.41995397210121155,
                        -0.4023773670196533,
                        0.10463441908359528,
                        -0.4004310965538025,
                        -0.2269701510667801,
                        -0.5589199662208557
                    ],
                    [
                        -0.0824161022901535,
                        0.09346894174814224,
                        0.05984557420015335,
                        0.31793543696403503,
                        0.4945746660232544,
                        -0.767067551612854,
                        -0.4939950406551361,
                        0.22959819436073303
                    ],
                    [
                        -0.028345515951514244,
                        -0.12793190777301788,
                        -0.05242740735411644,
                        0.45418888330459595,
                        -0.8591713309288025,
                        -0.6358571648597717,
                        -0.1778595894575119,
                        -0.1439169943332672
                    ],
                    [
                        0.19282633066177368,
                        -0.9057826995849609,
                        0.24543482065200806,
                        -0.2589375376701355,
                        0.029706604778766632,
                        -0.27805477380752563,
                        -0.16343240439891815,
                        0.0622822530567646
                    ],
                    [
                        1.0181095600128174,
                        -0.898480236530304,
                        -0.5728273987770081,
                        1.0618665218353271,
                        -0.5808611512184143,
                        -0.10161561518907547,
                        0.10114257782697678,
                        0.9028093814849854
                    ],
                    [
                        0.2872868478298187,
                        -0.24637576937675476,
                        -0.35998407006263733,
                        -0.17368793487548828,
                        -0.21003666520118713,
                        0.13251183927059174,
                        0.23511271178722382,
                        -0.4201646149158478
                    ],
                    [
                        -0.16329503059387207,
                        -0.1639387309551239,
                        0.09491446614265442,
                        0.42154762148857117,
                        0.2702980935573578,
                        0.31857621669769287,
                        -0.6255618333816528,
                        -0.4635678231716156
                    ],
                    [
                        -0.21777991950511932,
                        -0.26060429215431213,
                        -0.8241913914680481,
                        -0.044062867760658264,
                        0.5544469952583313,
                        -0.16553516685962677,
                        -0.9293444156646729,
                        -0.26693812012672424
                    ]
                ],
                [
                    0.02134542353451252,
                    -0.0767507553100586,
                    -0.2190890908241272,
                    -0.12980706989765167,
                    0.004933783318847418,
                    0.33425983786582947,
                    -0.640304446220398,
                    0.1338600069284439
                ]
            ],
            "activation": "tanh"
        },
        {
            "type": "dense",
            "shape": [
                null,
                8
            ],
            "weights": [
                [
                    [
                        0.4412880539894104,
                        0.03883250057697296,
                        -0.864073634147644,
                        -1.2314071655273438,
                        0.4415115416049957,
                        0.48992300033569336,
                        1.1578737497329712,
                        0.25978222489356995
                    ],
                    [
                        0.2880101501941681,
                        0.8906030058860779,
                        -0.07231561839580536,
                        0.4559107720851898,
                        -1.0097986459732056,
                        -0.4155893921852112,
                        -0.6011776328086853,
                        -0.1750551164150238
                    ],
                    [
                        -0.3619321882724762,
                        -1.0468192100524902,
                        0.3215791881084442,
                        0.09928107261657715,
                        -0.784636378288269,
                        0.7255558967590332,
                        -0.44639506936073303,
                        -0.4368230104446411
                    ],
                    [
                        0.7038969993591309,
                        0.9711296558380127,
                        0.3426606059074402,
                        -0.49278199672698975,
                        0.086157888174057,
                        0.43295818567276,
                        0.25750932097435,
                        1.035524606704712
                    ],
                    [
                        -0.1102520003914833,
                        -0.5348929166793823,
                        0.735220193862915,
                        0.8310639262199402,
                        -0.7468359470367432,
                        -1.9027451276779175,
                        -0.22090056538581848,
                        -0.5898208618164062
                    ],
                    [
                        -0.6554828882217407,
                        0.3148060739040375,
                        0.2749082148075104,
                        0.213880255818367,
                        -0.333484947681427,
                        0.04055121913552284,
                        0.4878945052623749,
                        -0.22950096428394318
                    ],
                    [
                        0.5714176297187805,
                        0.0843501091003418,
                        0.025398127734661102,
                        0.03285674378275871,
                        0.03788510337471962,
                        1.1382663249969482,
                        -0.11478561908006668,
                        -0.6599962115287781
                    ],
                    [
                        0.7018387317657471,
                        0.07895185798406601,
                        -0.5521434545516968,
                        -0.009267836809158325,
                        0.3365026116371155,
                        1.1857813596725464,
                        0.9494813084602356,
                        0.9543094635009766
                    ]
                ],
                [
                    -0.05246749147772789,
                    0.06438568979501724,
                    -0.12515240907669067,
                    -0.013427813537418842,
                    -0.04831509292125702,
                    -0.16168555617332458,
                    0.08970513939857483,
                    0.16559019684791565
                ]
            ],
            "activation": "tanh"
        },
        {
            "type": "dense",
            "shape": [
                null,
                1
            ],
            "weights": [
                [
                    [
                        1.2053357362747192
                    ],
                    [
                        0.4832170009613037
                    ],
                    [
                        -0.6211585998535156
                    ],
                    [
                        -1.3977025747299194
                    ],
                    [
                        1.259061336517334
                    ],
                    [
                        0.8192887902259827
                    ],
                    [
                        1.0552304983139038
                    ],
                    [
                        1.3161442279815674
                    ]
                ],
                [
                    -0.01614510640501976
                ]
            ],
            "activation": ""
        }
    ]
}