{
    "in_shape": [
        null,
        2
    ],
    "layers": [
        {
            "type": "dense",
            "shape": [
                null,
                8
            ],
            "weights": [
                [
                    [
                        0.28627416491508484,
                        0.5609129071235657,
                        0.3862398564815521,
                        -0.038273487240076065,
                        0.372760146856308,
                        0.4892415404319763,
                        -0.2863187789916992,
                        0.14628349244594574
                    ],
                    [
                        -0.06709063053131104,
                        0.02714952826499939,
                        0.1818118691444397,
                        -0.054520346224308014,
                        0.005969090852886438,
                        -0.19596296548843384,
                        0.00398173788562417,
                        0.034028347581624985
                    ]
                ],
                [
                    0.31907597184181213,
                    -0.3266526162624359,
                    0.2047596275806427,
                    0.6892905235290527,
                    0.11811789870262146,
                    -0.40663665533065796,
                    0.006808057427406311,
                    -0.6093217134475708
                ]
            ],
            "activation": "tanh"
        },
        {
            "type": "dense",
            "shape": [
                null,
                8
            ],
            "weights": [
                [
                    [
                        -0.9107720255851746,
                        -0.15264809131622314,
                        -0.09775511175394058,
                        -0.20089440047740936,
                        -0.9277833700180054,
                        -0.14978168904781342,
                        0.04065914824604988,
                        -0.017240798100829124
                    ],
                    [
                        -0.07674337178468704,
                        -0.544345498085022,
                        -0.6695061326026917,
                        -0.27536019682884216,
                        -0.6368993520736694,
                        0.4147275984287262,
                        0.4431767165660858,
                        -0.5412077903747559
                    ],
                    [
                        0.8948865532875061,
                        -0.08304893970489502,
                        -0.5716288089752197,
                        -0.4203781187534332,
                        0.09279907494783401,
                        0.36068081855773926,
                        -0.13389749825000763,
                        0.09491746127605438
                    ],
                    [
                        -0.5875394940376282,
                        0.2467574179172516,
                        -0.5715658068656921,
                        1.1636654138565063,
                        -0.262876957654953,
                        0.756784200668335,
                        -0.9798780083656311,
                        -1.043942928314209
                    ],
                    [
                        -0.2631478011608124,
                        0.955497682094574,
                        -0.3361571729183197,
                        -0.47095832228660583,
                        0.00763138709589839,
                        0.11295755952596664,
                        0.717294454574585,
                        -0.5422173738479614
                    ],
                    [
                        -0.33571234345436096,
                        -0.35891732573509216,
                        -0.4427955150604248,
                        0.33300769329071045,
                        0.10508106648921967,
                        -0.015207793563604355,
                        0.35148319602012634,
                        0.5868703126907349
                    ],
                    [
                        0.001885714242234826,
                        -0.4728603661060333,
                        0.28568676114082336,
                        0.18785497546195984,
                        -0.34941399097442627,
                        1.087759017944336,
                        -0.5384684801101685,
                        1.1667736768722534
                    ],
                    [
                        0.9147132039070129,
                        -0.05694007873535156,
                        1.0473817586898804,
                        -0.37805870175361633,
                        0.011238323524594307,
                        -0.32453009486198425,
                        1.5054998397827148,
                        0.3219267725944519
                    ]
                ],
                [
                    0.0494517907500267,
                    -0.003991824109107256,
                    -0.009798048995435238,
                    -0.1103544756770134,
                    -0.03956504538655281,
                    0.11051442474126816,
                    -0.18317343294620514,
                    -0.015113825909793377
                ]
            ],
            "activation": "tanh"
        },
        {
            "type": "dense",
            "shape": [
                null,
                8
            ],
            "weights": [
                [
                    [
                        -0.11260552704334259,
                        0.27860745787620544,
                        -0.45766982436180115,
                        -0.7944070100784302,
                        0.6066446304321289,
                        -0.32916006445884705,
                        0.07489214092493057,
                        0.010084038600325584
                    ],
                    [
                        -0.21209707856178284,
                        0.9038286209106445,
                        0.5059565901756287,
                        -2.7813825607299805,
                        -0.08882235735654831,
                        0.9749602675437927,
                        1.2610515356063843,
                        0.245586097240448
                    ],
                    [
                        0.047704193741083145,
                        0.16040962934494019,
                        -0.046540334820747375,
                        0.1788170486688614,
                        1.9087635278701782,
                        1.1557079553604126,
                        -0.22750742733478546,
                        0.08817213773727417
                    ],
                    [
                        -0.5007520318031311,
                        0.6180752515792847,
                        0.7983086705207825,
                        -0.33428266644477844,
                        0.029459668323397636,
                        0.22924135625362396,
                        0.06959842890501022,
                        0.07430364936590195
                    ],
                    [
                        -0.6187229156494141,
                        0.2826317548751831,
                        0.07811817526817322,
                        -0.11970310658216476,
                        0.8841932415962219,
                        0.04997718706727028,
                        0.8680195212364197,
                        0.2713868021965027
                    ],
                    [
                        0.6981380581855774,
                        -0.2292981743812561,
                        -0.44573095440864563,
                        -0.40799835324287415,
                        -0.3924023509025574,
                        -1.2401796579360962,
                        -0.4133572578430176,
                        -1.2924152612686157
                    ],
                    [
                        -0.302578866481781,
                        0.6529956459999084,
                        -1.6876819133758545,
                        0.38275855779647827,
                        -0.1427382230758667,
                        0.3441851735115051,
                        0.0109804542735219,
                        0.3729814291000366
                    ],
                    [
                        1.1333796977996826,
                        -0.19015756249427795,
                        -0.1258966028690338,
                        1.4054902791976929,
                        0.8414792418479919,
                        -0.4159882068634033,
                        -0.38904905319213867,
                        0.098513163626194
                    ]
                ],
                [
                    0.11063336580991745,
                    0.06698818504810333,
                    -0.17006635665893555,
                    -0.18127822875976562,
                    0.25696077942848206,
                    -0.24558787047863007,
                    -0.06495148688554764,
                    -0.24260419607162476
                ]
            ],
            "activation": "tanh"
        },
        {
            "type": "dense",
            "shape": [
                null,
                1
            ],
            "weights": [
                [
                    [
                        -1.2902417182922363
                    ],
                    [
                        0.6282814741134644
                    ],
                    [
                        0.8048571944236755
                    ],
                    [
                        -0.713320791721344
                    ],
                    [
                        0.6635690927505493
                    ],
                    [
                        1.4903724193572998
                    ],
                    [
                        1.6752502918243408
                    ],
                    [
                        0.5018342733383179
                    ]
                ],
                [
                    -0.06226547807455063
                ]
            ],
            "activation": ""
        }
    ]
}