{
    "in_shape": [
        null,
        2
    ],
    "layers": [
        {
            "type": "dense",
            "shape": [
                null,
                4
            ],
            "weights": [
                [
                    [
                        1.1675622772600036e-05,
                        -0.31314048171043396,
                        0.2135203331708908,
                        0.09437626600265503
                    ],
                    [
                        -2.6409754753112793,
                        0.016398321837186813,
                        0.001994434744119644,
                        0.0222249086946249
                    ]
                ],
                [
                    -1.824303388595581,
                    0.36451977491378784,
                    -0.2286733239889145,
                    -0.1510792374610901
                ]
            ],
            "activation": "tanh"
        },
        {
            "type": "dense",
            "shape": [
                null,
                4
            ],
            "weights": [
                [
                    [
                        0.34783297777175903,
                        -0.5933278799057007,
                        0.0067196995951235294,
                        -0.5616230368614197
                    ],
                    [
                        0.034148044884204865,
                        -0.6249112486839294,
                        -0.6870231032371521,
                        0.16108950972557068
                    ],
                    [
                        0.9289108514785767,
                        0.8937346339225769,
                        -0.9073540568351746,
                        0.9243659377098083
                    ],
                    [
                        0.04308486729860306,
                        0.6597731709480286,
                        -0.2943355143070221,
                        -0.9728389382362366
                    ]
                ],
                [
                    0.07853394746780396,
                    -0.09342251718044281,
                    -0.1015629768371582,
                    -0.024278368800878525
                ]
            ],
            "activation": "tanh"
        },
        {
            "type": "dense",
            "shape": [
                null,
                4
            ],
            "weights": [
                [
                    [
                        -0.30558133125305176,
                        -0.5660974383354187,
                        -0.01826939359307289,
                        0.9289496541023254
                    ],
                    [
                        -1.7973387241363525,
                        -0.40312913060188293,
                        0.4478287100791931,
                        -0.13006728887557983
                    ],
                    [
                        -0.35969406366348267,
                        0.4911266267299652,
                        -1.1493669748306274,
                        -0.12674444913864136
                    ],
                    [
                        0.032147377729415894,
                        1.5587743520736694,
                        0.9871930480003357,
                        0.8003571033477783
                    ]
                ],
                [
                    -0.08851979672908783,
                    -0.049798328429460526,
                    0.05105403810739517,
                    0.08818577229976654
                ]
            ],
            "activation": "tanh"
        },
        {
            "type": "dense",
            "shape": [
                null,
                4
            ],
            "weights": [
                [
                    [
                        -0.13817161321640015,
                        -1.1922142505645752,
                        -0.7895140647888184,
                        0.10415087640285492
                    ],
                    [
                        -1.0452792644500732,
                        0.015840422362089157,
                        0.6533666849136353,
                        -0.8330844640731812
                    ],
                    [
                        -0.0498804971575737,
                        -0.32240262627601624,
                        0.025542395189404488,
                        -1.7951195240020752
                    ],
                    [
                        0.5707180500030518,
                        -0.8749125003814697,
                        1.9949578046798706,
                        -1.111140489578247
                    ]
                ],
                [
                    -0.04821490868926048,
                    0.1382417380809784,
                    0.12935952842235565,
                    -0.13540221750736237
                ]
            ],
            "activation": "tanh"
        },
        {
            "type": "dense",
            "shape": [
                null,
                4
            ],
            "weights": [
                [
                    [
                        1.6912872791290283,
                        0.8460231423377991,
                        -0.48562243580818176,
                        1.0948200225830078
                    ],
                    [
                        1.0441170930862427,
                        -0.817566454410553,
                        0.6227502226829529,
                        -1.1815844774246216
                    ],
                    [
                        0.33658915758132935,
                        0.07069195806980133,
                        -2.3037900924682617,
                        -0.125160813331604
                    ],
                    [
                        -0.04887036234140396,
                        0.21598093211650848,
                        0.5679453611373901,
                        -0.6512541770935059
                    ]
                ],
                [
                    0.10306229442358017,
                    0.12693928182125092,
                    -0.14503201842308044,
                    -0.06969170272350311
                ]
            ],
            "activation": "tanh"
        },
        {
            "type": "dense",
            "shape": [
                null,
                1
            ],
            "weights": [
                [
                    [
                        1.2925028800964355
                    ],
                    [
                        0.27611956000328064
                    ],
                    [
                        -0.9892178773880005
                    ],
                    [
                        2.957986831665039
                    ]
                ],
                [
                    0.038506172597408295
                ]
            ],
            "activation": ""
        }
    ]
}