{
    "in_shape": [
        null,
        2
    ],
    "layers": [
        {
            "type": "dense",
            "shape": [
                null,
                8
            ],
            "weights": [
                [
                    [
                        -0.48012977838516235,
                        0.20610398054122925,
                        0.38399314880371094,
                        -0.12748178839683533,
                        -0.48835989832878113,
                        1.257704496383667,
                        0.2339569479227066,
                        -1.3377399444580078
                    ],
                    [
                        0.0665399581193924,
                        -0.02022276446223259,
                        0.04508776217699051,
                        -2.1190638542175293,
                        0.10353165864944458,
                        -0.060616061091423035,
                        0.01919226534664631,
                        -0.044470857828855515
                    ]
                ],
                [
                    0.07326681911945343,
                    0.39270567893981934,
                    -0.0425247997045517,
                    -1.5248839855194092,
                    -0.33840593695640564,
                    0.596308708190918,
                    -0.4458826780319214,
                    0.7395722270011902
                ]
            ],
            "activation": "tanh"
        },
        {
            "type": "dense",
            "shape": [
                null,
                8
            ],
            "weights": [
                [
                    [
                        -0.2515450119972229,
                        0.039536360651254654,
                        0.707672655582428,
                        -0.18301136791706085,
                        0.22605827450752258,
                        -0.3748655617237091,
                        0.2026919275522232,
                        0.12099560350179672
                    ],
                    [
                        0.09417744725942612,
                        1.1365079879760742,
                        0.49087050557136536,
                        0.3531941771507263,
                        -0.6669286489486694,
                        -0.13601617515087128,
                        0.7385497689247131,
                        0.4139723479747772
                    ],
                    [
                        -0.34764525294303894,
                        -0.1314542144536972,
                        -0.17483702301979065,
                        0.07049553096294403,
                        0.2973342835903168,
                        0.6511166095733643,
                        -0.2650047242641449,
                        0.30020156502723694
                    ],
                    [
                        0.01452900841832161,
                        -0.33516016602516174,
                        0.1317068636417389,
                        0.2596271336078644,
                        0.23995688557624817,
                        -0.08260136842727661,
                        0.7604690194129944,
                        0.3128516674041748
                    ],
                    [
                        -0.2388198971748352,
                        -0.0968056321144104,
                        -0.27582406997680664,
                        0.32100337743759155,
                        -0.10051674395799637,
                        0.009297952055931091,
                        0.5550317168235779,
                        -0.525052011013031
                    ],
                    [
                        -0.2348615974187851,
                        0.17723387479782104,
                        0.16618365049362183,
                        0.33131036162376404,
                        0.507481575012207,
                        0.11745010316371918,
                        -0.9053849577903748,
                        -0.46319496631622314
                    ],
                    [
                        -0.569315493106842,
                        0.08306469023227692,
                        0.38040462136268616,
                        0.7913421392440796,
                        -0.6171507835388184,
                        -0.8495759963989258,
                        0.07257039099931717,
                        0.7831019759178162
                    ],
                    [
                        -0.39145901799201965,
                        -0.1562943309545517,
                        0.5042821764945984,
                        -0.4614255130290985,
                        -0.5619539618492126,
                        0.5661689639091492,
                        0.13403214514255524,
                        -0.1990298181772232
                    ]
                ],
                [
                    0.2616201639175415,
                    0.14946047961711884,
                    0.10642194747924805,
                    0.19853170216083527,
                    0.06505589932203293,
                    0.12563557922840118,
                    -0.08256975561380386,
                    -0.0480741448700428
                ]
            ],
            "activation": "tanh"
        },
        {
            "type": "dense",
            "shape": [
                null,
                8
            ],
            "weights": [
                [
                    [
                        0.03871665149927139,
                        0.06758512556552887,
                        0.8131155967712402,
                        -0.7022151350975037,
                        0.2822379767894745,
                        0.045158009976148605,
                        -0.3912012577056885,
                        -0.23401789367198944
                    ],
                    [
                        -0.36342164874076843,
                        -0.4086386561393738,
                        -0.7283344864845276,
                        0.13374775648117065,
                        -0.7378836274147034,
                        0.5339300036430359,
                        0.46267202496528625,
                        -0.8392177224159241
                    ],
                    [
                        -0.25464916229248047,
                        0.5831832885742188,
                        -0.6197652816772461,
                        -0.861272394657135,
                        -0.8819730281829834,
                        0.4892664849758148,
                        0.7167791724205017,
                        -0.41692817211151123
                    ],
                    [
                        -0.8506085872650146,
                        -0.8990613222122192,
                        -0.10674984008073807,
                        -0.3060978949069977,
                        -0.004799494054168463,
                        -0.08064372837543488,
                        -0.07703079283237457,
                        -0.46599000692367554
                    ],
                    [
                        0.3167268633842468,
                        -0.43361353874206543,
                        1.1493231058120728,
                        0.9197593331336975,
                        -0.009942869655787945,
                        -0.39572811126708984,
                        -0.2766556143760681,
                        0.36180269718170166
                    ],
                    [
                        0.47916552424430847,
                        1.6704787015914917,
                        -0.03600442782044411,
                        0.5269333720207214,
                        -0.1171959713101387,
                        -1.0078037977218628,
                        -0.6628932356834412,
                        0.09910967946052551
                    ],
                    [
                        0.23562176525592804,
                        -0.5920702219009399,
                        -0.3189358711242676,
                        -1.4639246463775635,
                        -0.3610190749168396,
                        -0.19451019167900085,
                        -0.15786373615264893,
                        0.32584890723228455
                    ],
                    [
                        -0.21232357621192932,
                        -0.2488587498664856,
                        -0.3592146635055542,
                        -0.48093241453170776,
                        -0.3670843839645386,
                        0.8685758113861084,
                        -0.35270845890045166,
                        0.15810389816761017
                    ]
                ],
                [
                    -0.06434324383735657,
                    0.11526169627904892,
                    0.0001374714047415182,
                    -0.12012561410665512,
                    -0.12287641316652298,
                    -0.09548217803239822,
                    0.055194683372974396,
                    -0.10173428803682327
                ]
            ],
            "activation": "tanh"
        },
        {
            "type": "dense",
            "shape": [
                null,
                1
            ],
            "weights": [
                [
                    [
                        -1.0934876203536987
                    ],
                    [
                        -0.5414630770683289
                    ],
                    [
                        -1.1322925090789795
                    ],
                    [
                        -0.7165236473083496
                    ],
                    [
                        -0.756570041179657
                    ],
                    [
                        1.3720569610595703
                    ],
                    [
                        0.7846922278404236
                    ],
                    [
                        -0.711014986038208
                    ]
                ],
                [
                    0.05499045550823212
                ]
            ],
            "activation": ""
        }
    ]
}