{
    "in_shape": [
        null,
        2
    ],
    "layers": [
        {
            "type": "dense",
            "shape": [
                null,
                8
            ],
            "weights": [
                [
                    [
                        0.3499484956264496,
                        1.0055065155029297,
                        -0.3460993468761444,
                        -1.0639227628707886,
                        0.23048989474773407,
                        -0.39583709836006165,
                        0.2830589711666107,
                        0.43953055143356323
                    ],
                    [
                        -0.1406107246875763,
                        -0.03811325132846832,
                        -0.07869839668273926,
                        -0.08423389494419098,
                        0.003607427002862096,
                        0.35508760809898376,
                        0.1589459478855133,
                        -0.11466916650533676
                    ]
                ],
                [
                    0.026956738904118538,
                    0.23764844238758087,
                    0.23022326827049255,
                    0.8467233180999756,
                    -0.10059629380702972,
                    0.36324334144592285,
                    0.14593635499477386,
                    0.7491241097450256
                ]
            ],
            "activation": "tanh"
        },
        {
            "type": "dense",
            "shape": [
                null,
                8
            ],
            "weights": [
                [
                    [
                        0.271074116230011,
                        0.2323274314403534,
                        0.41976243257522583,
                        -0.402384489774704,
                        0.10443251579999924,
                        -0.3987986743450165,
                        -0.2294655591249466,
                        -0.5586874485015869
                    ],
                    [
                        -0.08482785522937775,
                        0.09539142996072769,
                        0.0629580095410347,
                        0.31467440724372864,
                        0.49741223454475403,
                        -0.7659224271774292,
                        -0.49584999680519104,
                        0.22610695660114288
                    ],
                    [
                        -0.028478166088461876,
                        -0.12909074127674103,
                        -0.05244433507323265,
                        0.454093873500824,
                        -0.8589909076690674,
                        -0.6358863115310669,
                        -0.17809508740901947,
                        -0.1437527984380722
                    ],
                    [
                        0.19569742679595947,
                        -0.9108774065971375,
                        0.2429828643798828,
                        -0.2561204433441162,
                        0.02722269482910633,
                        -0.2829144299030304,
                        -0.16335834562778473,
                        0.06560970842838287
                    ],
                    [
                        1.016164779663086,
                        -0.894677460193634,
                        -0.571835994720459,
                        1.0603559017181396,
                        -0.5800329446792603,
                        -0.09758643060922623,
                        0.09960944205522537,
                        0.9006695747375488
                    ],
                    [
                        0.28736379742622375,
                        -0.24692685902118683,
                        -0.3597829341888428,
                        -0.1736934930086136,
                        -0.20984098315238953,
                        0.13086484372615814,
                        0.23762647807598114,
                        -0.42038774490356445
                    ],
                    [
                        -0.1631837636232376,
                        -0.16450022161006927,
                        0.0950634554028511,
                        0.42158520221710205,
                        0.27042919397354126,
                        0.3169175982475281,
                        -0.6231216192245483,
                        -0.4637530744075775
                    ],
                    [
                        -0.2213493287563324,
                        -0.2555469870567322,
                        -0.8211772441864014,
                        -0.04747021570801735,
                        0.5573312044143677,
                        -0.16039644181728363,
                        -0.9290085434913635,
                        -0.27078163623809814
                    ]
                ],
                [
                    0.021423129364848137,
                    -0.07730303704738617,
                    -0.2188878357410431,
                    -0.12981276214122772,
                    0.005129401106387377,
                    0.33261117339134216,
                    -0.637790322303772,
                    0.13363759219646454
                ]
            ],
            "activation": "tanh"
        },
        {
            "type": "dense",
            "shape": [
                null,
                8
            ],
            "weights": [
                [
                    [
                        0.44387105107307434,
                        0.04266500845551491,
                        -0.8672501444816589,
                        -1.2355639934539795,
                        0.4448327124118805,
                        0.5080773830413818,
                        1.1625868082046509,
                        0.26439693570137024
                    ],
                    [
                        0.2845657765865326,
                        0.8895421624183655,
                        -0.07121297717094421,
                        0.45734572410583496,
                        -1.0116053819656372,
                        -0.4137812852859497,
                        -0.6010904908180237,
                        -0.17513062059879303
                    ],
                    [
                        -0.36376306414604187,
                        -1.0483278036117554,
                        0.3224349915981293,
                        0.10026058554649353,
                        -0.7855266332626343,
                        0.7257862687110901,
                        -0.4460252821445465,
                        -0.43664196133613586
                    ],
                    [
                        0.7048100233078003,
                        0.9656825661659241,
                        0.34842780232429504,
                        -0.49168479442596436,
                        0.08749479055404663,
                        0.44177693128585815,
                        0.2586611807346344,
                        1.0288623571395874
                    ],
                    [
                        -0.1116553246974945,
                        -0.5387528538703918,
                        0.7413515448570251,
                        0.8357452154159546,
                        -0.7490911483764648,
                        -1.8942359685897827,
                        -0.22487865388393402,
                        -0.5969384908676147
                    ],
                    [
                        -0.6540188789367676,
                        0.3152724802494049,
                        0.274756520986557,
                        0.21358247101306915,
                        -0.3332188129425049,
                        0.03898957371711731,
                        0.4867797791957855,
                        -0.23037682473659515
                    ],
                    [
                        0.5697878003120422,
                        0.08319608867168427,
                        0.025828111916780472,
                        0.03349792957305908,
                        0.03722448647022247,
                        1.1399396657943726,
                        -0.1140688881278038,
                        -0.6593629121780396
                    ],
                    [
                        0.7017113566398621,
                        0.08016341179609299,
                        -0.5535702705383301,
                        -0.010641797445714474,
                        0.3378336727619171,
                        1.1887903213500977,
                        0.9522419571876526,
                        0.9565953612327576
                    ]
                ],
                [
                    -0.05086181312799454,
                    0.0650005042552948,
                    -0.12545152008533478,
                    -0.013882928527891636,
                    -0.04787891358137131,
                    -0.1631760150194168,
                    0.08877403289079666,
                    0.16483357548713684
                ]
            ],
            "activation": "tanh"
        },
        {
            "type": "dense",
            "shape": [
                null,
                1
            ],
            "weights": [
                [
                    [
                        1.2054568529129028
                    ],
                    [
                        0.4815317690372467
                    ],
                    [
                        -0.6229035258293152
                    ],
                    [
                        -1.4022926092147827
                    ],
                    [
                        1.264385461807251
                    ],
                    [
                        0.8208619952201843
                    ],
                    [
                        1.056315541267395
                    ],
                    [
                        1.316853642463684
                    ]
                ],
                [
                    -0.015872003510594368
                ]
            ],
            "activation": ""
        }
    ]
}