{
    "in_shape": [
        null,
        2
    ],
    "layers": [
        {
            "type": "dense",
            "shape": [
                null,
                16
            ],
            "weights": [
                [
                    [
                        -0.2442723661661148,
                        -0.6098085045814514,
                        0.08068741112947464,
                        -0.5865280628204346,
                        0.1942017823457718,
                        0.5392586588859558,
                        0.2745726704597473,
                        0.16621166467666626,
                        0.4369869828224182,
                        -0.18621943891048431,
                        -0.9203130006790161,
                        -0.31855982542037964,
                        0.6591410040855408,
                        -0.12476257234811783,
                        0.23262085020542145,
                        0.7721846699714661
                    ],
                    [
                        -0.009227688424289227,
                        0.8739969730377197,
                        0.5052153468132019,
                        0.009620308876037598,
                        0.1475880891084671,
                        -0.18867239356040955,
                        0.0045605795457959175,
                        -0.01693413034081459,
                        0.05289484187960625,
                        -0.06862123310565948,
                        -0.057279422879219055,
                        0.05502218008041382,
                        -0.034080322831869125,
                        -0.03312612697482109,
                        -0.0017114580841735005,
                        -0.0315646193921566
                    ]
                ],
                [
                    0.09740494191646576,
                    0.3580572307109833,
                    0.5746113657951355,
                    -0.09855698049068451,
                    0.10708053410053253,
                    -0.41482415795326233,
                    -0.11986075341701508,
                    0.20525296032428741,
                    -0.07663114368915558,
                    0.03229178860783577,
                    0.3338385224342346,
                    -0.08975756913423538,
                    0.08031746745109558,
                    0.09214134514331818,
                    0.05546083301305771,
                    0.3376186788082123
                ]
            ],
            "activation": "tanh"
        },
        {
            "type": "dense",
            "shape": [
                null,
                16
            ],
            "weights": [
                [
                    [
                        0.7230718731880188,
                        -0.054006610065698624,
                        -0.632034420967102,
                        0.14603976905345917,
                        -0.44681087136268616,
                        -0.3191787302494049,
                        -0.09056777507066727,
                        0.5262313485145569,
                        0.1361440271139145,
                        -0.7254249453544617,
                        -0.6605837345123291,
                        -0.11193058639764786,
                        0.2611246407032013,
                        0.589008092880249,
                        -0.2906876504421234,
                        -0.6202453374862671
                    ],
                    [
                        0.1707528978586197,
                        0.1264890879392624,
                        -0.24905423820018768,
                        -0.046137966215610504,
                        0.10234446078538895,
                        -0.12067976593971252,
                        -0.21745933592319489,
                        0.0909983441233635,
                        0.07279159128665924,
                        0.03981231898069382,
                        -0.3645533621311188,
                        0.05665669962763786,
                        0.2698957324028015,
                        -0.450309157371521,
                        -0.04380334913730621,
                        0.6699418425559998
                    ],
                    [
                        0.1138661727309227,
                        -0.06656409800052643,
                        0.04344434663653374,
                        0.13677048683166504,
                        -0.42518800497055054,
                        0.0021269868593662977,
                        0.15311996638774872,
                        0.23176376521587372,
                        -0.0039578876458108425,
                        0.07462959736585617,
                        -0.17771050333976746,
                        0.23752613365650177,
                        -0.30541446805000305,
                        0.35088491439819336,
                        0.461350679397583,
                        0.3389202654361725
                    ],
                    [
                        0.01596883498132229,
                        0.3955402970314026,
                        -0.2170076072216034,
                        0.3649821877479553,
                        -0.12336046993732452,
                        -0.11158515512943268,
                        0.6239539384841919,
                        -0.031610868871212006,
                        -0.10403858125209808,
                        -0.9080967903137207,
                        -0.11735750734806061,
                        -0.48513948917388916,
                        0.13662002980709076,
                        -0.0996532216668129,
                        0.3649570345878601,
                        -0.6480060815811157
                    ],
                    [
                        -0.0655040442943573,
                        -0.03676503896713257,
                        -0.210915669798851,
                        0.1557406336069107,
                        0.41455942392349243,
                        -0.367560476064682,
                        -0.08807199448347092,
                        0.2797005772590637,
                        0.21239566802978516,
                        0.18788675963878632,
                        0.04119159281253815,
                        0.30281469225883484,
                        0.23603098094463348,
                        0.023530004546046257,
                        0.4700665771961212,
                        -0.3007907569408417
                    ],
                    [
                        0.2825660705566406,
                        -0.04545947164297104,
                        0.4655030071735382,
                        0.08567573130130768,
                        0.3653390407562256,
                        -0.1904781460762024,
                        -0.09723059087991714,
                        -0.05447467789053917,
                        -0.2194317877292633,
                        -0.30521678924560547,
                        0.04166964069008827,
                        -0.5794121026992798,
                        0.17645667493343353,
                        0.33155307173728943,
                        0.13375626504421234,
                        0.07155175507068634
                    ],
                    [
                        -0.32380974292755127,
                        0.3179822564125061,
                        0.5428040027618408,
                        -0.5550048351287842,
                        0.3685975670814514,
                        0.5551368594169617,
                        -0.35188040137290955,
                        -0.9798800945281982,
                        0.3600468933582306,
                        0.04650545120239258,
                        0.8884423971176147,
                        0.4236066937446594,
                        0.036638811230659485,
                        -0.07142192870378494,
                        0.34888318181037903,
                        0.48466649651527405
                    ],
                    [
                        -0.20005379617214203,
                        0.04678952321410179,
                        -0.2329668253660202,
                        -0.16336987912654877,
                        -0.002552775200456381,
                        0.2249579131603241,
                        -0.17224113643169403,
                        0.5620284080505371,
                        0.8288635015487671,
                        0.5551401972770691,
                        0.13822367787361145,
                        0.17825815081596375,
                        -0.12264709174633026,
                        -0.2972961962223053,
                        0.10340436547994614,
                        0.6493691802024841
                    ],
                    [
                        0.05932532250881195,
                        -0.3059767186641693,
                        -0.05946702882647514,
                        -0.5027305483818054,
                        0.2937256395816803,
                        -0.29512929916381836,
                        0.5159102082252502,
                        -0.10803570598363876,
                        0.047705285251140594,
                        -0.17744103074073792,
                        0.06638509035110474,
                        -0.10250405222177505,
                        -0.13995201885700226,
                        0.1816304624080658,
                        -0.2946440577507019,
                        -0.10788767784833908
                    ],
                    [
                        -0.3731898069381714,
                        0.3551154136657715,
                        -0.27132919430732727,
                        -0.34705814719200134,
                        0.2596120834350586,
                        0.0012126283254474401,
                        -0.18122084438800812,
                        0.30089864134788513,
                        -0.1294393539428711,
                        -0.05060911551117897,
                        -0.30960556864738464,
                        0.1558387726545334,
                        -0.30702194571495056,
                        0.2362363338470459,
                        0.044783830642700195,
                        0.26961782574653625
                    ],
                    [
                        -0.1540340632200241,
                        0.27183249592781067,
                        0.2870919108390808,
                        0.7559773921966553,
                        0.04261628910899162,
                        0.12029491364955902,
                        0.1406973898410797,
                        0.2870071232318878,
                        0.5642322301864624,
                        -0.06383996456861496,
                        -1.2210075855255127,
                        0.41090714931488037,
                        -0.013908649794757366,
                        -0.014744843356311321,
                        -0.09142523258924484,
                        -0.1332220882177353
                    ],
                    [
                        0.2233302891254425,
                        -0.13658282160758972,
                        -0.1179167777299881,
                        0.34783557057380676,
                        0.4697089195251465,
                        0.6170717477798462,
                        -0.09381100535392761,
                        0.05803012475371361,
                        -0.13352833688259125,
                        -0.21062229573726654,
                        -0.14296074211597443,
                        -0.04067450016736984,
                        -0.3386707901954651,
                        -0.12337884306907654,
                        0.19205236434936523,
                        -0.23561570048332214
                    ],
                    [
                        0.43162909150123596,
                        0.4054471254348755,
                        0.02345111221075058,
                        -0.08623755723237991,
                        0.20284050703048706,
                        0.09039564430713654,
                        0.351259708404541,
                        -0.011294754222035408,
                        -0.21898220479488373,
                        0.46352025866508484,
                        0.4982219338417053,
                        0.3341834247112274,
                        0.12813882529735565,
                        0.14767399430274963,
                        -0.3655732274055481,
                        0.39541172981262207
                    ],
                    [
                        0.3394182622432709,
                        -0.13401147723197937,
                        0.03265642002224922,
                        -0.35776904225349426,
                        -0.249082550406456,
                        -0.018218420445919037,
                        0.10523835569620132,
                        0.5110409259796143,
                        -0.1178528293967247,
                        -0.1476191133260727,
                        -0.47069472074508667,
                        0.4050048589706421,
                        0.18191303312778473,
                        -0.3138289749622345,
                        0.228418231010437,
                        -0.19385646283626556
                    ],
                    [
                        0.01001723762601614,
                        0.5089423656463623,
                        0.291714072227478,
                        -0.13230033218860626,
                        0.21095900237560272,
                        -0.18306496739387512,
                        -0.482279896736145,
                        -0.4418816566467285,
                        0.3448657691478729,
                        0.6733899712562561,
                        0.1959257870912552,
                        0.34167447686195374,
                        -0.792271077632904,
                        -0.5345660448074341,
                        0.18386557698249817,
                        0.4713001251220703
                    ],
                    [
                        0.34736284613609314,
                        -0.0638890191912651,
                        -0.23349417746067047,
                        -0.5231862664222717,
                        -0.013202628120779991,
                        0.0642302855849266,
                        0.12233978509902954,
                        -0.13613803684711456,
                        0.34714508056640625,
                        1.1465489864349365,
                        -0.13422337174415588,
                        -0.11243980377912521,
                        -0.05583431199193001,
                        0.015256485901772976,
                        0.15120640397071838,
                        0.5481995344161987
                    ]
                ],
                [
                    0.003592283697798848,
                    0.05219811201095581,
                    -0.19014622271060944,
                    0.010980299673974514,
                    -0.07109781354665756,
                    0.02146596647799015,
                    -0.040276698768138885,
                    0.08024086803197861,
                    0.06475260108709335,
                    0.2513393461704254,
                    -0.18043741583824158,
                    -0.0071135228499770164,
                    0.016763946041464806,
                    0.027619432657957077,
                    -0.007544047199189663,
                    -0.028473220765590668
                ]
            ],
            "activation": "tanh"
        },
        {
            "type": "dense",
            "shape": [
                null,
                16
            ],
            "weights": [
                [
                    [
                        0.04805400222539902,
                        -0.3318439722061157,
                        -0.431238055229187,
                        0.38235652446746826,
                        0.8574400544166565,
                        0.026028478518128395,
                        0.39615967869758606,
                        0.35121357440948486,
                        0.07004520297050476,
                        0.012443098239600658,
                        0.3386206328868866,
                        -0.4513879716396332,
                        -0.000628779991529882,
                        -0.030281832441687584,
                        0.10513071715831757,
                        -0.24350979924201965
                    ],
                    [
                        -0.6561104655265808,
                        0.2241780310869217,
                        0.15844058990478516,
                        -0.13404624164104462,
                        0.02861739508807659,
                        -0.13328835368156433,
                        -0.3393600583076477,
                        0.2639499306678772,
                        -0.2551266551017761,
                        -0.07567538321018219,
                        -0.2027626782655716,
                        0.19406281411647797,
                        0.4045261740684509,
                        0.14322367310523987,
                        0.1623726785182953,
                        -0.2995930314064026
                    ],
                    [
                        -0.8082634806632996,
                        0.1844150274991989,
                        0.7227308750152588,
                        -0.07884257286787033,
                        -0.155422642827034,
                        0.4277542531490326,
                        0.06818310171365738,
                        -0.4386100769042969,
                        0.09211661666631699,
                        0.03739222511649132,
                        -0.19446656107902527,
                        -0.08175256103277206,
                        -0.1817750334739685,
                        -0.41384971141815186,
                        0.023418299853801727,
                        0.13266970217227936
                    ],
                    [
                        0.12592855095863342,
                        -0.18168149888515472,
                        0.40008997917175293,
                        0.16339002549648285,
                        -0.32570183277130127,
                        -0.0041704922914505005,
                        -0.30631646513938904,
                        -0.31342217326164246,
                        -0.36490100622177124,
                        -0.14822067320346832,
                        -0.3936610221862793,
                        -0.34648993611335754,
                        0.15095025300979614,
                        -0.26918137073516846,
                        0.404157429933548,
                        -0.280971884727478
                    ],
                    [
                        -0.6441590189933777,
                        -0.15977855026721954,
                        0.3090735971927643,
                        -0.17884238064289093,
                        -0.5420741438865662,
                        0.005382327362895012,
                        -0.19949878752231598,
                        -0.3664661645889282,
                        -0.08057031780481339,
                        0.07154883444309235,
                        -0.6365894079208374,
                        -0.006337509956210852,
                        -0.5587899684906006,
                        -0.04192222282290459,
                        -1.0923025608062744,
                        -0.4150557219982147
                    ],
                    [
                        -0.5243679881095886,
                        -0.13852861523628235,
                        0.7798556685447693,
                        -0.7694335579872131,
                        -0.3052894175052643,
                        -0.190049409866333,
                        -0.22814078629016876,
                        -0.19928216934204102,
                        -0.3023689389228821,
                        -0.41489142179489136,
                        0.09195832908153534,
                        0.5089305639266968,
                        -0.29776856303215027,
                        -0.697734534740448,
                        -0.3366628885269165,
                        -0.3180113434791565
                    ],
                    [
                        0.14840643107891083,
                        0.1832997351884842,
                        -0.9107916355133057,
                        0.30728715658187866,
                        0.16271038353443146,
                        -0.6674368381500244,
                        0.8634464740753174,
                        0.17039309442043304,
                        0.24886155128479004,
                        0.4279787838459015,
                        0.06711333990097046,
                        -0.9056125283241272,
                        0.5268702507019043,
                        -0.26026132702827454,
                        0.6186689138412476,
                        0.40510091185569763
                    ],
                    [
                        0.03219026327133179,
                        0.1387776881456375,
                        -0.05470569431781769,
                        -0.3632839620113373,
                        0.1703660488128662,
                        -0.37287476658821106,
                        -0.10356181859970093,
                        -0.12383293360471725,
                        0.037398550659418106,
                        0.14321734011173248,
                        0.26740366220474243,
                        0.21287131309509277,
                        -0.5456719994544983,
                        0.355781614780426,
                        0.9669448137283325,
                        -0.10115443915128708
                    ],
                    [
                        -0.03744782507419586,
                        0.260195791721344,
                        -0.07518382370471954,
                        0.16314665973186493,
                        -0.34075790643692017,
                        -0.1768050193786621,
                        -0.43421849608421326,
                        0.2731122076511383,
                        -0.06082478538155556,
                        -0.5782775282859802,
                        -9.397717076353729e-05,
                        0.5445252060890198,
                        -0.6621217727661133,
                        -0.2546793818473816,
                        0.31290289759635925,
                        0.06633288413286209
                    ],
                    [
                        0.1407109498977661,
                        -0.18001146614551544,
                        -0.09497981518507004,
                        0.19924931228160858,
                        0.4571671187877655,
                        -0.14619575440883636,
                        0.45402222871780396,
                        0.28878656029701233,
                        -0.5892460346221924,
                        0.11531909555196762,
                        -0.09758397191762924,
                        0.5253899097442627,
                        -0.44648751616477966,
                        0.12527525424957275,
                        -0.1410009115934372,
                        0.27529287338256836
                    ],
                    [
                        0.1477290242910385,
                        -0.09145571291446686,
                        -0.1899951994419098,
                        0.19784730672836304,
                        -0.21773551404476166,
                        0.07653022557497025,
                        1.1333991289138794,
                        0.16648730635643005,
                        0.16398634016513824,
                        0.05428328737616539,
                        0.0445856899023056,
                        0.04370895400643349,
                        -0.017960892990231514,
                        0.08578050881624222,
                        -0.1422848105430603,
                        -0.4225180149078369
                    ],
                    [
                        -0.088596411049366,
                        0.07524169981479645,
                        -0.02157127484679222,
                        0.17178352177143097,
                        -0.003669986966997385,
                        -0.04407934099435806,
                        -0.33629435300827026,
                        -0.5923750400543213,
                        -0.356221079826355,
                        -0.30339890718460083,
                        0.13453754782676697,
                        1.0894372463226318,
                        -0.09608681499958038,
                        -0.17217645049095154,
                        -0.05161622539162636,
                        -0.18589432537555695
                    ],
                    [
                        -0.042926251888275146,
                        -0.6513557434082031,
                        -0.6998618245124817,
                        0.07644690573215485,
                        0.01125794742256403,
                        0.23418137431144714,
                        0.28564679622650146,
                        0.36609965562820435,
                        0.2338377982378006,
                        0.5977279543876648,
                        0.38356611132621765,
                        -0.17922177910804749,
                        0.28320640325546265,
                        0.09451241791248322,
                        0.5662158727645874,
                        0.44180023670196533
                    ],
                    [
                        -0.008530565537512302,
                        -0.5960456728935242,
                        0.0011377801420167089,
                        0.16506196558475494,
                        0.39506712555885315,
                        -0.4455789625644684,
                        0.32038742303848267,
                        0.12625958025455475,
                        0.6424314975738525,
                        0.009463236667215824,
                        -0.12296785414218903,
                        -0.18765084445476532,
                        0.4497411847114563,
                        0.36638885736465454,
                        0.21618911623954773,
                        0.4424982964992523
                    ],
                    [
                        -0.05952323228120804,
                        0.09301533550024033,
                        -0.3082468509674072,
                        -0.37482887506484985,
                        -0.1309695690870285,
                        0.17290499806404114,
                        0.047853823751211166,
                        -0.27147307991981506,
                        -0.2634640634059906,
                        -0.6524322628974915,
                        -0.2159912884235382,
                        -0.1512773483991623,
                        0.082896389067173,
                        0.10440604388713837,
                        0.0753733292222023,
                        0.1847275346517563
                    ],
                    [
                        0.433616578578949,
                        0.07474823296070099,
                        -0.12460347265005112,
                        -0.3046952486038208,
                        0.48144418001174927,
                        0.2760885953903198,
                        -0.2768523693084717,
                        0.18431462347507477,
                        -0.0019923443906009197,
                        0.04767301306128502,
                        -0.5606812238693237,
                        0.8345480561256409,
                        -0.3079236149787903,
                        -0.313953161239624,
                        0.054743845015764236,
                        -0.2023192197084427
                    ]
                ],
                [
                    0.10611847788095474,
                    0.0577857680618763,
                    0.016979621723294258,
                    -0.0016580472001805902,
                    0.033464089035987854,
                    0.008318695239722729,
                    -0.012823956087231636,
                    0.04557427763938904,
                    -0.05984889343380928,
                    -0.0031431757379323244,
                    0.011809075251221657,
                    0.19158203899860382,
                    0.008025829680263996,
                    0.025402335450053215,
                    0.049093928188085556,
                    0.014767915941774845
                ]
            ],
            "activation": "tanh"
        },
        {
            "type": "dense",
            "shape": [
                null,
                1
            ],
            "weights": [
                [
                    [
                        -0.3879096210002899
                    ],
                    [
                        0.22643698751926422
                    ],
                    [
                        0.48880940675735474
                    ],
                    [
                        -0.49251922965049744
                    ],
                    [
                        -0.9136974215507507
                    ],
                    [
                        0.12476859241724014
                    ],
                    [
                        -0.6667002439498901
                    ],
                    [
                        -0.22780272364616394
                    ],
                    [
                        -0.7641310691833496
                    ],
                    [
                        -0.44442275166511536
                    ],
                    [
                        -0.5658034682273865
                    ],
                    [
                        0.3440660536289215
                    ],
                    [
                        -0.2607996463775635
                    ],
                    [
                        -0.5073752403259277
                    ],
                    [
                        -0.6097119450569153
                    ],
                    [
                        -0.5337973237037659
                    ]
                ],
                [
                    -0.006114624440670013
                ]
            ],
            "activation": ""
        }
    ]
}