{
    "in_shape": [
        null,
        2
    ],
    "layers": [
        {
            "type": "dense",
            "shape": [
                null,
                16
            ],
            "weights": [
                [
                    [
                        -0.4483385980129242,
                        -0.19191578030586243,
                        -0.23861637711524963,
                        -0.3280450105667114,
                        -0.1294255256652832,
                        0.24262665212154388,
                        -0.5727707147598267,
                        0.6744077801704407,
                        -0.32660070061683655,
                        -0.3120269477367401,
                        -0.5177117586135864,
                        -0.3745749294757843,
                        -0.658133327960968,
                        0.2823181748390198,
                        -0.1902410238981247,
                        -0.009231439791619778
                    ],
                    [
                        -0.08660927414894104,
                        -0.011977477930486202,
                        0.09565337002277374,
                        -0.527485728263855,
                        -0.07198911160230637,
                        -0.18505427241325378,
                        -1.0684961080551147,
                        -0.017786232754588127,
                        -0.09249056875705719,
                        0.05965526029467583,
                        -0.07289150357246399,
                        -0.11739351600408554,
                        -0.9183725118637085,
                        -0.0012034036917611957,
                        -0.01805088482797146,
                        0.15370692312717438
                    ]
                ],
                [
                    0.4155358076095581,
                    0.0694655105471611,
                    -0.05784931406378746,
                    -0.2997203469276428,
                    0.08804381638765335,
                    -0.25038474798202515,
                    -0.7872197031974792,
                    0.2708124816417694,
                    0.2504599094390869,
                    -0.2653672397136688,
                    0.3740564286708832,
                    -0.01532295998185873,
                    -0.8534228801727295,
                    0.06125824525952339,
                    0.07762733101844788,
                    -0.15207087993621826
                ]
            ],
            "activation": "tanh"
        },
        {
            "type": "dense",
            "shape": [
                null,
                16
            ],
            "weights": [
                [
                    [
                        -0.08524718135595322,
                        -0.263112336397171,
                        -0.6161047220230103,
                        -0.39047878980636597,
                        0.1620209962129593,
                        0.1290053129196167,
                        0.6597009897232056,
                        0.16362659633159637,
                        0.2201279252767563,
                        0.011064010672271252,
                        -0.24688629806041718,
                        -0.03796437010169029,
                        -0.2360597550868988,
                        0.016873281449079514,
                        0.359667032957077,
                        0.14892727136611938
                    ],
                    [
                        0.5947058200836182,
                        0.41883137822151184,
                        -0.13771598041057587,
                        -0.5284345746040344,
                        -0.7945115566253662,
                        -0.4270481467247009,
                        -1.0947370529174805,
                        -0.3341020941734314,
                        0.03559784218668938,
                        -0.6272791624069214,
                        0.223880797624588,
                        0.2534123361110687,
                        -0.5094627141952515,
                        -0.08027639240026474,
                        0.9922285079956055,
                        -0.19911377131938934
                    ],
                    [
                        0.37043967843055725,
                        -0.6151248216629028,
                        0.450520783662796,
                        -0.09681449085474014,
                        -0.005622885189950466,
                        0.3194771409034729,
                        -0.0479058176279068,
                        0.26629358530044556,
                        -0.06888311356306076,
                        0.21548672020435333,
                        -0.31246814131736755,
                        0.08205203711986542,
                        -0.014034351333975792,
                        -0.41387274861335754,
                        -0.04920808598399162,
                        0.043980672955513
                    ],
                    [
                        -0.2919456362724304,
                        -0.16612857580184937,
                        0.4243239462375641,
                        -0.18015773594379425,
                        0.12319531291723251,
                        0.10771475732326508,
                        -0.3651757836341858,
                        0.023622622713446617,
                        -0.12716536223888397,
                        -0.3141264021396637,
                        -0.3906247615814209,
                        -0.20496484637260437,
                        -0.10963132232427597,
                        0.10468998551368713,
                        -0.6566020250320435,
                        0.3146604001522064
                    ],
                    [
                        -0.020206281915307045,
                        0.28534504771232605,
                        0.1616002321243286,
                        0.1847110241651535,
                        0.32908254861831665,
                        0.4759427607059479,
                        0.28495925664901733,
                        0.3166743516921997,
                        0.28952959179878235,
                        -0.2450103610754013,
                        -0.031337104737758636,
                        0.1367560774087906,
                        0.20764394104480743,
                        -0.021879790350794792,
                        0.3814143240451813,
                        -0.23454228043556213
                    ],
                    [
                        -0.19452595710754395,
                        -0.028337661176919937,
                        -0.0381200909614563,
                        0.06785353273153305,
                        -0.41083183884620667,
                        0.24043643474578857,
                        0.15329156816005707,
                        -0.46967002749443054,
                        -0.2207159399986267,
                        -0.02119067683815956,
                        0.3352324366569519,
                        -0.36510658264160156,
                        -0.08655192703008652,
                        -0.2654494047164917,
                        -0.13167592883110046,
                        -0.0500323660671711
                    ],
                    [
                        -0.044875968247652054,
                        0.16584771871566772,
                        0.32478979229927063,
                        -0.21564623713493347,
                        0.18902085721492767,
                        -0.17226853966712952,
                        0.22652508318424225,
                        -0.1874598264694214,
                        -0.023355884477496147,
                        0.29981759190559387,
                        0.1995301991701126,
                        0.4028927981853485,
                        0.050824716687202454,
                        0.054008882492780685,
                        -0.24828606843948364,
                        0.4779490530490875
                    ],
                    [
                        0.16685834527015686,
                        0.1878276914358139,
                        0.10514731705188751,
                        -0.19923461973667145,
                        0.12336304783821106,
                        -0.5507240891456604,
                        1.302212119102478,
                        0.6364697813987732,
                        -0.37760549783706665,
                        -0.2715674936771393,
                        0.5574827790260315,
                        -0.160880908370018,
                        -0.05027090758085251,
                        -0.14060087502002716,
                        -0.1488625854253769,
                        -0.27675771713256836
                    ],
                    [
                        -0.20674312114715576,
                        0.06067797541618347,
                        0.07882657647132874,
                        0.28278014063835144,
                        0.0883239358663559,
                        -0.2793184518814087,
                        0.15501098334789276,
                        0.15945924818515778,
                        0.13191121816635132,
                        0.4449287950992584,
                        -0.5820572376251221,
                        -0.2211955487728119,
                        -0.29597070813179016,
                        -0.2819122076034546,
                        0.8795660138130188,
                        0.030152814462780952
                    ],
                    [
                        -0.30955877900123596,
                        0.04361531883478165,
                        0.21325914561748505,
                        -0.09276249259710312,
                        0.15946705639362335,
                        0.09452470391988754,
                        -0.24560695886611938,
                        -0.30587416887283325,
                        0.354968398809433,
                        -0.04466210678219795,
                        -0.39401182532310486,
                        0.24733152985572815,
                        -0.16809698939323425,
                        -0.9312776327133179,
                        -0.4725397825241089,
                        -0.027870725840330124
                    ],
                    [
                        -0.11077574640512466,
                        -0.6025977730751038,
                        0.1612924188375473,
                        0.3002353012561798,
                        0.25039228796958923,
                        -0.1662122756242752,
                        -0.1847960501909256,
                        -0.011556616984307766,
                        0.5400320887565613,
                        0.00510629266500473,
                        0.28014177083969116,
                        -0.02697708085179329,
                        -0.4517587125301361,
                        -0.13835036754608154,
                        0.5576523542404175,
                        -0.16394221782684326
                    ],
                    [
                        -0.1699506640434265,
                        -0.09212841093540192,
                        0.04417194798588753,
                        -0.3745175898075104,
                        -0.2314460128545761,
                        -0.026029856875538826,
                        -0.18800996243953705,
                        -0.08906229585409164,
                        -0.02925536036491394,
                        0.3051016628742218,
                        -0.18159623444080353,
                        0.17678482830524445,
                        0.3004548251628876,
                        0.0960770845413208,
                        -0.12303263694047928,
                        -0.5736576318740845
                    ],
                    [
                        -0.056368496268987656,
                        0.010483916848897934,
                        0.0259782075881958,
                        0.2681138515472412,
                        -0.32600635290145874,
                        0.23034420609474182,
                        -0.0653759315609932,
                        0.2740879952907562,
                        -0.24175849556922913,
                        0.10362570732831955,
                        -0.1297820508480072,
                        0.6197658777236938,
                        -0.534427285194397,
                        -0.11581230908632278,
                        -0.6531155705451965,
                        0.07638273388147354
                    ],
                    [
                        -0.10547996312379837,
                        0.17654173076152802,
                        0.48180270195007324,
                        0.11891015619039536,
                        0.16568729281425476,
                        0.3729709982872009,
                        2.0802791118621826,
                        0.3852859139442444,
                        0.4760518968105316,
                        0.5117359161376953,
                        -0.10447327792644501,
                        -0.6717283725738525,
                        0.1353924423456192,
                        0.5729579925537109,
                        -0.6277252435684204,
                        0.02549663558602333
                    ],
                    [
                        0.45471319556236267,
                        0.4011535346508026,
                        -0.3836907148361206,
                        -0.41156089305877686,
                        0.0590798482298851,
                        -0.2236556112766266,
                        -0.8933148384094238,
                        -0.6337704062461853,
                        -0.7616905570030212,
                        -0.348299503326416,
                        0.24401044845581055,
                        0.2278643399477005,
                        -0.7906165719032288,
                        0.1267840415239334,
                        0.7927889823913574,
                        -0.6443617343902588
                    ],
                    [
                        -0.5240632891654968,
                        -0.18909354507923126,
                        0.2106596678495407,
                        0.005169804207980633,
                        -0.1793125718832016,
                        -0.13203708827495575,
                        0.43718963861465454,
                        0.08665556460618973,
                        -0.13669078052043915,
                        -0.26906758546829224,
                        -0.09306439012289047,
                        0.21455232799053192,
                        -0.03161441162228584,
                        0.2704630494117737,
                        0.03753720223903656,
                        -0.13807830214500427
                    ]
                ],
                [
                    -0.014958877116441727,
                    0.016673769801855087,
                    -0.015208517201244831,
                    -0.10351265966892242,
                    -0.010288750752806664,
                    0.020438089966773987,
                    -0.04851853474974632,
                    0.01539624948054552,
                    -0.02971973828971386,
                    0.012010461650788784,
                    0.1781940907239914,
                    -0.08624327927827835,
                    0.07604102790355682,
                    0.054236169904470444,
                    0.4495331346988678,
                    -0.006467784289270639
                ]
            ],
            "activation": "tanh"
        },
        {
            "type": "dense",
            "shape": [
                null,
                16
            ],
            "weights": [
                [
                    [
                        0.2927936911582947,
                        -0.6956917643547058,
                        0.058419566601514816,
                        0.13606899976730347,
                        -0.43940025568008423,
                        0.04277889057993889,
                        0.09328216314315796,
                        -0.5576049089431763,
                        0.12908197939395905,
                        -0.33444204926490784,
                        -0.25171253085136414,
                        -0.19521963596343994,
                        -0.054940108209848404,
                        -0.08528769761323929,
                        -0.026270097121596336,
                        0.2914462089538574
                    ],
                    [
                        -0.049693990498781204,
                        -0.6058809757232666,
                        0.031278032809495926,
                        0.48588335514068604,
                        -0.051221221685409546,
                        0.0004441913915798068,
                        0.6730189919471741,
                        0.22937068343162537,
                        0.12288425862789154,
                        0.291975200176239,
                        -0.33415284752845764,
                        -0.11970968544483185,
                        -0.2653389871120453,
                        -0.7039714455604553,
                        -0.13306674361228943,
                        -0.01675291173160076
                    ],
                    [
                        -0.18304157257080078,
                        0.2447420209646225,
                        -0.07446993142366409,
                        0.049734536558389664,
                        -0.11034601926803589,
                        0.39726150035858154,
                        -0.14930282533168793,
                        0.547634482383728,
                        0.31873178482055664,
                        0.11857714504003525,
                        0.17545762658119202,
                        0.6580613255500793,
                        -0.12775708734989166,
                        0.809764564037323,
                        0.6532190442085266,
                        0.1548033207654953
                    ],
                    [
                        -0.21884267032146454,
                        0.06819527596235275,
                        0.05766933038830757,
                        -0.6189107894897461,
                        -0.07797202467918396,
                        0.35503920912742615,
                        0.09663800895214081,
                        0.10760799795389175,
                        0.047331344336271286,
                        -0.12735383212566376,
                        0.21388579905033112,
                        0.1720091849565506,
                        0.5345119833946228,
                        0.44549694657325745,
                        0.5315428376197815,
                        -0.5081340670585632
                    ],
                    [
                        -0.10994835197925568,
                        0.3315863609313965,
                        0.8503674864768982,
                        -0.8735196590423584,
                        0.48074018955230713,
                        0.45440787076950073,
                        -0.7418217062950134,
                        0.7773007154464722,
                        0.5371723175048828,
                        -0.5297266244888306,
                        -0.1775364726781845,
                        0.21861855685710907,
                        0.11621776223182678,
                        0.7896124720573425,
                        0.24181094765663147,
                        -0.7709101438522339
                    ],
                    [
                        -0.34116309881210327,
                        0.03958182409405708,
                        0.14883506298065186,
                        -0.501359224319458,
                        0.17252759635448456,
                        -0.19299982488155365,
                        0.1474754810333252,
                        -0.2127344310283661,
                        0.47279152274131775,
                        0.1724095642566681,
                        0.36308780312538147,
                        0.03591134026646614,
                        -0.00925377942621708,
                        0.5244646668434143,
                        0.1746208369731903,
                        0.010473838075995445
                    ],
                    [
                        0.35271531343460083,
                        -0.23333214223384857,
                        0.7794064283370972,
                        -0.02815648540854454,
                        0.4003848135471344,
                        0.07180872559547424,
                        0.059018369764089584,
                        -0.17007339000701904,
                        -0.11330552399158478,
                        0.09352533519268036,
                        0.2997184991836548,
                        0.1598573476076126,
                        -0.15809494256973267,
                        -0.7628632187843323,
                        0.016758551821112633,
                        0.16185599565505981
                    ],
                    [
                        0.08526991307735443,
                        0.3612549304962158,
                        0.22426502406597137,
                        0.06442500650882721,
                        -0.2758122980594635,
                        0.023199481889605522,
                        -0.20794899761676788,
                        0.5706309080123901,
                        0.3956487774848938,
                        -0.5595312714576721,
                        0.5200942158699036,
                        0.1396302729845047,
                        -0.10237128287553787,
                        -0.2920455038547516,
                        0.06681837141513824,
                        -0.26714611053466797
                    ],
                    [
                        -0.5761470198631287,
                        0.20214946568012238,
                        0.2922651171684265,
                        -0.5708058476448059,
                        0.426906943321228,
                        0.3021477162837982,
                        -0.9424020648002625,
                        -0.0008694682037457824,
                        0.2531319260597229,
                        -0.5049452185630798,
                        0.3216208517551422,
                        1.0258902311325073,
                        0.12630988657474518,
                        0.6260887384414673,
                        -0.025454789400100708,
                        -1.0567859411239624
                    ],
                    [
                        -0.9910098314285278,
                        0.5318745970726013,
                        0.7557254433631897,
                        -0.27443480491638184,
                        0.36000552773475647,
                        0.7272312641143799,
                        -0.4390679895877838,
                        0.20756880939006805,
                        0.02513616532087326,
                        -0.500834584236145,
                        0.25141432881355286,
                        0.08173897117376328,
                        -0.009021345525979996,
                        0.5566499829292297,
                        0.47539520263671875,
                        -0.43590861558914185
                    ],
                    [
                        0.1309133768081665,
                        -0.07921402901411057,
                        0.18694064021110535,
                        0.11282497644424438,
                        0.07347173243761063,
                        -0.4345476031303406,
                        -0.1180700808763504,
                        0.05765905976295471,
                        -0.05433868244290352,
                        -0.44227394461631775,
                        -0.5337625741958618,
                        0.2532375752925873,
                        0.18780648708343506,
                        -0.7782571315765381,
                        0.2724173069000244,
                        0.2783883213996887
                    ],
                    [
                        0.05764931067824364,
                        -0.22486570477485657,
                        -0.7387825846672058,
                        -0.4263889789581299,
                        -0.536758542060852,
                        -0.10012516379356384,
                        0.33111685514450073,
                        0.022564416751265526,
                        -0.6287547945976257,
                        0.2146546095609665,
                        -0.020303040742874146,
                        -0.005143930669873953,
                        -0.4858820140361786,
                        -0.11123083531856537,
                        0.009334186092019081,
                        0.07642482221126556
                    ],
                    [
                        -0.014738384634256363,
                        0.06998449563980103,
                        0.6790243983268738,
                        0.2878076732158661,
                        0.018945494666695595,
                        -0.469259113073349,
                        0.33243799209594727,
                        0.04747360199689865,
                        -0.0739210918545723,
                        -0.15242920815944672,
                        0.009201186709105968,
                        0.05348370224237442,
                        -0.013516390696167946,
                        0.31462424993515015,
                        0.3787091076374054,
                        -0.21040576696395874
                    ],
                    [
                        -0.2477862387895584,
                        -0.0493633858859539,
                        0.9940869212150574,
                        0.01635993830859661,
                        -0.370649129152298,
                        -0.03340330719947815,
                        0.1568801999092102,
                        -0.06404371559619904,
                        -0.07556113600730896,
                        0.23151825368404388,
                        -0.14497599005699158,
                        0.11383986473083496,
                        0.266343891620636,
                        -0.1207534670829773,
                        -0.42395809292793274,
                        0.37970519065856934
                    ],
                    [
                        -0.03357666730880737,
                        -0.5270602107048035,
                        0.18129852414131165,
                        -0.2934110462665558,
                        0.11068101972341537,
                        -0.10416531562805176,
                        -1.5394997596740723,
                        -0.14053766429424286,
                        -0.0496833510696888,
                        0.13580310344696045,
                        0.014279535971581936,
                        -0.14160659909248352,
                        -0.1041904166340828,
                        -0.03401681035757065,
                        0.15738388895988464,
                        -0.6467217206954956
                    ],
                    [
                        -0.3492943346500397,
                        -0.15564146637916565,
                        0.08014722913503647,
                        -0.09808565676212311,
                        0.3951593339443207,
                        0.181706503033638,
                        0.1238710880279541,
                        0.4678448438644409,
                        -0.17404314875602722,
                        -0.4610593318939209,
                        0.49723827838897705,
                        0.10668408125638962,
                        0.2633936107158661,
                        0.8364886045455933,
                        -0.05093429237604141,
                        -0.014201588928699493
                    ]
                ],
                [
                    -0.048910025507211685,
                    -0.04797990620136261,
                    0.08189188688993454,
                    -0.06912658363580704,
                    -0.042927686125040054,
                    -0.07485540211200714,
                    -0.00018349665333516896,
                    0.004525988828390837,
                    0.0003471357631497085,
                    -0.03373207896947861,
                    -0.03561209514737129,
                    -0.028604349121451378,
                    0.06273652613162994,
                    -0.02510228008031845,
                    -0.0019672519993036985,
                    0.09754140675067902
                ]
            ],
            "activation": "tanh"
        },
        {
            "type": "dense",
            "shape": [
                null,
                1
            ],
            "weights": [
                [
                    [
                        -0.3168628215789795
                    ],
                    [
                        0.8317204117774963
                    ],
                    [
                        0.697054922580719
                    ],
                    [
                        -0.2566457986831665
                    ],
                    [
                        0.6657620072364807
                    ],
                    [
                        0.5021792054176331
                    ],
                    [
                        -0.5080755352973938
                    ],
                    [
                        0.39390596747398376
                    ],
                    [
                        0.38622286915779114
                    ],
                    [
                        -0.591244101524353
                    ],
                    [
                        0.8554186820983887
                    ],
                    [
                        0.6258705258369446
                    ],
                    [
                        0.03679543733596802
                    ],
                    [
                        0.9154502749443054
                    ],
                    [
                        0.8422716856002808
                    ],
                    [
                        -0.6140121817588806
                    ]
                ],
                [
                    0.005304086487740278
                ]
            ],
            "activation": ""
        }
    ]
}