{
    "in_shape": [
        null,
        2
    ],
    "layers": [
        {
            "type": "dense",
            "shape": [
                null,
                8
            ],
            "weights": [
                [
                    [
                        0.35022833943367004,
                        1.005693793296814,
                        -0.34612974524497986,
                        -1.0648502111434937,
                        0.2306825965642929,
                        -0.39632248878479004,
                        0.2832236588001251,
                        0.43951818346977234
                    ],
                    [
                        -0.14059779047966003,
                        -0.038009531795978546,
                        -0.0787355974316597,
                        -0.08431953936815262,
                        0.0035922215320169926,
                        0.3550828695297241,
                        0.15891669690608978,
                        -0.11466372758150101
                    ]
                ],
                [
                    0.026969406753778458,
                    0.2377524971961975,
                    0.2301858812570572,
                    0.8466402292251587,
                    -0.1006113812327385,
                    0.3632396161556244,
                    0.14590711891651154,
                    0.7491294741630554
                ]
            ],
            "activation": "tanh"
        },
        {
            "type": "dense",
            "shape": [
                null,
                8
            ],
            "weights": [
                [
                    [
                        0.2710883617401123,
                        0.2322806864976883,
                        0.4197181165218353,
                        -0.4023544192314148,
                        0.10439836233854294,
                        -0.3988248109817505,
                        -0.22960098087787628,
                        -0.558675229549408
                    ],
                    [
                        -0.08479401469230652,
                        0.09585278481245041,
                        0.06291833519935608,
                        0.31472617387771606,
                        0.4975031614303589,
                        -0.7654930949211121,
                        -0.49602562189102173,
                        0.22620967030525208
                    ],
                    [
                        -0.028468484058976173,
                        -0.12927071750164032,
                        -0.05242474749684334,
                        0.4540767967700958,
                        -0.8589882850646973,
                        -0.6360359191894531,
                        -0.17808188498020172,
                        -0.14372701942920685
                    ],
                    [
                        0.19551043212413788,
                        -0.9110077023506165,
                        0.24306726455688477,
                        -0.25619184970855713,
                        0.027099015191197395,
                        -0.28301259875297546,
                        -0.16290342807769775,
                        0.06553490459918976
                    ],
                    [
                        1.01621675491333,
                        -0.8948696255683899,
                        -0.5718169808387756,
                        1.060304880142212,
                        -0.5798805356025696,
                        -0.09779032319784164,
                        0.09915550798177719,
                        0.9005581140518188
                    ],
                    [
                        0.2873491644859314,
                        -0.24685245752334595,
                        -0.3597482442855835,
                        -0.17371724545955658,
                        -0.2098093330860138,
                        0.1309146285057068,
                        0.23773793876171112,
                        -0.4204053282737732
                    ],
                    [
                        -0.1631985753774643,
                        -0.16441693902015686,
                        0.09509479999542236,
                        0.4215634763240814,
                        0.27046099305152893,
                        0.3169749677181244,
                        -0.6230229735374451,
                        -0.4637729823589325
                    ],
                    [
                        -0.2212594598531723,
                        -0.2556770443916321,
                        -0.8211631178855896,
                        -0.04751366749405861,
                        0.5574885606765747,
                        -0.16054514050483704,
                        -0.9294856190681458,
                        -0.27088096737861633
                    ]
                ],
                [
                    0.021408358588814735,
                    -0.0772281214594841,
                    -0.2188531756401062,
                    -0.12983639538288116,
                    0.005160976201295853,
                    0.3326612412929535,
                    -0.6376791000366211,
                    0.1336197406053543
                ]
            ],
            "activation": "tanh"
        },
        {
            "type": "dense",
            "shape": [
                null,
                8
            ],
            "weights": [
                [
                    [
                        0.4442395567893982,
                        0.04250770062208176,
                        -0.8672858476638794,
                        -1.2356730699539185,
                        0.4451085031032562,
                        0.5082239508628845,
                        1.1628650426864624,
                        0.26435473561286926
                    ],
                    [
                        0.28458550572395325,
                        0.8896423578262329,
                        -0.07128040492534637,
                        0.4572755694389343,
                        -1.011569619178772,
                        -0.4140521287918091,
                        -0.6010600328445435,
                        -0.17506086826324463
                    ],
                    [
                        -0.36363905668258667,
                        -1.0483320951461792,
                        0.322445273399353,
                        0.10028038173913956,
                        -0.7854875326156616,
                        0.7256641387939453,
                        -0.44596606492996216,
                        -0.4366441071033478
                    ],
                    [
                        0.7038074731826782,
                        0.9664903879165649,
                        0.3473830819129944,
                        -0.4914698004722595,
                        0.08652963489294052,
                        0.44142231345176697,
                        0.25742772221565247,
                        1.029727578163147
                    ],
                    [
                        -0.11214924603700638,
                        -0.5382449626922607,
                        0.7409274578094482,
                        0.8355217576026917,
                        -0.7493996620178223,
                        -1.8945239782333374,
                        -0.22512996196746826,
                        -0.5964608788490295
                    ],
                    [
                        -0.6540631651878357,
                        0.31522396206855774,
                        0.2747761309146881,
                        0.21359509229660034,
                        -0.33322834968566895,
                        0.03923459351062775,
                        0.48675018548965454,
                        -0.23040612041950226
                    ],
                    [
                        0.5699195861816406,
                        0.08317741006612778,
                        0.025852713733911514,
                        0.03353269025683403,
                        0.03725903108716011,
                        1.1399317979812622,
                        -0.11401482671499252,
                        -0.6593787670135498
                    ],
                    [
                        0.7017273902893066,
                        0.08021575957536697,
                        -0.553586483001709,
                        -0.010672236792743206,
                        0.33784884214401245,
                        1.1885093450546265,
                        0.9522532224655151,
                        0.9566110372543335
                    ]
                ],
                [
                    -0.05092022940516472,
                    0.06495825946331024,
                    -0.1254345029592514,
                    -0.013873639516532421,
                    -0.04789448902010918,
                    -0.1629374921321869,
                    0.08873744308948517,
                    0.16480734944343567
                ]
            ],
            "activation": "tanh"
        },
        {
            "type": "dense",
            "shape": [
                null,
                1
            ],
            "weights": [
                [
                    [
                        1.205472469329834
                    ],
                    [
                        0.48144885897636414
                    ],
                    [
                        -0.622887909412384
                    ],
                    [
                        -1.402557373046875
                    ],
                    [
                        1.2642476558685303
                    ],
                    [
                        0.8208511471748352
                    ],
                    [
                        1.05630362033844
                    ],
                    [
                        1.3169074058532715
                    ]
                ],
                [
                    -0.015887945890426636
                ]
            ],
            "activation": ""
        }
    ]
}