{
    "in_shape": 2,
    "layers": [
        {
            "type": "dense",
            "shape": 8,
            "weights": [
                [
                    [
                        [
                            -0.03241334110498428,
                            0.05878809094429016,
                            -0.13880355656147003,
                            -0.7755427956581116,
                            -0.1524488627910614,
                            -0.7708354592323303,
                            -0.5741947889328003,
                            1.3479347229003906
                        ],
                        [
                            -2.666835308074951,
                            2.7540128231048584,
                            0.024273816496133804,
                            -0.05005987361073494,
                            -0.020267657935619354,
                            0.06989109516143799,
                            0.058426376432180405,
                            0.04039137437939644
                        ]
                    ]
                ],
                [
                    [
                        -1.7138586044311523,
                        1.6914676427841187,
                        -0.4228331446647644,
                        0.3680587410926819,
                        0.3836938738822937,
                        -0.7813841104507446,
                        -0.009894086048007011,
                        -0.33893224596977234
                    ]
                ]
            ],
            "activation": "tanh"
        },
        {
            "type": "dense",
            "shape": 8,
            "weights": [
                [
                    [
                        [
                            0.13629844784736633,
                            -0.4032393991947174,
                            -0.8098813891410828,
                            0.2195349931716919,
                            -0.039847929030656815,
                            -0.4161525070667267,
                            0.20381081104278564,
                            -0.19834651052951813
                        ],
                        [
                            0.191606342792511,
                            0.5487046837806702,
                            0.20382830500602722,
                            0.23614127933979034,
                            0.3519744873046875,
                            -0.6072774529457092,
                            0.14545020461082458,
                            0.38587743043899536
                        ],
                        [
                            -0.0869685560464859,
                            -0.3912445604801178,
                            0.08600351959466934,
                            0.5913544297218323,
                            -0.9293987154960632,
                            -0.5058968663215637,
                            0.7706080079078674,
                            -1.1063435077667236
                        ],
                        [
                            0.832339882850647,
                            0.3630479574203491,
                            -0.018820233643054962,
                            0.8330642580986023,
                            0.08809193968772888,
                            0.7322050929069519,
                            0.3286571502685547,
                            -0.4535730481147766
                        ],
                        [
                            -0.6891361474990845,
                            1.0475375652313232,
                            1.253799557685852,
                            -0.14230656623840332,
                            -0.38285982608795166,
                            -0.16117702424526215,
                            0.6872239708900452,
                            0.6157189607620239
                        ],
                        [
                            -0.1986752301454544,
                            -0.04612886160612106,
                            0.06696736812591553,
                            1.4590365886688232,
                            -0.8138659596443176,
                            0.02166835404932499,
                            -0.3536113202571869,
                            -0.11671716719865799
                        ],
                        [
                            -0.4219738245010376,
                            -0.017998943105340004,
                            -0.37175124883651733,
                            0.710275411605835,
                            0.7343985438346863,
                            0.6933131814002991,
                            0.16805924475193024,
                            0.04987342655658722
                        ],
                        [
                            0.5457270741462708,
                            -1.0004124641418457,
                            -0.007981193251907825,
                            -0.4496861398220062,
                            -0.14483237266540527,
                            -0.3608119487762451,
                            0.35346484184265137,
                            0.2721448838710785
                        ]
                    ]
                ],
                [
                    [
                        0.05110390484333038,
                        0.18099896609783173,
                        -0.041994620114564896,
                        -0.04917435348033905,
                        -0.05823754519224167,
                        0.06816831976175308,
                        -0.03756996616721153,
                        0.18689478933811188
                    ]
                ]
            ],
            "activation": "tanh"
        },
        {
            "type": "dense",
            "shape": 8,
            "weights": [
                [
                    [
                        [
                            -0.6782141923904419,
                            0.2277984917163849,
                            -0.21318471431732178,
                            0.24888311326503754,
                            -1.2016876935958862,
                            -0.4546535611152649,
                            0.1188197135925293,
                            -0.30020982027053833
                        ],
                        [
                            -0.20189808309078217,
                            -1.179788589477539,
                            0.3792526423931122,
                            -0.02523016557097435,
                            0.5602407455444336,
                            -0.5993402004241943,
                            -0.15231582522392273,
                            1.0996357202529907
                        ],
                        [
                            -0.2464577704668045,
                            -0.08817695081233978,
                            -0.03623703867197037,
                            -0.6736446022987366,
                            0.4254987835884094,
                            -0.18491584062576294,
                            -0.012792503461241722,
                            1.0504698753356934
                        ],
                        [
                            -0.22152079641819,
                            0.0642937421798706,
                            -0.0022794334217906,
                            0.2314406931400299,
                            -0.8273698091506958,
                            0.3367311954498291,
                            -0.04018976539373398,
                            0.2869650721549988
                        ],
                        [
                            0.33584895730018616,
                            0.7727685570716858,
                            -0.05820704251527786,
                            0.5788346529006958,
                            -0.3182528018951416,
                            -1.3237515687942505,
                            1.0464394092559814,
                            0.06721322238445282
                        ],
                        [
                            -1.848284363746643,
                            0.11279218643903732,
                            -0.7551350593566895,
                            0.9735915660858154,
                            -0.08744053542613983,
                            0.12340003252029419,
                            1.0418789386749268,
                            -0.4494299590587616
                        ],
                        [
                            -1.4750514030456543,
                            0.510332465171814,
                            0.5358800292015076,
                            -0.1788608431816101,
                            0.2961042523384094,
                            0.30190467834472656,
                            -0.8948224186897278,
                            0.40304508805274963
                        ],
                        [
                            0.691535472869873,
                            0.3371991813182831,
                            -0.9062871336936951,
                            0.3738105297088623,
                            -0.09933818876743317,
                            -1.0463511943817139,
                            -0.11045904457569122,
                            0.19660252332687378
                        ]
                    ]
                ],
                [
                    [
                        -0.001043096650391817,
                        -0.023745913058519363,
                        0.023584283888339996,
                        0.00868222489953041,
                        0.06795525550842285,
                        -0.11931660771369934,
                        -0.00575999217107892,
                        0.07787931710481644
                    ]
                ]
            ],
            "activation": "tanh"
        },
        {
            "type": "dense",
            "shape": 1,
            "weights": [
                [
                    [
                        [
                            0.6346062421798706
                        ],
                        [
                            1.1260273456573486
                        ],
                        [
                            -0.9046981930732727
                        ],
                        [
                            0.7693554162979126
                        ],
                        [
                            -1.1900581121444702
                        ],
                        [
                            -0.5030488967895508
                        ],
                        [
                            1.1365216970443726
                        ],
                        [
                            -0.8076293468475342
                        ]
                    ]
                ],
                [
                    [
                        -0.014727398753166199
                    ]
                ]
            ]
        }
    ]
}