{
    "in_shape": [
        null,
        2
    ],
    "layers": [
        {
            "type": "dense",
            "shape": [
                null,
                4
            ],
            "weights": [
                [
                    [
                        1.1675622772600036e-05,
                        -0.29996010661125183,
                        0.19654439389705658,
                        0.07501356303691864
                    ],
                    [
                        -2.6409754753112793,
                        0.015672987326979637,
                        0.006039181724190712,
                        0.021481266245245934
                    ]
                ],
                [
                    -1.824303388595581,
                    0.3637450039386749,
                    -0.224823996424675,
                    -0.15196987986564636
                ]
            ],
            "activation": "tanh"
        },
        {
            "type": "dense",
            "shape": [
                null,
                4
            ],
            "weights": [
                [
                    [
                        0.3475573658943176,
                        -0.596337080001831,
                        0.005736109800636768,
                        -0.5677508115768433
                    ],
                    [
                        0.03470444679260254,
                        -0.6193766593933105,
                        -0.6853331923484802,
                        0.16565415263175964
                    ],
                    [
                        0.9262164831161499,
                        0.8885021209716797,
                        -0.9074990153312683,
                        0.919828474521637
                    ],
                    [
                        0.04654797911643982,
                        0.6366663575172424,
                        -0.30342620611190796,
                        -0.9444683194160461
                    ]
                ],
                [
                    0.07880906760692596,
                    -0.09041419625282288,
                    -0.10057930648326874,
                    -0.01815059408545494
                ]
            ],
            "activation": "tanh"
        },
        {
            "type": "dense",
            "shape": [
                null,
                4
            ],
            "weights": [
                [
                    [
                        -0.3022107481956482,
                        -0.5671385526657104,
                        -0.019812041893601418,
                        0.9275060892105103
                    ],
                    [
                        -1.7805347442626953,
                        -0.394369512796402,
                        0.4512249529361725,
                        -0.12971575558185577
                    ],
                    [
                        -0.3555508255958557,
                        0.4868509769439697,
                        -1.1490403413772583,
                        -0.12598803639411926
                    ],
                    [
                        0.02841798961162567,
                        1.5622906684875488,
                        0.9868687987327576,
                        0.7998175024986267
                    ]
                ],
                [
                    -0.0913923904299736,
                    -0.04750831797719002,
                    0.05214764177799225,
                    0.0889519527554512
                ]
            ],
            "activation": "tanh"
        },
        {
            "type": "dense",
            "shape": [
                null,
                4
            ],
            "weights": [
                [
                    [
                        -0.13569463789463043,
                        -1.1838653087615967,
                        -0.7865514159202576,
                        0.10281197726726532
                    ],
                    [
                        -1.0465385913848877,
                        0.017828676849603653,
                        0.6662126183509827,
                        -0.8356645703315735
                    ],
                    [
                        -0.052134525030851364,
                        -0.320404052734375,
                        0.038776956498622894,
                        -1.7970010042190552
                    ],
                    [
                        0.5409665703773499,
                        -0.8498799800872803,
                        1.9736535549163818,
                        -1.0784046649932861
                    ]
                ],
                [
                    -0.04945327341556549,
                    0.1395692378282547,
                    0.14286154508590698,
                    -0.13842782378196716
                ]
            ],
            "activation": "tanh"
        },
        {
            "type": "dense",
            "shape": [
                null,
                4
            ],
            "weights": [
                [
                    [
                        1.6887010335922241,
                        0.8485493063926697,
                        -0.47821611166000366,
                        1.0962259769439697
                    ],
                    [
                        1.0455299615859985,
                        -0.8095511198043823,
                        0.6250045895576477,
                        -1.1742119789123535
                    ],
                    [
                        0.33619409799575806,
                        0.0650922879576683,
                        -2.3050055503845215,
                        -0.12855342030525208
                    ],
                    [
                        -0.049805112183094025,
                        0.21927502751350403,
                        0.5746899247169495,
                        -0.6492445468902588
                    ]
                ],
                [
                    0.10422281920909882,
                    0.12398312240839005,
                    -0.1521243155002594,
                    -0.0714033767580986
                ]
            ],
            "activation": "tanh"
        },
        {
            "type": "dense",
            "shape": [
                null,
                1
            ],
            "weights": [
                [
                    [
                        1.2936577796936035
                    ],
                    [
                        0.27466192841529846
                    ],
                    [
                        -0.9860713481903076
                    ],
                    [
                        2.9461357593536377
                    ]
                ],
                [
                    0.036576103419065475
                ]
            ],
            "activation": ""
        }
    ]
}