{
    "in_shape": [
        null,
        2
    ],
    "layers": [
        {
            "type": "dense",
            "shape": [
                null,
                16
            ],
            "weights": [
                [
                    [
                        -1.0388076305389404,
                        0.18066944181919098,
                        0.0409986712038517,
                        0.3130355179309845,
                        -0.1642337590456009,
                        1.0369538068771362,
                        -0.19229447841644287,
                        -0.7678864598274231,
                        0.04753202199935913,
                        0.32493239641189575,
                        -0.29993388056755066,
                        0.5608735084533691,
                        -0.256503701210022,
                        -0.2680383622646332,
                        0.5583263635635376,
                        0.05907838046550751
                    ],
                    [
                        -0.09279502928256989,
                        0.006093866191804409,
                        -0.16502176225185394,
                        -0.05799543485045433,
                        -0.13885514438152313,
                        0.12387409806251526,
                        0.32714587450027466,
                        0.024074988439679146,
                        0.6981720924377441,
                        0.09482870250940323,
                        0.15337036550045013,
                        0.05217467620968819,
                        -0.008364167995750904,
                        -0.011679917573928833,
                        -0.007943718694150448,
                        0.386612206697464
                    ]
                ],
                [
                    0.8270921111106873,
                    -0.010912423953413963,
                    0.06387448310852051,
                    0.16971760988235474,
                    0.17292660474777222,
                    -0.15386630594730377,
                    0.05051064491271973,
                    0.0966317355632782,
                    0.1329912692308426,
                    -0.5768671631813049,
                    -0.14659477770328522,
                    -0.307428777217865,
                    0.01323721744120121,
                    -0.0015567841473966837,
                    0.3190307915210724,
                    0.21552415192127228
                ]
            ],
            "activation": "tanh"
        },
        {
            "type": "dense",
            "shape": [
                null,
                16
            ],
            "weights": [
                [
                    [
                        -0.11141373962163925,
                        0.13286325335502625,
                        0.4091498553752899,
                        -0.1597517728805542,
                        -0.019099649041891098,
                        -0.17720894515514374,
                        0.35809019207954407,
                        -0.4277438819408417,
                        -0.44829419255256653,
                        0.20187480747699738,
                        -0.30974993109703064,
                        -0.05446385219693184,
                        0.1385999172925949,
                        -0.6955848336219788,
                        -0.09672234207391739,
                        -1.2199207544326782
                    ],
                    [
                        -0.2014235258102417,
                        0.009464877657592297,
                        0.40681958198547363,
                        0.298991858959198,
                        0.6055966019630432,
                        -0.2026570737361908,
                        0.3485643267631531,
                        -0.8454599380493164,
                        -0.559279203414917,
                        -0.5777746438980103,
                        0.06512165814638138,
                        0.07576609402894974,
                        0.4769778251647949,
                        0.6609595417976379,
                        -0.3887210786342621,
                        -0.03168131783604622
                    ],
                    [
                        0.11320316046476364,
                        0.2694195806980133,
                        0.10782147943973541,
                        0.13857214152812958,
                        -0.07362502813339233,
                        -0.5376453399658203,
                        0.29592424631118774,
                        -0.05057762190699577,
                        -0.17479176819324493,
                        0.057253435254096985,
                        0.41894590854644775,
                        0.06078413128852844,
                        0.0252559632062912,
                        -0.3220801055431366,
                        0.37491273880004883,
                        0.128998264670372
                    ],
                    [
                        0.6171945333480835,
                        -0.10542130470275879,
                        -0.2467668652534485,
                        -0.12237782031297684,
                        -0.09337955713272095,
                        0.027546381577849388,
                        0.018996067345142365,
                        -0.4783411920070648,
                        0.34652143716812134,
                        -0.06310392171144485,
                        -0.7541429996490479,
                        0.069739431142807,
                        -0.015454677864909172,
                        -0.5782107710838318,
                        0.1491459608078003,
                        0.2628747522830963
                    ],
                    [
                        -0.26560044288635254,
                        -0.11572321504354477,
                        -0.042178913950920105,
                        0.6795051693916321,
                        -0.267168790102005,
                        -0.36318716406822205,
                        -0.33117014169692993,
                        -0.09735357016324997,
                        0.11807799339294434,
                        -0.07562053948640823,
                        -0.2539808750152588,
                        -0.09437719732522964,
                        0.2452520728111267,
                        -0.2760326564311981,
                        -0.03885182738304138,
                        -0.2911113202571869
                    ],
                    [
                        0.13474996387958527,
                        0.4769062101840973,
                        0.07391425967216492,
                        -0.1183447316288948,
                        0.268929660320282,
                        -0.19531948864459991,
                        -0.39935728907585144,
                        -0.317345529794693,
                        0.4079269468784332,
                        -0.13950246572494507,
                        -0.09092429280281067,
                        -0.43095526099205017,
                        -0.003736521117389202,
                        0.4767918586730957,
                        0.22193306684494019,
                        -0.018770935013890266
                    ],
                    [
                        0.10572294145822525,
                        -0.048124365508556366,
                        -0.1455123871564865,
                        0.03734349459409714,
                        0.06723031401634216,
                        -0.40811416506767273,
                        0.2910010814666748,
                        0.3860872983932495,
                        0.2186879962682724,
                        0.2035052627325058,
                        -0.0698385164141655,
                        -0.015552915632724762,
                        0.4470408856868744,
                        0.11985215544700623,
                        -0.061734654009342194,
                        -0.2742042541503906
                    ],
                    [
                        0.3073669373989105,
                        0.44425904750823975,
                        0.08793875575065613,
                        0.0025415378622710705,
                        -0.9628830552101135,
                        0.03996692970395088,
                        -0.029632218182086945,
                        1.071363091468811,
                        0.22331467270851135,
                        -0.4076102077960968,
                        0.19785957038402557,
                        0.3413853943347931,
                        -0.020843319594860077,
                        0.16709738969802856,
                        -0.26983535289764404,
                        -0.3968408703804016
                    ],
                    [
                        0.3564679026603699,
                        0.09145773202180862,
                        0.18196360766887665,
                        0.47613197565078735,
                        -0.07190808653831482,
                        0.0944884866476059,
                        0.18562214076519012,
                        -0.11588259786367416,
                        -0.40755701065063477,
                        -0.10528196394443512,
                        -0.23314952850341797,
                        -0.28377342224121094,
                        -0.3152994215488434,
                        -0.07541792839765549,
                        0.03780173882842064,
                        -0.05079924687743187
                    ],
                    [
                        -0.3336699306964874,
                        0.10052718967199326,
                        -0.30065008997917175,
                        -0.22253860533237457,
                        -0.21749982237815857,
                        -0.3895503282546997,
                        0.1706049144268036,
                        -0.22697506844997406,
                        -0.2128135710954666,
                        0.0994102880358696,
                        -0.1574082225561142,
                        0.11863169074058533,
                        -0.5667900443077087,
                        0.7758845686912537,
                        -0.13948892056941986,
                        0.5569366216659546
                    ],
                    [
                        0.07881639152765274,
                        0.04037299379706383,
                        0.1320226937532425,
                        -0.18674415349960327,
                        0.1563291996717453,
                        -0.2923787534236908,
                        -0.32736173272132874,
                        0.042053572833538055,
                        -0.5115941166877747,
                        -0.036769941449165344,
                        -0.12384907156229019,
                        0.29940760135650635,
                        0.14021995663642883,
                        0.0022767740301787853,
                        -0.3040948212146759,
                        0.2565642297267914
                    ],
                    [
                        0.08431465178728104,
                        -0.5604713559150696,
                        0.3654772639274597,
                        -0.3670216500759125,
                        -0.17868414521217346,
                        -0.1515074223279953,
                        -0.24161788821220398,
                        -0.025711307302117348,
                        -0.004856184124946594,
                        0.19062498211860657,
                        -0.052301596850156784,
                        0.3574739098548889,
                        -0.3533760905265808,
                        0.8197898268699646,
                        0.531005322933197,
                        0.2623560130596161
                    ],
                    [
                        0.4612005650997162,
                        0.08747964352369308,
                        -0.8721222281455994,
                        -0.19994057714939117,
                        -0.3127349019050598,
                        0.2790791392326355,
                        -0.40875244140625,
                        0.572894275188446,
                        0.3437899947166443,
                        -0.1729290932416916,
                        -0.2291087657213211,
                        0.6711354851722717,
                        -0.3614951968193054,
                        -0.22732825577259064,
                        0.5165596604347229,
                        -0.40762054920196533
                    ],
                    [
                        0.709737241268158,
                        0.1851053684949875,
                        -0.2780708372592926,
                        0.03955725207924843,
                        -0.5251121520996094,
                        0.3527906835079193,
                        -0.4716621935367584,
                        0.2485579401254654,
                        0.791551947593689,
                        0.6165633201599121,
                        0.01032102108001709,
                        0.6099381446838379,
                        -0.2940825819969177,
                        -0.13741587102413177,
                        -0.04492996260523796,
                        0.004941972903907299
                    ],
                    [
                        0.4279448091983795,
                        -0.6689650416374207,
                        -0.2502343952655792,
                        -0.1626894325017929,
                        0.1291431188583374,
                        -0.29543858766555786,
                        -0.09987857192754745,
                        -1.3604599237442017,
                        0.05868665128946304,
                        -0.1308547854423523,
                        0.0620541051030159,
                        -0.4965187907218933,
                        -0.1983090043067932,
                        -0.5616608262062073,
                        -0.30763620138168335,
                        -0.37539204955101013
                    ],
                    [
                        0.15067531168460846,
                        -0.02358890511095524,
                        -0.2764224708080292,
                        -0.20935027301311493,
                        -0.5048225522041321,
                        0.18841935694217682,
                        -0.03661365434527397,
                        -0.49445152282714844,
                        -0.15866462886333466,
                        0.06050069257616997,
                        0.08640296012163162,
                        -0.13663740456104279,
                        0.399020791053772,
                        0.033984094858169556,
                        0.2717359960079193,
                        0.10641363263130188
                    ]
                ],
                [
                    0.005462517961859703,
                    0.04645322263240814,
                    0.0012268949067220092,
                    -0.0013338077114894986,
                    -0.07921876758337021,
                    0.029531802982091904,
                    0.0027969779912382364,
                    -0.20942580699920654,
                    0.08547570556402206,
                    -0.06960014253854752,
                    -0.006486860569566488,
                    0.059060998260974884,
                    -0.047363556921482086,
                    -0.2808602452278137,
                    0.026762433350086212,
                    -0.053377967327833176
                ]
            ],
            "activation": "tanh"
        },
        {
            "type": "dense",
            "shape": [
                null,
                16
            ],
            "weights": [
                [
                    [
                        -0.256978839635849,
                        -0.1939857006072998,
                        -0.5248464941978455,
                        -0.29208511114120483,
                        -0.25879931449890137,
                        0.1280256062746048,
                        0.06049776449799538,
                        0.4352741539478302,
                        -0.7177304625511169,
                        -0.8786323070526123,
                        0.6641201972961426,
                        0.18574120104312897,
                        -0.33160528540611267,
                        0.47070515155792236,
                        -0.5514996647834778,
                        -0.03454197198152542
                    ],
                    [
                        -0.20412565767765045,
                        0.24846944212913513,
                        -0.3386079967021942,
                        -0.3209018409252167,
                        0.412456750869751,
                        0.10149356722831726,
                        0.008904067799448967,
                        -0.3083559572696686,
                        -0.04133700579404831,
                        0.2303634136915207,
                        -0.46243157982826233,
                        -0.5133633613586426,
                        0.03508976474404335,
                        0.16358663141727448,
                        0.3285464644432068,
                        0.523827075958252
                    ],
                    [
                        0.150038480758667,
                        0.32537588477134705,
                        0.32880210876464844,
                        -0.06499321013689041,
                        0.892808735370636,
                        0.22216005623340607,
                        -0.25480958819389343,
                        -0.19694678485393524,
                        1.5375434160232544,
                        0.0566495843231678,
                        0.25891950726509094,
                        -0.5803932547569275,
                        0.14021281898021698,
                        -0.5172581672668457,
                        0.48243191838264465,
                        0.329892098903656
                    ],
                    [
                        0.21401304006576538,
                        0.31097686290740967,
                        -0.03509951010346413,
                        0.28328531980514526,
                        0.40331366658210754,
                        -0.14696364104747772,
                        0.32724738121032715,
                        -0.5657367706298828,
                        -0.03836473822593689,
                        -0.27296337485313416,
                        -0.08240434527397156,
                        -0.023400969803333282,
                        0.22031545639038086,
                        0.45077601075172424,
                        0.012380477041006088,
                        0.08595652133226395
                    ],
                    [
                        0.035094015300273895,
                        0.17029491066932678,
                        0.49215370416641235,
                        0.3278143107891083,
                        0.062139593064785004,
                        -0.09842605888843536,
                        -0.42308300733566284,
                        0.18918102979660034,
                        0.2766149044036865,
                        -0.566524863243103,
                        -0.345459520816803,
                        0.6083741784095764,
                        0.08735008537769318,
                        -0.2987905442714691,
                        0.23083925247192383,
                        0.5113494396209717
                    ],
                    [
                        0.5451481938362122,
                        -0.3796924948692322,
                        -0.3763253688812256,
                        -0.25431665778160095,
                        0.2988598942756653,
                        -0.2954888343811035,
                        0.4209785759449005,
                        0.4658537209033966,
                        -0.9874072074890137,
                        0.02113984152674675,
                        0.11403760313987732,
                        0.19855907559394836,
                        -0.6721568703651428,
                        0.6636277437210083,
                        -0.15138016641139984,
                        -0.3155868649482727
                    ],
                    [
                        -0.11388018727302551,
                        -0.41904228925704956,
                        -0.033655595034360886,
                        0.4202675521373749,
                        0.626426100730896,
                        -0.13668008148670197,
                        -0.4191608428955078,
                        -0.29586562514305115,
                        0.5977509021759033,
                        0.1844087392091751,
                        -0.09187575429677963,
                        -0.08019612729549408,
                        0.2647479772567749,
                        -0.10140527784824371,
                        0.041461292654275894,
                        0.36513790488243103
                    ],
                    [
                        -0.1958175003528595,
                        0.17080016434192657,
                        -0.15948259830474854,
                        0.1893542855978012,
                        0.22251199185848236,
                        0.2809208333492279,
                        0.8997785449028015,
                        0.06120286136865616,
                        -0.30171188712120056,
                        1.4912848472595215,
                        0.18518751859664917,
                        -0.07383448630571365,
                        -0.0943710133433342,
                        -0.21232996881008148,
                        0.15419165790081024,
                        0.4386967718601227
                    ],
                    [
                        0.37941789627075195,
                        -0.08743372559547424,
                        -0.02285291627049446,
                        -0.3063408434391022,
                        0.21781480312347412,
                        -0.15233096480369568,
                        -0.11857634782791138,
                        -0.19428203999996185,
                        -0.9088460206985474,
                        -0.23616518080234528,
                        0.3160710632801056,
                        0.13898418843746185,
                        0.3343105614185333,
                        -0.12618033587932587,
                        0.34459298849105835,
                        -0.0711851418018341
                    ],
                    [
                        -0.012512673623859882,
                        0.14936619997024536,
                        -0.14633207023143768,
                        -0.1113535612821579,
                        -0.1940595954656601,
                        -0.7559286952018738,
                        0.1207847073674202,
                        0.19613628089427948,
                        -0.2174389660358429,
                        -0.26056569814682007,
                        0.17390336096286774,
                        0.11525425314903259,
                        0.0672299861907959,
                        -0.18021978437900543,
                        -0.711657702922821,
                        -0.018302688375115395
                    ],
                    [
                        0.16428431868553162,
                        0.21062681078910828,
                        -0.38627392053604126,
                        0.2995653748512268,
                        0.2924104630947113,
                        0.06053386628627777,
                        0.29733479022979736,
                        0.31126031279563904,
                        -0.1745196282863617,
                        0.29890817403793335,
                        -0.2720751166343689,
                        -0.5198165774345398,
                        -0.03596368432044983,
                        -0.3431525230407715,
                        0.15587739646434784,
                        -0.16425170004367828
                    ],
                    [
                        0.2600359320640564,
                        0.06908676773309708,
                        -0.9024091958999634,
                        0.0029277054127305746,
                        -0.3688492774963379,
                        -0.28070592880249023,
                        0.5068668723106384,
                        0.35322800278663635,
                        -0.19236068427562714,
                        0.4438360631465912,
                        0.4709921181201935,
                        0.04829465225338936,
                        -0.11865923553705215,
                        0.5415804386138916,
                        0.2967252731323242,
                        -0.10395452380180359
                    ],
                    [
                        -0.515381395816803,
                        0.3802673816680908,
                        0.34714385867118835,
                        0.31596699357032776,
                        0.5571805238723755,
                        -0.3393802046775818,
                        -0.5327393412590027,
                        -0.9635434150695801,
                        0.16656574606895447,
                        0.1911739557981491,
                        -0.02464967593550682,
                        -0.520180344581604,
                        -0.4100984036922455,
                        -0.28327322006225586,
                        0.6915121078491211,
                        0.3373183310031891
                    ],
                    [
                        -0.3792577385902405,
                        0.47940537333488464,
                        0.30332982540130615,
                        0.23878709971904755,
                        0.410462349653244,
                        0.1814856380224228,
                        -0.3205278217792511,
                        0.07614278793334961,
                        -0.06008567288517952,
                        0.18643271923065186,
                        0.0627080425620079,
                        -0.01302848570048809,
                        0.17365214228630066,
                        0.15684130787849426,
                        0.0003437516570556909,
                        -0.29383841156959534
                    ],
                    [
                        0.1861441284418106,
                        -0.1727026402950287,
                        -0.8931014537811279,
                        -0.3354812264442444,
                        -0.448781818151474,
                        0.23135681450366974,
                        0.11431045830249786,
                        0.17817422747612,
                        -0.4030833840370178,
                        -0.23319004476070404,
                        0.2278837114572525,
                        0.6783219575881958,
                        -0.49766504764556885,
                        0.05948960781097412,
                        -0.7411699891090393,
                        -0.4123683571815491
                    ],
                    [
                        0.40345707535743713,
                        0.17366473376750946,
                        0.14542506635189056,
                        0.34790346026420593,
                        -0.00478385342285037,
                        0.3531746566295624,
                        0.026446590200066566,
                        -0.09580333530902863,
                        -0.25699737668037415,
                        0.29652461409568787,
                        -0.1193724125623703,
                        -0.5401034355163574,
                        0.1900089532136917,
                        -0.012501408345997334,
                        -0.04314235597848892,
                        0.38549280166625977
                    ]
                ],
                [
                    -0.1945870965719223,
                    -0.08481354266405106,
                    -0.13976243138313293,
                    -0.009016770869493484,
                    -0.0550934299826622,
                    0.024559684097766876,
                    0.01136481948196888,
                    0.03534267842769623,
                    0.09052728861570358,
                    -0.01685451529920101,
                    0.05075130611658096,
                    0.05347286909818649,
                    -0.0434916652739048,
                    -0.018222680315375328,
                    -0.006030593998730183,
                    -0.06565216928720474
                ]
            ],
            "activation": "tanh"
        },
        {
            "type": "dense",
            "shape": [
                null,
                1
            ],
            "weights": [
                [
                    [
                        -0.2040000706911087
                    ],
                    [
                        0.20862330496311188
                    ],
                    [
                        0.3956005573272705
                    ],
                    [
                        0.304578572511673
                    ],
                    [
                        0.8655855059623718
                    ],
                    [
                        0.06417953222990036
                    ],
                    [
                        -0.30106016993522644
                    ],
                    [
                        -1.1511822938919067
                    ],
                    [
                        0.8737777471542358
                    ],
                    [
                        0.3361693024635315
                    ],
                    [
                        -0.9792436957359314
                    ],
                    [
                        -0.6975931525230408
                    ],
                    [
                        0.2944873869419098
                    ],
                    [
                        -0.6482304930686951
                    ],
                    [
                        0.5810916423797607
                    ],
                    [
                        1.1863608360290527
                    ]
                ],
                [
                    -0.053244560956954956
                ]
            ],
            "activation": ""
        }
    ]
}