{
    "in_shape": [
        null,
        2
    ],
    "layers": [
        {
            "type": "dense",
            "shape": [
                null,
                8
            ],
            "weights": [
                [
                    [
                        0.3529963195323944,
                        1.0047770738601685,
                        -0.34421101212501526,
                        -1.0700496435165405,
                        0.2309286743402481,
                        -0.40056395530700684,
                        0.2824332118034363,
                        0.43823084235191345
                    ],
                    [
                        -0.14060468971729279,
                        -0.03885291889309883,
                        -0.0784558653831482,
                        -0.0849955677986145,
                        0.003601378295570612,
                        0.3550804853439331,
                        0.1596386432647705,
                        -0.11433456093072891
                    ]
                ],
                [
                    0.026953773573040962,
                    0.23690827190876007,
                    0.23046912252902985,
                    0.8459827899932861,
                    -0.10059589147567749,
                    0.3632493317127228,
                    0.14662772417068481,
                    0.7494540214538574
                ]
            ],
            "activation": "tanh"
        },
        {
            "type": "dense",
            "shape": [
                null,
                8
            ],
            "weights": [
                [
                    [
                        0.27116599678993225,
                        0.23176611959934235,
                        0.4201745092868805,
                        -0.4026479423046112,
                        0.10458501428365707,
                        -0.39917612075805664,
                        -0.22861051559448242,
                        -0.5582937002182007
                    ],
                    [
                        -0.08538439124822617,
                        0.1000104695558548,
                        0.06129980832338333,
                        0.31590837240219116,
                        0.4959833025932312,
                        -0.7614942789077759,
                        -0.5004003643989563,
                        0.22650055587291718
                    ],
                    [
                        -0.02839265950024128,
                        -0.13098566234111786,
                        -0.05142780765891075,
                        0.4533627927303314,
                        -0.858119785785675,
                        -0.6375972032546997,
                        -0.17594502866268158,
                        -0.14344066381454468
                    ],
                    [
                        0.19618076086044312,
                        -0.9132503867149353,
                        0.2434697300195694,
                        -0.2563984990119934,
                        0.027896737679839134,
                        -0.2850784659385681,
                        -0.15960681438446045,
                        0.065636046230793
                    ],
                    [
                        1.0162349939346313,
                        -0.8938174247741699,
                        -0.572346568107605,
                        1.0607210397720337,
                        -0.5805643796920776,
                        -0.09682977199554443,
                        0.09678678959608078,
                        0.9009459614753723
                    ],
                    [
                        0.28720593452453613,
                        -0.24604251980781555,
                        -0.3602362275123596,
                        -0.1734144240617752,
                        -0.2100512981414795,
                        0.13156279921531677,
                        0.23655493557453156,
                        -0.4208346903324127
                    ],
                    [
                        -0.16332565248012543,
                        -0.16352578997612,
                        0.09455402940511703,
                        0.4219106137752533,
                        0.2701556384563446,
                        0.31770479679107666,
                        -0.6243016123771667,
                        -0.464181125164032
                    ],
                    [
                        -0.2213030755519867,
                        -0.2545925974845886,
                        -0.8217228651046753,
                        -0.047078974545001984,
                        0.5567848682403564,
                        -0.1595648229122162,
                        -0.9321324229240417,
                        -0.27050793170928955
                    ]
                ],
                [
                    0.021263422444462776,
                    -0.07641208916902542,
                    -0.219341441988945,
                    -0.1295337975025177,
                    0.004918224178254604,
                    0.33331573009490967,
                    -0.6388658285140991,
                    0.1331891566514969
                ]
            ],
            "activation": "tanh"
        },
        {
            "type": "dense",
            "shape": [
                null,
                8
            ],
            "weights": [
                [
                    [
                        0.4472559988498688,
                        0.04094552621245384,
                        -0.8675086498260498,
                        -1.2363877296447754,
                        0.44723618030548096,
                        0.5075110793113708,
                        1.1650352478027344,
                        0.26391714811325073
                    ],
                    [
                        0.28383082151412964,
                        0.889045238494873,
                        -0.0709182471036911,
                        0.4580139219760895,
                        -1.0125430822372437,
                        -0.4143378436565399,
                        -0.6012786030769348,
                        -0.17532970011234283
                    ],
                    [
                        -0.36227115988731384,
                        -1.0495386123657227,
                        0.32288849353790283,
                        0.10069209337234497,
                        -0.7850802540779114,
                        0.7267816066741943,
                        -0.44527262449264526,
                        -0.4372846484184265
                    ],
                    [
                        0.6988252401351929,
                        0.9718568921089172,
                        0.34417924284935,
                        -0.4907512366771698,
                        0.08221708983182907,
                        0.43849465250968933,
                        0.2530474066734314,
                        1.034226655960083
                    ],
                    [
                        -0.11555278301239014,
                        -0.5342176556587219,
                        0.7382799983024597,
                        0.8342812061309814,
                        -0.7513830065727234,
                        -1.897255301475525,
                        -0.22654613852500916,
                        -0.5930413603782654
                    ],
                    [
                        -0.6547280550003052,
                        0.3158301115036011,
                        0.27471596002578735,
                        0.21331621706485748,
                        -0.3332250416278839,
                        0.03913114592432976,
                        0.4861794114112854,
                        -0.23029719293117523
                    ],
                    [
                        0.5713011026382446,
                        0.08173605799674988,
                        0.0265338197350502,
                        0.03412868455052376,
                        0.03759783133864403,
                        1.1409164667129517,
                        -0.1134515330195427,
                        -0.6602756977081299
                    ],
                    [
                        0.7018916010856628,
                        0.08001217991113663,
                        -0.5537669062614441,
                        -0.010488477535545826,
                        0.3375934064388275,
                        1.187976360321045,
                        0.9527601003646851,
                        0.9568321108818054
                    ]
                ],
                [
                    -0.0517607145011425,
                    0.06559210270643234,
                    -0.1254749894142151,
                    -0.014100484549999237,
                    -0.04802427068352699,
                    -0.16313275694847107,
                    0.08807829767465591,
                    0.1649198979139328
                ]
            ],
            "activation": "tanh"
        },
        {
            "type": "dense",
            "shape": [
                null,
                1
            ],
            "weights": [
                [
                    [
                        1.2054139375686646
                    ],
                    [
                        0.48079487681388855
                    ],
                    [
                        -0.622754693031311
                    ],
                    [
                        -1.404402494430542
                    ],
                    [
                        1.265051245689392
                    ],
                    [
                        0.8200239539146423
                    ],
                    [
                        1.05636727809906
                    ],
                    [
                        1.317389965057373
                    ]
                ],
                [
                    -0.0160893015563488
                ]
            ],
            "activation": ""
        }
    ]
}