{
    "in_shape": [
        null,
        2
    ],
    "layers": [
        {
            "type": "dense",
            "shape": [
                null,
                8
            ],
            "weights": [
                [
                    [
                        -0.3309737741947174,
                        -0.3526723384857178,
                        0.034854523837566376,
                        0.10182546824216843,
                        -0.13295313715934753,
                        -0.8251927495002747,
                        0.841667890548706,
                        1.3836555480957031
                    ],
                    [
                        0.011811301112174988,
                        0.04525991901755333,
                        0.05810142308473587,
                        0.022417932748794556,
                        -0.0007346679922193289,
                        -0.044798344373703,
                        1.061933159828186,
                        -0.07361448556184769
                    ]
                ],
                [
                    -0.11105375736951828,
                    -0.03338354825973511,
                    -0.03519652038812637,
                    -0.170670747756958,
                    -0.12486614286899567,
                    0.42735159397125244,
                    0.4547004699707031,
                    0.28369855880737305
                ]
            ],
            "activation": "tanh"
        },
        {
            "type": "dense",
            "shape": [
                null,
                8
            ],
            "weights": [
                [
                    [
                        -0.18237346410751343,
                        0.12744660675525665,
                        0.2010142207145691,
                        -0.8120532631874084,
                        0.03690938279032707,
                        -0.38712334632873535,
                        -0.7061386108398438,
                        0.6606488227844238
                    ],
                    [
                        0.48799875378608704,
                        -0.4457663297653198,
                        -0.6820716261863708,
                        -0.045045360922813416,
                        0.03818027675151825,
                        -0.22203382849693298,
                        0.10745390504598618,
                        -0.2354505956172943
                    ],
                    [
                        0.08879170566797256,
                        -0.36373966932296753,
                        0.42266663908958435,
                        0.3486166000366211,
                        0.027052897959947586,
                        0.009811978787183762,
                        -0.5813814997673035,
                        -0.4241688847541809
                    ],
                    [
                        0.18178601562976837,
                        -0.9304308891296387,
                        0.18589474260807037,
                        -0.13151568174362183,
                        0.0984649509191513,
                        0.7338926792144775,
                        0.4266187250614166,
                        0.09966931492090225
                    ],
                    [
                        -0.8282956480979919,
                        -0.5590608716011047,
                        0.11343249678611755,
                        -0.028267499059438705,
                        -0.4872592091560364,
                        -0.24065913259983063,
                        0.1809229701757431,
                        0.0556291826069355
                    ],
                    [
                        0.508974015712738,
                        0.07976886630058289,
                        0.8565391898155212,
                        0.010255784727633,
                        -0.8291758894920349,
                        -0.31129446625709534,
                        0.22552834451198578,
                        -0.13290049135684967
                    ],
                    [
                        0.10850520431995392,
                        0.09988690167665482,
                        0.29759544134140015,
                        0.10204475373029709,
                        0.13642165064811707,
                        -0.6930912733078003,
                        0.14835885167121887,
                        0.5946162939071655
                    ],
                    [
                        -0.33835965394973755,
                        -0.4538082480430603,
                        0.13302692770957947,
                        -0.4365076422691345,
                        0.7964476346969604,
                        -0.45839032530784607,
                        0.08798880875110626,
                        -0.31739869713783264
                    ]
                ],
                [
                    -0.0005245113279670477,
                    0.15763691067695618,
                    0.01253166887909174,
                    -0.07334787398576736,
                    0.03207838162779808,
                    -0.074445940554142,
                    0.05396953597664833,
                    -0.09445612877607346
                ]
            ],
            "activation": "tanh"
        },
        {
            "type": "dense",
            "shape": [
                null,
                8
            ],
            "weights": [
                [
                    [
                        -0.3874671161174774,
                        -0.49320727586746216,
                        -0.27281227707862854,
                        0.13797707855701447,
                        -1.0417699813842773,
                        0.2892594039440155,
                        -0.44412484765052795,
                        -0.07066745311021805
                    ],
                    [
                        -0.7496216893196106,
                        0.1925339549779892,
                        0.32366684079170227,
                        0.44540002942085266,
                        0.08095546066761017,
                        0.5443103909492493,
                        -0.5018342733383179,
                        -0.059196438640356064
                    ],
                    [
                        -0.08405809849500656,
                        -0.02677828259766102,
                        -0.13592253625392914,
                        -0.8937377333641052,
                        0.03738649562001228,
                        -0.23210269212722778,
                        -0.5167251229286194,
                        -0.6051496863365173
                    ],
                    [
                        0.34272876381874084,
                        0.5838517546653748,
                        0.3013211786746979,
                        0.21640700101852417,
                        -0.5359216332435608,
                        0.5628669857978821,
                        -0.19798243045806885,
                        -0.37727421522140503
                    ],
                    [
                        -0.04330972209572792,
                        0.07257901132106781,
                        0.9534458518028259,
                        -0.32685771584510803,
                        -0.17126934230327606,
                        0.314272403717041,
                        0.3374100625514984,
                        0.7329522967338562
                    ],
                    [
                        0.547864556312561,
                        -0.019559096544981003,
                        0.11321942508220673,
                        0.6384504437446594,
                        -0.12232618033885956,
                        -0.4235343337059021,
                        -0.6844099760055542,
                        0.34839341044425964
                    ],
                    [
                        0.355210542678833,
                        -0.8336858153343201,
                        0.7309033870697021,
                        0.2183266133069992,
                        -0.04153358191251755,
                        0.40777549147605896,
                        -0.17553311586380005,
                        -0.48180776834487915
                    ],
                    [
                        -0.6676160097122192,
                        0.1405315101146698,
                        0.6014326810836792,
                        0.052039578557014465,
                        -0.08199218660593033,
                        -0.5805555582046509,
                        0.1560778170824051,
                        -0.15768560767173767
                    ]
                ],
                [
                    -0.07781553268432617,
                    0.03227228671312332,
                    0.1802559345960617,
                    -0.02743617258965969,
                    0.03413377329707146,
                    0.13327473402023315,
                    -0.01819649711251259,
                    0.06569370627403259
                ]
            ],
            "activation": "tanh"
        },
        {
            "type": "dense",
            "shape": [
                null,
                8
            ],
            "weights": [
                [
                    [
                        0.010290389880537987,
                        -0.3154614269733429,
                        0.13385917246341705,
                        0.7897814512252808,
                        -0.23973225057125092,
                        -0.9657747745513916,
                        0.6560423374176025,
                        -0.31814536452293396
                    ],
                    [
                        -0.642704427242279,
                        -0.06753336638212204,
                        -0.6936880946159363,
                        0.02449924126267433,
                        -0.028541535139083862,
                        -0.25951433181762695,
                        -0.8083730936050415,
                        0.300212562084198
                    ],
                    [
                        -0.06992043554782867,
                        0.725141704082489,
                        -0.3879499137401581,
                        0.5134702920913696,
                        0.22986963391304016,
                        0.046503908932209015,
                        0.29971975088119507,
                        0.4700208604335785
                    ],
                    [
                        0.10385800898075104,
                        -1.0760098695755005,
                        0.09720377624034882,
                        0.6080388426780701,
                        0.3276774287223816,
                        -0.33446499705314636,
                        0.03150895982980728,
                        0.6797141432762146
                    ],
                    [
                        0.008579525165259838,
                        0.5549167394638062,
                        0.7056042551994324,
                        0.20291046798229218,
                        -0.7179056406021118,
                        0.12013950198888779,
                        -0.6138570308685303,
                        0.23959243297576904
                    ],
                    [
                        0.8330663442611694,
                        -0.15035279095172882,
                        -1.0523838996887207,
                        0.5682757496833801,
                        1.0142929553985596,
                        -0.3373187482357025,
                        -0.09750790894031525,
                        -0.3090793192386627
                    ],
                    [
                        -0.41594377160072327,
                        0.6316115856170654,
                        0.10219470411539078,
                        -0.0859944224357605,
                        0.8233696818351746,
                        -0.09099472314119339,
                        -0.2856011986732483,
                        0.15279747545719147
                    ],
                    [
                        0.12194813787937164,
                        0.15602831542491913,
                        -0.06348150968551636,
                        -0.4118660092353821,
                        -0.03702729940414429,
                        -0.7589200139045715,
                        -0.06144518405199051,
                        0.7421655058860779
                    ]
                ],
                [
                    0.055404290556907654,
                    0.03280050680041313,
                    -0.19149267673492432,
                    -0.015154418535530567,
                    0.14204823970794678,
                    -0.04599260911345482,
                    -0.0685335248708725,
                    -0.017729932442307472
                ]
            ],
            "activation": "tanh"
        },
        {
            "type": "dense",
            "shape": [
                null,
                8
            ],
            "weights": [
                [
                    [
                        0.06469010561704636,
                        -0.1090850979089737,
                        0.009776917286217213,
                        -0.519202470779419,
                        0.7807816863059998,
                        1.0231221914291382,
                        0.31154364347457886,
                        -0.10779612511396408
                    ],
                    [
                        0.3414934277534485,
                        0.04512834548950195,
                        -0.5278465151786804,
                        1.2484402656555176,
                        -0.7687814235687256,
                        -0.020835066214203835,
                        0.016474220901727676,
                        -0.14843100309371948
                    ],
                    [
                        -0.01655404642224312,
                        -0.30050498247146606,
                        -0.03970453888177872,
                        -0.3049391210079193,
                        -1.0933071374893188,
                        0.03612225130200386,
                        0.49820205569267273,
                        0.42748281359672546
                    ],
                    [
                        -0.18671078979969025,
                        -1.197920322418213,
                        -0.20096756517887115,
                        -1.063032865524292,
                        0.5258069634437561,
                        0.04893696680665016,
                        -0.48562389612197876,
                        -0.9555528163909912
                    ],
                    [
                        -0.7420839667320251,
                        -0.598351776599884,
                        0.29869183897972107,
                        0.34522703289985657,
                        1.2894835472106934,
                        0.2849943935871124,
                        0.01100802794098854,
                        -0.23475384712219238
                    ],
                    [
                        -0.09696338325738907,
                        0.7191734313964844,
                        -0.8362899422645569,
                        0.3826110363006592,
                        0.0008021324756555259,
                        0.16299332678318024,
                        0.0015296058263629675,
                        0.6986439824104309
                    ],
                    [
                        -0.35395997762680054,
                        -0.7485288381576538,
                        0.47981300950050354,
                        -0.8561661243438721,
                        0.015065972693264484,
                        0.9757259488105774,
                        -1.0185996294021606,
                        -0.4094981253147125
                    ],
                    [
                        0.5990384221076965,
                        -0.8226833939552307,
                        -0.1599622368812561,
                        0.26555731892585754,
                        0.2362399399280548,
                        -0.629024863243103,
                        -0.18571089208126068,
                        0.5152217745780945
                    ]
                ],
                [
                    -0.004866762086749077,
                    -0.09937550127506256,
                    -0.026227617636322975,
                    0.051792021840810776,
                    0.3278636932373047,
                    -0.012419437058269978,
                    0.07027693092823029,
                    0.017469137907028198
                ]
            ],
            "activation": "tanh"
        },
        {
            "type": "dense",
            "shape": [
                null,
                1
            ],
            "weights": [
                [
                    [
                        -0.13293921947479248
                    ],
                    [
                        -0.38222116231918335
                    ],
                    [
                        0.45771756768226624
                    ],
                    [
                        -1.1273401975631714
                    ],
                    [
                        0.7414392828941345
                    ],
                    [
                        1.2582411766052246
                    ],
                    [
                        -0.4986543357372284
                    ],
                    [
                        -0.778795063495636
                    ]
                ],
                [
                    0.005651324987411499
                ]
            ],
            "activation": ""
        }
    ]
}