{
    "in_shape": [
        null,
        2
    ],
    "layers": [
        {
            "type": "dense",
            "shape": [
                null,
                16
            ],
            "weights": [
                [
                    [
                        0.3540568947792053,
                        -0.9820300340652466,
                        -0.8275637030601501,
                        -0.2687509059906006,
                        0.2698219418525696,
                        -0.4211001992225647,
                        -0.6973422169685364,
                        -0.30642974376678467,
                        0.4630948305130005,
                        -0.18781927227973938,
                        -0.19875797629356384,
                        0.3291105329990387,
                        0.1901678889989853,
                        0.27046212553977966,
                        -0.5088094472885132,
                        0.2571587562561035
                    ],
                    [
                        -0.3784298896789551,
                        1.1167314052581787,
                        -0.05375893786549568,
                        -0.005095893982797861,
                        -0.008732742629945278,
                        0.07222888618707657,
                        0.06189543008804321,
                        -0.1837995946407318,
                        0.07743275910615921,
                        0.14221270382404327,
                        -0.010755863040685654,
                        -0.08068165928125381,
                        -0.07746094465255737,
                        0.00491468096151948,
                        0.08090921491384506,
                        0.11093121767044067
                    ]
                ],
                [
                    -0.21638371050357819,
                    0.8209308385848999,
                    0.4926069676876068,
                    -0.15460644662380219,
                    0.06516371667385101,
                    -0.1420370489358902,
                    -0.3805365562438965,
                    -0.25345197319984436,
                    -0.4670831561088562,
                    -0.0693395808339119,
                    0.025335291400551796,
                    0.1027197614312172,
                    0.4723723232746124,
                    -0.06286472827196121,
                    -0.1539904773235321,
                    -0.19511441886425018
                ]
            ],
            "activation": "tanh"
        },
        {
            "type": "dense",
            "shape": [
                null,
                16
            ],
            "weights": [
                [
                    [
                        0.19016224145889282,
                        0.2371349036693573,
                        0.3399565517902374,
                        -0.010382932610809803,
                        0.4296644330024719,
                        -0.1441565901041031,
                        -0.20810355246067047,
                        -0.04120311513543129,
                        -0.04255903512239456,
                        -0.19779008626937866,
                        -0.013664054684340954,
                        0.11830601096153259,
                        0.11980665475130081,
                        0.34519240260124207,
                        0.3682223856449127,
                        0.3364619016647339
                    ],
                    [
                        0.007795434445142746,
                        0.5427526235580444,
                        0.12968842685222626,
                        0.35172003507614136,
                        -0.215845987200737,
                        0.10945103317499161,
                        0.10839028656482697,
                        -0.051460303366184235,
                        0.4731653928756714,
                        0.08238814771175385,
                        -0.4350820481777191,
                        -0.38017192482948303,
                        0.47707390785217285,
                        -0.3138178884983063,
                        0.0616852231323719,
                        0.02757343463599682
                    ],
                    [
                        0.10340086370706558,
                        -0.00828511267900467,
                        -0.13741394877433777,
                        0.062155988067388535,
                        0.5026984214782715,
                        0.3946684002876282,
                        0.40979495644569397,
                        -0.4951556622982025,
                        -0.17576606571674347,
                        0.25839000940322876,
                        0.0484490692615509,
                        -0.949771523475647,
                        -0.13969720900058746,
                        -0.5078572034835815,
                        0.3625137507915497,
                        -0.38371333479881287
                    ],
                    [
                        -0.3880024552345276,
                        0.17008407413959503,
                        -0.0067099290899932384,
                        0.1394515037536621,
                        0.2887449264526367,
                        0.0867709070444107,
                        -0.4128592908382416,
                        -0.43302178382873535,
                        0.07773441076278687,
                        -0.5274873971939087,
                        0.6537873148918152,
                        0.24265235662460327,
                        0.04102931171655655,
                        -0.08621075749397278,
                        -0.44110578298568726,
                        0.039724383503198624
                    ],
                    [
                        0.023140599951148033,
                        -0.10500965267419815,
                        -0.5752947926521301,
                        -0.3946263790130615,
                        0.20789793133735657,
                        -0.22726984322071075,
                        0.48173806071281433,
                        0.43095076084136963,
                        -0.03474831208586693,
                        -0.3596560060977936,
                        -0.7138654589653015,
                        0.06181376427412033,
                        0.4043428301811218,
                        0.004255340900272131,
                        0.4298073649406433,
                        -0.52372145652771
                    ],
                    [
                        0.4287217855453491,
                        -0.1316378116607666,
                        -0.2753673493862152,
                        -0.17703406512737274,
                        -0.11157073825597763,
                        0.373811274766922,
                        -0.5466882586479187,
                        -0.4212559461593628,
                        -0.13865721225738525,
                        0.11257558315992355,
                        0.6149942874908447,
                        -0.14524008333683014,
                        0.43156152963638306,
                        0.25806963443756104,
                        0.12632513046264648,
                        0.12448885291814804
                    ],
                    [
                        0.3270893394947052,
                        0.07060480117797852,
                        -0.09841104596853256,
                        0.19014567136764526,
                        0.09826774895191193,
                        -0.3963034152984619,
                        -0.44196203351020813,
                        0.09622013568878174,
                        -0.06048956140875816,
                        -0.33857885003089905,
                        1.3093540668487549,
                        0.0575786717236042,
                        -0.23380452394485474,
                        -0.07670726627111435,
                        0.09924127906560898,
                        -0.07919326424598694
                    ],
                    [
                        -0.15041935443878174,
                        -0.12476535886526108,
                        0.06877358257770538,
                        -0.327872633934021,
                        0.014814763329923153,
                        -0.3682817816734314,
                        0.3620336353778839,
                        0.1069980338215828,
                        -0.10941953957080841,
                        0.1570863276720047,
                        0.5558735728263855,
                        0.1710556596517563,
                        0.43399184942245483,
                        -0.3310197591781616,
                        0.0685148611664772,
                        0.06697645038366318
                    ],
                    [
                        -0.4023730456829071,
                        0.1609392762184143,
                        0.38062670826911926,
                        0.0830630511045456,
                        0.11015714704990387,
                        0.07300496101379395,
                        -0.6555786728858948,
                        0.5217745304107666,
                        -0.48619282245635986,
                        0.09102287143468857,
                        0.24292513728141785,
                        0.31676584482192993,
                        0.17596234381198883,
                        0.34591934084892273,
                        0.03842071071267128,
                        -0.19058215618133545
                    ],
                    [
                        0.130967915058136,
                        0.41723039746284485,
                        -0.13253769278526306,
                        -0.7301754951477051,
                        -0.014496630057692528,
                        -0.21508263051509857,
                        -0.08824694901704788,
                        0.1893472522497177,
                        -0.11799903959035873,
                        0.1708642542362213,
                        0.006233237683773041,
                        -0.2288254350423813,
                        -0.13640160858631134,
                        -0.04400040581822395,
                        0.08538785576820374,
                        0.058256588876247406
                    ],
                    [
                        -0.3925195634365082,
                        0.010049926117062569,
                        0.20408527553081512,
                        0.26701441407203674,
                        -0.40236586332321167,
                        -0.045947667211294174,
                        0.1669195592403412,
                        -0.5173605680465698,
                        0.15150506794452667,
                        -0.15409183502197266,
                        -0.1257440596818924,
                        -0.688831090927124,
                        -0.0814620777964592,
                        0.39519500732421875,
                        -0.02939399890601635,
                        -0.2711127996444702
                    ],
                    [
                        -0.21295370161533356,
                        0.18185770511627197,
                        -0.04165244475007057,
                        0.0810067281126976,
                        -0.38639214634895325,
                        0.19128713011741638,
                        0.052259813994169235,
                        0.00552516570314765,
                        -0.4594711363315582,
                        -0.41911938786506653,
                        -0.24746304750442505,
                        -0.18343999981880188,
                        -0.0400904044508934,
                        -0.29291093349456787,
                        -0.03370857611298561,
                        0.3010960519313812
                    ],
                    [
                        0.5126029849052429,
                        -0.021332917734980583,
                        0.3723163306713104,
                        -0.04182375594973564,
                        0.03160539269447327,
                        0.11611845344305038,
                        0.2352050393819809,
                        0.1360878050327301,
                        -0.15913715958595276,
                        -0.2399936318397522,
                        -0.40082311630249023,
                        -0.2653805613517761,
                        0.1929183304309845,
                        -0.06780768930912018,
                        -0.451981782913208,
                        -0.46894967555999756
                    ],
                    [
                        0.5130775570869446,
                        -0.6033599972724915,
                        -0.25418466329574585,
                        -0.5415611267089844,
                        0.14725030958652496,
                        -0.8780089020729065,
                        -0.23330938816070557,
                        0.16545119881629944,
                        -0.32687267661094666,
                        0.3015754520893097,
                        -0.4595499038696289,
                        0.32866737246513367,
                        0.31981125473976135,
                        -0.5765132308006287,
                        0.8297567963600159,
                        -0.4270665645599365
                    ],
                    [
                        -0.06986911594867706,
                        -0.47050440311431885,
                        0.09672033041715622,
                        0.09069516509771347,
                        0.25285786390304565,
                        0.11050279438495636,
                        -0.013800110667943954,
                        0.31506994366645813,
                        0.014784706756472588,
                        -0.12484719604253769,
                        -0.1797507405281067,
                        -0.4361360967159271,
                        0.14192821085453033,
                        -0.05774901062250137,
                        -0.09437967091798782,
                        0.36661815643310547
                    ],
                    [
                        -0.15810827910900116,
                        -0.08692266047000885,
                        0.5869985818862915,
                        -0.3023879826068878,
                        -0.32866376638412476,
                        0.2733539044857025,
                        -0.2513147294521332,
                        -0.08849353343248367,
                        0.15986965596675873,
                        -0.400703102350235,
                        0.11584309488534927,
                        0.3910292387008667,
                        -0.21109198033809662,
                        -0.0947786346077919,
                        0.21678096055984497,
                        0.08563262969255447
                    ]
                ],
                [
                    0.02108054794371128,
                    0.0708407461643219,
                    -0.035335179418325424,
                    0.109072744846344,
                    -0.005181966815143824,
                    0.07050058990716934,
                    0.18777242302894592,
                    -0.14323605597019196,
                    0.030297087505459785,
                    0.02417558990418911,
                    -0.3283673822879791,
                    -0.3252664804458618,
                    -0.012508802115917206,
                    0.00810930971056223,
                    -0.0202146228402853,
                    0.09427667409181595
                ]
            ],
            "activation": "tanh"
        },
        {
            "type": "dense",
            "shape": [
                null,
                16
            ],
            "weights": [
                [
                    [
                        0.42017337679862976,
                        0.2261175513267517,
                        0.7513624429702759,
                        0.2524689733982086,
                        0.7924095392227173,
                        0.3574599623680115,
                        -0.7229257822036743,
                        -0.3277331292629242,
                        0.7969825863838196,
                        0.4004467725753784,
                        0.6199331879615784,
                        -0.21323269605636597,
                        0.7930005788803101,
                        0.31678879261016846,
                        0.011172693222761154,
                        -0.7114115953445435
                    ],
                    [
                        -0.24950669705867767,
                        -0.30233055353164673,
                        -0.3579053282737732,
                        -0.4897732138633728,
                        0.06627960503101349,
                        -0.013337434269487858,
                        0.680237352848053,
                        0.1921694278717041,
                        -0.061535418033599854,
                        -0.011453513987362385,
                        -0.04472189024090767,
                        0.8608741164207458,
                        0.1175336018204689,
                        -0.48036572337150574,
                        0.5042731761932373,
                        0.7707354426383972
                    ],
                    [
                        -0.6328579187393188,
                        -0.3855520784854889,
                        -0.33821314573287964,
                        -0.5754894614219666,
                        -0.5610685348510742,
                        -0.12136577069759369,
                        0.8484703302383423,
                        0.9394828677177429,
                        -0.39702773094177246,
                        -0.4630662202835083,
                        -0.32046177983283997,
                        0.31166696548461914,
                        -0.8941364884376526,
                        -0.5928537845611572,
                        -0.0376192070543766,
                        -0.07683122903108597
                    ],
                    [
                        0.09388387203216553,
                        -0.12333565205335617,
                        0.4756051003932953,
                        -0.3419628143310547,
                        -0.40411099791526794,
                        -0.15296117961406708,
                        -0.06533441692590714,
                        0.17528313398361206,
                        -0.1826750487089157,
                        0.4092097878456116,
                        -0.44894134998321533,
                        0.9363095760345459,
                        -0.07221245765686035,
                        -0.009219910949468613,
                        0.25033509731292725,
                        0.06422161310911179
                    ],
                    [
                        0.13177447021007538,
                        0.4993214011192322,
                        0.19934339821338654,
                        0.2125331312417984,
                        0.5664334893226624,
                        0.7419121861457825,
                        -0.15044943988323212,
                        0.19244498014450073,
                        -0.03660925105214119,
                        -0.06595567613840103,
                        -0.30092576146125793,
                        -0.008173461072146893,
                        -0.18798069655895233,
                        0.47369688749313354,
                        0.28451746702194214,
                        0.045720428228378296
                    ],
                    [
                        -0.08666930347681046,
                        0.31546494364738464,
                        -0.14534100890159607,
                        -0.33860328793525696,
                        -0.14102551341056824,
                        -0.25206258893013,
                        0.43076106905937195,
                        -0.029916351661086082,
                        -0.22852949798107147,
                        -0.21888770163059235,
                        -0.3376557230949402,
                        0.7896084189414978,
                        0.3102867007255554,
                        -0.2961156964302063,
                        -0.031973496079444885,
                        -0.30843886733055115
                    ],
                    [
                        0.139141246676445,
                        -0.0734897032380104,
                        0.22297221422195435,
                        0.023848190903663635,
                        -0.14381462335586548,
                        -0.2851145267486572,
                        0.6669487357139587,
                        -0.3011367619037628,
                        0.3450097143650055,
                        -0.16869893670082092,
                        -0.296033650636673,
                        -0.2276393324136734,
                        -0.3228127062320709,
                        0.21229583024978638,
                        0.11293565481901169,
                        -0.026377791538834572
                    ],
                    [
                        -0.20194578170776367,
                        0.2355312556028366,
                        0.2719957232475281,
                        -0.024702252820134163,
                        0.2064155638217926,
                        -0.41701072454452515,
                        0.11159894615411758,
                        0.30029428005218506,
                        0.4161651134490967,
                        0.1625799834728241,
                        0.16376148164272308,
                        -0.060886383056640625,
                        0.04627193883061409,
                        0.269718199968338,
                        -0.7464209198951721,
                        0.1881646066904068
                    ],
                    [
                        0.3105188012123108,
                        -0.22862866520881653,
                        -0.11645223200321198,
                        -0.3346198797225952,
                        0.4774792790412903,
                        -0.6046722531318665,
                        0.023761622607707977,
                        -0.16876083612442017,
                        -0.1970299780368805,
                        0.10580360889434814,
                        -0.09856730699539185,
                        0.10613556206226349,
                        -0.12626785039901733,
                        -0.1834344118833542,
                        0.23176538944244385,
                        0.05072464048862457
                    ],
                    [
                        0.6577817797660828,
                        0.6011176705360413,
                        0.32996666431427,
                        -0.21673856675624847,
                        0.4546700119972229,
                        0.02536030486226082,
                        -0.4429583251476288,
                        -0.47786974906921387,
                        0.22500303387641907,
                        0.28148505091667175,
                        0.3334144353866577,
                        -0.5703199505805969,
                        0.3327391445636749,
                        -0.2361990064382553,
                        -0.3170263469219208,
                        0.09802766144275665
                    ],
                    [
                        -0.17186273634433746,
                        -0.19171684980392456,
                        -0.08177042752504349,
                        -0.2844814360141754,
                        0.05080382153391838,
                        1.8776367902755737,
                        -0.4847176969051361,
                        -0.44033297896385193,
                        0.20067380368709564,
                        -0.22001416981220245,
                        -0.3436601758003235,
                        -0.33182835578918457,
                        -0.17722216248512268,
                        0.33165454864501953,
                        -0.2147456556558609,
                        -0.05957644060254097
                    ],
                    [
                        -0.7466476559638977,
                        0.26683542132377625,
                        -0.3311493396759033,
                        -0.30928343534469604,
                        -0.1261914074420929,
                        -0.08378012478351593,
                        0.26821067929267883,
                        -0.21700681746006012,
                        -0.29812243580818176,
                        -0.0649564191699028,
                        0.6295174956321716,
                        -0.9004660844802856,
                        -0.25214555859565735,
                        0.34828487038612366,
                        0.07354510575532913,
                        -0.07986705005168915
                    ],
                    [
                        0.44687187671661377,
                        -0.12709732353687286,
                        0.16862362623214722,
                        0.16975067555904388,
                        0.172714963555336,
                        -0.41494515538215637,
                        0.24535831809043884,
                        -0.16451875865459442,
                        -0.17840850353240967,
                        0.45388445258140564,
                        0.40931883454322815,
                        -0.49241670966148376,
                        0.29868751764297485,
                        0.5826808214187622,
                        -0.2823365330696106,
                        -0.3173379600048065
                    ],
                    [
                        -0.8047130107879639,
                        0.01732158102095127,
                        -0.34492138028144836,
                        0.08787793666124344,
                        -0.09226617962121964,
                        0.28708791732788086,
                        0.22776053845882416,
                        -0.03575513884425163,
                        -0.1835087686777115,
                        0.5384491682052612,
                        -0.4256052076816559,
                        0.7993032932281494,
                        -0.6639829277992249,
                        -0.47164610028266907,
                        -0.2815990149974823,
                        -0.08620729297399521
                    ],
                    [
                        0.10210065543651581,
                        0.312918484210968,
                        0.03488903492689133,
                        0.2359781563282013,
                        0.39147382974624634,
                        0.3467341661453247,
                        -0.3079880177974701,
                        -0.2059003710746765,
                        0.17330296337604523,
                        0.3569360673427582,
                        0.1315176784992218,
                        -2.218203067779541,
                        0.8997434377670288,
                        0.26138460636138916,
                        -0.15360361337661743,
                        -0.3464202582836151
                    ],
                    [
                        -0.4848010838031769,
                        -0.23797152936458588,
                        0.09691712260246277,
                        -0.1496368646621704,
                        0.21081587672233582,
                        0.190455362200737,
                        0.18900567293167114,
                        -0.10220463573932648,
                        -0.8538214564323425,
                        -0.4422157108783722,
                        -0.15403816103935242,
                        0.31201493740081787,
                        -0.16980068385601044,
                        -0.46622246503829956,
                        -0.31476685404777527,
                        0.21891766786575317
                    ]
                ],
                [
                    -0.00020054755441378802,
                    0.001982711022719741,
                    0.09078635275363922,
                    0.056953415274620056,
                    -0.007016140501946211,
                    -0.1783027946949005,
                    0.04807532951235771,
                    -0.0426870733499527,
                    -0.08048680424690247,
                    0.01718582771718502,
                    0.07457853853702545,
                    -0.011250033043324947,
                    0.11385247111320496,
                    -0.1405172199010849,
                    0.06242208182811737,
                    0.043206553906202316
                ]
            ],
            "activation": "tanh"
        },
        {
            "type": "dense",
            "shape": [
                null,
                1
            ],
            "weights": [
                [
                    [
                        0.7137522101402283
                    ],
                    [
                        0.3936690092086792
                    ],
                    [
                        0.48431357741355896
                    ],
                    [
                        0.16824154555797577
                    ],
                    [
                        0.5136019587516785
                    ],
                    [
                        0.2801961302757263
                    ],
                    [
                        -0.5784526467323303
                    ],
                    [
                        -0.2791045010089874
                    ],
                    [
                        0.8484489917755127
                    ],
                    [
                        0.5639899969100952
                    ],
                    [
                        0.1659826636314392
                    ],
                    [
                        -0.6471009850502014
                    ],
                    [
                        0.9897834062576294
                    ],
                    [
                        0.9941176772117615
                    ],
                    [
                        -0.5148598551750183
                    ],
                    [
                        -0.5968910455703735
                    ]
                ],
                [
                    -0.011504760012030602
                ]
            ],
            "activation": ""
        }
    ]
}