{
    "in_shape": [
        null,
        2
    ],
    "layers": [
        {
            "type": "unknown",
            "activation": "",
            "shape": [
                [
                    null,
                    2
                ]
            ],
            "weights": []
        },
        {
            "type": "dense",
            "activation": "tanh",
            "shape": [
                null,
                8
            ],
            "weights": [
                [
                    [
                        -0.03241334110498428,
                        0.05878809094429016,
                        -0.1363523006439209,
                        -0.7692363262176514,
                        -0.15680411458015442,
                        -0.7735721468925476,
                        -0.5665833353996277,
                        1.3709242343902588
                    ],
                    [
                        -2.666835308074951,
                        2.7540128231048584,
                        0.0242502149194479,
                        -0.052011698484420776,
                        -0.020838716998696327,
                        0.07314692437648773,
                        0.05764787644147873,
                        0.04447389394044876
                    ]
                ],
                [
                    -1.7138586044311523,
                    1.6914676427841187,
                    -0.42285796999931335,
                    0.36610761284828186,
                    0.38312292098999023,
                    -0.7781286835670471,
                    -0.01067260093986988,
                    -0.33484983444213867
                ]
            ]
        },
        {
            "type": "dense",
            "activation": "tanh",
            "shape": [
                null,
                8
            ],
            "weights": [
                [
                    [
                        0.1357060670852661,
                        -0.4012935757637024,
                        -0.8095660209655762,
                        0.21882016956806183,
                        -0.040212128311395645,
                        -0.4141392111778259,
                        0.2043888121843338,
                        -0.19927752017974854
                    ],
                    [
                        0.1921987235546112,
                        0.5467590689659119,
                        0.20351366698741913,
                        0.2368561029434204,
                        0.3523394465446472,
                        -0.6092899441719055,
                        0.14487220346927643,
                        0.3868085443973541
                    ],
                    [
                        -0.08772546797990799,
                        -0.38828045129776,
                        0.08622850477695465,
                        0.5907290577888489,
                        -0.9297107458114624,
                        -0.5044272541999817,
                        0.7710509896278381,
                        -1.1069144010543823
                    ],
                    [
                        0.8295395970344543,
                        0.37535014748573303,
                        -0.020395297557115555,
                        0.8346860408782959,
                        0.08904392272233963,
                        0.7275287508964539,
                        0.3264559507369995,
                        -0.4479159414768219
                    ],
                    [
                        -0.6887609958648682,
                        1.0468733310699463,
                        1.253391146659851,
                        -0.14147725701332092,
                        -0.3824515640735626,
                        -0.16393129527568817,
                        0.6864932775497437,
                        0.6170511841773987
                    ],
                    [
                        -0.20012155175209045,
                        -0.03837600722908974,
                        0.06634417921304703,
                        1.4591777324676514,
                        -0.8135350942611694,
                        0.020913373678922653,
                        -0.3542444407939911,
                        -0.11456748098134995
                    ],
                    [
                        -0.4218332767486572,
                        -0.017832884564995766,
                        -0.3721144497394562,
                        0.7111663818359375,
                        0.7347160577774048,
                        0.6900221109390259,
                        0.16732816398143768,
                        0.051283691078424454
                    ],
                    [
                        0.5488248467445374,
                        -1.0154768228530884,
                        -0.005597623065114021,
                        -0.45220836997032166,
                        -0.14645268023014069,
                        -0.35341307520866394,
                        0.35693809390068054,
                        0.2659701108932495
                    ]
                ],
                [
                    0.05169619992375374,
                    0.1790529042482376,
                    -0.042309198528528214,
                    -0.04845954850316048,
                    -0.05787334591150284,
                    0.06615497916936874,
                    -0.03814782574772835,
                    0.18782579898834229
                ]
            ]
        },
        {
            "type": "dense",
            "activation": "tanh",
            "shape": [
                null,
                8
            ],
            "weights": [
                [
                    [
                        -0.680752158164978,
                        0.22766835987567902,
                        -0.21310636401176453,
                        0.24874347448349,
                        -1.200415849685669,
                        -0.4511529207229614,
                        0.11974449455738068,
                        -0.30064311623573303
                    ],
                    [
                        -0.20070098340511322,
                        -1.1798015832901,
                        0.37933167815208435,
                        -0.025805482640862465,
                        0.5590991973876953,
                        -0.6015036106109619,
                        -0.15285804867744446,
                        1.0995047092437744
                    ],
                    [
                        -0.24552001059055328,
                        -0.0878245010972023,
                        -0.03654946759343147,
                        -0.6739762425422668,
                        0.4242132902145386,
                        -0.1870613992214203,
                        -0.012719440273940563,
                        1.0497421026229858
                    ],
                    [
                        -0.21512512862682343,
                        0.06723570078611374,
                        -0.005513021722435951,
                        0.23735414445400238,
                        -0.8278844952583313,
                        0.3304257392883301,
                        -0.03806287795305252,
                        0.28632181882858276
                    ],
                    [
                        0.3367041051387787,
                        0.7730659246444702,
                        -0.058463603258132935,
                        0.5784224271774292,
                        -0.3194548487663269,
                        -1.3255784511566162,
                        1.0465185642242432,
                        0.06648868322372437
                    ],
                    [
                        -1.8440264463424683,
                        0.11257507652044296,
                        -0.7548409104347229,
                        0.9743485450744629,
                        -0.08852344751358032,
                        0.11861331015825272,
                        1.0395596027374268,
                        -0.44733288884162903
                    ],
                    [
                        -1.4816173315048218,
                        0.5082622170448303,
                        0.5380452871322632,
                        -0.18399061262607574,
                        0.29745081067085266,
                        0.30823418498039246,
                        -0.8948574066162109,
                        0.40143683552742004
                    ],
                    [
                        0.6922698020935059,
                        0.337465763092041,
                        -0.906505823135376,
                        0.3733256757259369,
                        -0.10050436854362488,
                        -1.0479480028152466,
                        -0.11039750277996063,
                        0.19587478041648865
                    ]
                ],
                [
                    -0.00012896816770080477,
                    -0.023400604724884033,
                    0.02327968366444111,
                    0.008335070684552193,
                    0.06668182462453842,
                    -0.12140657007694244,
                    -0.005684830714017153,
                    0.07714712619781494
                ]
            ]
        },
        {
            "type": "dense",
            "activation": "",
            "shape": [
                null,
                1
            ],
            "weights": [
                [
                    [
                        0.6317191123962402
                    ],
                    [
                        1.1264127492904663
                    ],
                    [
                        -0.9051762223243713
                    ],
                    [
                        0.7704712748527527
                    ],
                    [
                        -1.1899932622909546
                    ],
                    [
                        -0.5034554600715637
                    ],
                    [
                        1.136749029159546
                    ],
                    [
                        -0.8072071075439453
                    ]
                ],
                [
                    -0.014297802932560444
                ]
            ]
        }
    ]
}