{
    "in_shape": [
        null,
        2
    ],
    "layers": [
        {
            "type": "dense",
            "shape": [
                null,
                16
            ],
            "weights": [
                [
                    [
                        -0.23999205231666565,
                        -0.6142275929450989,
                        0.08592680096626282,
                        -0.5742585062980652,
                        0.20141570270061493,
                        0.5449755787849426,
                        0.2704017162322998,
                        0.158090740442276,
                        0.4411752223968506,
                        -0.19087882339954376,
                        -0.919578492641449,
                        -0.31964054703712463,
                        0.657090961933136,
                        -0.12325333058834076,
                        0.2276926338672638,
                        0.7637708783149719
                    ],
                    [
                        -0.008101734332740307,
                        0.8701449632644653,
                        0.513136625289917,
                        0.005270943511277437,
                        0.14781299233436584,
                        -0.19250763952732086,
                        0.003076474880799651,
                        -0.015044288709759712,
                        0.05239272862672806,
                        -0.0693008154630661,
                        -0.05540187656879425,
                        0.055431120097637177,
                        -0.03392139822244644,
                        -0.03219861164689064,
                        0.0005643092445097864,
                        -0.02653331868350506
                    ]
                ],
                [
                    0.0989493802189827,
                    0.35429251194000244,
                    0.5824230909347534,
                    -0.10242869704961777,
                    0.10747972875833511,
                    -0.4181789755821228,
                    -0.12175527960062027,
                    0.20676857233047485,
                    -0.0767252966761589,
                    0.031183285638689995,
                    0.3352729380130768,
                    -0.08981139957904816,
                    0.08090182393789291,
                    0.09349028021097183,
                    0.05727529153227806,
                    0.34288716316223145
                ]
            ],
            "activation": "tanh"
        },
        {
            "type": "dense",
            "shape": [
                null,
                16
            ],
            "weights": [
                [
                    [
                        0.7189930081367493,
                        -0.04713950678706169,
                        -0.6297224760055542,
                        0.14635635912418365,
                        -0.4433719217777252,
                        -0.3137073516845703,
                        -0.09758579730987549,
                        0.5270298719406128,
                        0.1449267715215683,
                        -0.7216511368751526,
                        -0.6672971248626709,
                        -0.10030584037303925,
                        0.2557617723941803,
                        0.582538902759552,
                        -0.2862066924571991,
                        -0.6103893518447876
                    ],
                    [
                        0.17283964157104492,
                        0.1285417377948761,
                        -0.2528032958507538,
                        -0.045632388442754745,
                        0.10166144371032715,
                        -0.12236203998327255,
                        -0.21880565583705902,
                        0.0936705619096756,
                        0.0751819759607315,
                        0.045055218040943146,
                        -0.3671528697013855,
                        0.059321776032447815,
                        0.26901599764823914,
                        -0.449749231338501,
                        -0.04191186651587486,
                        0.6726928353309631
                    ],
                    [
                        0.11595211923122406,
                        -0.06451033800840378,
                        0.039696257561445236,
                        0.13727690279483795,
                        -0.42587006092071533,
                        0.0004456074093468487,
                        0.1517724245786667,
                        0.2344346046447754,
                        -0.0015667675761505961,
                        0.07987207919359207,
                        -0.18031133711338043,
                        0.24019227921962738,
                        -0.306295245885849,
                        0.351443886756897,
                        0.46324288845062256,
                        0.341672420501709
                    ],
                    [
                        0.010629923082888126,
                        0.40034961700439453,
                        -0.21204087138175964,
                        0.3646599352359772,
                        -0.11895601451396942,
                        -0.10578356683254242,
                        0.6181795001029968,
                        -0.034743815660476685,
                        -0.09728546440601349,
                        -0.9033975005149841,
                        -0.11884168535470963,
                        -0.47725310921669006,
                        0.1319379210472107,
                        -0.10507635772228241,
                        0.3672446310520172,
                        -0.6412562727928162
                    ],
                    [
                        -0.06356433779001236,
                        -0.0344960056245327,
                        -0.21450287103652954,
                        0.15649822354316711,
                        0.41410234570503235,
                        -0.36900487542152405,
                        -0.08960454910993576,
                        0.28219929337501526,
                        0.2149178683757782,
                        0.1928355097770691,
                        0.038510169833898544,
                        0.305722177028656,
                        0.23492279648780823,
                        0.023797018453478813,
                        0.4722224771976471,
                        -0.29787909984588623
                    ],
                    [
                        0.2805849611759186,
                        -0.047564547508955,
                        0.46915552020072937,
                        0.08516418933868408,
                        0.36599236726760864,
                        -0.18886153399944305,
                        -0.09582574665546417,
                        -0.05710272118449211,
                        -0.22194087505340576,
                        -0.31047260761260986,
                        0.04438651353120804,
                        -0.5821724534034729,
                        0.17736846208572388,
                        0.33101886510849,
                        0.13185806572437286,
                        0.06871350109577179
                    ],
                    [
                        -0.32167357206344604,
                        0.3133004903793335,
                        0.5425201058387756,
                        -0.5547896027565002,
                        0.3674439787864685,
                        0.5519165992736816,
                        -0.3475063741207123,
                        -0.9838011860847473,
                        0.3529428243637085,
                        0.04212774336338043,
                        0.8966795206069946,
                        0.41437414288520813,
                        0.03981051966547966,
                        -0.0670776516199112,
                        0.34566715359687805,
                        0.47695037722587585
                    ],
                    [
                        -0.19398105144500732,
                        0.04341823607683182,
                        -0.24007542431354523,
                        -0.1650877147912979,
                        -0.007636836264282465,
                        0.21973584592342377,
                        -0.1680034101009369,
                        0.5666378736495972,
                        0.8257983326911926,
                        0.5662100315093994,
                        0.1384226530790329,
                        0.17571932077407837,
                        -0.11861927807331085,
                        -0.29319584369659424,
                        0.1013447716832161,
                        0.6483170390129089
                    ],
                    [
                        0.059153031557798386,
                        -0.3038901090621948,
                        -0.06059381365776062,
                        -0.5006164908409119,
                        0.29366376996040344,
                        -0.29437941312789917,
                        0.5147623419761658,
                        -0.10676972568035126,
                        0.05130301043391228,
                        -0.17341814935207367,
                        0.06362254172563553,
                        -0.09859861433506012,
                        -0.1411813199520111,
                        0.17992734909057617,
                        -0.29188185930252075,
                        -0.1033521294593811
                    ],
                    [
                        -0.37506628036499023,
                        0.3524855673313141,
                        -0.2679840922355652,
                        -0.34849607944488525,
                        0.2595697343349457,
                        0.000276333128567785,
                        -0.17938397824764252,
                        0.29916539788246155,
                        -0.1317620426416397,
                        -0.055244434624910355,
                        -0.30646979808807373,
                        0.15068501234054565,
                        -0.30546924471855164,
                        0.2383100986480713,
                        0.04206527769565582,
                        0.26641032099723816
                    ],
                    [
                        -0.15481553971767426,
                        0.27184420824050903,
                        0.2872924506664276,
                        0.7511063814163208,
                        0.042309366166591644,
                        0.12124671787023544,
                        0.13956695795059204,
                        0.2879708707332611,
                        0.5667253732681274,
                        -0.056067176163196564,
                        -1.2190148830413818,
                        0.41407012939453125,
                        -0.013803950510919094,
                        -0.015415980480611324,
                        -0.09375962615013123,
                        -0.13169942796230316
                    ],
                    [
                        0.2244715541601181,
                        -0.13607266545295715,
                        -0.12082546204328537,
                        0.3455986976623535,
                        0.4670921564102173,
                        0.6165322065353394,
                        -0.09370001405477524,
                        0.061057329177856445,
                        -0.12994350492954254,
                        -0.20489445328712463,
                        -0.14659607410430908,
                        -0.036039840430021286,
                        -0.33791473507881165,
                        -0.12387503683567047,
                        0.19211596250534058,
                        -0.23181064426898956
                    ],
                    [
                        0.43094778060913086,
                        0.40405237674713135,
                        0.025926517322659492,
                        -0.08253627270460129,
                        0.20500941574573517,
                        0.09016918390989304,
                        0.3524074852466583,
                        -0.01985582709312439,
                        -0.223195418715477,
                        0.45675742626190186,
                        0.5019753575325012,
                        0.3279546797275543,
                        0.1280348002910614,
                        0.1489039808511734,
                        -0.3653828203678131,
                        0.39059582352638245
                    ],
                    [
                        0.33783936500549316,
                        -0.13484962284564972,
                        0.03564515709877014,
                        -0.35787490010261536,
                        -0.2475845217704773,
                        -0.017536871135234833,
                        0.105305977165699,
                        0.5085340142250061,
                        -0.11985509097576141,
                        -0.15374112129211426,
                        -0.46826598048210144,
                        0.4019150137901306,
                        0.18177615106105804,
                        -0.31345146894454956,
                        0.22726945579051971,
                        -0.1968536525964737
                    ],
                    [
                        0.01638711802661419,
                        0.5047454237937927,
                        0.2845674157142639,
                        -0.13393229246139526,
                        0.20565952360630035,
                        -0.18896961212158203,
                        -0.4771663248538971,
                        -0.43742233514785767,
                        0.340304434299469,
                        0.6777536869049072,
                        0.19683006405830383,
                        0.3370007276535034,
                        -0.7875919342041016,
                        -0.5296408534049988,
                        0.18133577704429626,
                        0.467720627784729
                    ],
                    [
                        0.3489832580089569,
                        -0.06499557942152023,
                        -0.23525457084178925,
                        -0.5200485587120056,
                        -0.014775202609598637,
                        0.06222609058022499,
                        0.12465550750494003,
                        -0.134134441614151,
                        0.34559881687164307,
                        1.1378681659698486,
                        -0.13400529325008392,
                        -0.11518371105194092,
                        -0.05460286885499954,
                        0.016732526943087578,
                        0.15253153443336487,
                        0.5478147268295288
                    ]
                ],
                [
                    0.0056790453381836414,
                    0.05425084009766579,
                    -0.19389498233795166,
                    0.01148583460599184,
                    -0.07178083062171936,
                    0.019783616065979004,
                    -0.04162311926484108,
                    0.08291315287351608,
                    0.06714298576116562,
                    0.2565821707248688,
                    -0.18303677439689636,
                    -0.0044484613463282585,
                    0.015884488821029663,
                    0.028179220855236053,
                    -0.0056525846011936665,
                    -0.025721712037920952
                ]
            ],
            "activation": "tanh"
        },
        {
            "type": "dense",
            "shape": [
                null,
                16
            ],
            "weights": [
                [
                    [
                        0.04577499255537987,
                        -0.3269074857234955,
                        -0.4304797351360321,
                        0.37832632660865784,
                        0.8546178936958313,
                        0.029369447380304337,
                        0.39245694875717163,
                        0.346656858921051,
                        0.06374967843294144,
                        0.006292417645454407,
                        0.3349979519844055,
                        -0.44284701347351074,
                        -0.0069726500660181046,
                        -0.034176819026470184,
                        0.10523856431245804,
                        -0.24722497165203094
                    ],
                    [
                        -0.6571509838104248,
                        0.22028759121894836,
                        0.16154949367046356,
                        -0.13117706775665283,
                        0.02713300846517086,
                        -0.13578149676322937,
                        -0.3350111246109009,
                        0.2666199505329132,
                        -0.2487640380859375,
                        -0.07024271041154861,
                        -0.2005118429660797,
                        0.18347151577472687,
                        0.4080169200897217,
                        0.14595264196395874,
                        0.16248656809329987,
                        -0.2969331443309784
                    ],
                    [
                        -0.8098085522651672,
                        0.18248611688613892,
                        0.7266952395439148,
                        -0.07982242852449417,
                        -0.15785819292068481,
                        0.42711707949638367,
                        0.07110186666250229,
                        -0.43994584679603577,
                        0.09510418027639389,
                        0.04114377498626709,
                        -0.19438841938972473,
                        -0.09423133730888367,
                        -0.1785506010055542,
                        -0.4149898588657379,
                        0.02159634605050087,
                        0.13154679536819458
                    ],
                    [
                        0.125986710190773,
                        -0.18182581663131714,
                        0.39674320816993713,
                        0.16408349573612213,
                        -0.32263779640197754,
                        -0.00523889996111393,
                        -0.30845656991004944,
                        -0.3113080561161041,
                        -0.3689824342727661,
                        -0.1488591879606247,
                        -0.39124587178230286,
                        -0.32920271158218384,
                        0.14751467108726501,
                        -0.2682814598083496,
                        0.4054778814315796,
                        -0.28017163276672363
                    ],
                    [
                        -0.6427810192108154,
                        -0.16207095980644226,
                        0.3107123076915741,
                        -0.17739731073379517,
                        -0.5425624251365662,
                        0.004786917008459568,
                        -0.19436021149158478,
                        -0.3657798767089844,
                        -0.07406368851661682,
                        0.07512325048446655,
                        -0.6366053819656372,
                        -0.02329489029943943,
                        -0.5529335737228394,
                        -0.040700674057006836,
                        -1.0927563905715942,
                        -0.4138872027397156
                    ],
                    [
                        -0.5229454636573792,
                        -0.14365635812282562,
                        0.7807018160820007,
                        -0.7653500437736511,
                        -0.3045627474784851,
                        -0.19374419748783112,
                        -0.22321483492851257,
                        -0.1972668319940567,
                        -0.29443472623825073,
                        -0.4082542657852173,
                        0.09528697282075882,
                        0.4940999448299408,
                        -0.2915925681591034,
                        -0.693799614906311,
                        -0.33611539006233215,
                        -0.31410834193229675
                    ],
                    [
                        0.11556681245565414,
                        0.22083429992198944,
                        -0.8824453949928284,
                        0.27070584893226624,
                        0.13650865852832794,
                        -0.6283767819404602,
                        0.8140314817428589,
                        0.1363147646188736,
                        0.21015188097953796,
                        0.3893473446369171,
                        0.031105875968933105,
                        -0.8660358786582947,
                        0.49568092823028564,
                        -0.2969871461391449,
                        0.5670124292373657,
                        0.36778002977371216
                    ],
                    [
                        0.03196749836206436,
                        0.14001759886741638,
                        -0.05744123086333275,
                        -0.3636673092842102,
                        0.17198576033115387,
                        -0.3733086884021759,
                        -0.10782889276742935,
                        -0.12350911647081375,
                        0.032035212963819504,
                        0.1406601369380951,
                        0.26843589544296265,
                        0.22818714380264282,
                        -0.5502670407295227,
                        0.3556188642978668,
                        0.9684720635414124,
                        -0.10125746577978134
                    ],
                    [
                        -0.034552037715911865,
                        0.2610664665699005,
                        -0.08044708520174026,
                        0.16341647505760193,
                        -0.3370538055896759,
                        -0.17729267477989197,
                        -0.43611523509025574,
                        0.275540292263031,
                        -0.06469552963972092,
                        -0.5809661149978638,
                        0.0008947881287895143,
                        0.5557945966720581,
                        -0.6640905141830444,
                        -0.2542535662651062,
                        0.31581035256385803,
                        0.06676793098449707
                    ],
                    [
                        0.14569401741027832,
                        -0.1794932633638382,
                        -0.10136685520410538,
                        0.19991733133792877,
                        0.46160683035850525,
                        -0.14687976241111755,
                        0.4521481692790985,
                        0.288711279630661,
                        -0.5901194214820862,
                        0.1130085363984108,
                        -0.09714500606060028,
                        0.5137314200401306,
                        -0.4437144696712494,
                        0.12601321935653687,
                        -0.13878417015075684,
                        0.2761944532394409
                    ],
                    [
                        0.1466028243303299,
                        -0.09095738083124161,
                        -0.18609432876110077,
                        0.1966015100479126,
                        -0.2207430601119995,
                        0.0786847174167633,
                        1.1315110921859741,
                        0.1646372526884079,
                        0.16732636094093323,
                        0.054891493171453476,
                        0.04178744927048683,
                        0.02967125177383423,
                        -0.01477234810590744,
                        0.08427862823009491,
                        -0.15166528522968292,
                        -0.4240742325782776
                    ],
                    [
                        -0.0858115702867508,
                        0.07641346007585526,
                        -0.02667570672929287,
                        0.1717291623353958,
                        -0.00015978136798366904,
                        -0.04428976774215698,
                        -0.3383772671222687,
                        -0.590251624584198,
                        -0.3604072630405426,
                        -0.30633437633514404,
                        0.13520121574401855,
                        1.100601077079773,
                        -0.09816800057888031,
                        -0.17207179963588715,
                        -0.04899798333644867,
                        -0.18577243387699127
                    ],
                    [
                        -0.05238954350352287,
                        -0.6463705897331238,
                        -0.6884563565254211,
                        0.07030539214611053,
                        0.0017837194027379155,
                        0.2404060959815979,
                        0.28331395983695984,
                        0.3601723313331604,
                        0.2307046353816986,
                        0.594770073890686,
                        0.37731367349624634,
                        -0.17305141687393188,
                        0.2768884003162384,
                        0.08825661242008209,
                        0.5596350431442261,
                        0.43543440103530884
                    ],
                    [
                        -0.011724614538252354,
                        -0.596678614616394,
                        0.006693659350275993,
                        0.1645437479019165,
                        0.39106038212776184,
                        -0.44489771127700806,
                        0.32227644324302673,
                        0.12357752025127411,
                        0.6460312008857727,
                        0.01194050908088684,
                        -0.124166339635849,
                        -0.19830186665058136,
                        0.4513212740421295,
                        0.36572569608688354,
                        0.21331606805324554,
                        0.44183430075645447
                    ],
                    [
                        -0.05759488791227341,
                        0.092338927090168,
                        -0.3126685321331024,
                        -0.3731437623500824,
                        -0.12802726030349731,
                        0.17274856567382812,
                        0.04541122168302536,
                        -0.26946157217025757,
                        -0.26598677039146423,
                        -0.6554260849952698,
                        -0.2134159505367279,
                        -0.13882401585578918,
                        0.08006301522254944,
                        0.10628093779087067,
                        0.07785046100616455,
                        0.18665462732315063
                    ],
                    [
                        0.4415585994720459,
                        0.07330654561519623,
                        -0.13364717364311218,
                        -0.3020762801170349,
                        0.4882622957229614,
                        0.273657888174057,
                        -0.27731406688690186,
                        0.18599359691143036,
                        -0.00037898539449088275,
                        0.04723557084798813,
                        -0.5586541295051575,
                        0.8014358282089233,
                        -0.30077457427978516,
                        -0.31130528450012207,
                        0.057888731360435486,
                        -0.1995025873184204
                    ]
                ],
                [
                    0.10806487500667572,
                    0.05943400785326958,
                    0.0126407565549016,
                    -0.00038840281195007265,
                    0.036265723407268524,
                    0.008668513968586922,
                    -0.015508735552430153,
                    0.04721982404589653,
                    -0.06435388326644897,
                    -0.006602214649319649,
                    0.012000016868114471,
                    0.2035422921180725,
                    0.005215079057961702,
                    0.02682783454656601,
                    0.05110849440097809,
                    0.0144015122205019
                ]
            ],
            "activation": "tanh"
        },
        {
            "type": "dense",
            "shape": [
                null,
                1
            ],
            "weights": [
                [
                    [
                        -0.38686710596084595
                    ],
                    [
                        0.22286507487297058
                    ],
                    [
                        0.4864198565483093
                    ],
                    [
                        -0.46765848994255066
                    ],
                    [
                        -0.9123438596725464
                    ],
                    [
                        0.12209469079971313
                    ],
                    [
                        -0.6636756658554077
                    ],
                    [
                        -0.22272542119026184
                    ],
                    [
                        -0.7621410489082336
                    ],
                    [
                        -0.44174301624298096
                    ],
                    [
                        -0.5534692406654358
                    ],
                    [
                        0.34306156635284424
                    ],
                    [
                        -0.2594055235385895
                    ],
                    [
                        -0.49610310792922974
                    ],
                    [
                        -0.6088812351226807
                    ],
                    [
                        -0.5236139297485352
                    ]
                ],
                [
                    -0.007222176995128393
                ]
            ],
            "activation": ""
        }
    ]
}