{
    "in_shape": [
        null,
        2
    ],
    "layers": [
        {
            "type": "dense",
            "shape": [
                null,
                4
            ],
            "weights": [
                [
                    [
                        -0.2106374055147171,
                        0.3298813998699188,
                        0.5018947720527649,
                        -1.2724270820617676
                    ],
                    [
                        -0.0003545330837368965,
                        0.060641463845968246,
                        -0.07315536588430405,
                        -0.08700108528137207
                    ]
                ],
                [
                    0.06856223940849304,
                    0.016015587374567986,
                    0.1237126961350441,
                    0.4299331605434418
                ]
            ],
            "activation": "tanh"
        },
        {
            "type": "dense",
            "shape": [
                null,
                4
            ],
            "weights": [
                [
                    [
                        -1.0867550373077393,
                        0.9541188478469849,
                        1.1880519390106201,
                        0.4205303192138672
                    ],
                    [
                        -0.32622402906417847,
                        0.5803960561752319,
                        -0.3935159742832184,
                        0.48100730776786804
                    ],
                    [
                        -0.4121158719062805,
                        0.6687685251235962,
                        0.2775159776210785,
                        -1.1220033168792725
                    ],
                    [
                        -0.6645317077636719,
                        -0.39541634917259216,
                        -0.25324687361717224,
                        -0.10381636023521423
                    ]
                ],
                [
                    0.13699033856391907,
                    -0.03542491793632507,
                    0.10352680832147598,
                    -0.49566712975502014
                ]
            ],
            "activation": "tanh"
        },
        {
            "type": "dense",
            "shape": [
                null,
                4
            ],
            "weights": [
                [
                    [
                        -0.5732221603393555,
                        -1.3843039274215698,
                        0.9398940205574036,
                        0.07413875311613083
                    ],
                    [
                        0.8869097828865051,
                        1.0498441457748413,
                        -0.9818211793899536,
                        1.885411262512207
                    ],
                    [
                        0.1050875335931778,
                        0.5773811936378479,
                        -1.9308781623840332,
                        1.2603462934494019
                    ],
                    [
                        1.039241075515747,
                        0.4345332980155945,
                        0.19071808457374573,
                        -0.30889877676963806
                    ]
                ],
                [
                    -0.09724180400371552,
                    0.1519395262002945,
                    -0.09248929470777512,
                    -0.1212097778916359
                ]
            ],
            "activation": "tanh"
        },
        {
            "type": "dense",
            "shape": [
                null,
                1
            ],
            "weights": [
                [
                    [
                        -2.3389742374420166
                    ],
                    [
                        -1.3845710754394531
                    ],
                    [
                        1.4924516677856445
                    ],
                    [
                        -0.8989253044128418
                    ]
                ],
                [
                    -0.07692636549472809
                ]
            ],
            "activation": ""
        }
    ]
}