{
    "in_shape": [
        null,
        2
    ],
    "layers": [
        {
            "type": "dense",
            "shape": [
                null,
                8
            ],
            "weights": [
                [
                    [
                        0.3514328598976135,
                        1.0059651136398315,
                        -0.345872700214386,
                        -1.06417977809906,
                        0.23065105080604553,
                        -0.3967752456665039,
                        0.28352370858192444,
                        0.4392431974411011
                    ],
                    [
                        -0.14059783518314362,
                        -0.03801414370536804,
                        -0.07873207330703735,
                        -0.08423597365617752,
                        0.003595119807869196,
                        0.35508325695991516,
                        0.1588195562362671,
                        -0.1146998256444931
                    ]
                ],
                [
                    0.026970529928803444,
                    0.237746924161911,
                    0.23019012808799744,
                    0.8467198014259338,
                    -0.10060891509056091,
                    0.3632374107837677,
                    0.1458088606595993,
                    0.7490928173065186
                ]
            ],
            "activation": "tanh"
        },
        {
            "type": "dense",
            "shape": [
                null,
                8
            ],
            "weights": [
                [
                    [
                        0.2710777819156647,
                        0.2323651909828186,
                        0.41970476508140564,
                        -0.40234479308128357,
                        0.10441122204065323,
                        -0.39880216121673584,
                        -0.2308819442987442,
                        -0.5587148666381836
                    ],
                    [
                        -0.08525513112545013,
                        0.09539905935525894,
                        0.062406521290540695,
                        0.3151151239871979,
                        0.4970394968986511,
                        -0.7660212516784668,
                        -0.5012120008468628,
                        0.22626374661922455
                    ],
                    [
                        -0.028467709198594093,
                        -0.12895576655864716,
                        -0.05258380249142647,
                        0.4541862905025482,
                        -0.8591161966323853,
                        -0.6358135938644409,
                        -0.17911899089813232,
                        -0.1437554657459259
                    ],
                    [
                        0.1959095299243927,
                        -0.9096664190292358,
                        0.24302449822425842,
                        -0.25613725185394287,
                        0.02735861763358116,
                        -0.28162601590156555,
                        -0.15915517508983612,
                        0.06565077602863312
                    ],
                    [
                        1.016131043434143,
                        -0.8952603936195374,
                        -0.5718461871147156,
                        1.060364842414856,
                        -0.5800049901008606,
                        -0.0982806459069252,
                        0.09610185772180557,
                        0.9006876349449158
                    ],
                    [
                        0.287366658449173,
                        -0.2469983547925949,
                        -0.3597206175327301,
                        -0.17373545467853546,
                        -0.2098141759634018,
                        0.13084298372268677,
                        0.23897333443164825,
                        -0.42035332322120667
                    ],
                    [
                        -0.16318294405937195,
                        -0.1645793616771698,
                        0.09513457864522934,
                        0.42153745889663696,
                        0.2704632878303528,
                        0.3168898820877075,
                        -0.6218030452728271,
                        -0.4637221693992615
                    ],
                    [
                        -0.22135990858078003,
                        -0.25635167956352234,
                        -0.8212383389472961,
                        -0.04740939289331436,
                        0.5573003888130188,
                        -0.16129706799983978,
                        -0.9326934218406677,
                        -0.270702600479126
                    ]
                ],
                [
                    0.021426046267151833,
                    -0.07737549394369125,
                    -0.21882525086402893,
                    -0.12985475361347198,
                    0.005156361497938633,
                    0.3325885236263275,
                    -0.6364444494247437,
                    0.13367196917533875
                ]
            ],
            "activation": "tanh"
        },
        {
            "type": "dense",
            "shape": [
                null,
                8
            ],
            "weights": [
                [
                    [
                        0.4436306953430176,
                        0.042595889419317245,
                        -0.8672096133232117,
                        -1.235536813735962,
                        0.4447011351585388,
                        0.5087274312973022,
                        1.162440538406372,
                        0.2643338143825531
                    ],
                    [
                        0.28467828035354614,
                        0.8896162509918213,
                        -0.07126551121473312,
                        0.4572429656982422,
                        -1.0114723443984985,
                        -0.4147630035877228,
                        -0.6010796427726746,
                        -0.17509813606739044
                    ],
                    [
                        -0.3638300597667694,
                        -1.0481109619140625,
                        0.32236558198928833,
                        0.10020560771226883,
                        -0.7855261564254761,
                        0.7256566286087036,
                        -0.4460790455341339,
                        -0.4365476667881012
                    ],
                    [
                        0.7030316591262817,
                        0.96861732006073,
                        0.34537285566329956,
                        -0.49096691608428955,
                        0.08525065332651138,
                        0.4399169385433197,
                        0.2549798786640167,
                        1.0320483446121216
                    ],
                    [
                        -0.11232715845108032,
                        -0.5378895401954651,
                        0.7402942776679993,
                        0.835204541683197,
                        -0.749698281288147,
                        -1.8965877294540405,
                        -0.22560881078243256,
                        -0.5958558917045593
                    ],
                    [
                        -0.6539879441261292,
                        0.3151957094669342,
                        0.2747822403907776,
                        0.21362191438674927,
                        -0.33322659134864807,
                        0.03983253985643387,
                        0.4868549406528473,
                        -0.2303979992866516
                    ],
                    [
                        0.5697364807128906,
                        0.08348769694566727,
                        0.025730062276124954,
                        0.033431146293878555,
                        0.037228576838970184,
                        1.1399835348129272,
                        -0.11410261690616608,
                        -0.659220814704895
                    ],
                    [
                        0.7017069458961487,
                        0.08017327636480331,
                        -0.5535609126091003,
                        -0.010652557015419006,
                        0.33784231543540955,
                        1.187680959701538,
                        0.9521531462669373,
                        0.9565754532814026
                    ]
                ],
                [
                    -0.050810083746910095,
                    0.06491851806640625,
                    -0.12542709708213806,
                    -0.013848092406988144,
                    -0.047876983880996704,
                    -0.16237197816371918,
                    0.08886142820119858,
                    0.16481135785579681
                ]
            ],
            "activation": "tanh"
        },
        {
            "type": "dense",
            "shape": [
                null,
                1
            ],
            "weights": [
                [
                    [
                        1.2054704427719116
                    ],
                    [
                        0.4813079237937927
                    ],
                    [
                        -0.6228976249694824
                    ],
                    [
                        -1.4034751653671265
                    ],
                    [
                        1.2642595767974854
                    ],
                    [
                        0.8209953904151917
                    ],
                    [
                        1.0562796592712402
                    ],
                    [
                        1.3167897462844849
                    ]
                ],
                [
                    -0.01586979068815708
                ]
            ],
            "activation": ""
        }
    ]
}