{
    "in_shape": [
        null,
        2
    ],
    "layers": [
        {
            "type": "dense",
            "shape": [
                null,
                8
            ],
            "weights": [
                [
                    [
                        -0.4777868688106537,
                        0.21024316549301147,
                        0.3789113759994507,
                        -0.12748178839683533,
                        -0.49660035967826843,
                        1.2619708776474,
                        0.23489049077033997,
                        -1.3435920476913452
                    ],
                    [
                        0.06646990776062012,
                        -0.02027665264904499,
                        0.04494735971093178,
                        -2.1190638542175293,
                        0.10493294894695282,
                        -0.062444623559713364,
                        0.019086485728621483,
                        -0.04468410834670067
                    ]
                ],
                [
                    0.07324399054050446,
                    0.39268600940704346,
                    -0.0427003875374794,
                    -1.5248839855194092,
                    -0.3370589315891266,
                    0.5944470167160034,
                    -0.445947527885437,
                    0.739409327507019
                ]
            ],
            "activation": "tanh"
        },
        {
            "type": "dense",
            "shape": [
                null,
                8
            ],
            "weights": [
                [
                    [
                        -0.2502099275588989,
                        0.038844455033540726,
                        0.7074384093284607,
                        -0.18288299441337585,
                        0.22595623135566711,
                        -0.3746044635772705,
                        0.2056102305650711,
                        0.12095414847135544
                    ],
                    [
                        0.09606708586215973,
                        1.1364747285842896,
                        0.49097663164138794,
                        0.35324281454086304,
                        -0.667050838470459,
                        -0.13613301515579224,
                        0.7415050864219666,
                        0.41416099667549133
                    ],
                    [
                        -0.34548643231391907,
                        -0.13134300708770752,
                        -0.17466822266578674,
                        0.07045262306928635,
                        0.2972591817378998,
                        0.6509295701980591,
                        -0.2622048556804657,
                        0.3004150092601776
                    ],
                    [
                        0.012926400639116764,
                        -0.33473241329193115,
                        0.13182400166988373,
                        0.2595471143722534,
                        0.2400456815958023,
                        -0.08273341506719589,
                        0.7574920058250427,
                        0.31282684206962585
                    ],
                    [
                        -0.23762591183185577,
                        -0.09758777916431427,
                        -0.27611953020095825,
                        0.3211206793785095,
                        -0.10059566795825958,
                        0.009619306772947311,
                        0.557742178440094,
                        -0.5251410007476807
                    ],
                    [
                        -0.2314755767583847,
                        0.18269465863704681,
                        0.16865527629852295,
                        0.32896310091018677,
                        0.5088467597961426,
                        0.11477812379598618,
                        -0.8960846066474915,
                        -0.4619705379009247
                    ],
                    [
                        -0.5705307722091675,
                        0.08380990475416183,
                        0.38064682483673096,
                        0.7911738753318787,
                        -0.6170215606689453,
                        -0.8498381972312927,
                        0.06975294649600983,
                        0.783128559589386
                    ],
                    [
                        -0.39148205518722534,
                        -0.15731361508369446,
                        0.5041505694389343,
                        -0.460609495639801,
                        -0.5626640319824219,
                        0.5663760304450989,
                        0.13721896708011627,
                        -0.19876152276992798
                    ]
                ],
                [
                    0.2632218897342682,
                    0.1490328460931778,
                    0.10630501806735992,
                    0.19861266016960144,
                    0.06496710330247879,
                    0.12576733529567719,
                    -0.0795917883515358,
                    -0.04804755002260208
                ]
            ],
            "activation": "tanh"
        },
        {
            "type": "dense",
            "shape": [
                null,
                8
            ],
            "weights": [
                [
                    [
                        0.039726387709379196,
                        0.06727177649736404,
                        0.8132462501525879,
                        -0.6964550018310547,
                        0.2828912138938904,
                        0.04414135217666626,
                        -0.39188891649246216,
                        -0.23265665769577026
                    ],
                    [
                        -0.3634066581726074,
                        -0.4086263179779053,
                        -0.7278244495391846,
                        0.13194312155246735,
                        -0.7377372980117798,
                        0.5339350700378418,
                        0.46255165338516235,
                        -0.8392349481582642
                    ],
                    [
                        -0.2547399699687958,
                        0.5839346647262573,
                        -0.6195510625839233,
                        -0.8632723689079285,
                        -0.8817209005355835,
                        0.48917120695114136,
                        0.7163112759590149,
                        -0.41602447628974915
                    ],
                    [
                        -0.850184440612793,
                        -0.8999831080436707,
                        -0.10663552582263947,
                        -0.30457353591918945,
                        -0.005273586139082909,
                        -0.08043700456619263,
                        -0.07591429352760315,
                        -0.46838146448135376
                    ],
                    [
                        0.31758275628089905,
                        -0.43588536977767944,
                        1.149924635887146,
                        0.920815646648407,
                        -0.010458976961672306,
                        -0.39556023478507996,
                        -0.27519330382347107,
                        0.35857728123664856
                    ],
                    [
                        0.47914382815361023,
                        1.6710528135299683,
                        -0.03570771589875221,
                        0.5250840783119202,
                        -0.11694138497114182,
                        -1.0079154968261719,
                        -0.6632965803146362,
                        0.09981564432382584
                    ],
                    [
                        0.23572403192520142,
                        -0.5913557410240173,
                        -0.319989413022995,
                        -1.4619113206863403,
                        -0.3604172468185425,
                        -0.1953386813402176,
                        -0.15916737914085388,
                        0.3286631107330322
                    ],
                    [
                        -0.21240119636058807,
                        -0.24944724142551422,
                        -0.3596263825893402,
                        -0.4792731702327728,
                        -0.36743253469467163,
                        0.8687835931777954,
                        -0.3522223234176636,
                        0.15733122825622559
                    ]
                ],
                [
                    -0.06426191329956055,
                    0.11565656960010529,
                    0.0005656909197568893,
                    -0.12177228182554245,
                    -0.12254951149225235,
                    -0.09566868096590042,
                    0.05475493147969246,
                    -0.10106883943080902
                ]
            ],
            "activation": "tanh"
        },
        {
            "type": "dense",
            "shape": [
                null,
                1
            ],
            "weights": [
                [
                    [
                        -1.0946422815322876
                    ],
                    [
                        -0.5417732000350952
                    ],
                    [
                        -1.1321330070495605
                    ],
                    [
                        -0.7145516872406006
                    ],
                    [
                        -0.7562769055366516
                    ],
                    [
                        1.3725358247756958
                    ],
                    [
                        0.7845523357391357
                    ],
                    [
                        -0.7110723853111267
                    ]
                ],
                [
                    0.054675742983818054
                ]
            ],
            "activation": ""
        }
    ]
}