{
    "in_shape": [
        null,
        2
    ],
    "layers": [
        {
            "type": "dense",
            "shape": [
                null,
                8
            ],
            "weights": [
                [
                    [
                        0.35155412554740906,
                        1.00541090965271,
                        -0.34544333815574646,
                        -1.0635151863098145,
                        0.23068439960479736,
                        -0.3961779773235321,
                        0.2835194766521454,
                        0.4391476511955261
                    ],
                    [
                        -0.14056523144245148,
                        -0.038358524441719055,
                        -0.07863356173038483,
                        -0.08437678962945938,
                        0.003575227688997984,
                        0.3550597131252289,
                        0.15909148752689362,
                        -0.11454728990793228
                    ]
                ],
                [
                    0.026999015361070633,
                    0.23740153014659882,
                    0.23029062151908875,
                    0.8465859889984131,
                    -0.10062559694051743,
                    0.36321935057640076,
                    0.14607976377010345,
                    0.749242901802063
                ]
            ],
            "activation": "tanh"
        },
        {
            "type": "dense",
            "shape": [
                null,
                8
            ],
            "weights": [
                [
                    [
                        0.27112194895744324,
                        0.23217365145683289,
                        0.4198797941207886,
                        -0.4024532735347748,
                        0.10447529703378677,
                        -0.3989678919315338,
                        -0.2308594286441803,
                        -0.5585423111915588
                    ],
                    [
                        -0.0853271409869194,
                        0.09499452263116837,
                        0.061989925801754,
                        0.3153856098651886,
                        0.4966447949409485,
                        -0.7664888501167297,
                        -0.5037705302238464,
                        0.2262505143880844
                    ],
                    [
                        -0.028391705825924873,
                        -0.12950341403484344,
                        -0.05219932273030281,
                        0.453932523727417,
                        -0.8588018417358398,
                        -0.6363468170166016,
                        -0.17839644849300385,
                        -0.14357441663742065
                    ],
                    [
                        0.1962806135416031,
                        -0.9097110033035278,
                        0.24305479228496552,
                        -0.256057471036911,
                        0.027464933693408966,
                        -0.28164371848106384,
                        -0.15781749784946442,
                        0.0659162625670433
                    ],
                    [
                        1.0158909559249878,
                        -0.8942902684211731,
                        -0.5718991756439209,
                        1.0603293180465698,
                        -0.5800961256027222,
                        -0.09741088002920151,
                        0.09510427713394165,
                        0.9005438685417175
                    ],
                    [
                        0.2872888445854187,
                        -0.24669194221496582,
                        -0.3599070906639099,
                        -0.17362694442272186,
                        -0.20989669859409332,
                        0.13112476468086243,
                        0.2388484925031662,
                        -0.42055508494377136
                    ],
                    [
                        -0.16325730085372925,
                        -0.1642439365386963,
                        0.09492623805999756,
                        0.4216625690460205,
                        0.2703573703765869,
                        0.31720075011253357,
                        -0.6219871640205383,
                        -0.46391960978507996
                    ],
                    [
                        -0.22161537408828735,
                        -0.2555210590362549,
                        -0.821297287940979,
                        -0.04744415357708931,
                        0.5571994185447693,
                        -0.16056789457798004,
                        -0.9337731003761292,
                        -0.270860493183136
                    ]
                ],
                [
                    0.02134734019637108,
                    -0.07706675678491592,
                    -0.21901196241378784,
                    -0.12974634766578674,
                    0.005073565989732742,
                    0.33287280797958374,
                    -0.6365715861320496,
                    0.1334695816040039
                ]
            ],
            "activation": "tanh"
        },
        {
            "type": "dense",
            "shape": [
                null,
                8
            ],
            "weights": [
                [
                    [
                        0.44409653544425964,
                        0.04186515510082245,
                        -0.8671348094940186,
                        -1.235585331916809,
                        0.4450746476650238,
                        0.5084459781646729,
                        1.162891149520874,
                        0.26402586698532104
                    ],
                    [
                        0.2843424379825592,
                        0.8893581628799438,
                        -0.0711149275302887,
                        0.45757269859313965,
                        -1.011928915977478,
                        -0.4144672751426697,
                        -0.6012041568756104,
                        -0.17520591616630554
                    ],
                    [
                        -0.3633066713809967,
                        -1.0486189126968384,
                        0.32250064611434937,
                        0.10034548491239548,
                        -0.7853678464889526,
                        0.726162314414978,
                        -0.44576939940452576,
                        -0.436772882938385
                    ],
                    [
                        0.7031420469284058,
                        0.9690406918525696,
                        0.345136821269989,
                        -0.49108803272247314,
                        0.08524338901042938,
                        0.43937715888023376,
                        0.2546880543231964,
                        1.0323654413223267
                    ],
                    [
                        -0.11268139630556107,
                        -0.5373014807701111,
                        0.7399426102638245,
                        0.8349595665931702,
                        -0.749909520149231,
                        -1.8976770639419556,
                        -0.22587406635284424,
                        -0.5954034328460693
                    ],
                    [
                        -0.6542910933494568,
                        0.31545063853263855,
                        0.2747828960418701,
                        0.2135220468044281,
                        -0.3332272171974182,
                        0.03951385244727135,
                        0.4866080582141876,
                        -0.23037482798099518
                    ],
                    [
                        0.5702451467514038,
                        0.08289293199777603,
                        0.025952531024813652,
                        0.033639661967754364,
                        0.037354398518800735,
                        1.1405075788497925,
                        -0.11384088546037674,
                        -0.6595414876937866
                    ],
                    [
                        0.7017893195152283,
                        0.08008288592100143,
                        -0.5536353588104248,
                        -0.010575784370303154,
                        0.33772012591362,
                        1.187909483909607,
                        0.9523394703865051,
                        0.9566616415977478
                    ]
                ],
                [
                    -0.051182329654693604,
                    0.06518588215112686,
                    -0.12541544437408447,
                    -0.01392399612814188,
                    -0.047933951020240784,
                    -0.1626996248960495,
                    0.08857491612434387,
                    0.16483405232429504
                ]
            ],
            "activation": "tanh"
        },
        {
            "type": "dense",
            "shape": [
                null,
                1
            ],
            "weights": [
                [
                    [
                        1.205459713935852
                    ],
                    [
                        0.48115381598472595
                    ],
                    [
                        -0.6228523254394531
                    ],
                    [
                        -1.4033839702606201
                    ],
                    [
                        1.2646729946136475
                    ],
                    [
                        0.8207801580429077
                    ],
                    [
                        1.0562772750854492
                    ],
                    [
                        1.3168748617172241
                    ]
                ],
                [
                    -0.01597851887345314
                ]
            ],
            "activation": ""
        }
    ]
}