{
    "in_shape": [
        null,
        2
    ],
    "layers": [
        {
            "type": "dense",
            "shape": [
                null,
                8
            ],
            "weights": [
                [
                    [
                        0.3504696190357208,
                        1.0028479099273682,
                        -0.34467530250549316,
                        -1.062351942062378,
                        0.2320532351732254,
                        -0.397961288690567,
                        0.2843393087387085,
                        0.436166375875473
                    ],
                    [
                        -0.141710102558136,
                        -0.034912023693323135,
                        -0.0788649246096611,
                        -0.08598275482654572,
                        0.004132937639951706,
                        0.3551914691925049,
                        0.1584770828485489,
                        -0.11213063448667526
                    ]
                ],
                [
                    0.025860317051410675,
                    0.24060314893722534,
                    0.2301882952451706,
                    0.8448148369789124,
                    -0.10002622753381729,
                    0.3632742166519165,
                    0.14531022310256958,
                    0.7515695095062256
                ]
            ],
            "activation": "tanh"
        },
        {
            "type": "dense",
            "shape": [
                null,
                8
            ],
            "weights": [
                [
                    [
                        0.27078384160995483,
                        0.2331906110048294,
                        0.4210415482521057,
                        -0.40246841311454773,
                        0.10414039343595505,
                        -0.40206968784332275,
                        -0.22479383647441864,
                        -0.5594839453697205
                    ],
                    [
                        -0.08331809192895889,
                        0.09546665847301483,
                        0.06046568974852562,
                        0.3174367845058441,
                        0.4947991669178009,
                        -0.7627443075180054,
                        -0.5067142248153687,
                        0.2285957783460617
                    ],
                    [
                        -0.028653403744101524,
                        -0.12700873613357544,
                        -0.05115408077836037,
                        0.45381903648376465,
                        -0.8594944477081299,
                        -0.6379638314247131,
                        -0.17082351446151733,
                        -0.14430053532123566
                    ],
                    [
                        0.1920899599790573,
                        -0.9041279554367065,
                        0.24492906033992767,
                        -0.2590777277946472,
                        0.02946557104587555,
                        -0.2774779796600342,
                        -0.15693069994449615,
                        0.062144652009010315
                    ],
                    [
                        1.0157606601715088,
                        -0.8976135849952698,
                        -0.5695876479148865,
                        1.05916428565979,
                        -0.5782325267791748,
                        -0.0997840166091919,
                        0.09923763573169708,
                        0.8998695611953735
                    ],
                    [
                        0.28786295652389526,
                        -0.24788150191307068,
                        -0.36123165488243103,
                        -0.17341753840446472,
                        -0.20964187383651733,
                        0.13410493731498718,
                        0.23239681124687195,
                        -0.41938909888267517
                    ],
                    [
                        -0.1627221554517746,
                        -0.1654227375984192,
                        0.09367071092128754,
                        0.421821653842926,
                        0.2707234025001526,
                        0.3201899528503418,
                        -0.6285397410392761,
                        -0.4628142714500427
                    ],
                    [
                        -0.21783068776130676,
                        -0.26156431436538696,
                        -0.822975218296051,
                        -0.04469064995646477,
                        0.5552729964256287,
                        -0.16515420377254486,
                        -0.934907853603363,
                        -0.26752400398254395
                    ]
                ],
                [
                    0.021925484761595726,
                    -0.07825684547424316,
                    -0.2203400880098343,
                    -0.12953291833400726,
                    0.005326056387275457,
                    0.3358533978462219,
                    -0.6430315971374512,
                    0.13463962078094482
                ]
            ],
            "activation": "tanh"
        },
        {
            "type": "dense",
            "shape": [
                null,
                8
            ],
            "weights": [
                [
                    [
                        0.4375189244747162,
                        0.029203830286860466,
                        -0.8558392524719238,
                        -1.2238222360610962,
                        0.43493473529815674,
                        0.48504137992858887,
                        1.1492133140563965,
                        0.24865084886550903
                    ],
                    [
                        0.2925236225128174,
                        0.8924949765205383,
                        -0.07446406781673431,
                        0.4539386034011841,
                        -1.0087321996688843,
                        -0.41859549283981323,
                        -0.6020346879959106,
                        -0.17509746551513672
                    ],
                    [
                        -0.3597341477870941,
                        -1.045472264289856,
                        0.3204275667667389,
                        0.09859830886125565,
                        -0.7849242091178894,
                        0.7278116345405579,
                        -0.44875454902648926,
                        -0.4379255175590515
                    ],
                    [
                        0.6984674334526062,
                        0.9682139158248901,
                        0.3466097116470337,
                        -0.4886271357536316,
                        0.08190327137708664,
                        0.42260652780532837,
                        0.2535691559314728,
                        1.0325978994369507
                    ],
                    [
                        -0.11409973353147507,
                        -0.53448086977005,
                        0.7364984154701233,
                        0.832556426525116,
                        -0.7485833168029785,
                        -1.9055688381195068,
                        -0.22187428176403046,
                        -0.5889102816581726
                    ],
                    [
                        -0.6568431854248047,
                        0.31408703327178955,
                        0.27519986033439636,
                        0.2137068659067154,
                        -0.3319253921508789,
                        0.042655736207962036,
                        0.49194037914276123,
                        -0.22765490412712097
                    ],
                    [
                        0.5735740065574646,
                        0.08499982208013535,
                        0.02475522644817829,
                        0.03262287378311157,
                        0.03738753870129585,
                        1.141641616821289,
                        -0.11730704456567764,
                        -0.6616759300231934
                    ],
                    [
                        0.7002598643302917,
                        0.07727741450071335,
                        -0.5498596429824829,
                        -0.006593817379325628,
                        0.3322082757949829,
                        1.181524395942688,
                        0.9428966641426086,
                        0.9503574967384338
                    ]
                ],
                [
                    -0.054159171879291534,
                    0.06348906457424164,
                    -0.12466440349817276,
                    -0.013379867188632488,
                    -0.04708075150847435,
                    -0.15974055230617523,
                    0.09350668638944626,
                    0.1673344224691391
                ]
            ],
            "activation": "tanh"
        },
        {
            "type": "dense",
            "shape": [
                null,
                1
            ],
            "weights": [
                [
                    [
                        1.2044140100479126
                    ],
                    [
                        0.47863292694091797
                    ],
                    [
                        -0.6199659109115601
                    ],
                    [
                        -1.393233060836792
                    ],
                    [
                        1.2532589435577393
                    ],
                    [
                        0.8199999332427979
                    ],
                    [
                        1.0538729429244995
                    ],
                    [
                        1.311763048171997
                    ]
                ],
                [
                    -0.015756899490952492
                ]
            ],
            "activation": ""
        }
    ]
}