{
    "in_shape": [
        null,
        2
    ],
    "layers": [
        {
            "type": "dense",
            "shape": [
                null,
                8
            ],
            "weights": [
                [
                    [
                        0.3428311049938202,
                        1.006187081336975,
                        -0.3394777178764343,
                        -1.058973789215088,
                        0.23942755162715912,
                        -0.3907446265220642,
                        0.275968074798584,
                        0.4308115839958191
                    ],
                    [
                        -0.14224329590797424,
                        -0.033955998718738556,
                        -0.07979103922843933,
                        -0.08222554624080658,
                        0.003944075666368008,
                        0.3569978177547455,
                        0.1605161726474762,
                        -0.11289875209331512
                    ]
                ],
                [
                    0.025270598009228706,
                    0.24172307550907135,
                    0.22920793294906616,
                    0.8487405776977539,
                    -0.10019777715206146,
                    0.365191787481308,
                    0.14742647111415863,
                    0.7508291006088257
                ]
            ],
            "activation": "tanh"
        },
        {
            "type": "dense",
            "shape": [
                null,
                8
            ],
            "weights": [
                [
                    [
                        0.2711845338344574,
                        0.23427291214466095,
                        0.41940000653266907,
                        -0.40184587240219116,
                        0.10306166112422943,
                        -0.39732325077056885,
                        -0.2253623753786087,
                        -0.5584810376167297
                    ],
                    [
                        -0.07752782851457596,
                        0.08918149024248123,
                        0.05676081031560898,
                        0.32181569933891296,
                        0.4914604723453522,
                        -0.7717272043228149,
                        -0.4883340895175934,
                        0.2348390817642212
                    ],
                    [
                        -0.03182920813560486,
                        -0.12272144854068756,
                        -0.05059923604130745,
                        0.451839417219162,
                        -0.8586052656173706,
                        -0.6299294829368591,
                        -0.17550286650657654,
                        -0.14719903469085693
                    ],
                    [
                        0.18939784169197083,
                        -0.9027276039123535,
                        0.24720190465450287,
                        -0.2614392340183258,
                        0.03194370120763779,
                        -0.2747419774532318,
                        -0.17130297422409058,
                        0.058422885835170746
                    ],
                    [
                        1.0213568210601807,
                        -0.9019463062286377,
                        -0.5750454068183899,
                        1.0645776987075806,
                        -0.5838114619255066,
                        -0.10492318123579025,
                        0.10839086771011353,
                        0.9065101146697998
                    ],
                    [
                        0.28795957565307617,
                        -0.2497599720954895,
                        -0.3598202168941498,
                        -0.1737261563539505,
                        -0.20877401530742645,
                        0.12844672799110413,
                        0.23365364968776703,
                        -0.4198833405971527
                    ],
                    [
                        -0.16236057877540588,
                        -0.16756153106689453,
                        0.09490983933210373,
                        0.4217112958431244,
                        0.27140867710113525,
                        0.31426820158958435,
                        -0.6269584894180298,
                        -0.4630131423473358
                    ],
                    [
                        -0.2140556126832962,
                        -0.2646833658218384,
                        -0.8264197707176208,
                        -0.04122799634933472,
                        0.551723062992096,
                        -0.16955478489398956,
                        -0.9235448837280273,
                        -0.2627948820590973
                    ]
                ],
                [
                    0.022034699097275734,
                    -0.08015409111976624,
                    -0.21893465518951416,
                    -0.12983353435993195,
                    0.006188984960317612,
                    0.33017417788505554,
                    -0.6417619585990906,
                    0.1341579407453537
                ]
            ],
            "activation": "tanh"
        },
        {
            "type": "dense",
            "shape": [
                null,
                8
            ],
            "weights": [
                [
                    [
                        0.43583694100379944,
                        0.0346757173538208,
                        -0.8593349456787109,
                        -1.2264577150344849,
                        0.43633556365966797,
                        0.49955445528030396,
                        1.1527694463729858,
                        0.2550306022167206
                    ],
                    [
                        0.28873932361602783,
                        0.8917094469070435,
                        -0.07372207939624786,
                        0.45482462644577026,
                        -1.0089123249053955,
                        -0.4104675352573395,
                        -0.5994436144828796,
                        -0.173457533121109
                    ],
                    [
                        -0.36718034744262695,
                        -1.0479137897491455,
                        0.3237151503562927,
                        0.10200685262680054,
                        -0.7887380123138428,
                        0.7297489643096924,
                        -0.45048969984054565,
                        -0.43863821029663086
                    ],
                    [
                        0.7086933851242065,
                        0.9748517870903015,
                        0.3375629782676697,
                        -0.49762001633644104,
                        0.09088928997516632,
                        0.4379535913467407,
                        0.2632095515727997,
                        1.0409266948699951
                    ],
                    [
                        -0.10536911338567734,
                        -0.5307444334030151,
                        0.7300557494163513,
                        0.8261966705322266,
                        -0.7420361042022705,
                        -1.8984423875808716,
                        -0.21539345383644104,
                        -0.5841408371925354
                    ],
                    [
                        -0.6524965763092041,
                        0.3142751157283783,
                        0.27517029643058777,
                        0.21356448531150818,
                        -0.3318634629249573,
                        0.035577885806560516,
                        0.4889216125011444,
                        -0.23010434210300446
                    ],
                    [
                        0.5659725069999695,
                        0.08293402194976807,
                        0.028014492243528366,
                        0.03603939339518547,
                        0.03343544527888298,
                        1.1429654359817505,
                        -0.11932232975959778,
                        -0.6623573899269104
                    ],
                    [
                        0.700425922870636,
                        0.08045417815446854,
                        -0.5536586046218872,
                        -0.01021601352840662,
                        0.33636143803596497,
                        1.1912696361541748,
                        0.9503728747367859,
                        0.956138551235199
                    ]
                ],
                [
                    -0.04893942549824715,
                    0.06407010555267334,
                    -0.12524531781673431,
                    -0.01413352508097887,
                    -0.04619180038571358,
                    -0.16658957302570343,
                    0.09131809324026108,
                    0.16532640159130096
                ]
            ],
            "activation": "tanh"
        },
        {
            "type": "dense",
            "shape": [
                null,
                1
            ],
            "weights": [
                [
                    [
                        1.2051093578338623
                    ],
                    [
                        0.48806172609329224
                    ],
                    [
                        -0.6165647506713867
                    ],
                    [
                        -1.3931972980499268
                    ],
                    [
                        1.25746750831604
                    ],
                    [
                        0.8175071477890015
                    ],
                    [
                        1.0559834241867065
                    ],
                    [
                        1.320403814315796
                    ]
                ],
                [
                    -0.01502580102533102
                ]
            ],
            "activation": ""
        }
    ]
}