{
    "in_shape": [
        null,
        2
    ],
    "layers": [
        {
            "type": "dense",
            "shape": [
                null,
                8
            ],
            "weights": [
                [
                    [
                        0.3502162992954254,
                        1.0054583549499512,
                        -0.34598731994628906,
                        -1.0643469095230103,
                        0.23055826127529144,
                        -0.3958560824394226,
                        0.2835264801979065,
                        0.4397781491279602
                    ],
                    [
                        -0.14061421155929565,
                        -0.0383877158164978,
                        -0.07859751582145691,
                        -0.08440420776605606,
                        0.003615515073761344,
                        0.3551041781902313,
                        0.15917296707630157,
                        -0.1145564541220665
                    ]
                ],
                [
                    0.026949334889650345,
                    0.23737415671348572,
                    0.230325385928154,
                    0.8465624451637268,
                    -0.1005854457616806,
                    0.3632656931877136,
                    0.14616331458091736,
                    0.7492348551750183
                ]
            ],
            "activation": "tanh"
        },
        {
            "type": "dense",
            "shape": [
                null,
                8
            ],
            "weights": [
                [
                    [
                        0.2710942029953003,
                        0.23215463757514954,
                        0.4199240505695343,
                        -0.4024985134601593,
                        0.1044997051358223,
                        -0.3989241123199463,
                        -0.22977133095264435,
                        -0.55854731798172
                    ],
                    [
                        -0.0849926620721817,
                        0.0956631526350975,
                        0.06234966591000557,
                        0.3150796592235565,
                        0.4970915615558624,
                        -0.7657462954521179,
                        -0.4979857802391052,
                        0.22613726556301117
                    ],
                    [
                        -0.028448190540075302,
                        -0.12966665625572205,
                        -0.05206312611699104,
                        0.4538132846355438,
                        -0.8586711287498474,
                        -0.6364311575889587,
                        -0.1776687353849411,
                        -0.14362098276615143
                    ],
                    [
                        0.19589439034461975,
                        -0.9114144444465637,
                        0.24319615960121155,
                        -0.2562106251716614,
                        0.02740277163684368,
                        -0.2833578288555145,
                        -0.16056914627552032,
                        0.06569601595401764
                    ],
                    [
                        1.016140341758728,
                        -0.8940345048904419,
                        -0.5720310807228088,
                        1.060451865196228,
                        -0.5801904201507568,
                        -0.09704554826021194,
                        0.09720437973737717,
                        0.9006711840629578
                    ],
                    [
                        0.28731676936149597,
                        -0.24663910269737244,
                        -0.35996177792549133,
                        -0.17357346415519714,
                        -0.20993104577064514,
                        0.13110867142677307,
                        0.23781442642211914,
                        -0.4205503463745117
                    ],
                    [
                        -0.16322560608386993,
                        -0.16418206691741943,
                        0.09486295282840729,
                        0.4217228889465332,
                        0.2703150808811188,
                        0.3171924948692322,
                        -0.6229967474937439,
                        -0.46391016244888306
                    ],
                    [
                        -0.2213844656944275,
                        -0.25491854548454285,
                        -0.8213731646537781,
                        -0.04737856239080429,
                        0.5571808815002441,
                        -0.1598765254020691,
                        -0.9315274357795715,
                        -0.27080270648002625
                    ]
                ],
                [
                    0.021375134587287903,
                    -0.07701315730810165,
                    -0.2190668284893036,
                    -0.12969277799129486,
                    0.005038943607360125,
                    0.3328573405742645,
                    -0.637604296207428,
                    0.13347424566745758
                ]
            ],
            "activation": "tanh"
        },
        {
            "type": "dense",
            "shape": [
                null,
                8
            ],
            "weights": [
                [
                    [
                        0.444588303565979,
                        0.04186705872416496,
                        -0.8672241568565369,
                        -1.2357094287872314,
                        0.4453786611557007,
                        0.508163332939148,
                        1.1632200479507446,
                        0.264091432094574
                    ],
                    [
                        0.28424036502838135,
                        0.8893442153930664,
                        -0.07109183818101883,
                        0.45762354135513306,
                        -1.0120073556900024,
                        -0.41386842727661133,
                        -0.6011956334114075,
                        -0.17520566284656525
                    ],
                    [
                        -0.3632551431655884,
                        -1.0487918853759766,
                        0.32261034846305847,
                        0.1004430279135704,
                        -0.7853896617889404,
                        0.7262238264083862,
                        -0.4457470774650574,
                        -0.4368841350078583
                    ],
                    [
                        0.7038242220878601,
                        0.9674608111381531,
                        0.34604695439338684,
                        -0.4918690621852875,
                        0.08648493885993958,
                        0.4406881630420685,
                        0.2567634582519531,
                        1.0308228731155396
                    ],
                    [
                        -0.11249464750289917,
                        -0.537591278553009,
                        0.740312397480011,
                        0.8350750207901001,
                        -0.7496322393417358,
                        -1.8959460258483887,
                        -0.22554181516170502,
                        -0.595844030380249
                    ],
                    [
                        -0.6542758941650391,
                        0.3155050575733185,
                        0.274736225605011,
                        0.21346481144428253,
                        -0.333194375038147,
                        0.038962122052907944,
                        0.4865648150444031,
                        -0.23034542798995972
                    ],
                    [
                        0.570297122001648,
                        0.08266828954219818,
                        0.026089036837220192,
                        0.03375326842069626,
                        0.037329379469156265,
                        1.140433669090271,
                        -0.11383509635925293,
                        -0.6596899032592773
                    ],
                    [
                        0.7017636299133301,
                        0.08010023832321167,
                        -0.5536455512046814,
                        -0.010571894235908985,
                        0.33771246671676636,
                        1.1886106729507446,
                        0.9524218440055847,
                        0.9566911458969116
                    ]
                ],
                [
                    -0.05118512734770775,
                    0.06524864584207535,
                    -0.12546589970588684,
                    -0.013982574455440044,
                    -0.04790802299976349,
                    -0.1632343977689743,
                    0.08852428942918777,
                    0.1648688018321991
                ]
            ],
            "activation": "tanh"
        },
        {
            "type": "dense",
            "shape": [
                null,
                1
            ],
            "weights": [
                [
                    [
                        1.205425500869751
                    ],
                    [
                        0.48130086064338684
                    ],
                    [
                        -0.6228153705596924
                    ],
                    [
                        -1.4024121761322021
                    ],
                    [
                        1.2646801471710205
                    ],
                    [
                        0.8206169605255127
                    ],
                    [
                        1.0563465356826782
                    ],
                    [
                        1.317038655281067
                    ]
                ],
                [
                    -0.015945779159665108
                ]
            ],
            "activation": ""
        }
    ]
}