{
    "in_shape": [
        null,
        2
    ],
    "layers": [
        {
            "type": "dense",
            "shape": [
                null,
                4
            ],
            "weights": [
                [
                    [
                        -0.2089727818965912,
                        0.34026938676834106,
                        0.48945605754852295,
                        -1.245179533958435
                    ],
                    [
                        -0.0007962890085764229,
                        0.06077990680932999,
                        -0.07206272333860397,
                        -0.09085113555192947
                    ]
                ],
                [
                    0.06840351969003677,
                    0.01641472801566124,
                    0.1251107156276703,
                    0.4257698953151703
                ]
            ],
            "activation": "tanh"
        },
        {
            "type": "dense",
            "shape": [
                null,
                4
            ],
            "weights": [
                [
                    [
                        -1.0838390588760376,
                        0.9552985429763794,
                        1.186979055404663,
                        0.4165802299976349
                    ],
                    [
                        -0.3264962434768677,
                        0.5807693600654602,
                        -0.3942444622516632,
                        0.47947958111763
                    ],
                    [
                        -0.4130691885948181,
                        0.6679581999778748,
                        0.2783139646053314,
                        -1.119523525238037
                    ],
                    [
                        -0.6608665585517883,
                        -0.39484554529190063,
                        -0.2527884244918823,
                        -0.1047012060880661
                    ]
                ],
                [
                    0.13727501034736633,
                    -0.03491329774260521,
                    0.10274219512939453,
                    -0.49760279059410095
                ]
            ],
            "activation": "tanh"
        },
        {
            "type": "dense",
            "shape": [
                null,
                4
            ],
            "weights": [
                [
                    [
                        -0.5721471309661865,
                        -1.3833876848220825,
                        0.9390824437141418,
                        0.07189483940601349
                    ],
                    [
                        0.8887923955917358,
                        1.051108956336975,
                        -0.9833368062973022,
                        1.8778162002563477
                    ],
                    [
                        0.10712728649377823,
                        0.5788124203681946,
                        -1.9329121112823486,
                        1.2557440996170044
                    ],
                    [
                        1.0369857549667358,
                        0.4329027235507965,
                        0.19299884140491486,
                        -0.30447471141815186
                    ]
                ],
                [
                    -0.09898702800273895,
                    0.15062223374843597,
                    -0.09067884087562561,
                    -0.11880757659673691
                ]
            ],
            "activation": "tanh"
        },
        {
            "type": "dense",
            "shape": [
                null,
                1
            ],
            "weights": [
                [
                    [
                        -2.3357341289520264
                    ],
                    [
                        -1.3669250011444092
                    ],
                    [
                        1.4931610822677612
                    ],
                    [
                        -0.8960042595863342
                    ]
                ],
                [
                    -0.07516856491565704
                ]
            ],
            "activation": ""
        }
    ]
}