{
    "in_shape": [
        null,
        2
    ],
    "layers": [
        {
            "type": "dense",
            "shape": [
                null,
                16
            ],
            "weights": [
                [
                    [
                        0.37192589044570923,
                        0.34268322587013245,
                        0.5979493260383606,
                        -0.75689697265625,
                        -0.1273384541273117,
                        0.18644873797893524,
                        -0.07700597494840622,
                        0.2863631546497345,
                        0.19198162853717804,
                        0.2625231444835663,
                        0.2994665503501892,
                        -0.19938406348228455,
                        0.07200870662927628,
                        -0.28750190138816833,
                        0.17873235046863556,
                        0.46500054001808167
                    ],
                    [
                        0.16750551760196686,
                        0.07639741897583008,
                        0.031520891934633255,
                        0.07767487317323685,
                        0.2171165496110916,
                        0.18412116169929504,
                        -0.3884730339050293,
                        -1.028377890586853,
                        0.06214401498436928,
                        -0.09955555945634842,
                        -0.08610072731971741,
                        0.0007251667557284236,
                        -0.4657703936100006,
                        -0.10097069293260574,
                        0.08493354916572571,
                        -0.09444013237953186
                    ]
                ],
                [
                    -0.3877140283584595,
                    -0.34391674399375916,
                    -0.4065690338611603,
                    -0.9283857941627502,
                    0.0030172078404575586,
                    -0.027272015810012817,
                    -0.1991742104291916,
                    -0.29015088081359863,
                    -0.4082179367542267,
                    0.3110679090023041,
                    0.5420141220092773,
                    0.061076488345861435,
                    -0.5939240455627441,
                    0.2995631694793701,
                    -0.16900746524333954,
                    0.2970193922519684
                ]
            ],
            "activation": "tanh"
        },
        {
            "type": "dense",
            "shape": [
                null,
                16
            ],
            "weights": [
                [
                    [
                        0.44147321581840515,
                        0.29160404205322266,
                        -0.39326322078704834,
                        -0.05859332159161568,
                        0.16417130827903748,
                        -0.1876804530620575,
                        -0.14060480892658234,
                        0.05975717678666115,
                        -0.3045118749141693,
                        0.7710942625999451,
                        -0.03657028079032898,
                        -0.09480082988739014,
                        -0.04439126327633858,
                        -0.29412418603897095,
                        0.15410220623016357,
                        -0.2079806625843048
                    ],
                    [
                        -0.3496588468551636,
                        -0.15450359880924225,
                        -0.06135620176792145,
                        0.17411646246910095,
                        -0.004215102642774582,
                        -0.17973460257053375,
                        -0.17869874835014343,
                        -0.02311459369957447,
                        -0.4546562731266022,
                        0.0566515177488327,
                        0.2267027497291565,
                        0.408040314912796,
                        0.4833343029022217,
                        0.7144200205802917,
                        0.07100338488817215,
                        0.06832441687583923
                    ],
                    [
                        0.12407344579696655,
                        -0.5107744932174683,
                        0.005162834655493498,
                        0.571649432182312,
                        -0.1490231305360794,
                        0.07580727338790894,
                        -0.1060306504368782,
                        0.3454543352127075,
                        -0.12641465663909912,
                        0.08341417461633682,
                        -0.20234054327011108,
                        -0.12229401618242264,
                        1.019382119178772,
                        0.615026593208313,
                        -0.32973751425743103,
                        0.0819980725646019
                    ],
                    [
                        0.015515109524130821,
                        0.1454082429409027,
                        -0.14743377268314362,
                        0.8703014850616455,
                        -0.007965349592268467,
                        0.21358011662960052,
                        0.03719232603907585,
                        -0.16212233901023865,
                        -0.004584132228046656,
                        -0.31724002957344055,
                        -0.18250761926174164,
                        -0.23472949862480164,
                        0.3817346692085266,
                        0.05257822573184967,
                        0.6772117614746094,
                        -0.5867894887924194
                    ],
                    [
                        0.0034017011057585478,
                        -0.07936498522758484,
                        0.3782413601875305,
                        0.20150679349899292,
                        -0.19302771985530853,
                        0.015645965933799744,
                        -0.5231021642684937,
                        -0.09947752952575684,
                        0.3117562234401703,
                        0.4550785422325134,
                        0.4794900715351105,
                        -0.10066114366054535,
                        0.08062269538640976,
                        -0.07953377813100815,
                        0.18744230270385742,
                        -0.15839038789272308
                    ],
                    [
                        0.008723098784685135,
                        0.020580824464559555,
                        0.02778114378452301,
                        0.19520753622055054,
                        -0.2016303539276123,
                        -0.02532014809548855,
                        -0.09182550013065338,
                        0.26989254355430603,
                        -0.07654514163732529,
                        0.033334534615278244,
                        -0.10713095963001251,
                        0.49649491906166077,
                        -0.3050755262374878,
                        -0.08222920447587967,
                        -0.4025253355503082,
                        -0.5069641470909119
                    ],
                    [
                        -0.15028627216815948,
                        -0.0835607498884201,
                        0.2632846236228943,
                        0.044895242899656296,
                        0.4428996443748474,
                        -0.5010773539543152,
                        -0.20454998314380646,
                        -0.004677225835621357,
                        -0.11312373727560043,
                        -0.3178482949733734,
                        -0.19103294610977173,
                        0.04615601524710655,
                        0.2484072744846344,
                        -0.12213266640901566,
                        0.15768682956695557,
                        -0.2820800244808197
                    ],
                    [
                        -0.1330147385597229,
                        -0.0915972962975502,
                        0.16361887753009796,
                        -0.02054956555366516,
                        -0.6215388178825378,
                        -0.13464094698429108,
                        -0.14584127068519592,
                        0.10579510033130646,
                        -0.39849287271499634,
                        -0.09740421175956726,
                        -0.23704370856285095,
                        -0.24256013333797455,
                        -0.11601068079471588,
                        0.48360198736190796,
                        0.2077549546957016,
                        -0.08512742072343826
                    ],
                    [
                        -0.45715442299842834,
                        -0.29790714383125305,
                        -0.12515194714069366,
                        0.025038188323378563,
                        0.08373427391052246,
                        0.1944064497947693,
                        0.06753624975681305,
                        0.4224921762943268,
                        -0.35459208488464355,
                        -0.007575635332614183,
                        0.26155033707618713,
                        -0.40014171600341797,
                        0.1465335488319397,
                        0.185537189245224,
                        0.10284256935119629,
                        -0.17046521604061127
                    ],
                    [
                        0.1529904007911682,
                        0.2536868155002594,
                        0.06359654664993286,
                        -0.06617730110883713,
                        -0.01785556972026825,
                        0.4117004871368408,
                        -0.3819039762020111,
                        -0.20630492269992828,
                        -0.5676383972167969,
                        -0.265183687210083,
                        0.17204439640045166,
                        0.024268949404358864,
                        0.01813521236181259,
                        -0.16349153220653534,
                        -0.4275749921798706,
                        0.057214513421058655
                    ],
                    [
                        0.018416160717606544,
                        0.10830403119325638,
                        0.28643593192100525,
                        -0.10278214514255524,
                        0.3417026996612549,
                        0.14456523954868317,
                        0.1607166975736618,
                        0.15835845470428467,
                        0.08470343798398972,
                        0.46184226870536804,
                        0.34170323610305786,
                        -0.19008216261863708,
                        -0.19100604951381683,
                        0.6498644948005676,
                        -0.437854528427124,
                        -0.354020893573761
                    ],
                    [
                        -0.6223909854888916,
                        0.5675240755081177,
                        -0.6630809307098389,
                        0.7233161330223083,
                        0.4885980486869812,
                        0.7325353622436523,
                        -0.7129443287849426,
                        0.4717041254043579,
                        -0.3977881669998169,
                        0.14028044044971466,
                        -0.6470634341239929,
                        0.5382966995239258,
                        -0.22275537252426147,
                        0.01673043519258499,
                        -0.45476892590522766,
                        0.27648088335990906
                    ],
                    [
                        0.031456999480724335,
                        0.13108651340007782,
                        -0.12106781452894211,
                        0.010576869361102581,
                        -0.13832828402519226,
                        0.1925930678844452,
                        -0.1792677342891693,
                        0.6800167560577393,
                        0.10369615256786346,
                        -0.4719533920288086,
                        0.06055345758795738,
                        0.29657700657844543,
                        0.323133647441864,
                        0.15139667689800262,
                        0.5135338306427002,
                        0.04786150902509689
                    ],
                    [
                        0.26807841658592224,
                        -0.1602107286453247,
                        -0.34780895709991455,
                        0.3257012665271759,
                        0.026606779545545578,
                        -0.41883203387260437,
                        0.14804688096046448,
                        0.005451319273561239,
                        0.07609451562166214,
                        -0.2592315375804901,
                        0.47960981726646423,
                        -0.08029445260763168,
                        -0.4422210454940796,
                        -0.21832990646362305,
                        -0.07635656744241714,
                        0.16150452196598053
                    ],
                    [
                        -0.3179693818092346,
                        0.6381940841674805,
                        0.12042547762393951,
                        0.3599955439567566,
                        -0.1684650182723999,
                        -0.3289633095264435,
                        0.024406036362051964,
                        0.25060075521469116,
                        0.04076196253299713,
                        0.16005277633666992,
                        -0.04903516173362732,
                        -0.25410333275794983,
                        0.2327762097120285,
                        0.039058785885572433,
                        -0.1974482536315918,
                        0.19591034948825836
                    ],
                    [
                        -0.4802335202693939,
                        0.013786274008452892,
                        -0.5690563321113586,
                        -0.2969767153263092,
                        -0.2794424891471863,
                        0.0729086771607399,
                        -0.383999764919281,
                        -0.14112748205661774,
                        0.13227349519729614,
                        0.0075121233239769936,
                        -0.05185559019446373,
                        -0.009197029285132885,
                        0.2668432593345642,
                        0.03149307146668434,
                        -0.4256521761417389,
                        -0.32547053694725037
                    ]
                ],
                [
                    0.06909772753715515,
                    -0.011403028853237629,
                    -0.03611887991428375,
                    0.0001374987477902323,
                    0.0862082988023758,
                    -0.04608464613556862,
                    -0.14415545761585236,
                    -0.047870609909296036,
                    0.061564333736896515,
                    0.1839890033006668,
                    -0.07620357722043991,
                    -0.10171037912368774,
                    -0.2301933914422989,
                    -0.21601858735084534,
                    -0.07368297874927521,
                    0.02657301351428032
                ]
            ],
            "activation": "tanh"
        },
        {
            "type": "dense",
            "shape": [
                null,
                16
            ],
            "weights": [
                [
                    [
                        0.8758874535560608,
                        0.3179510533809662,
                        -0.33178338408470154,
                        -0.4974728524684906,
                        -0.21773171424865723,
                        -0.45908069610595703,
                        0.11210120469331741,
                        0.05785302072763443,
                        0.026315808296203613,
                        0.012498683296144009,
                        -0.21416738629341125,
                        -0.506921112537384,
                        -0.41455256938934326,
                        0.21502567827701569,
                        1.3680485486984253,
                        -0.5529250502586365
                    ],
                    [
                        -0.06413251906633377,
                        0.08661436289548874,
                        0.2452707588672638,
                        -0.6111197471618652,
                        -0.9580518007278442,
                        0.15590910613536835,
                        0.17598004639148712,
                        0.03785092383623123,
                        -0.09195913374423981,
                        0.09271322190761566,
                        0.2395085245370865,
                        0.39953577518463135,
                        -0.12169149518013,
                        -0.18962009251117706,
                        -0.2730582058429718,
                        0.614754319190979
                    ],
                    [
                        0.1799173653125763,
                        0.4947204291820526,
                        -0.5308630466461182,
                        0.58295077085495,
                        0.5846442580223083,
                        -0.5655220150947571,
                        0.315934419631958,
                        -0.38641977310180664,
                        0.007385576143860817,
                        1.0648614168167114,
                        -0.40281909704208374,
                        -0.5086732506752014,
                        -0.5016310214996338,
                        0.7087921500205994,
                        -0.10915764421224594,
                        -0.4421451687812805
                    ],
                    [
                        0.879645824432373,
                        -0.573723554611206,
                        0.1365492045879364,
                        0.083700031042099,
                        -0.17915448546409607,
                        -0.04439414292573929,
                        -0.16680318117141724,
                        0.31698358058929443,
                        -0.1676081269979477,
                        -0.19039569795131683,
                        0.3316437304019928,
                        0.10107642412185669,
                        0.40457281470298767,
                        -0.10315223783254623,
                        -0.281173974275589,
                        0.2077419012784958
                    ],
                    [
                        0.306201696395874,
                        -0.43665674328804016,
                        0.2968195974826813,
                        -0.32746246457099915,
                        -0.8704363107681274,
                        0.5859262347221375,
                        -0.1532631814479828,
                        -0.1826913058757782,
                        -0.2080187052488327,
                        -0.045955561101436615,
                        -0.3232327103614807,
                        0.006915997248142958,
                        0.35826465487480164,
                        0.24588340520858765,
                        0.269804984331131,
                        0.35397467017173767
                    ],
                    [
                        -0.9852728247642517,
                        -0.5668251514434814,
                        0.452492892742157,
                        -0.3117433488368988,
                        -0.9582719206809998,
                        0.14460185170173645,
                        -0.9668469429016113,
                        0.28964972496032715,
                        -0.280225545167923,
                        -0.45354023575782776,
                        -0.02709638699889183,
                        0.6773542165756226,
                        0.5041543841362,
                        -0.3774833679199219,
                        -0.559725284576416,
                        0.2544025182723999
                    ],
                    [
                        0.3668399453163147,
                        0.4226997196674347,
                        0.3935343027114868,
                        0.31569814682006836,
                        0.16501003503799438,
                        -0.285989910364151,
                        0.48208311200141907,
                        -0.28195083141326904,
                        0.5933988690376282,
                        0.43082788586616516,
                        -0.22957934439182281,
                        -0.3685775399208069,
                        -0.2496488243341446,
                        0.21787390112876892,
                        0.6414557695388794,
                        -0.8027457594871521
                    ],
                    [
                        -0.028969552367925644,
                        -0.013634049333631992,
                        0.048808757215738297,
                        -0.25222915410995483,
                        0.40476128458976746,
                        0.08060362935066223,
                        -0.41374507546424866,
                        0.4040430784225464,
                        0.48645055294036865,
                        0.15811486542224884,
                        0.17058445513248444,
                        0.08138888329267502,
                        0.4865245223045349,
                        0.21809208393096924,
                        -0.6617420315742493,
                        0.3031625747680664
                    ],
                    [
                        0.3297625482082367,
                        -0.040013957768678665,
                        -0.41581422090530396,
                        0.18643921613693237,
                        -0.31776055693626404,
                        0.02805521711707115,
                        0.1425808221101761,
                        -0.2275952398777008,
                        0.5959413051605225,
                        0.14040783047676086,
                        0.1815568208694458,
                        -0.2790320813655853,
                        -0.5460561513900757,
                        0.15854302048683167,
                        0.22513702511787415,
                        -0.1379198580980301
                    ],
                    [
                        0.09189608693122864,
                        0.12540127336978912,
                        -0.516731321811676,
                        0.042838774621486664,
                        -0.21089600026607513,
                        0.2557481527328491,
                        0.405063271522522,
                        0.16066253185272217,
                        0.09641570597887039,
                        -0.035607993602752686,
                        -0.31659838557243347,
                        0.043433621525764465,
                        -0.06252259761095047,
                        -0.07542669028043747,
                        0.20550870895385742,
                        -0.21750855445861816
                    ],
                    [
                        -0.4815960228443146,
                        0.09751982241868973,
                        -0.4225947856903076,
                        0.27363210916519165,
                        0.035714682191610336,
                        -0.32966646552085876,
                        0.25990918278694153,
                        -0.36622413992881775,
                        0.16921550035476685,
                        0.24243029952049255,
                        -0.00020131122437305748,
                        -0.6330378651618958,
                        -0.18402482569217682,
                        0.42113223671913147,
                        0.7347442507743835,
                        0.05274192616343498
                    ],
                    [
                        -0.21248386800289154,
                        -0.41772258281707764,
                        0.4266783595085144,
                        -0.5237358212471008,
                        -1.0800431966781616,
                        0.6912047266960144,
                        -0.7801443338394165,
                        0.6681486964225769,
                        -0.5251197218894958,
                        -0.04668159782886505,
                        0.47791963815689087,
                        0.09797253459692001,
                        0.35953792929649353,
                        -0.9394527077674866,
                        -0.09560173004865646,
                        0.4051618278026581
                    ],
                    [
                        -0.05998412147164345,
                        -0.22947166860103607,
                        0.01584765315055847,
                        -0.2722131013870239,
                        0.7775775790214539,
                        0.14215926826000214,
                        -0.2414553165435791,
                        -0.490115761756897,
                        -0.02626325935125351,
                        -0.007560843136161566,
                        0.1185450330376625,
                        -0.14211861789226532,
                        0.37457481026649475,
                        -0.4134800136089325,
                        -0.9944679737091064,
                        -0.07788447290658951
                    ],
                    [
                        -0.5486280918121338,
                        -0.34192851185798645,
                        0.1647096425294876,
                        0.07668443769216537,
                        0.6532646417617798,
                        -0.304062157869339,
                        0.25877535343170166,
                        0.23975178599357605,
                        0.1712278127670288,
                        0.01901153288781643,
                        -0.5261318683624268,
                        -0.36926722526550293,
                        0.10401222109794617,
                        -0.22584713995456696,
                        -0.772781252861023,
                        0.18617799878120422
                    ],
                    [
                        0.6799558997154236,
                        0.5002123713493347,
                        -0.1509040743112564,
                        0.4653577208518982,
                        0.4775356650352478,
                        -1.0664081573486328,
                        0.1854877918958664,
                        -0.6356894969940186,
                        0.5388695001602173,
                        0.2056291550397873,
                        -0.3240305483341217,
                        -0.02306600660085678,
                        -0.0035349447280168533,
                        -0.15893054008483887,
                        0.4749895930290222,
                        0.0917433574795723
                    ],
                    [
                        -0.23406007885932922,
                        -0.5896803736686707,
                        -0.06289473921060562,
                        -0.4014018774032593,
                        -0.047128334641456604,
                        0.16280865669250488,
                        0.11057345569133759,
                        0.20594140887260437,
                        -0.16318513453006744,
                        0.23952899873256683,
                        0.20088894665241241,
                        0.3994835317134857,
                        0.2902865409851074,
                        -0.3237234652042389,
                        0.33762165904045105,
                        -0.19657811522483826
                    ]
                ],
                [
                    0.07087729871273041,
                    0.014806338585913181,
                    0.05421735718846321,
                    -0.03621488809585571,
                    0.14544594287872314,
                    0.015365101397037506,
                    -0.009404245764017105,
                    0.04412587732076645,
                    -0.017093023285269737,
                    0.017177022993564606,
                    0.026905886828899384,
                    0.04543750360608101,
                    -0.20928308367729187,
                    0.06011362001299858,
                    0.09088059514760971,
                    0.05687515810132027
                ]
            ],
            "activation": "tanh"
        },
        {
            "type": "dense",
            "shape": [
                null,
                1
            ],
            "weights": [
                [
                    [
                        0.7077524662017822
                    ],
                    [
                        1.062414288520813
                    ],
                    [
                        -0.60362309217453
                    ],
                    [
                        0.6511910557746887
                    ],
                    [
                        0.5522564053535461
                    ],
                    [
                        -0.961645245552063
                    ],
                    [
                        0.9575817584991455
                    ],
                    [
                        -0.7443451285362244
                    ],
                    [
                        0.7710375189781189
                    ],
                    [
                        0.6717638373374939
                    ],
                    [
                        -0.4748256504535675
                    ],
                    [
                        -0.9846922159194946
                    ],
                    [
                        -0.29532375931739807
                    ],
                    [
                        0.882664680480957
                    ],
                    [
                        0.6590548157691956
                    ],
                    [
                        -0.6390778422355652
                    ]
                ],
                [
                    0.006468669045716524
                ]
            ],
            "activation": ""
        }
    ]
}