{
    "in_shape": [
        null,
        2
    ],
    "layers": [
        {
            "type": "dense",
            "shape": [
                null,
                8
            ],
            "weights": [
                [
                    [
                        0.35287776589393616,
                        1.0059925317764282,
                        -0.3443518579006195,
                        -1.0700703859329224,
                        0.23105381429195404,
                        -0.400501012802124,
                        0.28267499804496765,
                        0.4382070004940033
                    ],
                    [
                        -0.14062020182609558,
                        -0.03862680867314339,
                        -0.07849879562854767,
                        -0.08496575057506561,
                        0.003608126426115632,
                        0.35510730743408203,
                        0.15956135094165802,
                        -0.11435753852128983
                    ]
                ],
                [
                    0.026938503608107567,
                    0.237135648727417,
                    0.23042528331279755,
                    0.8460131287574768,
                    -0.1005895659327507,
                    0.36327582597732544,
                    0.1465512365102768,
                    0.7494314312934875
                ]
            ],
            "activation": "tanh"
        },
        {
            "type": "dense",
            "shape": [
                null,
                8
            ],
            "weights": [
                [
                    [
                        0.27115702629089355,
                        0.23179638385772705,
                        0.4201197028160095,
                        -0.40261635184288025,
                        0.10454530268907547,
                        -0.3991330862045288,
                        -0.22889401018619537,
                        -0.5583200454711914
                    ],
                    [
                        -0.08521717041730881,
                        0.09996151924133301,
                        0.06137017533183098,
                        0.3159099817276001,
                        0.49637138843536377,
                        -0.7615572810173035,
                        -0.5004667043685913,
                        0.22663164138793945
                    ],
                    [
                        -0.028425665572285652,
                        -0.13093894720077515,
                        -0.051446396857500076,
                        0.45336365699768066,
                        -0.8581448793411255,
                        -0.6375332474708557,
                        -0.17612652480602264,
                        -0.14347803592681885
                    ],
                    [
                        0.1955677717924118,
                        -0.9130585789680481,
                        0.2437009960412979,
                        -0.2566598355770111,
                        0.027233069762587547,
                        -0.28484493494033813,
                        -0.15891802310943604,
                        0.06532156467437744
                    ],
                    [
                        1.0165303945541382,
                        -0.8953275680541992,
                        -0.572278618812561,
                        1.060610055923462,
                        -0.5798537731170654,
                        -0.09835024923086166,
                        0.09610545635223389,
                        0.9006006121635437
                    ],
                    [
                        0.28722313046455383,
                        -0.24607940018177032,
                        -0.3601923882961273,
                        -0.1734365075826645,
                        -0.2100161910057068,
                        0.13151142001152039,
                        0.2368156909942627,
                        -0.42080438137054443
                    ],
                    [
                        -0.16330747306346893,
                        -0.16356392204761505,
                        0.09459627419710159,
                        0.4218895733356476,
                        0.27019208669662476,
                        0.31765180826187134,
                        -0.6240505576133728,
                        -0.4641515016555786
                    ],
                    [
                        -0.2208641767501831,
                        -0.2556861340999603,
                        -0.8216199278831482,
                        -0.04721691831946373,
                        0.5577072501182556,
                        -0.16070692241191864,
                        -0.9328698515892029,
                        -0.27082791924476624
                    ]
                ],
                [
                    0.021280862390995026,
                    -0.07644907385110855,
                    -0.21929793059825897,
                    -0.12955568730831146,
                    0.00495323957875371,
                    0.33326414227485657,
                    -0.638605535030365,
                    0.13321949541568756
                ]
            ],
            "activation": "tanh"
        },
        {
            "type": "dense",
            "shape": [
                null,
                8
            ],
            "weights": [
                [
                    [
                        0.44723084568977356,
                        0.040970295667648315,
                        -0.8675029873847961,
                        -1.2363792657852173,
                        0.44722092151641846,
                        0.5077612996101379,
                        1.1650207042694092,
                        0.2639242708683014
                    ],
                    [
                        0.2838740944862366,
                        0.8892203569412231,
                        -0.07101310789585114,
                        0.4578893482685089,
                        -1.0124479532241821,
                        -0.4160092771053314,
                        -0.6012313365936279,
                        -0.1752263903617859
                    ],
                    [
                        -0.3623332381248474,
                        -1.0494904518127441,
                        0.32290229201316833,
                        0.10071196407079697,
                        -0.7851189970970154,
                        0.7261934876441956,
                        -0.4453129768371582,
                        -0.43727579712867737
                    ],
                    [
                        0.6988840699195862,
                        0.9719113111495972,
                        0.34409475326538086,
                        -0.4908275902271271,
                        0.08228114992380142,
                        0.43860799074172974,
                        0.2531309425830841,
                        1.0343048572540283
                    ],
                    [
                        -0.11549393087625504,
                        -0.5341992378234863,
                        0.7382279634475708,
                        0.834230363368988,
                        -0.7513297200202942,
                        -1.8967539072036743,
                        -0.22648338973522186,
                        -0.5929998755455017
                    ],
                    [
                        -0.6546784043312073,
                        0.31575578451156616,
                        0.2747179865837097,
                        0.21332389116287231,
                        -0.3332099914550781,
                        0.04056675359606743,
                        0.48620787262916565,
                        -0.23031902313232422
                    ],
                    [
                        0.5712401270866394,
                        0.08178688585758209,
                        0.026543837040662766,
                        0.034147366881370544,
                        0.03755880147218704,
                        1.1407699584960938,
                        -0.11348969489336014,
                        -0.6602620482444763
                    ],
                    [
                        0.7018724679946899,
                        0.0800875797867775,
                        -0.553773045539856,
                        -0.010525437071919441,
                        0.33761608600616455,
                        1.1864380836486816,
                        0.9527444243431091,
                        0.9568452835083008
                    ]
                ],
                [
                    -0.0517054982483387,
                    0.06552579253911972,
                    -0.12547919154167175,
                    -0.014101332053542137,
                    -0.048001717776060104,
                    -0.16174784302711487,
                    0.08811158686876297,
                    0.1649039089679718
                ]
            ],
            "activation": "tanh"
        },
        {
            "type": "dense",
            "shape": [
                null,
                1
            ],
            "weights": [
                [
                    [
                        1.2054136991500854
                    ],
                    [
                        0.4808577299118042
                    ],
                    [
                        -0.6227214336395264
                    ],
                    [
                        -1.4043400287628174
                    ],
                    [
                        1.26472008228302
                    ],
                    [
                        0.8200270533561707
                    ],
                    [
                        1.0563808679580688
                    ],
                    [
                        1.3174444437026978
                    ]
                ],
                [
                    -0.01606541872024536
                ]
            ],
            "activation": ""
        }
    ]
}