{
    "in_shape": [
        null,
        2
    ],
    "layers": [
        {
            "type": "dense",
            "shape": [
                null,
                8
            ],
            "weights": [
                [
                    [
                        -0.4781719744205475,
                        0.2096450924873352,
                        0.3796129524707794,
                        -0.12748178839683533,
                        -0.49609535932540894,
                        1.262406826019287,
                        0.2345607727766037,
                        -1.343494176864624
                    ],
                    [
                        0.06652084738016129,
                        -0.020222604274749756,
                        0.045001886785030365,
                        -2.1190638542175293,
                        0.10457232594490051,
                        -0.06148046255111694,
                        0.019144760444760323,
                        -0.04458443447947502
                    ]
                ],
                [
                    0.07327674329280853,
                    0.3927248418331146,
                    -0.04263218119740486,
                    -1.5248839855194092,
                    -0.3374022841453552,
                    0.5954185724258423,
                    -0.44590577483177185,
                    0.739492654800415
                ]
            ],
            "activation": "tanh"
        },
        {
            "type": "dense",
            "shape": [
                null,
                8
            ],
            "weights": [
                [
                    [
                        -0.25032833218574524,
                        0.03920265659689903,
                        0.7075982093811035,
                        -0.18295696377754211,
                        0.22599591314792633,
                        -0.374737948179245,
                        0.20527905225753784,
                        0.12098010629415512
                    ],
                    [
                        0.09601157158613205,
                        1.136497139930725,
                        0.4909404218196869,
                        0.3531985580921173,
                        -0.6670066714286804,
                        -0.13606111705303192,
                        0.7403489351272583,
                        0.414071649312973
                    ],
                    [
                        -0.3455696403980255,
                        -0.13136403262615204,
                        -0.17470529675483704,
                        0.07043710350990295,
                        0.2972794771194458,
                        0.6509981751441956,
                        -0.26366958022117615,
                        0.30034181475639343
                    ],
                    [
                        0.013009661808609962,
                        -0.334982305765152,
                        0.13173046708106995,
                        0.25958094000816345,
                        0.24002908170223236,
                        -0.0826779305934906,
                        0.7580733299255371,
                        0.31283724308013916
                    ],
                    [
                        -0.23778025805950165,
                        -0.0971681997179985,
                        -0.2759101092815399,
                        0.3210546374320984,
                        -0.10057206451892853,
                        0.00943041406571865,
                        0.5575094819068909,
                        -0.5250735282897949
                    ],
                    [
                        -0.23169362545013428,
                        0.1821233034133911,
                        0.16821736097335815,
                        0.32872137427330017,
                        0.5091605186462402,
                        0.11519956588745117,
                        -0.8974295258522034,
                        -0.46236032247543335
                    ],
                    [
                        -0.5704164505004883,
                        0.0834173932671547,
                        0.38046738505363464,
                        0.7912504076957703,
                        -0.6170570254325867,
                        -0.8496890664100647,
                        0.07001946121454239,
                        0.7830893397331238
                    ],
                    [
                        -0.3916938304901123,
                        -0.15696731209754944,
                        0.5042806267738342,
                        -0.46090778708457947,
                        -0.5624567866325378,
                        0.5662451982498169,
                        0.13725101947784424,
                        -0.19878195226192474
                    ]
                ],
                [
                    0.2631385624408722,
                    0.14928282797336578,
                    0.10639838129281998,
                    0.1985785961151123,
                    0.06498363614082336,
                    0.12571224570274353,
                    -0.08017352968454361,
                    -0.04805803671479225
                ]
            ],
            "activation": "tanh"
        },
        {
            "type": "dense",
            "shape": [
                null,
                8
            ],
            "weights": [
                [
                    [
                        0.03938242793083191,
                        0.06771813333034515,
                        0.8130929470062256,
                        -0.6970284581184387,
                        0.2826883792877197,
                        0.04443033039569855,
                        -0.3917260468006134,
                        -0.23280411958694458
                    ],
                    [
                        -0.3633957803249359,
                        -0.40862685441970825,
                        -0.7279163599014282,
                        0.13284006714820862,
                        -0.737783670425415,
                        0.5339072942733765,
                        0.46260350942611694,
                        -0.8392305374145508
                    ],
                    [
                        -0.25467047095298767,
                        0.5837337374687195,
                        -0.619687557220459,
                        -0.8629830479621887,
                        -0.8818648457527161,
                        0.4891945421695709,
                        0.7165501713752747,
                        -0.41639310121536255
                    ],
                    [
                        -0.8502457141876221,
                        -0.8992265462875366,
                        -0.10668586939573288,
                        -0.3043881952762604,
                        -0.005062472075223923,
                        -0.08056662231683731,
                        -0.07630106806755066,
                        -0.4677373468875885
                    ],
                    [
                        0.3175555467605591,
                        -0.4354828894138336,
                        1.149811029434204,
                        0.9211826324462891,
                        -0.010246667079627514,
                        -0.39572563767433167,
                        -0.27558696269989014,
                        0.359272301197052
                    ],
                    [
                        0.4791458547115326,
                        1.670935869216919,
                        -0.03587733581662178,
                        0.5254352688789368,
                        -0.11711149662733078,
                        -1.0078556537628174,
                        -0.6630488634109497,
                        0.09946135431528091
                    ],
                    [
                        0.23550592362880707,
                        -0.5914008021354675,
                        -0.3200749456882477,
                        -1.4622615575790405,
                        -0.3606007993221283,
                        -0.19510358572006226,
                        -0.15895509719848633,
                        0.3284092843532562
                    ],
                    [
                        -0.21234764158725739,
                        -0.24934032559394836,
                        -0.35943472385406494,
                        -0.47963470220565796,
                        -0.367226243019104,
                        0.8686785697937012,
                        -0.35250481963157654,
                        0.1577208787202835
                    ]
                ],
                [
                    -0.06430845707654953,
                    0.11559503525495529,
                    0.0003954560961574316,
                    -0.12135960906744003,
                    -0.12272791564464569,
                    -0.09558507800102234,
                    0.0550004318356514,
                    -0.1014169454574585
                ]
            ],
            "activation": "tanh"
        },
        {
            "type": "dense",
            "shape": [
                null,
                1
            ],
            "weights": [
                [
                    [
                        -1.0942507982254028
                    ],
                    [
                        -0.5415890216827393
                    ],
                    [
                        -1.1321945190429688
                    ],
                    [
                        -0.7148526906967163
                    ],
                    [
                        -0.7564198970794678
                    ],
                    [
                        1.3722513914108276
                    ],
                    [
                        0.7846152186393738
                    ],
                    [
                        -0.7110399603843689
                    ]
                ],
                [
                    0.05484692379832268
                ]
            ],
            "activation": ""
        }
    ]
}