{
    "in_shape": [
        null,
        2
    ],
    "layers": [
        {
            "type": "dense",
            "shape": [
                null,
                16
            ],
            "weights": [
                [
                    [
                        -0.2126607745885849,
                        -0.31956231594085693,
                        -0.25873085856437683,
                        0.31313008069992065,
                        -0.23896221816539764,
                        -0.5628039836883545,
                        -0.11329583078622818,
                        0.056823115795850754,
                        -0.634872317314148,
                        -0.2892625033855438,
                        0.2753925323486328,
                        -0.5221209526062012,
                        -0.20889697968959808,
                        -0.284975528717041,
                        -0.2454119473695755,
                        -0.4968898892402649
                    ],
                    [
                        -0.002442971570417285,
                        -0.23493479192256927,
                        0.1021038070321083,
                        0.059599004685878754,
                        0.2561057209968567,
                        0.03998219594359398,
                        -0.8274822235107422,
                        -0.06877816468477249,
                        0.0451422855257988,
                        -0.08410383760929108,
                        0.6423553824424744,
                        0.10574119538068771,
                        -0.005171956494450569,
                        -0.09895171970129013,
                        -0.01012333482503891,
                        -0.0561162605881691
                    ]
                ],
                [
                    -0.016630826517939568,
                    0.027733419090509415,
                    -0.23967242240905762,
                    -0.2683286964893341,
                    0.0717698484659195,
                    -0.34814125299453735,
                    -0.07418621331453323,
                    0.18793079257011414,
                    -0.5380046367645264,
                    0.23582829535007477,
                    0.6029967665672302,
                    -0.26496046781539917,
                    0.16433784365653992,
                    0.1300385296344757,
                    0.058369673788547516,
                    0.3923029899597168
                ]
            ],
            "activation": "tanh"
        },
        {
            "type": "dense",
            "shape": [
                null,
                16
            ],
            "weights": [
                [
                    [
                        -0.059016089886426926,
                        -0.14630772173404694,
                        -0.25733503699302673,
                        -0.4874238073825836,
                        0.8167686462402344,
                        0.1663857400417328,
                        0.14151281118392944,
                        -0.33276689052581787,
                        -0.2902226746082306,
                        0.4559588134288788,
                        -0.26928117871284485,
                        0.13076914846897125,
                        -0.30646538734436035,
                        -0.05938683822751045,
                        -0.2197752445936203,
                        -0.5488192439079285
                    ],
                    [
                        -0.16259120404720306,
                        -0.1487797647714615,
                        0.1548967808485031,
                        0.4545449912548065,
                        -0.017156612128019333,
                        0.20259663462638855,
                        0.012378891929984093,
                        0.1526518166065216,
                        -0.01385579165071249,
                        -0.012393784709274769,
                        0.291826456785202,
                        0.05741677060723305,
                        0.05508445203304291,
                        0.19975219666957855,
                        -0.7288915514945984,
                        0.049090635031461716
                    ],
                    [
                        0.17332881689071655,
                        -0.5064638257026672,
                        0.07687102258205414,
                        0.40699586272239685,
                        -0.017104730010032654,
                        0.3579089343547821,
                        -0.36359092593193054,
                        0.11950381845235825,
                        -0.17530445754528046,
                        -0.07996392995119095,
                        -0.3565957844257355,
                        0.24506497383117676,
                        -0.2991342842578888,
                        0.2995027005672455,
                        0.1709190458059311,
                        0.21453700959682465
                    ],
                    [
                        -0.3218754231929779,
                        0.3632265329360962,
                        -0.19288396835327148,
                        0.02317052148282528,
                        -0.24134531617164612,
                        0.20919731259346008,
                        -0.6369489431381226,
                        -0.5287202596664429,
                        -0.27994608879089355,
                        0.3273104727268219,
                        0.45398083329200745,
                        0.1025741696357727,
                        0.11729741096496582,
                        0.1509925276041031,
                        -0.10645367950201035,
                        0.07697523385286331
                    ],
                    [
                        0.023370087146759033,
                        0.05065359175205231,
                        0.3284456431865692,
                        0.04614746570587158,
                        -0.32869166135787964,
                        0.5452169179916382,
                        0.16187861561775208,
                        -0.27734121680259705,
                        0.053154099732637405,
                        -0.1033642590045929,
                        -0.2655188739299774,
                        -0.11982511729001999,
                        0.11738559603691101,
                        -0.23994697630405426,
                        -0.0389157310128212,
                        -0.4546041190624237
                    ],
                    [
                        -0.38720735907554626,
                        0.037429191172122955,
                        0.3739255964756012,
                        -0.3618784248828888,
                        -0.11267683655023575,
                        0.3636953830718994,
                        0.17836767435073853,
                        0.3026733994483948,
                        -0.23867149651050568,
                        -0.376479834318161,
                        0.08069552481174469,
                        0.08549119532108307,
                        -1.0806269645690918,
                        0.08184105902910233,
                        -0.06346283107995987,
                        0.18866656720638275
                    ],
                    [
                        -0.18008027970790863,
                        -0.39129114151000977,
                        -0.05005006119608879,
                        -0.016053201630711555,
                        -0.13165275752544403,
                        0.13286371529102325,
                        -0.2966821789741516,
                        -0.03172494098544121,
                        -0.24804174900054932,
                        -0.1799384206533432,
                        0.5616677403450012,
                        0.4178665280342102,
                        0.04080403223633766,
                        -0.2551141679286957,
                        0.3073958456516266,
                        -0.2828980088233948
                    ],
                    [
                        0.24769316613674164,
                        -0.07696080952882767,
                        -0.023485777899622917,
                        -0.13877125084400177,
                        0.18450233340263367,
                        -0.005003112368285656,
                        0.3515324890613556,
                        -0.45990848541259766,
                        -0.39671066403388977,
                        -0.008187994360923767,
                        -0.25152280926704407,
                        -0.20496712625026703,
                        0.16267652809619904,
                        -0.38872915506362915,
                        0.013463562354445457,
                        0.5193624496459961
                    ],
                    [
                        0.15266980230808258,
                        0.10395191609859467,
                        -0.5268880724906921,
                        0.31647002696990967,
                        -0.23320665955543518,
                        0.4894964098930359,
                        0.10305389761924744,
                        0.24468538165092468,
                        -0.493092805147171,
                        0.1265842467546463,
                        0.25129616260528564,
                        -0.09156322479248047,
                        -0.9744675755500793,
                        0.05436902493238449,
                        0.2520270347595215,
                        -0.30575817823410034
                    ],
                    [
                        -0.019894061610102654,
                        -0.1650257408618927,
                        0.29968053102493286,
                        -0.210440993309021,
                        -0.345276802778244,
                        -0.38264361023902893,
                        0.1580246537923813,
                        0.21492071449756622,
                        -0.3496512770652771,
                        0.47189319133758545,
                        -0.4727313816547394,
                        -0.12955540418624878,
                        0.12044639885425568,
                        0.047418173402547836,
                        -0.07240859419107437,
                        -0.05239888280630112
                    ],
                    [
                        0.4214004874229431,
                        -0.06552261859178543,
                        -0.11625197529792786,
                        -0.379776269197464,
                        0.23595228791236877,
                        -0.12349403649568558,
                        0.48158326745033264,
                        -0.058867041021585464,
                        -0.39330625534057617,
                        -0.12038540840148926,
                        0.1170617863535881,
                        -0.2157609611749649,
                        0.49821850657463074,
                        0.24862359464168549,
                        -0.1968449056148529,
                        -0.12313056737184525
                    ],
                    [
                        0.0934508889913559,
                        -0.10277575254440308,
                        0.24593649804592133,
                        -0.2451387643814087,
                        -0.14010922610759735,
                        0.4882664084434509,
                        0.341315358877182,
                        0.22944463789463043,
                        0.3483119308948517,
                        0.469650000333786,
                        0.24728000164031982,
                        0.2107863575220108,
                        0.05818849429488182,
                        0.06795460730791092,
                        0.1830582469701767,
                        0.34419330954551697
                    ],
                    [
                        0.13547055423259735,
                        -0.5885323882102966,
                        -0.33729517459869385,
                        -0.201203852891922,
                        0.11703479290008545,
                        -0.5244090557098389,
                        0.8280996680259705,
                        -0.6757077574729919,
                        0.007146430667489767,
                        0.3069491982460022,
                        -0.26375117897987366,
                        0.13530683517456055,
                        -0.3859513998031616,
                        -0.015026109293103218,
                        -0.2555377781391144,
                        -0.20049844682216644
                    ],
                    [
                        0.3105103373527527,
                        0.2833462059497833,
                        0.42674770951271057,
                        0.062115274369716644,
                        -0.09028317779302597,
                        -0.08929713070392609,
                        0.33829808235168457,
                        -0.21887148916721344,
                        -0.008785412646830082,
                        -0.26271331310272217,
                        -0.3016115128993988,
                        0.26990699768066406,
                        -0.007963665761053562,
                        0.5941798090934753,
                        0.22655130922794342,
                        -0.02765645831823349
                    ],
                    [
                        0.4638698101043701,
                        0.060009948909282684,
                        -0.528032660484314,
                        -0.28751227259635925,
                        0.36955398321151733,
                        -0.22883471846580505,
                        0.6188854575157166,
                        -0.2909391522407532,
                        -0.37862011790275574,
                        0.26406559348106384,
                        -0.6530280113220215,
                        0.7918837070465088,
                        -0.29035884141921997,
                        -0.523544192314148,
                        -0.537358283996582,
                        -0.24893435835838318
                    ],
                    [
                        0.059695035219192505,
                        -0.14051923155784607,
                        -0.41584524512290955,
                        -0.5814300775527954,
                        -0.3882646858692169,
                        0.19101935625076294,
                        0.339500367641449,
                        0.10654959827661514,
                        0.20160868763923645,
                        -0.31987908482551575,
                        -0.6213802695274353,
                        0.022181984037160873,
                        0.021212296560406685,
                        0.31351473927497864,
                        -0.2459927648305893,
                        0.15184254944324493
                    ]
                ],
                [
                    -0.08925967663526535,
                    0.11844577640295029,
                    -0.025960087776184082,
                    -0.020690347999334335,
                    -0.013731204904615879,
                    -0.1070527583360672,
                    0.2890700399875641,
                    -0.002935346681624651,
                    0.010065698064863682,
                    -0.06467988342046738,
                    -0.22126299142837524,
                    -0.05245596170425415,
                    0.4313679039478302,
                    0.034789640456438065,
                    0.027583101764321327,
                    0.012723974883556366
                ]
            ],
            "activation": "tanh"
        },
        {
            "type": "dense",
            "shape": [
                null,
                16
            ],
            "weights": [
                [
                    [
                        -0.04016542062163353,
                        -0.08897507935762405,
                        0.5703185200691223,
                        0.09603948146104813,
                        0.05925862863659859,
                        0.02324213832616806,
                        -0.29940086603164673,
                        -0.18265357613563538,
                        -0.2188950628042221,
                        0.3933090269565582,
                        0.24062694609165192,
                        0.7793285250663757,
                        -0.04414132609963417,
                        0.26912641525268555,
                        -0.37334761023521423,
                        0.4292413592338562
                    ],
                    [
                        0.0449783131480217,
                        0.4462222456932068,
                        0.32058078050613403,
                        0.04866470769047737,
                        0.3280680477619171,
                        0.08844750374555588,
                        0.27103951573371887,
                        -0.32327964901924133,
                        0.3953060209751129,
                        -0.20615683495998383,
                        -0.047560419887304306,
                        0.10677633434534073,
                        -0.1375834196805954,
                        -0.2176586389541626,
                        -0.16479374468326569,
                        0.014602448791265488
                    ],
                    [
                        0.12150249630212784,
                        0.3051797151565552,
                        -0.6005612015724182,
                        -0.8685795068740845,
                        -0.5458315014839172,
                        -0.10631155222654343,
                        1.0820173025131226,
                        -0.5100846290588379,
                        0.6237372756004333,
                        -0.13062557578086853,
                        0.07705982774496078,
                        -0.02877400815486908,
                        -0.08667666465044022,
                        -0.11365776509046555,
                        -0.6120769381523132,
                        -0.2552063763141632
                    ],
                    [
                        0.4177192449569702,
                        0.11219803243875504,
                        -0.19083625078201294,
                        -0.13187472522258759,
                        0.04572238028049469,
                        -0.36980628967285156,
                        0.45393481850624084,
                        0.23908860981464386,
                        -0.12676945328712463,
                        0.008466893807053566,
                        0.30053436756134033,
                        -0.14695952832698822,
                        0.03221208602190018,
                        -0.20861569046974182,
                        0.08237677812576294,
                        0.5825907588005066
                    ],
                    [
                        -0.5051351189613342,
                        -0.5808984041213989,
                        0.08877915889024734,
                        0.3540615737438202,
                        0.8800927400588989,
                        0.8373795747756958,
                        -0.7947636246681213,
                        0.4238100051879883,
                        -0.12649869918823242,
                        0.9191057085990906,
                        -1.003265619277954,
                        -0.038793548941612244,
                        0.29117655754089355,
                        1.1476267576217651,
                        0.664574146270752,
                        0.9325551986694336
                    ],
                    [
                        -0.27732905745506287,
                        -0.2686923146247864,
                        0.17033879458904266,
                        -0.11838406324386597,
                        -0.30556562542915344,
                        -0.44181546568870544,
                        0.03405740484595299,
                        -0.0932016670703888,
                        0.3289758563041687,
                        -0.025884127244353294,
                        -0.40736353397369385,
                        -0.09149859845638275,
                        0.18333184719085693,
                        -0.5974588990211487,
                        0.2114236056804657,
                        0.26627111434936523
                    ],
                    [
                        -0.3283681869506836,
                        0.1363120824098587,
                        -0.2607918977737427,
                        -0.0421464741230011,
                        -0.0365050733089447,
                        -0.09163333475589752,
                        0.1183820590376854,
                        -0.011025230400264263,
                        -0.01918512023985386,
                        -0.3016637861728668,
                        0.16325248777866364,
                        1.2375606298446655,
                        -0.4705916941165924,
                        0.13357222080230713,
                        -0.3466840088367462,
                        -0.0692589208483696
                    ],
                    [
                        0.2516196072101593,
                        0.667607307434082,
                        -0.5164241790771484,
                        -0.04081021994352341,
                        -0.9083948135375977,
                        -0.1499754935503006,
                        -0.2646793723106384,
                        -0.1387743502855301,
                        0.2819562554359436,
                        -0.5513498783111572,
                        0.3869740068912506,
                        0.015935588628053665,
                        -0.2325000762939453,
                        -1.1525284051895142,
                        -0.7138745188713074,
                        0.0005776387406513095
                    ],
                    [
                        0.026850799098610878,
                        0.45294812321662903,
                        -0.08172884583473206,
                        -0.610375702381134,
                        -0.25979456305503845,
                        -0.15205955505371094,
                        0.18016032874584198,
                        -0.4358541965484619,
                        -0.24261511862277985,
                        -0.019949201494455338,
                        -0.1935821920633316,
                        -0.04010254889726639,
                        -0.4284745156764984,
                        0.14501598477363586,
                        0.3087300956249237,
                        -0.029907120391726494
                    ],
                    [
                        -0.1422625184059143,
                        -0.48198530077934265,
                        0.3359145522117615,
                        -0.15278972685337067,
                        0.6066516041755676,
                        0.6088207960128784,
                        -0.11243660002946854,
                        0.2984248101711273,
                        -0.3868970274925232,
                        -0.2691982388496399,
                        -0.41440626978874207,
                        -0.4380919337272644,
                        0.19789160788059235,
                        0.04702034592628479,
                        0.183504119515419,
                        0.45901957154273987
                    ],
                    [
                        -0.204261913895607,
                        -0.40166744589805603,
                        -0.10285688191652298,
                        0.45677536725997925,
                        -0.01783975213766098,
                        -0.037846844643354416,
                        0.384395569562912,
                        -0.10334908962249756,
                        -0.08466509729623795,
                        -0.10951770097017288,
                        -0.07914890348911285,
                        -1.2012152671813965,
                        -0.4675281345844269,
                        -0.09603211283683777,
                        0.18190643191337585,
                        0.2813078761100769
                    ],
                    [
                        -0.2914067208766937,
                        -0.1411663293838501,
                        -0.09883224964141846,
                        0.285040020942688,
                        -0.20798653364181519,
                        0.5283861756324768,
                        -0.01996719464659691,
                        -0.20476564764976501,
                        -0.3093934655189514,
                        0.2793019115924835,
                        0.3399339020252228,
                        -0.1142045110464096,
                        0.36337533593177795,
                        -0.5772157907485962,
                        0.4144705533981323,
                        0.22967293858528137
                    ],
                    [
                        -0.24979345500469208,
                        -0.15393327176570892,
                        0.37470102310180664,
                        -0.40185055136680603,
                        0.22626440227031708,
                        0.13169534504413605,
                        -0.14543621242046356,
                        -0.03747735917568207,
                        0.44221100211143494,
                        -0.22235772013664246,
                        0.41657754778862,
                        -0.04456686973571777,
                        -0.07844150811433792,
                        1.190870761871338,
                        0.4076691269874573,
                        0.16424144804477692
                    ],
                    [
                        0.05553045868873596,
                        0.38594499230384827,
                        -0.0939413383603096,
                        -0.37285271286964417,
                        -0.4249967932701111,
                        -0.1311313509941101,
                        0.19607049226760864,
                        0.33552664518356323,
                        0.2688959538936615,
                        0.12347808480262756,
                        0.41857245564460754,
                        0.3803224563598633,
                        -0.6331098675727844,
                        -0.8833109736442566,
                        -0.4566190242767334,
                        -0.4047219455242157
                    ],
                    [
                        -0.4432568848133087,
                        0.05499637871980667,
                        -0.2396421581506729,
                        -0.18789319694042206,
                        0.3099783957004547,
                        -0.49087801575660706,
                        -0.18497325479984283,
                        -0.24990740418434143,
                        -0.15382690727710724,
                        -0.07713110744953156,
                        0.22903351485729218,
                        -0.33398720622062683,
                        0.17051848769187927,
                        -0.5856366157531738,
                        -0.4822015166282654,
                        -0.13059304654598236
                    ],
                    [
                        0.5326189994812012,
                        -0.32340824604034424,
                        -0.5315623879432678,
                        -0.8110283613204956,
                        -0.5211165547370911,
                        -0.140726700425148,
                        0.17168554663658142,
                        -0.6119588017463684,
                        0.29180675745010376,
                        -0.028596138581633568,
                        0.011247429065406322,
                        0.7885991930961609,
                        -0.5084145069122314,
                        -0.7178981304168701,
                        -0.47694987058639526,
                        -0.3896084725856781
                    ]
                ],
                [
                    0.00042909456533379853,
                    0.0063660223968327045,
                    -0.03619786724448204,
                    -0.008067373186349869,
                    0.07844281196594238,
                    -0.036072056740522385,
                    -0.010206836275756359,
                    0.0034372860100120306,
                    0.06730780005455017,
                    -0.007292549591511488,
                    -0.007208122406154871,
                    0.19034555554389954,
                    -0.037883639335632324,
                    0.03632977604866028,
                    0.019212933257222176,
                    0.000833741039969027
                ]
            ],
            "activation": "tanh"
        },
        {
            "type": "dense",
            "shape": [
                null,
                1
            ],
            "weights": [
                [
                    [
                        0.4217852056026459
                    ],
                    [
                        0.908003568649292
                    ],
                    [
                        -0.3812190592288971
                    ],
                    [
                        -1.1458874940872192
                    ],
                    [
                        -0.7234036922454834
                    ],
                    [
                        -0.8521613478660583
                    ],
                    [
                        0.771127462387085
                    ],
                    [
                        -0.3010956346988678
                    ],
                    [
                        0.41560423374176025
                    ],
                    [
                        -0.4699525237083435
                    ],
                    [
                        0.4288555383682251
                    ],
                    [
                        0.413303941488266
                    ],
                    [
                        -0.5278359055519104
                    ],
                    [
                        -0.36235517263412476
                    ],
                    [
                        -0.6789339184761047
                    ],
                    [
                        -0.6340304613113403
                    ]
                ],
                [
                    0.019511377438902855
                ]
            ],
            "activation": ""
        }
    ]
}