{
    "in_shape": [
        null,
        2
    ],
    "layers": [
        {
            "type": "dense",
            "shape": [
                null,
                8
            ],
            "weights": [
                [
                    [
                        -0.325063019990921,
                        -0.3580697476863861,
                        0.04699580371379852,
                        0.09831489622592926,
                        -0.1267133206129074,
                        -0.8230569958686829,
                        0.8292084336280823,
                        1.3780914545059204
                    ],
                    [
                        0.01180330291390419,
                        0.04501719027757645,
                        0.05707179754972458,
                        0.023794233798980713,
                        0.0002080753183690831,
                        -0.04511984810233116,
                        1.076033353805542,
                        -0.06575733423233032
                    ]
                ],
                [
                    -0.1108887568116188,
                    -0.03383726626634598,
                    -0.03615540266036987,
                    -0.16951383650302887,
                    -0.1237926185131073,
                    0.42681294679641724,
                    0.46786239743232727,
                    0.29164692759513855
                ]
            ],
            "activation": "tanh"
        },
        {
            "type": "dense",
            "shape": [
                null,
                8
            ],
            "weights": [
                [
                    [
                        -0.17818310856819153,
                        0.14623644948005676,
                        0.17812158167362213,
                        -0.8066463470458984,
                        0.011098704300820827,
                        -0.3777417838573456,
                        -0.6996362805366516,
                        0.6546565294265747
                    ],
                    [
                        0.48840832710266113,
                        -0.4461919963359833,
                        -0.6827320456504822,
                        -0.04486928880214691,
                        0.051666587591171265,
                        -0.22222261130809784,
                        0.10980719327926636,
                        -0.23677431046962738
                    ],
                    [
                        0.08831008523702621,
                        -0.3669603765010834,
                        0.42602646350860596,
                        0.347685843706131,
                        0.04688539728522301,
                        0.007759076077491045,
                        -0.5804598927497864,
                        -0.4240335524082184
                    ],
                    [
                        0.1789986789226532,
                        -0.9434136748313904,
                        0.20184558629989624,
                        -0.13538393378257751,
                        0.11672258377075195,
                        0.7266198396682739,
                        0.42146167159080505,
                        0.10440654307603836
                    ],
                    [
                        -0.8268997669219971,
                        -0.552373468875885,
                        0.1052229106426239,
                        -0.026218103244900703,
                        -0.5135514736175537,
                        -0.23673126101493835,
                        0.18150416016578674,
                        0.05418351665139198
                    ],
                    [
                        0.5108263492584229,
                        0.08591126650571823,
                        0.8472115397453308,
                        0.012526814825832844,
                        -0.8315906524658203,
                        -0.30729249119758606,
                        0.23016947507858276,
                        -0.13707147538661957
                    ],
                    [
                        0.10792211443185806,
                        0.09707105904817581,
                        0.3005649149417877,
                        0.10104423016309738,
                        0.1556059569120407,
                        -0.6950960755348206,
                        0.1492510437965393,
                        0.5948286056518555
                    ],
                    [
                        -0.3386060297489166,
                        -0.45476195216178894,
                        0.13698594272136688,
                        -0.4367535412311554,
                        0.7918139696121216,
                        -0.45934638381004333,
                        0.08545619249343872,
                        -0.3150440454483032
                    ]
                ],
                [
                    -0.0011075284564867616,
                    0.15482129156589508,
                    0.015500804409384727,
                    -0.07434839755296707,
                    0.05126262828707695,
                    -0.07644936442375183,
                    0.054861556738615036,
                    -0.09423941373825073
                ]
            ],
            "activation": "tanh"
        },
        {
            "type": "dense",
            "shape": [
                null,
                8
            ],
            "weights": [
                [
                    [
                        -0.38717514276504517,
                        -0.49589163064956665,
                        -0.27196359634399414,
                        0.1380046159029007,
                        -1.0424144268035889,
                        0.29072755575180054,
                        -0.44365623593330383,
                        -0.07038486003875732
                    ],
                    [
                        -0.7496902346611023,
                        0.18941114842891693,
                        0.3220905065536499,
                        0.4475649893283844,
                        0.07985839992761612,
                        0.5462615489959717,
                        -0.5019652247428894,
                        -0.057061731815338135
                    ],
                    [
                        -0.08388790488243103,
                        -0.030010662972927094,
                        -0.13466748595237732,
                        -0.8925492763519287,
                        0.03628035634756088,
                        -0.2300397753715515,
                        -0.5169670581817627,
                        -0.6049585342407227
                    ],
                    [
                        0.3424621522426605,
                        0.5821397304534912,
                        0.30200767517089844,
                        0.21510650217533112,
                        -0.5357176065444946,
                        0.5634085536003113,
                        -0.19671721756458282,
                        -0.37688562273979187
                    ],
                    [
                        -0.04177752882242203,
                        0.07482971251010895,
                        0.9609194993972778,
                        -0.3331625163555145,
                        -0.17037375271320343,
                        0.31261882185935974,
                        0.3379935920238495,
                        0.727193295955658
                    ],
                    [
                        0.5477993488311768,
                        -0.017460906878113747,
                        0.11083194613456726,
                        0.6395993232727051,
                        -0.12204940617084503,
                        -0.4245986342430115,
                        -0.6849733591079712,
                        0.34913986921310425
                    ],
                    [
                        0.34965959191322327,
                        -0.8247597217559814,
                        0.7324872016906738,
                        0.20595762133598328,
                        -0.033556919544935226,
                        0.3992769420146942,
                        -0.168381005525589,
                        -0.4818035960197449
                    ],
                    [
                        -0.6673598885536194,
                        0.1376504749059677,
                        0.6023015975952148,
                        0.052586402744054794,
                        -0.08283361047506332,
                        -0.5788593888282776,
                        0.1562488079071045,
                        -0.15738336741924286
                    ]
                ],
                [
                    -0.07791972160339355,
                    0.030552590265870094,
                    0.18238048255443573,
                    -0.029235510155558586,
                    0.034217674285173416,
                    0.1339351236820221,
                    -0.01720251329243183,
                    0.06511124968528748
                ]
            ],
            "activation": "tanh"
        },
        {
            "type": "dense",
            "shape": [
                null,
                8
            ],
            "weights": [
                [
                    [
                        0.00748589588329196,
                        -0.31799715757369995,
                        0.1323872059583664,
                        0.7891196012496948,
                        -0.23841989040374756,
                        -0.9647734761238098,
                        0.6544073224067688,
                        -0.31636399030685425
                    ],
                    [
                        -0.641218364238739,
                        -0.06456107646226883,
                        -0.6946255564689636,
                        0.025230400264263153,
                        -0.0276307612657547,
                        -0.26080164313316345,
                        -0.8071836233139038,
                        0.2983449697494507
                    ],
                    [
                        -0.07068488001823425,
                        0.7559321522712708,
                        -0.39222773909568787,
                        0.5124284029006958,
                        0.2338813692331314,
                        0.04475205019116402,
                        0.2992292046546936,
                        0.4672369360923767
                    ],
                    [
                        0.10190615057945251,
                        -1.0827221870422363,
                        0.09824277460575104,
                        0.6072457432746887,
                        0.32668399810791016,
                        -0.3330983519554138,
                        0.029890812933444977,
                        0.6821462512016296
                    ],
                    [
                        0.005598824005573988,
                        0.5521583557128906,
                        0.7041295766830444,
                        0.2022370845079422,
                        -0.7166150212287903,
                        0.12137731164693832,
                        -0.6155440211296082,
                        0.24156519770622253
                    ],
                    [
                        0.8347094058990479,
                        -0.144905224442482,
                        -1.0516273975372314,
                        0.5682196617126465,
                        1.0136455297470093,
                        -0.3380448520183563,
                        -0.09665360301733017,
                        -0.3107571005821228
                    ],
                    [
                        -0.4186612665653229,
                        0.6360347270965576,
                        0.09547463804483414,
                        -0.08619854599237442,
                        0.8296846151351929,
                        -0.0924384742975235,
                        -0.2864072322845459,
                        0.15069212019443512
                    ],
                    [
                        0.11919081956148148,
                        0.15447953343391418,
                        -0.06759220361709595,
                        -0.41170161962509155,
                        -0.033211849629879,
                        -0.7589127421379089,
                        -0.06231909990310669,
                        0.7426905632019043
                    ]
                ],
                [
                    0.05751102790236473,
                    0.0365297868847847,
                    -0.19040068984031677,
                    -0.014827262610197067,
                    0.14106762409210205,
                    -0.04669163003563881,
                    -0.06729912757873535,
                    -0.019361348822712898
                ]
            ],
            "activation": "tanh"
        },
        {
            "type": "dense",
            "shape": [
                null,
                8
            ],
            "weights": [
                [
                    [
                        0.06284873932600021,
                        -0.1102873906493187,
                        0.009244195185601711,
                        -0.5225645303726196,
                        0.7849133014678955,
                        1.0248206853866577,
                        0.31174054741859436,
                        -0.10716757923364639
                    ],
                    [
                        0.33637547492980957,
                        0.04025544226169586,
                        -0.5266627669334412,
                        1.2812083959579468,
                        -0.7626654505729675,
                        -0.016777344048023224,
                        0.011518795043230057,
                        -0.15338841080665588
                    ],
                    [
                        -0.01417194027453661,
                        -0.2988151013851166,
                        -0.039345696568489075,
                        -0.30434688925743103,
                        -1.0975823402404785,
                        0.03411058336496353,
                        0.4989018142223358,
                        0.4278237521648407
                    ],
                    [
                        -0.18349657952785492,
                        -1.1962885856628418,
                        -0.20274893939495087,
                        -1.0559734106063843,
                        0.5205686688423157,
                        0.045924536883831024,
                        -0.4839479327201843,
                        -0.954255223274231
                    ],
                    [
                        -0.7444329261779785,
                        -0.6002030968666077,
                        0.2978805601596832,
                        0.3469991087913513,
                        1.29367995262146,
                        0.2869088053703308,
                        0.01035661157220602,
                        -0.23505017161369324
                    ],
                    [
                        -0.09967675060033798,
                        0.7166461944580078,
                        -0.8364513516426086,
                        0.38002127408981323,
                        0.0059947422705590725,
                        0.1655203253030777,
                        0.0010843705385923386,
                        0.6986927390098572
                    ],
                    [
                        -0.351743221282959,
                        -0.7478031516075134,
                        0.4789474308490753,
                        -0.8520644903182983,
                        0.011468654498457909,
                        0.973842978477478,
                        -1.0173627138137817,
                        -0.408476322889328
                    ],
                    [
                        0.6010351777076721,
                        -0.8208252787590027,
                        -0.15932884812355042,
                        0.26930609345436096,
                        0.23144540190696716,
                        -0.6309964656829834,
                        -0.18617914617061615,
                        0.5142419338226318
                    ]
                ],
                [
                    -0.007202692795544863,
                    -0.1008647233247757,
                    -0.026413317769765854,
                    0.05018957704305649,
                    0.33209359645843506,
                    -0.01043019164353609,
                    0.06958633661270142,
                    0.01713002845644951
                ]
            ],
            "activation": "tanh"
        },
        {
            "type": "dense",
            "shape": [
                null,
                1
            ],
            "weights": [
                [
                    [
                        -0.13288487493991852
                    ],
                    [
                        -0.38113582134246826
                    ],
                    [
                        0.45551419258117676
                    ],
                    [
                        -1.1276060342788696
                    ],
                    [
                        0.7422685623168945
                    ],
                    [
                        1.2587969303131104
                    ],
                    [
                        -0.4970347285270691
                    ],
                    [
                        -0.7756626009941101
                    ]
                ],
                [
                    0.006622828543186188
                ]
            ],
            "activation": ""
        }
    ]
}