{
    "in_shape": [
        null,
        2
    ],
    "layers": [
        {
            "type": "dense",
            "shape": [
                null,
                4
            ],
            "weights": [
                [
                    [
                        -0.21943546831607819,
                        0.33205896615982056,
                        0.4746021032333374,
                        -1.2139484882354736
                    ],
                    [
                        -0.0015506771160289645,
                        0.061719875782728195,
                        -0.07134915143251419,
                        -0.09887847304344177
                    ]
                ],
                [
                    0.06757168471813202,
                    0.017222000285983086,
                    0.12576687335968018,
                    0.4178112745285034
                ]
            ],
            "activation": "tanh"
        },
        {
            "type": "dense",
            "shape": [
                null,
                4
            ],
            "weights": [
                [
                    [
                        -1.0802568197250366,
                        0.9552488923072815,
                        1.1852006912231445,
                        0.4138231575489044
                    ],
                    [
                        -0.3245232403278351,
                        0.5798636078834534,
                        -0.39744889736175537,
                        0.4754754900932312
                    ],
                    [
                        -0.4118070900440216,
                        0.6642560958862305,
                        0.27692171931266785,
                        -1.1198068857192993
                    ],
                    [
                        -0.6622141599655151,
                        -0.39117372035980225,
                        -0.24715623259544373,
                        -0.09868945181369781
                    ]
                ],
                [
                    0.13843533396720886,
                    -0.03443765267729759,
                    0.1008642315864563,
                    -0.5004138350486755
                ]
            ],
            "activation": "tanh"
        },
        {
            "type": "dense",
            "shape": [
                null,
                4
            ],
            "weights": [
                [
                    [
                        -0.5719093680381775,
                        -1.383070945739746,
                        0.9400919675827026,
                        0.07422200590372086
                    ],
                    [
                        0.8769086003303528,
                        1.0378330945968628,
                        -0.9709828495979309,
                        1.863928198814392
                    ],
                    [
                        0.09387508779764175,
                        0.5654444098472595,
                        -1.9208667278289795,
                        1.2371095418930054
                    ],
                    [
                        1.038097620010376,
                        0.4344201683998108,
                        0.1932895928621292,
                        -0.29636910557746887
                    ]
                ],
                [
                    -0.10124559700489044,
                    0.14866551756858826,
                    -0.08704899996519089,
                    -0.11559908092021942
                ]
            ],
            "activation": "tanh"
        },
        {
            "type": "dense",
            "shape": [
                null,
                1
            ],
            "weights": [
                [
                    [
                        -2.3157527446746826
                    ],
                    [
                        -1.3137515783309937
                    ],
                    [
                        1.4715707302093506
                    ],
                    [
                        -0.8743773698806763
                    ]
                ],
                [
                    -0.07270649820566177
                ]
            ],
            "activation": ""
        }
    ]
}