{
    "in_shape": [
        null,
        2
    ],
    "layers": [
        {
            "type": "dense",
            "shape": [
                null,
                8
            ],
            "weights": [
                [
                    [
                        -0.3170025944709778,
                        0.010377150028944016,
                        0.5989938974380493,
                        -0.3424583673477173,
                        -0.20200881361961365,
                        0.3077916204929352,
                        0.7092356085777283,
                        1.0453712940216064
                    ],
                    [
                        0.19054649770259857,
                        0.21105779707431793,
                        -0.08072181046009064,
                        -0.10831571370363235,
                        -0.01159050315618515,
                        0.021091662347316742,
                        0.08860987424850464,
                        -0.04052288085222244
                    ]
                ],
                [
                    0.5804635882377625,
                    0.16996771097183228,
                    -0.2101840376853943,
                    0.38653868436813354,
                    0.1947437971830368,
                    -0.03791724890470505,
                    -0.8307522535324097,
                    0.31729546189308167
                ]
            ],
            "activation": "tanh"
        },
        {
            "type": "dense",
            "shape": [
                null,
                8
            ],
            "weights": [
                [
                    [
                        0.26035791635513306,
                        0.21643713116645813,
                        0.02303515002131462,
                        -0.4045865833759308,
                        -0.2836926579475403,
                        0.17612220346927643,
                        0.08057656139135361,
                        -0.6715752482414246
                    ],
                    [
                        -0.001457279664464295,
                        0.491880863904953,
                        0.24446524679660797,
                        -0.33998921513557434,
                        0.09776102751493454,
                        -0.4271787703037262,
                        -0.2548675239086151,
                        0.45703205466270447
                    ],
                    [
                        -0.004397725220769644,
                        -0.3309398293495178,
                        0.02625599503517151,
                        -0.6952975392341614,
                        -0.40796229243278503,
                        0.14573335647583008,
                        0.2365437150001526,
                        0.25762879848480225
                    ],
                    [
                        -0.9939746260643005,
                        0.4633843004703522,
                        0.22396454215049744,
                        -0.03983830660581589,
                        -0.2740999162197113,
                        -0.21017108857631683,
                        0.17781130969524384,
                        -0.2982364892959595
                    ],
                    [
                        0.38601982593536377,
                        0.721272885799408,
                        -0.3112993836402893,
                        -0.21588514745235443,
                        -0.3840905725955963,
                        1.0639854669570923,
                        0.8308029770851135,
                        0.7463632225990295
                    ],
                    [
                        -0.47525355219841003,
                        -0.36586833000183105,
                        1.4496105909347534,
                        0.41211652755737305,
                        0.04750550538301468,
                        -0.27365389466285706,
                        -0.10541011393070221,
                        -0.380451500415802
                    ],
                    [
                        0.03420588746666908,
                        -0.005917912814766169,
                        -0.025247469544410706,
                        -0.09486787021160126,
                        -0.5379745364189148,
                        0.5584412813186646,
                        -1.4210340976715088,
                        0.3462597131729126
                    ],
                    [
                        -0.08211427927017212,
                        0.2998596131801605,
                        0.519085705280304,
                        -0.47857576608657837,
                        1.1078242063522339,
                        0.5457709431648254,
                        0.037106238305568695,
                        -0.09888309985399246
                    ]
                ],
                [
                    -0.013326190412044525,
                    0.06415099650621414,
                    -0.15732397139072418,
                    -0.11622574925422668,
                    0.051699280738830566,
                    0.0038377000018954277,
                    0.05834256857633591,
                    0.03665149584412575
                ]
            ],
            "activation": "tanh"
        },
        {
            "type": "dense",
            "shape": [
                null,
                8
            ],
            "weights": [
                [
                    [
                        0.3172067701816559,
                        -0.20961594581604004,
                        -0.11322148889303207,
                        -0.6405017971992493,
                        0.9922162294387817,
                        0.15167826414108276,
                        0.05968687683343887,
                        -0.16932444274425507
                    ],
                    [
                        0.2937813401222229,
                        0.335523396730423,
                        0.5620917677879333,
                        -0.35504910349845886,
                        -0.07400528341531754,
                        -0.7658629417419434,
                        -0.2399611473083496,
                        0.36858195066452026
                    ],
                    [
                        -0.12342758476734161,
                        0.6047321557998657,
                        0.14555807411670685,
                        0.9103830456733704,
                        -0.2060399204492569,
                        -0.0070501589216291904,
                        0.020589638501405716,
                        -0.9223647713661194
                    ],
                    [
                        -0.9167258143424988,
                        -1.9894665479660034,
                        -0.04246145486831665,
                        0.37964504957199097,
                        0.2273627519607544,
                        0.44963300228118896,
                        0.20561689138412476,
                        -0.01952263154089451
                    ],
                    [
                        -0.6071227788925171,
                        1.154104232788086,
                        0.33586937189102173,
                        -0.18874536454677582,
                        -0.35014602541923523,
                        0.27619338035583496,
                        -0.274117648601532,
                        -0.37663355469703674
                    ],
                    [
                        1.01642906665802,
                        1.4429627656936646,
                        1.273273229598999,
                        -0.1333014816045761,
                        0.3788694739341736,
                        -0.054356370121240616,
                        1.1558398008346558,
                        0.8662735223770142
                    ],
                    [
                        0.2901878356933594,
                        0.15595568716526031,
                        0.5374640226364136,
                        -0.5216425061225891,
                        0.011028556153178215,
                        0.06510632485151291,
                        0.3305733799934387,
                        -0.21799622476100922
                    ],
                    [
                        0.3790276050567627,
                        -0.36258503794670105,
                        0.7889541387557983,
                        -1.0853863954544067,
                        0.6973605751991272,
                        -0.9862890839576721,
                        1.9002878665924072,
                        0.6444474458694458
                    ]
                ],
                [
                    0.1566617786884308,
                    -0.013256583362817764,
                    -0.03913402929902077,
                    -0.37172743678092957,
                    0.03454531729221344,
                    -0.12505526840686798,
                    -0.11068137735128403,
                    0.09582575410604477
                ]
            ],
            "activation": "tanh"
        },
        {
            "type": "dense",
            "shape": [
                null,
                1
            ],
            "weights": [
                [
                    [
                        -1.4795740842819214
                    ],
                    [
                        -0.3812953233718872
                    ],
                    [
                        -0.9366616606712341
                    ],
                    [
                        1.102724313735962
                    ],
                    [
                        -0.4434305727481842
                    ],
                    [
                        0.9228933453559875
                    ],
                    [
                        -1.4234569072723389
                    ],
                    [
                        -1.2943536043167114
                    ]
                ],
                [
                    -0.08217471837997437
                ]
            ],
            "activation": ""
        }
    ]
}