{
    "in_shape": [
        null,
        2
    ],
    "layers": [
        {
            "type": "dense",
            "shape": [
                null,
                8
            ],
            "weights": [
                [
                    [
                        0.34362027049064636,
                        1.0003461837768555,
                        -0.3373878300189972,
                        -1.0602585077285767,
                        0.23966482281684875,
                        -0.39182960987091064,
                        0.27432188391685486,
                        0.4287576675415039
                    ],
                    [
                        -0.1426803320646286,
                        -0.033378783613443375,
                        -0.0797138437628746,
                        -0.08135826885700226,
                        0.004307722672820091,
                        0.3578738570213318,
                        0.16127841174602509,
                        -0.11283810436725616
                    ]
                ],
                [
                    0.02487281896173954,
                    0.24224434792995453,
                    0.22929343581199646,
                    0.8495464324951172,
                    -0.09985766559839249,
                    0.366013765335083,
                    0.1481776386499405,
                    0.7508919835090637
                ]
            ],
            "activation": "tanh"
        },
        {
            "type": "dense",
            "shape": [
                null,
                8
            ],
            "weights": [
                [
                    [
                        0.2709147334098816,
                        0.23493467271327972,
                        0.41976863145828247,
                        -0.40191131830215454,
                        0.10300017893314362,
                        -0.39740005135536194,
                        -0.21992824971675873,
                        -0.5584554076194763
                    ],
                    [
                        -0.07690248638391495,
                        0.09060107916593552,
                        0.054930590093135834,
                        0.32334885001182556,
                        0.4888703227043152,
                        -0.7693875432014465,
                        -0.4845921993255615,
                        0.23557493090629578
                    ],
                    [
                        -0.03200189769268036,
                        -0.12349395453929901,
                        -0.049243420362472534,
                        0.45104578137397766,
                        -0.8569381833076477,
                        -0.6315329670906067,
                        -0.17147251963615417,
                        -0.14725960791110992
                    ],
                    [
                        0.187761589884758,
                        -0.9029707312583923,
                        0.2493976503610611,
                        -0.2635727822780609,
                        0.0347440280020237,
                        -0.27597567439079285,
                        -0.17538650333881378,
                        0.05676540359854698
                    ],
                    [
                        1.0228544473648071,
                        -0.902426540851593,
                        -0.5767621994018555,
                        1.0664277076721191,
                        -0.5861505270004272,
                        -0.10444841533899307,
                        0.1136416345834732,
                        0.9081293344497681
                    ],
                    [
                        0.28819286823272705,
                        -0.24995529651641846,
                        -0.3603399693965912,
                        -0.17355169355869293,
                        -0.20895785093307495,
                        0.12903505563735962,
                        0.2283630520105362,
                        -0.4199235439300537
                    ],
                    [
                        -0.16208744049072266,
                        -0.16765928268432617,
                        0.0942867323756218,
                        0.4219762980937958,
                        0.2710873782634735,
                        0.31496307253837585,
                        -0.6321550011634827,
                        -0.46300145983695984
                    ],
                    [
                        -0.21263496577739716,
                        -0.26416078209877014,
                        -0.8284791707992554,
                        -0.0392092801630497,
                        0.5489872694015503,
                        -0.16811677813529968,
                        -0.9180735945701599,
                        -0.26128554344177246
                    ]
                ],
                [
                    0.022265344858169556,
                    -0.08033843338489532,
                    -0.21945646405220032,
                    -0.12965823709964752,
                    0.006000895984470844,
                    0.330774188041687,
                    -0.6470488905906677,
                    0.1341155469417572
                ]
            ],
            "activation": "tanh"
        },
        {
            "type": "dense",
            "shape": [
                null,
                8
            ],
            "weights": [
                [
                    [
                        0.43736696243286133,
                        0.03401751443743706,
                        -0.8594423532485962,
                        -1.2267534732818604,
                        0.4371722638607025,
                        0.4890556335449219,
                        1.1538866758346558,
                        0.25497734546661377
                    ],
                    [
                        0.288772314786911,
                        0.8930009007453918,
                        -0.07482035458087921,
                        0.45421138405799866,
                        -1.009164810180664,
                        -0.4072740972042084,
                        -0.5994197726249695,
                        -0.1726115345954895
                    ],
                    [
                        -0.3661644458770752,
                        -1.0486074686050415,
                        0.324230819940567,
                        0.10255585610866547,
                        -0.7887296676635742,
                        0.7321679592132568,
                        -0.4501066207885742,
                        -0.4393649399280548
                    ],
                    [
                        0.7067632079124451,
                        0.9751374125480652,
                        0.3378734588623047,
                        -0.49696260690689087,
                        0.08960767090320587,
                        0.44232988357543945,
                        0.2618153989315033,
                        1.0408328771591187
                    ],
                    [
                        -0.10720294713973999,
                        -0.5302262306213379,
                        0.7303338050842285,
                        0.8267354369163513,
                        -0.7431807518005371,
                        -1.8911409378051758,
                        -0.21668481826782227,
                        -0.5842380523681641
                    ],
                    [
                        -0.6526461243629456,
                        0.31402483582496643,
                        0.27514055371284485,
                        0.21307319402694702,
                        -0.33114761114120483,
                        0.032563935965299606,
                        0.48910608887672424,
                        -0.2299489825963974
                    ],
                    [
                        0.5672040581703186,
                        0.08201835304498672,
                        0.028495844453573227,
                        0.03644540533423424,
                        0.03368191421031952,
                        1.1445711851119995,
                        -0.11873708665370941,
                        -0.6631039977073669
                    ],
                    [
                        0.7004765272140503,
                        0.08101051300764084,
                        -0.5539924502372742,
                        -0.010047349147498608,
                        0.33568108081817627,
                        1.194283366203308,
                        0.9502220153808594,
                        0.9563418626785278
                    ]
                ],
                [
                    -0.04938496649265289,
                    0.06388707458972931,
                    -0.1252763718366623,
                    -0.01456774864345789,
                    -0.045701656490564346,
                    -0.16955141723155975,
                    0.09128907322883606,
                    0.1654960811138153
                ]
            ],
            "activation": "tanh"
        },
        {
            "type": "dense",
            "shape": [
                null,
                1
            ],
            "weights": [
                [
                    [
                        1.2049362659454346
                    ],
                    [
                        0.48698535561561584
                    ],
                    [
                        -0.6168743371963501
                    ],
                    [
                        -1.3924498558044434
                    ],
                    [
                        1.254746675491333
                    ],
                    [
                        0.8162851929664612
                    ],
                    [
                        1.056046485900879
                    ],
                    [
                        1.3198655843734741
                    ]
                ],
                [
                    -0.014980761334300041
                ]
            ],
            "activation": ""
        }
    ]
}