{
    "in_shape": [
        null,
        2
    ],
    "layers": [
        {
            "type": "dense",
            "shape": [
                null,
                8
            ],
            "weights": [
                [
                    [
                        0.3505069613456726,
                        1.005589485168457,
                        -0.3457970917224884,
                        -1.0651785135269165,
                        0.23095446825027466,
                        -0.3962782919406891,
                        0.28349024057388306,
                        0.43947669863700867
                    ],
                    [
                        -0.14059604704380035,
                        -0.038244012743234634,
                        -0.07864999026060104,
                        -0.08447227627038956,
                        0.0035914790350943804,
                        0.35509783029556274,
                        0.15916946530342102,
                        -0.1145375519990921
                    ]
                ],
                [
                    0.026967238634824753,
                    0.23751823604106903,
                    0.23027250170707703,
                    0.8464956879615784,
                    -0.10060948133468628,
                    0.36326009035110474,
                    0.146159827709198,
                    0.7492537498474121
                ]
            ],
            "activation": "tanh"
        },
        {
            "type": "dense",
            "shape": [
                null,
                8
            ],
            "weights": [
                [
                    [
                        0.27111852169036865,
                        0.23211435973644257,
                        0.4198644459247589,
                        -0.4024540185928345,
                        0.1044503003358841,
                        -0.3989461064338684,
                        -0.2297428846359253,
                        -0.5585255026817322
                    ],
                    [
                        -0.08479370921850204,
                        0.09589876979589462,
                        0.062186237424612045,
                        0.3152700364589691,
                        0.49706384539604187,
                        -0.7655377388000488,
                        -0.498471736907959,
                        0.22639328241348267
                    ],
                    [
                        -0.028443150222301483,
                        -0.12982499599456787,
                        -0.052050672471523285,
                        0.4538039565086365,
                        -0.858677864074707,
                        -0.6365587711334229,
                        -0.17755126953125,
                        -0.14360356330871582
                    ],
                    [
                        0.1955951750278473,
                        -0.9113476276397705,
                        0.243352010846138,
                        -0.2563565671443939,
                        0.027262307703495026,
                        -0.28326836228370667,
                        -0.16026532649993896,
                        0.06553762406110764
                    ],
                    [
                        1.0162382125854492,
                        -0.8943451046943665,
                        -0.5720160603523254,
                        1.060400366783142,
                        -0.5800154805183411,
                        -0.09736085683107376,
                        0.09700848162174225,
                        0.9005420207977295
                    ],
                    [
                        0.2872943580150604,
                        -0.2465769350528717,
                        -0.3599127233028412,
                        -0.17361055314540863,
                        -0.20988480746746063,
                        0.13114798069000244,
                        0.23777052760124207,
                        -0.42057493329048157
                    ],
                    [
                        -0.16324694454669952,
                        -0.1641128659248352,
                        0.09490864723920822,
                        0.4216879904270172,
                        0.2703615128993988,
                        0.3172377347946167,
                        -0.6230471134185791,
                        -0.46393564343452454
                    ],
                    [
                        -0.2212209850549698,
                        -0.255167156457901,
                        -0.8213613033294678,
                        -0.04742513224482536,
                        0.5573725700378418,
                        -0.16013751924037933,
                        -0.9317605495452881,
                        -0.27091845870018005
                    ]
                ],
                [
                    0.021352853626012802,
                    -0.07695045322179794,
                    -0.2190179079771042,
                    -0.12972967326641083,
                    0.005085127893835306,
                    0.33289697766304016,
                    -0.6376484036445618,
                    0.1334497034549713
                ]
            ],
            "activation": "tanh"
        },
        {
            "type": "dense",
            "shape": [
                null,
                8
            ],
            "weights": [
                [
                    [
                        0.4449559450149536,
                        0.04173107445240021,
                        -0.8672450184822083,
                        -1.2357970476150513,
                        0.44565069675445557,
                        0.5082231163978577,
                        1.1634762287139893,
                        0.2640504240989685
                    ],
                    [
                        0.28428128361701965,
                        0.8894768953323364,
                        -0.07118115574121475,
                        0.4575258493423462,
                        -1.0119465589523315,
                        -0.41413018107414246,
                        -0.6011480689048767,
                        -0.1751154512166977
                    ],
                    [
                        -0.3631533086299896,
                        -1.0487840175628662,
                        0.3226126730442047,
                        0.10045617818832397,
                        -0.7853628396987915,
                        0.7260926961898804,
                        -0.4457029700279236,
                        -0.4368765950202942
                    ],
                    [
                        0.7029839754104614,
                        0.9686973094940186,
                        0.3452107608318329,
                        -0.49183329939842224,
                        0.08570978045463562,
                        0.44043800234794617,
                        0.25599798560142517,
                        1.0319364070892334
                    ],
                    [
                        -0.11295399814844131,
                        -0.536864697933197,
                        0.739754855632782,
                        0.8347868323326111,
                        -0.7498824596405029,
                        -1.8960070610046387,
                        -0.2255953699350357,
                        -0.5951598882675171
                    ],
                    [
                        -0.6543145775794983,
                        0.31543558835983276,
                        0.2747679650783539,
                        0.21349003911018372,
                        -0.333209753036499,
                        0.03919203206896782,
                        0.4865315854549408,
                        -0.2303861677646637
                    ],
                    [
                        0.5704025626182556,
                        0.08265131711959839,
                        0.02610895037651062,
                        0.03378358483314514,
                        0.03734884783625603,
                        1.1404104232788086,
                        -0.11380087584257126,
                        -0.6597013473510742
                    ],
                    [
                        0.701786994934082,
                        0.08017220348119736,
                        -0.5536760687828064,
                        -0.010617719031870365,
                        0.33774155378341675,
                        1.1883480548858643,
                        0.952444851398468,
                        0.9567207098007202
                    ]
                ],
                [
                    -0.05123523250222206,
                    0.06518609821796417,
                    -0.12543801963329315,
                    -0.01396221574395895,
                    -0.047925930470228195,
                    -0.16301117837429047,
                    0.08848671615123749,
                    0.16483181715011597
                ]
            ],
            "activation": "tanh"
        },
        {
            "type": "dense",
            "shape": [
                null,
                1
            ],
            "weights": [
                [
                    [
                        1.2054519653320312
                    ],
                    [
                        0.4812842905521393
                    ],
                    [
                        -0.6227821111679077
                    ],
                    [
                        -1.4025993347167969
                    ],
                    [
                        1.2644881010055542
                    ],
                    [
                        0.8205963969230652
                    ],
                    [
                        1.0563246011734009
                    ],
                    [
                        1.317110300064087
                    ]
                ],
                [
                    -0.015967832878232002
                ]
            ],
            "activation": ""
        }
    ]
}