{
    "in_shape": [
        null,
        2
    ],
    "layers": [
        {
            "type": "dense",
            "shape": [
                null,
                16
            ],
            "weights": [
                [
                    [
                        -0.2411336600780487,
                        -0.6242167949676514,
                        0.08525063842535019,
                        -0.5741510391235352,
                        0.20633149147033691,
                        0.5488499999046326,
                        0.27055850625038147,
                        0.1568908989429474,
                        0.44154831767082214,
                        -0.19236540794372559,
                        -0.9203467965126038,
                        -0.3186377286911011,
                        0.6581952571868896,
                        -0.12692305445671082,
                        0.22801829874515533,
                        0.7626957297325134
                    ],
                    [
                        -0.009731563739478588,
                        0.8690370917320251,
                        0.5091047286987305,
                        0.006027145776897669,
                        0.1481255441904068,
                        -0.1890728622674942,
                        0.0048864008858799934,
                        -0.01519734039902687,
                        0.05198729410767555,
                        -0.0682697519659996,
                        -0.05730940029025078,
                        0.05488689988851547,
                        -0.03255371376872063,
                        -0.03292491286993027,
                        -0.0004972603055648506,
                        -0.027092404663562775
                    ]
                ],
                [
                    0.09725970029830933,
                    0.3525242209434509,
                    0.5789170861244202,
                    -0.10173986107110977,
                    0.10790099203586578,
                    -0.4148018956184387,
                    -0.11989747732877731,
                    0.206633061170578,
                    -0.07718013226985931,
                    0.032264214009046555,
                    0.3334483802318573,
                    -0.09026888012886047,
                    0.08221449702978134,
                    0.09268818795681,
                    0.05628814175724983,
                    0.3423554003238678
                ]
            ],
            "activation": "tanh"
        },
        {
            "type": "dense",
            "shape": [
                null,
                16
            ],
            "weights": [
                [
                    [
                        0.7208603620529175,
                        -0.04973703250288963,
                        -0.6315073370933533,
                        0.1386735588312149,
                        -0.4468480944633484,
                        -0.3158634603023529,
                        -0.09511730074882507,
                        0.5289285182952881,
                        0.14362993836402893,
                        -0.7175501585006714,
                        -0.6672036647796631,
                        -0.1014501303434372,
                        0.2596212923526764,
                        0.5854488015174866,
                        -0.2922290563583374,
                        -0.619646430015564
                    ],
                    [
                        0.17168588936328888,
                        0.12705010175704956,
                        -0.25014299154281616,
                        -0.046773072332143784,
                        0.10183212161064148,
                        -0.12071457505226135,
                        -0.21796995401382446,
                        0.0909930020570755,
                        0.07324998825788498,
                        0.04674573242664337,
                        -0.3649939298629761,
                        0.0588955320417881,
                        0.26986128091812134,
                        -0.4503471851348877,
                        -0.04439188912510872,
                        0.671267032623291
                    ],
                    [
                        0.11479788273572922,
                        -0.06600216776132584,
                        0.04235576093196869,
                        0.13613595068454742,
                        -0.42570072412490845,
                        0.0020929095335304737,
                        0.15260876715183258,
                        0.23175771534442902,
                        -0.003498684149235487,
                        0.0815626010298729,
                        -0.17815226316452026,
                        0.23976582288742065,
                        -0.30544960498809814,
                        0.3508460521697998,
                        0.4607626795768738,
                        0.34024834632873535
                    ],
                    [
                        0.010842523537576199,
                        0.4013030230998993,
                        -0.21419067680835724,
                        0.35786911845207214,
                        -0.12181404232978821,
                        -0.10596572607755661,
                        0.6178052425384521,
                        -0.030246611684560776,
                        -0.09220962226390839,
                        -0.8998301029205322,
                        -0.12214872241020203,
                        -0.47235673666000366,
                        0.13368239998817444,
                        -0.105300672352314,
                        0.3642643392086029,
                        -0.645336389541626
                    ],
                    [
                        -0.06467165797948837,
                        -0.03609004244208336,
                        -0.2118871808052063,
                        0.15531228482723236,
                        0.4141916334629059,
                        -0.36748620867729187,
                        -0.08869172632694244,
                        0.27949002385139465,
                        0.21290557086467743,
                        0.19470277428627014,
                        0.040602561086416245,
                        0.3051064908504486,
                        0.2358640432357788,
                        0.023383216932415962,
                        0.46963268518447876,
                        -0.2993338406085968
                    ],
                    [
                        0.2816891074180603,
                        -0.04610326886177063,
                        0.46654874086380005,
                        0.08631376177072525,
                        0.36579594016075134,
                        -0.19051001965999603,
                        -0.09663523733615875,
                        -0.05439024418592453,
                        -0.21997962892055511,
                        -0.31217145919799805,
                        0.04227801784873009,
                        -0.5817595720291138,
                        0.17655251920223236,
                        0.33166396617889404,
                        0.13430403172969818,
                        0.0701960027217865
                    ],
                    [
                        -0.32319703698158264,
                        0.31543660163879395,
                        0.5431155562400818,
                        -0.5511625409126282,
                        0.3688148260116577,
                        0.5534602403640747,
                        -0.3492031395435333,
                        -0.9810110926628113,
                        0.3559815287590027,
                        0.03888213634490967,
                        0.8948320150375366,
                        0.4170244038105011,
                        0.03749559819698334,
                        -0.06956993788480759,
                        0.34990665316581726,
                        0.48357826471328735
                    ],
                    [
                        -0.19711540639400482,
                        0.0451657734811306,
                        -0.23546090722084045,
                        -0.16268616914749146,
                        -0.0041406103409826756,
                        0.2228476107120514,
                        -0.1704566925764084,
                        0.5624949932098389,
                        0.8256683349609375,
                        0.5621327757835388,
                        0.14036554098129272,
                        0.17656967043876648,
                        -0.12126027792692184,
                        -0.29521381855010986,
                        0.10228822380304337,
                        0.650091290473938
                    ],
                    [
                        0.06044094264507294,
                        -0.3056875467300415,
                        -0.06036721542477608,
                        -0.5015419125556946,
                        0.2936382293701172,
                        -0.2953821122646332,
                        0.5157544612884521,
                        -0.10896027088165283,
                        0.046939264982938766,
                        -0.17153102159500122,
                        0.0664505660533905,
                        -0.10169953107833862,
                        -0.14017949998378754,
                        0.1818360835313797,
                        -0.294486403465271,
                        -0.10607125610113144
                    ],
                    [
                        -0.37393465638160706,
                        0.35436540842056274,
                        -0.27051836252212524,
                        -0.34712234139442444,
                        0.25976037979125977,
                        0.001056844019331038,
                        -0.18054154515266418,
                        0.30145329236984253,
                        -0.12983188033103943,
                        -0.05712728574872017,
                        -0.30897560715675354,
                        0.15370899438858032,
                        -0.3066859245300293,
                        0.23646172881126404,
                        0.04494040831923485,
                        0.26794731616973877
                    ],
                    [
                        -0.15391206741333008,
                        0.2724226117134094,
                        0.28501617908477783,
                        0.7477997541427612,
                        0.0404328815639019,
                        0.12041446566581726,
                        0.13965556025505066,
                        0.29015442728996277,
                        0.5695968866348267,
                        -0.052043188363313675,
                        -1.223127007484436,
                        0.4164453148841858,
                        -0.012502702884376049,
                        -0.015061010606586933,
                        -0.09545376151800156,
                        -0.1360684037208557
                    ],
                    [
                        0.22360780835151672,
                        -0.13513267040252686,
                        -0.1185840293765068,
                        0.346525639295578,
                        0.46957656741142273,
                        0.6177884936332703,
                        -0.09526649862527847,
                        0.0577152818441391,
                        -0.131755530834198,
                        -0.2034301608800888,
                        -0.14534883201122284,
                        -0.03684978187084198,
                        -0.3392370343208313,
                        -0.1242133304476738,
                        0.19159846007823944,
                        -0.23415665328502655
                    ],
                    [
                        0.4320446848869324,
                        0.40281882882118225,
                        0.02399568259716034,
                        -0.08205633610486984,
                        0.20313647389411926,
                        0.08880370855331421,
                        0.3540342152118683,
                        -0.012040029279887676,
                        -0.2229975014925003,
                        0.4552720785140991,
                        0.5072277784347534,
                        0.32742056250572205,
                        0.1289493888616562,
                        0.14948111772537231,
                        -0.36438047885894775,
                        0.39461085200309753
                    ],
                    [
                        0.3384988605976105,
                        -0.13454103469848633,
                        0.03352954238653183,
                        -0.3583070933818817,
                        -0.2489570826292038,
                        -0.018178239464759827,
                        0.1056797206401825,
                        0.5117996335029602,
                        -0.11772672086954117,
                        -0.15389148890972137,
                        -0.4702931344509125,
                        0.4034779965877533,
                        0.18218910694122314,
                        -0.31380587816238403,
                        0.22845424711704254,
                        -0.1955537497997284
                    ],
                    [
                        0.014148139394819736,
                        0.5059645771980286,
                        0.2888481318950653,
                        -0.12881453335285187,
                        0.20948481559753418,
                        -0.18647582828998566,
                        -0.4790400564670563,
                        -0.44236066937446594,
                        0.3379107415676117,
                        0.6757733821868896,
                        0.19879603385925293,
                        0.33604130148887634,
                        -0.7904852032661438,
                        -0.5311769247055054,
                        0.1835213005542755,
                        0.472069650888443
                    ],
                    [
                        0.3514229953289032,
                        -0.067257359623909,
                        -0.2357281595468521,
                        -0.5177536010742188,
                        -0.014206092804670334,
                        0.06063476949930191,
                        0.12606076896190643,
                        -0.13700734078884125,
                        0.3386560082435608,
                        1.1398382186889648,
                        -0.13056625425815582,
                        -0.11996552348136902,
                        -0.05423874035477638,
                        0.01887466385960579,
                        0.15186944603919983,
                        0.5496035814285278
                    ]
                ],
                [
                    0.004524705931544304,
                    0.052759379148483276,
                    -0.19123557209968567,
                    0.010345191694796085,
                    -0.07161016762256622,
                    0.021431060507893562,
                    -0.04078716039657593,
                    0.08023551106452942,
                    0.0652109757065773,
                    0.2582729458808899,
                    -0.18087798357009888,
                    -0.004874665755778551,
                    0.01673034578561783,
                    0.027580086141824722,
                    -0.008132589049637318,
                    -0.027146978303790092
                ]
            ],
            "activation": "tanh"
        },
        {
            "type": "dense",
            "shape": [
                null,
                16
            ],
            "weights": [
                [
                    [
                        0.04982977360486984,
                        -0.3313063681125641,
                        -0.4330945312976837,
                        0.38208386301994324,
                        0.8601521849632263,
                        0.026711933314800262,
                        0.39565667510032654,
                        0.35037586092948914,
                        0.07041993737220764,
                        0.011532196775078773,
                        0.3380623459815979,
                        -0.45877429842948914,
                        0.0023917504586279392,
                        -0.030543792992830276,
                        0.10437294095754623,
                        -0.24381205439567566
                    ],
                    [
                        -0.6558932662010193,
                        0.22362737357616425,
                        0.1594279557466507,
                        -0.13359664380550385,
                        0.026455776765942574,
                        -0.13402022421360016,
                        -0.33784252405166626,
                        0.264096200466156,
                        -0.25344958901405334,
                        -0.07469236850738525,
                        -0.20260417461395264,
                        0.18693560361862183,
                        0.4042639136314392,
                        0.1436437964439392,
                        0.16401056945323944,
                        -0.2990543842315674
                    ],
                    [
                        -0.8075689673423767,
                        0.1845524162054062,
                        0.7236824631690979,
                        -0.07896514981985092,
                        -0.1576385796070099,
                        0.4277600646018982,
                        0.06905870139598846,
                        -0.4394131302833557,
                        0.09411754459142685,
                        0.037642136216163635,
                        -0.19522005319595337,
                        -0.09401104599237442,
                        -0.18101809918880463,
                        -0.41401830315589905,
                        0.024296360090374947,
                        0.1326434314250946
                    ],
                    [
                        0.1229160726070404,
                        -0.18460145592689514,
                        0.39859193563461304,
                        0.16577990353107452,
                        -0.3222443759441376,
                        -0.00694651622325182,
                        -0.30897343158721924,
                        -0.30791813135147095,
                        -0.3705461919307709,
                        -0.1458067148923874,
                        -0.38888004422187805,
                        -0.32368722558021545,
                        0.1470683366060257,
                        -0.26668691635131836,
                        0.4023401439189911,
                        -0.27882254123687744
                    ],
                    [
                        -0.6420292258262634,
                        -0.15936706960201263,
                        0.3093821704387665,
                        -0.17907030880451202,
                        -0.5438246130943298,
                        0.0057145687751472,
                        -0.19846758246421814,
                        -0.36805206537246704,
                        -0.0770423412322998,
                        0.07148564606904984,
                        -0.63799649477005,
                        -0.02415844053030014,
                        -0.5560998916625977,
                        -0.042217981070280075,
                        -1.0914523601531982,
                        -0.41516178846359253
                    ],
                    [
                        -0.5236732959747314,
                        -0.13879108428955078,
                        0.7805748581886292,
                        -0.7691928744316101,
                        -0.3072192370891571,
                        -0.19044096767902374,
                        -0.22708041965961456,
                        -0.1995420753955841,
                        -0.3004281520843506,
                        -0.41425496339797974,
                        0.09170104563236237,
                        0.49839702248573303,
                        -0.29717496037483215,
                        -0.6975363492965698,
                        -0.33555129170417786,
                        -0.3176840841770172
                    ],
                    [
                        0.137051060795784,
                        0.18804931640625,
                        -0.904024064540863,
                        0.301876038312912,
                        0.1578492522239685,
                        -0.6625539064407349,
                        0.8522005081176758,
                        0.16862154006958008,
                        0.2351345270872116,
                        0.42291682958602905,
                        0.06445525586605072,
                        -0.8778748512268066,
                        0.5145595073699951,
                        -0.2655726969242096,
                        0.6082031726837158,
                        0.39940452575683594
                    ],
                    [
                        0.030540334060788155,
                        0.13814105093479156,
                        -0.055501580238342285,
                        -0.3628004193305969,
                        0.17263945937156677,
                        -0.3733878433704376,
                        -0.10472577810287476,
                        -0.12201889604330063,
                        0.034169476479291916,
                        0.14344851672649384,
                        0.26900699734687805,
                        0.2298034131526947,
                        -0.5477038621902466,
                        0.3563266098499298,
                        0.9659346342086792,
                        -0.10080228745937347
                    ],
                    [
                        -0.037734102457761765,
                        0.2597903907299042,
                        -0.07649680227041245,
                        0.16354982554912567,
                        -0.338168740272522,
                        -0.1770729422569275,
                        -0.4348355233669281,
                        0.2741422951221466,
                        -0.06244023144245148,
                        -0.5782710909843445,
                        0.0009046831983141601,
                        0.5560312867164612,
                        -0.6624051928520203,
                        -0.25422608852386475,
                        0.31228139996528625,
                        0.06664080172777176
                    ],
                    [
                        0.146312415599823,
                        -0.18098369240760803,
                        -0.10048516094684601,
                        0.20071503520011902,
                        0.46361035108566284,
                        -0.14671263098716736,
                        0.4532769024372101,
                        0.28942209482192993,
                        -0.5863204598426819,
                        0.11553686857223511,
                        -0.09691954404115677,
                        0.5055117011070251,
                        -0.43832331895828247,
                        0.1267116367816925,
                        -0.14208383858203888,
                        0.27666932344436646
                    ],
                    [
                        0.14869022369384766,
                        -0.08989275991916656,
                        -0.18805977702140808,
                        0.19646364450454712,
                        -0.2213207334280014,
                        0.0778629407286644,
                        1.1353214979171753,
                        0.16345585882663727,
                        0.16715240478515625,
                        0.05326761677861214,
                        0.04192803427577019,
                        0.027022918686270714,
                        -0.016825206577777863,
                        0.08433444052934647,
                        -0.14059631526470184,
                        -0.42372584342956543
                    ],
                    [
                        -0.08885999768972397,
                        0.07491221278905869,
                        -0.022839372977614403,
                        0.1721186488866806,
                        -0.001152350683696568,
                        -0.044273510575294495,
                        -0.33690711855888367,
                        -0.5914628505706787,
                        -0.35778599977493286,
                        -0.30346420407295227,
                        0.1354333460330963,
                        1.1005281209945679,
                        -0.09633344411849976,
                        -0.17179332673549652,
                        -0.05224459618330002,
                        -0.18565063178539276
                    ],
                    [
                        -0.04661694914102554,
                        -0.650467574596405,
                        -0.6959319114685059,
                        0.07524464279413223,
                        0.00634228577837348,
                        0.234808087348938,
                        0.2856143116950989,
                        0.36542487144470215,
                        0.2320667952299118,
                        0.5973727703094482,
                        0.38272377848625183,
                        -0.16875183582305908,
                        0.2778572142124176,
                        0.09330357611179352,
                        0.5664272904396057,
                        0.44066113233566284
                    ],
                    [
                        -0.008131107315421104,
                        -0.5957682132720947,
                        0.0023353183642029762,
                        0.16478917002677917,
                        0.3926054537296295,
                        -0.4454489052295685,
                        0.3211744427680969,
                        0.1253548413515091,
                        0.6441758871078491,
                        0.00959128700196743,
                        -0.12382902204990387,
                        -0.1991654634475708,
                        0.45012933015823364,
                        0.3660682737827301,
                        0.21698696911334991,
                        0.4423203766345978
                    ],
                    [
                        -0.06040570139884949,
                        0.09282250702381134,
                        -0.3091404438018799,
                        -0.3746736943721771,
                        -0.12877966463565826,
                        0.1728433072566986,
                        0.04690282791852951,
                        -0.2705294191837311,
                        -0.26568225026130676,
                        -0.6526317596435547,
                        -0.21512730419635773,
                        -0.1380598396062851,
                        0.08188525587320328,
                        0.10461227595806122,
                        0.07444363832473755,
                        0.1847800463438034
                    ],
                    [
                        0.4395281970500946,
                        0.07447253167629242,
                        -0.12950529158115387,
                        -0.30386170744895935,
                        0.48688215017318726,
                        0.2761176526546478,
                        -0.27687379717826843,
                        0.1837041676044464,
                        0.0014875041088089347,
                        0.04739107936620712,
                        -0.56095290184021,
                        0.8051427006721497,
                        -0.2989042103290558,
                        -0.3131603002548218,
                        0.054316580295562744,
                        -0.2015017867088318
                    ]
                ],
                [
                    0.10552924871444702,
                    0.05759195238351822,
                    0.015954382717609406,
                    -0.001475467928685248,
                    0.035747360438108444,
                    0.008255237713456154,
                    -0.013619630597531796,
                    0.04641171917319298,
                    -0.06173320114612579,
                    -0.0033353909384459257,
                    0.01260648388415575,
                    0.20356230437755585,
                    0.00738854706287384,
                    0.02563358098268509,
                    0.04829377681016922,
                    0.014855974353849888
                ]
            ],
            "activation": "tanh"
        },
        {
            "type": "dense",
            "shape": [
                null,
                1
            ],
            "weights": [
                [
                    [
                        -0.38823235034942627
                    ],
                    [
                        0.226205974817276
                    ],
                    [
                        0.4887402355670929
                    ],
                    [
                        -0.48668718338012695
                    ],
                    [
                        -0.9153426289558411
                    ],
                    [
                        0.12528365850448608
                    ],
                    [
                        -0.6660472750663757
                    ],
                    [
                        -0.22531887888908386
                    ],
                    [
                        -0.7634871602058411
                    ],
                    [
                        -0.44402071833610535
                    ],
                    [
                        -0.5634723901748657
                    ],
                    [
                        0.3423937261104584
                    ],
                    [
                        -0.259142130613327
                    ],
                    [
                        -0.5050527453422546
                    ],
                    [
                        -0.6101177930831909
                    ],
                    [
                        -0.5345169901847839
                    ]
                ],
                [
                    -0.006287368480116129
                ]
            ],
            "activation": ""
        }
    ]
}