{
    "in_shape": [
        null,
        2
    ],
    "layers": [
        {
            "type": "dense",
            "shape": [
                null,
                8
            ],
            "weights": [
                [
                    [
                        0.3453211486339569,
                        1.0045307874679565,
                        -0.3392355144023895,
                        -1.059380054473877,
                        0.23760387301445007,
                        -0.3926142156124115,
                        0.27756020426750183,
                        0.4321572780609131
                    ],
                    [
                        -0.14068220555782318,
                        -0.03763768449425697,
                        -0.07818835228681564,
                        -0.08453501015901566,
                        0.0035928748548030853,
                        0.3547344505786896,
                        0.1585536003112793,
                        -0.11429819464683533
                    ]
                ],
                [
                    0.02687707543373108,
                    0.2380151003599167,
                    0.23080620169639587,
                    0.8463640809059143,
                    -0.10057729482650757,
                    0.3628653883934021,
                    0.14545021951198578,
                    0.7494326233863831
                ]
            ],
            "activation": "tanh"
        },
        {
            "type": "dense",
            "shape": [
                null,
                8
            ],
            "weights": [
                [
                    [
                        0.27114051580429077,
                        0.23173879086971283,
                        0.4205577075481415,
                        -0.4027218520641327,
                        0.1049540787935257,
                        -0.4001867175102234,
                        -0.22003339231014252,
                        -0.5587165355682373
                    ],
                    [
                        -0.07909931987524033,
                        0.09044090658426285,
                        0.05634981021285057,
                        0.3214631676673889,
                        0.4910852313041687,
                        -0.7702683210372925,
                        -0.4933396577835083,
                        0.2328750342130661
                    ],
                    [
                        -0.028846241533756256,
                        -0.12740099430084229,
                        -0.051230043172836304,
                        0.4532989263534546,
                        -0.8583310842514038,
                        -0.6351251006126404,
                        -0.17207936942577362,
                        -0.14412328600883484
                    ],
                    [
                        0.19104167819023132,
                        -0.9048322439193726,
                        0.2474120706319809,
                        -0.2609907388687134,
                        0.03188079595565796,
                        -0.2770727276802063,
                        -0.1669425666332245,
                        0.060358814895153046
                    ],
                    [
                        1.0186021327972412,
                        -0.8986577987670898,
                        -0.5729768872261047,
                        1.0622220039367676,
                        -0.5810968279838562,
                        -0.10179443657398224,
                        0.10773080587387085,
                        0.9033421277999878
                    ],
                    [
                        0.28717246651649475,
                        -0.24627603590488434,
                        -0.36051785945892334,
                        -0.17342737317085266,
                        -0.21029244363307953,
                        0.13233906030654907,
                        0.22840487957000732,
                        -0.42049530148506165
                    ],
                    [
                        -0.16340942680835724,
                        -0.16388410329818726,
                        0.09436759352684021,
                        0.4218156933784485,
                        0.27003490924835205,
                        0.31836292147636414,
                        -0.6321790218353271,
                        -0.4639105498790741
                    ],
                    [
                        -0.2165105640888214,
                        -0.26110872626304626,
                        -0.8252558708190918,
                        -0.04282107204198837,
                        0.5533329248428345,
                        -0.1660098135471344,
                        -0.9238204956054688,
                        -0.2656174302101135
                    ]
                ],
                [
                    0.021228615194559097,
                    -0.07664971798658371,
                    -0.21962125599384308,
                    -0.1295483112335205,
                    0.004679549485445023,
                    0.33408841490745544,
                    -0.6470070481300354,
                    0.1335267722606659
                ]
            ],
            "activation": "tanh"
        },
        {
            "type": "dense",
            "shape": [
                null,
                8
            ],
            "weights": [
                [
                    [
                        0.44022801518440247,
                        0.036407798528671265,
                        -0.862429678440094,
                        -1.2297836542129517,
                        0.4401407539844513,
                        0.48718950152397156,
                        1.1566985845565796,
                        0.25796520709991455
                    ],
                    [
                        0.28695544600486755,
                        0.889431357383728,
                        -0.07135193049907684,
                        0.4570446014404297,
                        -1.0109916925430298,
                        -0.41604939103126526,
                        -0.6018931269645691,
                        -0.17592258751392365
                    ],
                    [
                        -0.3621729612350464,
                        -1.0480786561965942,
                        0.322061687707901,
                        0.09996125847101212,
                        -0.785241961479187,
                        0.7253793478012085,
                        -0.44633662700653076,
                        -0.43734514713287354
                    ],
                    [
                        0.707301914691925,
                        0.976689338684082,
                        0.3379649817943573,
                        -0.49733930826187134,
                        0.09006639569997787,
                        0.43544572591781616,
                        0.26128411293029785,
                        1.0404413938522339
                    ],
                    [
                        -0.1070367693901062,
                        -0.5290868878364563,
                        0.7303951978683472,
                        0.8264731168746948,
                        -0.7430702447891235,
                        -1.897750973701477,
                        -0.21711647510528564,
                        -0.5847340226173401
                    ],
                    [
                        -0.6557875871658325,
                        0.3155464231967926,
                        0.27476200461387634,
                        0.2136649638414383,
                        -0.3334295451641083,
                        0.040996041148900986,
                        0.4874405860900879,
                        -0.22932742536067963
                    ],
                    [
                        0.5708994269371033,
                        0.08263812959194183,
                        0.026301881298422813,
                        0.033930011093616486,
                        0.036967504769563675,
                        1.1383299827575684,
                        -0.11513061076402664,
                        -0.6609541177749634
                    ],
                    [
                        0.702084481716156,
                        0.07829692959785461,
                        -0.5518930554389954,
                        -0.00898726750165224,
                        0.3364105820655823,
                        1.1851967573165894,
                        0.9497087001800537,
                        0.9540528059005737
                    ]
                ],
                [
                    -0.052787650376558304,
                    0.06511914730072021,
                    -0.12525546550750732,
                    -0.013610796071588993,
                    -0.04827515780925751,
                    -0.16126114130020142,
                    0.08920061588287354,
                    0.16572590172290802
                ]
            ],
            "activation": "tanh"
        },
        {
            "type": "dense",
            "shape": [
                null,
                1
            ],
            "weights": [
                [
                    [
                        1.205254077911377
                    ],
                    [
                        0.4855097532272339
                    ],
                    [
                        -0.6194769144058228
                    ],
                    [
                        -1.39386785030365
                    ],
                    [
                        1.2608548402786255
                    ],
                    [
                        0.8179501891136169
                    ],
                    [
                        1.055334448814392
                    ],
                    [
                        1.3176820278167725
                    ]
                ],
                [
                    -0.016284829005599022
                ]
            ],
            "activation": ""
        }
    ]
}