{
    "in_shape": [
        null,
        2
    ],
    "layers": [
        {
            "type": "dense",
            "shape": [
                null,
                8
            ],
            "weights": [
                [
                    [
                        0.35288962721824646,
                        1.0056976079940796,
                        -0.3443588316440582,
                        -1.0700204372406006,
                        0.2310202568769455,
                        -0.4004818797111511,
                        0.28267258405685425,
                        0.43824905157089233
                    ],
                    [
                        -0.14061617851257324,
                        -0.03868282586336136,
                        -0.07848960161209106,
                        -0.08496753126382828,
                        0.003606456331908703,
                        0.3551010489463806,
                        0.15956956148147583,
                        -0.11435777693986893
                    ]
                ],
                [
                    0.026942580938339233,
                    0.2370794713497162,
                    0.23043465614318848,
                    0.8460109233856201,
                    -0.10059118270874023,
                    0.3632694482803345,
                    0.1465594470500946,
                    0.749431312084198
                ]
            ],
            "activation": "tanh"
        },
        {
            "type": "dense",
            "shape": [
                null,
                8
            ],
            "weights": [
                [
                    [
                        0.2711583971977234,
                        0.23179306089878082,
                        0.42012840509414673,
                        -0.4026220738887787,
                        0.10455508530139923,
                        -0.3991405665874481,
                        -0.2288646548986435,
                        -0.5583178997039795
                    ],
                    [
                        -0.08525469154119492,
                        0.09992634505033493,
                        0.06136937066912651,
                        0.31589213013648987,
                        0.49629494547843933,
                        -0.761591911315918,
                        -0.5005143284797668,
                        0.22658856213092804
                    ],
                    [
                        -0.028417840600013733,
                        -0.13093897700309753,
                        -0.05145108699798584,
                        0.453369677066803,
                        -0.8581470251083374,
                        -0.6375378370285034,
                        -0.1761218160390854,
                        -0.1434704214334488
                    ],
                    [
                        0.19576534628868103,
                        -0.9130309224128723,
                        0.243592768907547,
                        -0.25654157996177673,
                        0.027498476207256317,
                        -0.2848246991634369,
                        -0.15907813608646393,
                        0.06544357538223267
                    ],
                    [
                        1.0164028406143188,
                        -0.8949023485183716,
                        -0.5723000168800354,
                        1.0606474876403809,
                        -0.5801335573196411,
                        -0.09791851788759232,
                        0.09626216441392899,
                        0.9007387161254883
                    ],
                    [
                        0.28722018003463745,
                        -0.2460765540599823,
                        -0.36019787192344666,
                        -0.1734335571527481,
                        -0.21002380549907684,
                        0.13151873648166656,
                        0.2367921769618988,
                        -0.42080745100975037
                    ],
                    [
                        -0.16331088542938232,
                        -0.16356121003627777,
                        0.09459161758422852,
                        0.4218918979167938,
                        0.27018505334854126,
                        0.317658931016922,
                        -0.6240715980529785,
                        -0.4641548693180084
                    ],
                    [
                        -0.2210673689842224,
                        -0.25544214248657227,
                        -0.821651041507721,
                        -0.0471721887588501,
                        0.5573213696479797,
                        -0.1604434698820114,
                        -0.9326922297477722,
                        -0.2707025408744812
                    ]
                ],
                [
                    0.02127782814204693,
                    -0.07644622772932053,
                    -0.21930335462093353,
                    -0.12955276668071747,
                    0.004945653025060892,
                    0.3332715332508087,
                    -0.6386290192604065,
                    0.13321633636951447
                ]
            ],
            "activation": "tanh"
        },
        {
            "type": "dense",
            "shape": [
                null,
                8
            ],
            "weights": [
                [
                    [
                        0.44721874594688416,
                        0.04097513109445572,
                        -0.8675048351287842,
                        -1.2363780736923218,
                        0.447213351726532,
                        0.5077438950538635,
                        1.1650137901306152,
                        0.26392748951911926
                    ],
                    [
                        0.28386810421943665,
                        0.8891755938529968,
                        -0.07098905742168427,
                        0.45791587233543396,
                        -1.012463092803955,
                        -0.4154808819293976,
                        -0.601241946220398,
                        -0.17525361478328705
                    ],
                    [
                        -0.36232802271842957,
                        -1.04949152469635,
                        0.3228950500488281,
                        0.10070416331291199,
                        -0.7851126194000244,
                        0.7263736724853516,
                        -0.44530755281448364,
                        -0.43727192282676697
                    ],
                    [
                        0.6988958716392517,
                        0.9718798995018005,
                        0.3441189229488373,
                        -0.49081459641456604,
                        0.08228451758623123,
                        0.4385071396827698,
                        0.25312289595603943,
                        1.0342751741409302
                    ],
                    [
                        -0.11549080163240433,
                        -0.5342271327972412,
                        0.7382510900497437,
                        0.8342462182044983,
                        -0.7513327598571777,
                        -1.896931529045105,
                        -0.2264942079782486,
                        -0.5930267572402954
                    ],
                    [
                        -0.6546846628189087,
                        0.315769761800766,
                        0.27471810579299927,
                        0.21332445740699768,
                        -0.33321383595466614,
                        0.04012129455804825,
                        0.48620498180389404,
                        -0.23031491041183472
                    ],
                    [
                        0.5712452530860901,
                        0.08178737014532089,
                        0.026535749435424805,
                        0.034138601273298264,
                        0.037565723061561584,
                        1.1408095359802246,
                        -0.11348344385623932,
                        -0.6602570414543152
                    ],
                    [
                        0.7018752098083496,
                        0.08006884157657623,
                        -0.5537703037261963,
                        -0.010518252849578857,
                        0.3376132845878601,
                        1.1869033575057983,
                        0.9527448415756226,
                        0.9568402171134949
                    ]
                ],
                [
                    -0.05171191692352295,
                    0.06553737074136734,
                    -0.12547780573368073,
                    -0.014099102467298508,
                    -0.04800618812441826,
                    -0.16217711567878723,
                    0.08810834586620331,
                    0.1649065613746643
                ]
            ],
            "activation": "tanh"
        },
        {
            "type": "dense",
            "shape": [
                null,
                1
            ],
            "weights": [
                [
                    [
                        1.205414056777954
                    ],
                    [
                        0.4808468520641327
                    ],
                    [
                        -0.622730553150177
                    ],
                    [
                        -1.4043476581573486
                    ],
                    [
                        1.2648155689239502
                    ],
                    [
                        0.8200355172157288
                    ],
                    [
                        1.056377649307251
                    ],
                    [
                        1.3174299001693726
                    ]
                ],
                [
                    -0.016069604083895683
                ]
            ],
            "activation": ""
        }
    ]
}