{
    "in_shape": [
        null,
        2
    ],
    "layers": [
        {
            "type": "dense",
            "shape": [
                null,
                8
            ],
            "weights": [
                [
                    [
                        0.4200599789619446,
                        -0.5534446239471436,
                        -0.4311067461967468,
                        -0.7294648885726929,
                        0.19234111905097961,
                        -0.4869235157966614,
                        -0.2290986180305481,
                        -0.23839524388313293
                    ],
                    [
                        -0.1381102353334427,
                        -0.38365429639816284,
                        -0.1433434635400772,
                        -0.05267421528697014,
                        -0.04453519731760025,
                        -0.0797976702451706,
                        0.002948699751868844,
                        -0.00728841545060277
                    ]
                ],
                [
                    -0.2892162799835205,
                    -1.2758104801177979,
                    0.08231762796640396,
                    0.6710079908370972,
                    0.3117608428001404,
                    0.408434122800827,
                    0.03498845919966698,
                    -0.14683328568935394
                ]
            ],
            "activation": "tanh"
        },
        {
            "type": "dense",
            "shape": [
                null,
                8
            ],
            "weights": [
                [
                    [
                        0.03131475672125816,
                        -0.3640952706336975,
                        -0.8254990577697754,
                        -0.06893949955701828,
                        0.13997657597064972,
                        0.3429523706436157,
                        0.03532245382666588,
                        -0.29517459869384766
                    ],
                    [
                        0.08086724579334259,
                        -0.28939828276634216,
                        -0.03690992668271065,
                        -0.0157246682792902,
                        -0.5743699073791504,
                        -0.34986406564712524,
                        0.4749302864074707,
                        -0.5771467089653015
                    ],
                    [
                        0.7057940363883972,
                        0.023393666371703148,
                        0.0617496632039547,
                        0.00538014667108655,
                        -0.053851548582315445,
                        -0.17026802897453308,
                        -0.16756777465343475,
                        0.13783161342144012
                    ],
                    [
                        -0.10233327746391296,
                        -0.0033084137830883265,
                        -0.32496586441993713,
                        -0.49831655621528625,
                        1.2880195379257202,
                        -0.46309366822242737,
                        0.5723676681518555,
                        0.8785987496376038
                    ],
                    [
                        -0.6679826974868774,
                        -0.3520203232765198,
                        0.5234366655349731,
                        1.6460398435592651,
                        0.06407728791236877,
                        0.9321274757385254,
                        -0.24814406037330627,
                        0.6354973912239075
                    ],
                    [
                        -0.2193685919046402,
                        0.37610942125320435,
                        0.5389434695243835,
                        0.10931438952684402,
                        0.9295175075531006,
                        -0.15643754601478577,
                        -0.018544837832450867,
                        -0.14816661179065704
                    ],
                    [
                        -0.6629434823989868,
                        -0.32279184460639954,
                        -1.207923412322998,
                        -1.387825608253479,
                        -0.14865268766880035,
                        -1.0956437587738037,
                        -0.7787256240844727,
                        0.3117607831954956
                    ],
                    [
                        -0.42340078949928284,
                        -1.0258746147155762,
                        -0.3022916316986084,
                        -1.474176287651062,
                        0.018424810841679573,
                        -0.14952413737773895,
                        -0.5884527564048767,
                        0.28565746545791626
                    ]
                ],
                [
                    0.05710076168179512,
                    -0.14461959898471832,
                    0.0954117625951767,
                    0.2169433981180191,
                    0.39176279306411743,
                    -0.18604043126106262,
                    -0.001348035642877221,
                    0.13841839134693146
                ]
            ],
            "activation": "tanh"
        },
        {
            "type": "dense",
            "shape": [
                null,
                8
            ],
            "weights": [
                [
                    [
                        -0.3815826177597046,
                        1.178531289100647,
                        0.9814444184303284,
                        0.6498426795005798,
                        -0.09387131780385971,
                        -0.4885038137435913,
                        -0.7946064472198486,
                        -0.859116792678833
                    ],
                    [
                        -0.4892050325870514,
                        0.6768636703491211,
                        -0.11283905059099197,
                        0.5829874873161316,
                        1.3103023767471313,
                        -0.5715133547782898,
                        -0.5851771235466003,
                        -0.16770832240581512
                    ],
                    [
                        -0.5657522678375244,
                        -0.11450827121734619,
                        0.25457853078842163,
                        -0.25389760732650757,
                        1.055807113647461,
                        -1.4959981441497803,
                        -0.8004321455955505,
                        -0.06857012957334518
                    ],
                    [
                        -0.2361120581626892,
                        0.2832173705101013,
                        -0.5873686671257019,
                        -1.5972789525985718,
                        -0.011211126111447811,
                        -0.7640336155891418,
                        0.2314150184392929,
                        -0.04238975793123245
                    ],
                    [
                        0.14757390320301056,
                        -0.42570990324020386,
                        -0.14537785947322845,
                        0.13846656680107117,
                        0.002655656775459647,
                        -0.13462907075881958,
                        -0.8761340975761414,
                        0.3630902171134949
                    ],
                    [
                        0.6325516104698181,
                        0.1781993806362152,
                        0.1565074771642685,
                        -0.6217468976974487,
                        0.12427528947591782,
                        -0.4378677010536194,
                        0.37084442377090454,
                        0.3463713824748993
                    ],
                    [
                        -0.732930600643158,
                        0.17980222404003143,
                        1.6229649782180786,
                        -0.24067530035972595,
                        0.8364149332046509,
                        -0.6661633849143982,
                        -0.9768070578575134,
                        -1.0329705476760864
                    ],
                    [
                        0.6134384274482727,
                        -0.6617464423179626,
                        -0.8999548554420471,
                        -0.42849472165107727,
                        0.1845308095216751,
                        -0.23744432628154755,
                        0.03337707743048668,
                        -0.22037725150585175
                    ]
                ],
                [
                    0.0020628711208701134,
                    -0.0883573591709137,
                    -0.11076466739177704,
                    0.0991174504160881,
                    0.0006558751920238137,
                    0.17456258833408356,
                    -0.013078399933874607,
                    -0.03013473190367222
                ]
            ],
            "activation": "tanh"
        },
        {
            "type": "dense",
            "shape": [
                null,
                1
            ],
            "weights": [
                [
                    [
                        -0.6651504635810852
                    ],
                    [
                        0.997356653213501
                    ],
                    [
                        0.7497445344924927
                    ],
                    [
                        0.5930664539337158
                    ],
                    [
                        0.7763173580169678
                    ],
                    [
                        -0.6769915223121643
                    ],
                    [
                        -1.7434335947036743
                    ],
                    [
                        -1.1073240041732788
                    ]
                ],
                [
                    0.01740599237382412
                ]
            ],
            "activation": ""
        }
    ]
}