{
    "in_shape": [
        null,
        2
    ],
    "layers": [
        {
            "type": "dense",
            "shape": [
                null,
                8
            ],
            "weights": [
                [
                    [
                        0.3478531539440155,
                        1.003849983215332,
                        -0.33801376819610596,
                        -1.0669996738433838,
                        0.23670873045921326,
                        -0.3976532220840454,
                        0.2744339406490326,
                        0.43059802055358887
                    ],
                    [
                        -0.14061295986175537,
                        -0.03705569729208946,
                        -0.07797346264123917,
                        -0.0869598388671875,
                        0.0036558005958795547,
                        0.35420218110084534,
                        0.1593250185251236,
                        -0.11390719562768936
                    ]
                ],
                [
                    0.026935061439871788,
                    0.23858807981014252,
                    0.23102867603302002,
                    0.8439470529556274,
                    -0.10050515830516815,
                    0.3623461127281189,
                    0.1462230086326599,
                    0.7498188614845276
                ]
            ],
            "activation": "tanh"
        },
        {
            "type": "dense",
            "shape": [
                null,
                8
            ],
            "weights": [
                [
                    [
                        0.2710789144039154,
                        0.23077061772346497,
                        0.4211519658565521,
                        -0.40302443504333496,
                        0.10502007603645325,
                        -0.4007768929004669,
                        -0.21235792338848114,
                        -0.5585914850234985
                    ],
                    [
                        -0.07971309870481491,
                        0.09563583880662918,
                        0.05628857761621475,
                        0.32179951667785645,
                        0.4897041320800781,
                        -0.7648570537567139,
                        -0.47751420736312866,
                        0.23323756456375122
                    ],
                    [
                        -0.028068233281373978,
                        -0.12942777574062347,
                        -0.0513836108148098,
                        0.453627347946167,
                        -0.8584411144256592,
                        -0.6368580460548401,
                        -0.16964225471019745,
                        -0.1434698849916458
                    ],
                    [
                        0.1905633807182312,
                        -0.9082746505737305,
                        0.2477353811264038,
                        -0.26176130771636963,
                        0.03320799767971039,
                        -0.28095805644989014,
                        -0.18625110387802124,
                        0.05907841771841049
                    ],
                    [
                        1.0200154781341553,
                        -0.8970795273780823,
                        -0.5740500688552856,
                        1.0637472867965698,
                        -0.5830883979797363,
                        -0.09965242445468903,
                        0.12461323291063309,
                        0.9054853916168213
                    ],
                    [
                        0.28719374537467957,
                        -0.2451791912317276,
                        -0.3611125648021698,
                        -0.17311625182628632,
                        -0.21044576168060303,
                        0.13308441638946533,
                        0.22167737782001495,
                        -0.4206058382987976
                    ],
                    [
                        -0.16341127455234528,
                        -0.16270236670970917,
                        0.09377104789018631,
                        0.4221312999725342,
                        0.2698325216770172,
                        0.3192022144794464,
                        -0.6384789943695068,
                        -0.4640125334262848
                    ],
                    [
                        -0.2156151980161667,
                        -0.25925755500793457,
                        -0.8258641362190247,
                        -0.041796356439590454,
                        0.5517420172691345,
                        -0.16363604366779327,
                        -0.9061527252197266,
                        -0.2639915943145752
                    ]
                ],
                [
                    0.02124873548746109,
                    -0.07555051147937775,
                    -0.2202155590057373,
                    -0.12923744320869446,
                    0.004524792078882456,
                    0.33483681082725525,
                    -0.6537157297134399,
                    0.13341616094112396
                ]
            ],
            "activation": "tanh"
        },
        {
            "type": "dense",
            "shape": [
                null,
                8
            ],
            "weights": [
                [
                    [
                        0.44335684180259705,
                        0.03816206008195877,
                        -0.8644824624061584,
                        -1.2321510314941406,
                        0.44306284189224243,
                        0.4812661111354828,
                        1.1593120098114014,
                        0.2597208023071289
                    ],
                    [
                        0.28700101375579834,
                        0.8890619874000549,
                        -0.07122765481472015,
                        0.45743328332901,
                        -1.0111738443374634,
                        -0.4121676981449127,
                        -0.6016858220100403,
                        -0.1759163737297058
                    ],
                    [
                        -0.36080434918403625,
                        -1.048332691192627,
                        0.32193538546562195,
                        0.09942125529050827,
                        -0.7839832901954651,
                        0.7270844578742981,
                        -0.44555938243865967,
                        -0.43747618794441223
                    ],
                    [
                        0.7015404105186462,
                        0.9738601446151733,
                        0.34138205647468567,
                        -0.49278512597084045,
                        0.0843978226184845,
                        0.44298940896987915,
                        0.25684377551078796,
                        1.037711262702942
                    ],
                    [
                        -0.1119438111782074,
                        -0.532059907913208,
                        0.7337992787361145,
                        0.8306658267974854,
                        -0.7479413747787476,
                        -1.8902490139007568,
                        -0.2212507575750351,
                        -0.5876146554946899
                    ],
                    [
                        -0.6562539935112,
                        0.3160931468009949,
                        0.2744438946247101,
                        0.2134186327457428,
                        -0.3337468206882477,
                        0.03750481829047203,
                        0.4872370958328247,
                        -0.2290239781141281
                    ],
                    [
                        0.5725416541099548,
                        0.08248773217201233,
                        0.026012076064944267,
                        0.03319413214921951,
                        0.03845128044486046,
                        1.1390023231506348,
                        -0.11411762982606888,
                        -0.6609899997711182
                    ],
                    [
                        0.7021844387054443,
                        0.07817833125591278,
                        -0.5519040822982788,
                        -0.0087581817060709,
                        0.33637815713882446,
                        1.1893832683563232,
                        0.9500426054000854,
                        0.9542091488838196
                    ]
                ],
                [
                    -0.05334831029176712,
                    0.06568306684494019,
                    -0.12556490302085876,
                    -0.013795053586363792,
                    -0.048691872507333755,
                    -0.1646430492401123,
                    0.08896338194608688,
                    0.16605138778686523
                ]
            ],
            "activation": "tanh"
        },
        {
            "type": "dense",
            "shape": [
                null,
                1
            ],
            "weights": [
                [
                    [
                        1.2050707340240479
                    ],
                    [
                        0.48213550448417664
                    ],
                    [
                        -0.6213757395744324
                    ],
                    [
                        -1.3965656757354736
                    ],
                    [
                        1.2595434188842773
                    ],
                    [
                        0.8186166882514954
                    ],
                    [
                        1.0555429458618164
                    ],
                    [
                        1.3156143426895142
                    ]
                ],
                [
                    -0.016224853694438934
                ]
            ],
            "activation": ""
        }
    ]
}