{
    "in_shape": [
        null,
        2
    ],
    "layers": [
        {
            "type": "dense",
            "shape": [
                null,
                8
            ],
            "weights": [
                [
                    [
                        0.3509194850921631,
                        1.0030076503753662,
                        -0.3399350345134735,
                        -1.0685229301452637,
                        0.2341344803571701,
                        -0.40011346340179443,
                        0.27402418851852417,
                        0.4326678216457367
                    ],
                    [
                        -0.14091958105564117,
                        -0.038927070796489716,
                        -0.07803596556186676,
                        -0.08713230490684509,
                        0.003613068489357829,
                        0.35477060079574585,
                        0.161111518740654,
                        -0.11352544277906418
                    ]
                ],
                [
                    0.026642514392733574,
                    0.236750990152359,
                    0.23093797266483307,
                    0.843784511089325,
                    -0.10056820511817932,
                    0.3629108965396881,
                    0.14804983139038086,
                    0.7502323985099792
                ]
            ],
            "activation": "tanh"
        },
        {
            "type": "dense",
            "shape": [
                null,
                8
            ],
            "weights": [
                [
                    [
                        0.2714124917984009,
                        0.23101361095905304,
                        0.4210050702095032,
                        -0.40279802680015564,
                        0.10484431684017181,
                        -0.4002439081668854,
                        -0.211677685379982,
                        -0.5579590201377869
                    ],
                    [
                        -0.08295673877000809,
                        0.0984569564461708,
                        0.05973012372851372,
                        0.31823018193244934,
                        0.49291661381721497,
                        -0.7620759606361389,
                        -0.4717574417591095,
                        0.23029620945453644
                    ],
                    [
                        -0.02874898351728916,
                        -0.12925152480602264,
                        -0.05056116357445717,
                        0.45288047194480896,
                        -0.8574833869934082,
                        -0.636383056640625,
                        -0.1703871488571167,
                        -0.1442289501428604
                    ],
                    [
                        0.1941966861486435,
                        -0.9116353392601013,
                        0.2440100908279419,
                        -0.2579386830329895,
                        0.029969988390803337,
                        -0.2844768464565277,
                        -0.19120511412620544,
                        0.062285665422677994
                    ],
                    [
                        1.0187749862670898,
                        -0.895198404788971,
                        -0.573196530342102,
                        1.0626678466796875,
                        -0.5827231407165527,
                        -0.09721655398607254,
                        0.12665358185768127,
                        0.9048200249671936
                    ],
                    [
                        0.28704673051834106,
                        -0.2454921305179596,
                        -0.36106041073799133,
                        -0.17322784662246704,
                        -0.210366889834404,
                        0.13248313963413239,
                        0.22126206755638123,
                        -0.42100679874420166
                    ],
                    [
                        -0.16342279314994812,
                        -0.16303052008152008,
                        0.09369383007287979,
                        0.422147661447525,
                        0.2697751522064209,
                        0.31858691573143005,
                        -0.6387890577316284,
                        -0.4642452597618103
                    ],
                    [
                        -0.21773917973041534,
                        -0.25638383626937866,
                        -0.8240828514099121,
                        -0.04380070045590401,
                        0.5530648827552795,
                        -0.1603795886039734,
                        -0.9036632776260376,
                        -0.2656116187572479
                    ]
                ],
                [
                    0.021105462685227394,
                    -0.07586497813463211,
                    -0.2201651930809021,
                    -0.12934696674346924,
                    0.0046021100133657455,
                    0.33423396944999695,
                    -0.6541256904602051,
                    0.1330195665359497
                ]
            ],
            "activation": "tanh"
        },
        {
            "type": "dense",
            "shape": [
                null,
                8
            ],
            "weights": [
                [
                    [
                        0.44424110651016235,
                        0.03969985246658325,
                        -0.8656877279281616,
                        -1.2334626913070679,
                        0.44438421726226807,
                        0.477664053440094,
                        1.160710096359253,
                        0.2611396610736847
                    ],
                    [
                        0.2870069444179535,
                        0.8886532187461853,
                        -0.07128942012786865,
                        0.45767176151275635,
                        -1.0112409591674805,
                        -0.40798261761665344,
                        -0.600844144821167,
                        -0.17581072449684143
                    ],
                    [
                        -0.361530065536499,
                        -1.048971176147461,
                        0.3226655423641205,
                        0.10004139691591263,
                        -0.7844023108482361,
                        0.7271614670753479,
                        -0.44601204991340637,
                        -0.4381258487701416
                    ],
                    [
                        0.7001133561134338,
                        0.9711864590644836,
                        0.3435620665550232,
                        -0.4903457760810852,
                        0.0823475793004036,
                        0.4499652683734894,
                        0.25501012802124023,
                        1.0354548692703247
                    ],
                    [
                        -0.11344268172979355,
                        -0.5339178442955017,
                        0.7354704737663269,
                        0.8327145576477051,
                        -0.7499229907989502,
                        -1.8836511373519897,
                        -0.2230054885149002,
                        -0.5892875790596008
                    ],
                    [
                        -0.6558243632316589,
                        0.3160141408443451,
                        0.2747122347354889,
                        0.21339339017868042,
                        -0.3336082398891449,
                        0.0337420292198658,
                        0.48672816157341003,
                        -0.22941821813583374
                    ],
                    [
                        0.5718193054199219,
                        0.08134528994560242,
                        0.027109947055578232,
                        0.03401942923665047,
                        0.03797939047217369,
                        1.1365715265274048,
                        -0.1147746816277504,
                        -0.6621094346046448
                    ],
                    [
                        0.7025460004806519,
                        0.07875240594148636,
                        -0.5529218912124634,
                        -0.009347985498607159,
                        0.3368739187717438,
                        1.1943734884262085,
                        0.9516229033470154,
                        0.9553247690200806
                    ]
                ],
                [
                    -0.052834250032901764,
                    0.06562642753124237,
                    -0.12538187205791473,
                    -0.013888576999306679,
                    -0.048488833010196686,
                    -0.1682751178741455,
                    0.08858887851238251,
                    0.1657271832227707
                ]
            ],
            "activation": "tanh"
        },
        {
            "type": "dense",
            "shape": [
                null,
                1
            ],
            "weights": [
                [
                    [
                        1.2053930759429932
                    ],
                    [
                        0.4810359477996826
                    ],
                    [
                        -0.6220394372940063
                    ],
                    [
                        -1.4002445936203003
                    ],
                    [
                        1.2617807388305664
                    ],
                    [
                        0.8173671960830688
                    ],
                    [
                        1.055600881576538
                    ],
                    [
                        1.3162195682525635
                    ]
                ],
                [
                    -0.016328394412994385
                ]
            ],
            "activation": ""
        }
    ]
}