{
    "in_shape": [
        null,
        2
    ],
    "layers": [
        {
            "type": "dense",
            "shape": [
                null,
                8
            ],
            "weights": [
                [
                    [
                        -0.4799850881099701,
                        0.20148597657680511,
                        0.3876916468143463,
                        -0.12748178839683533,
                        -0.484892338514328,
                        1.25473153591156,
                        0.23182040452957153,
                        -1.3376113176345825
                    ],
                    [
                        0.06715031713247299,
                        -0.01924317143857479,
                        0.0447729155421257,
                        -2.1190638542175293,
                        0.10126674175262451,
                        -0.053009167313575745,
                        0.019237486645579338,
                        -0.04348885267972946
                    ]
                ],
                [
                    0.07335321605205536,
                    0.3932187855243683,
                    -0.0423990935087204,
                    -1.5248839855194092,
                    -0.3400963246822357,
                    0.6042571663856506,
                    -0.4463726282119751,
                    0.7399539947509766
                ]
            ],
            "activation": "tanh"
        },
        {
            "type": "dense",
            "shape": [
                null,
                8
            ],
            "weights": [
                [
                    [
                        -0.25381049513816833,
                        0.04301309213042259,
                        0.7091860771179199,
                        -0.1838126927614212,
                        0.22631148993968964,
                        -0.37506353855133057,
                        0.1989828497171402,
                        0.12022329866886139
                    ],
                    [
                        0.09357095509767532,
                        1.135633945465088,
                        0.4895787835121155,
                        0.35074567794799805,
                        -0.6645031571388245,
                        -0.13385754823684692,
                        0.7304638624191284,
                        0.41090402007102966
                    ],
                    [
                        -0.3495224714279175,
                        -0.13086791336536407,
                        -0.17429561913013458,
                        0.07009779661893845,
                        0.29773372411727905,
                        0.6513761878013611,
                        -0.2719685733318329,
                        0.2991073727607727
                    ],
                    [
                        0.016329050064086914,
                        -0.33736011385917664,
                        0.13091754913330078,
                        0.26068204641342163,
                        0.23923467099666595,
                        -0.08297311514616013,
                        0.76510089635849,
                        0.31416285037994385
                    ],
                    [
                        -0.24282662570476532,
                        -0.09393319487571716,
                        -0.2730642855167389,
                        0.3215177059173584,
                        -0.10158419609069824,
                        0.007810924202203751,
                        0.55191570520401,
                        -0.5244925618171692
                    ],
                    [
                        -0.23307502269744873,
                        0.1717127561569214,
                        0.16309837996959686,
                        0.3274695575237274,
                        0.5119391679763794,
                        0.11936293542385101,
                        -0.9066405892372131,
                        -0.4663879871368408
                    ],
                    [
                        -0.5665481090545654,
                        0.07901272922754288,
                        0.37834614515304565,
                        0.7916111946105957,
                        -0.6168959736824036,
                        -0.8488035798072815,
                        0.07598382979631424,
                        0.7833122611045837
                    ],
                    [
                        -0.3896481692790985,
                        -0.15363608300685883,
                        0.503890335559845,
                        -0.46484628319740295,
                        -0.5595529675483704,
                        0.5682412981987,
                        0.13090631365776062,
                        -0.20189274847507477
                    ]
                ],
                [
                    0.25981926918029785,
                    0.15166056156158447,
                    0.10721123963594437,
                    0.1974775642156601,
                    0.06577777862548828,
                    0.12600727379322052,
                    -0.08720117807388306,
                    -0.04938371106982231
                ]
            ],
            "activation": "tanh"
        },
        {
            "type": "dense",
            "shape": [
                null,
                8
            ],
            "weights": [
                [
                    [
                        0.03119935467839241,
                        0.045364681631326675,
                        0.8036693930625916,
                        -0.7051196694374084,
                        0.2762758731842041,
                        0.053206514567136765,
                        -0.38646399974823,
                        -0.23351679742336273
                    ],
                    [
                        -0.3614228665828705,
                        -0.41151002049446106,
                        -0.7278496026992798,
                        0.14030461013317108,
                        -0.7379494905471802,
                        0.5312790274620056,
                        0.4627639353275299,
                        -0.8396162986755371
                    ],
                    [
                        -0.25248396396636963,
                        0.5851060748100281,
                        -0.6181902289390564,
                        -0.8579360246658325,
                        -0.8821198344230652,
                        0.48694756627082825,
                        0.717628538608551,
                        -0.41844451427459717
                    ],
                    [
                        -0.8508481979370117,
                        -0.9054532647132874,
                        -0.10680484771728516,
                        -0.30590003728866577,
                        -0.0028661673422902822,
                        -0.08068772405385971,
                        -0.07979760318994522,
                        -0.4605606496334076
                    ],
                    [
                        0.31543537974357605,
                        -0.4456770420074463,
                        1.1474995613098145,
                        0.919558048248291,
                        -0.009725160896778107,
                        -0.3948037624359131,
                        -0.2778032720088959,
                        0.3660363554954529
                    ],
                    [
                        0.4794119596481323,
                        1.6686086654663086,
                        -0.03678712621331215,
                        0.5294361710548401,
                        -0.119232676923275,
                        -1.0083338022232056,
                        -0.660395085811615,
                        0.09657987952232361
                    ],
                    [
                        0.23337802290916443,
                        -0.5878644585609436,
                        -0.32018935680389404,
                        -1.47401762008667,
                        -0.36175721883773804,
                        -0.19138872623443604,
                        -0.1568055897951126,
                        0.32197755575180054
                    ],
                    [
                        -0.21231432259082794,
                        -0.24625161290168762,
                        -0.35811200737953186,
                        -0.48346686363220215,
                        -0.3648073673248291,
                        0.8688803911209106,
                        -0.35540175437927246,
                        0.16069296002388
                    ]
                ],
                [
                    -0.06386509537696838,
                    0.11267032474279404,
                    -0.0005400973022915423,
                    -0.11703937500715256,
                    -0.12462843954563141,
                    -0.09632464498281479,
                    0.05730752274394035,
                    -0.10537264496088028
                ]
            ],
            "activation": "tanh"
        },
        {
            "type": "dense",
            "shape": [
                null,
                1
            ],
            "weights": [
                [
                    [
                        -1.0876199007034302
                    ],
                    [
                        -0.5407034754753113
                    ],
                    [
                        -1.129925012588501
                    ],
                    [
                        -0.7181628942489624
                    ],
                    [
                        -0.75617915391922
                    ],
                    [
                        1.3688632249832153
                    ],
                    [
                        0.7836176156997681
                    ],
                    [
                        -0.709492027759552
                    ]
                ],
                [
                    0.05590420216321945
                ]
            ],
            "activation": ""
        }
    ]
}