{
    "in_shape": [
        null,
        2
    ],
    "layers": [
        {
            "type": "dense",
            "shape": [
                null,
                16
            ],
            "weights": [
                [
                    [
                        -0.24833165109157562,
                        -0.6114346981048584,
                        0.08085797727108002,
                        -0.5943009257316589,
                        0.21260061860084534,
                        0.573407769203186,
                        0.2818407714366913,
                        0.1613777130842209,
                        0.44834670424461365,
                        -0.19362962245941162,
                        -0.9172736406326294,
                        -0.3041945993900299,
                        0.647183358669281,
                        -0.1324470192193985,
                        0.23900116980075836,
                        0.7636522054672241
                    ],
                    [
                        -0.003026767401024699,
                        0.8731945753097534,
                        0.5073572397232056,
                        0.02182607538998127,
                        0.154290571808815,
                        -0.17221635580062866,
                        -0.0020747079979628325,
                        -0.018912073224782944,
                        0.056661974638700485,
                        -0.07245460152626038,
                        -0.0642828643321991,
                        0.05106988921761513,
                        -0.028195714578032494,
                        -0.020264439284801483,
                        -0.008445114828646183,
                        -0.026680581271648407
                    ]
                ],
                [
                    0.10359780490398407,
                    0.35726720094680786,
                    0.5749916434288025,
                    -0.08636128902435303,
                    0.11348185688257217,
                    -0.39876478910446167,
                    -0.12648846209049225,
                    0.2032807469367981,
                    -0.07287193834781647,
                    0.028466535732150078,
                    0.3268450200557709,
                    -0.09369951486587524,
                    0.08619141578674316,
                    0.1049901694059372,
                    0.04873620346188545,
                    0.3424951732158661
                ]
            ],
            "activation": "tanh"
        },
        {
            "type": "dense",
            "shape": [
                null,
                16
            ],
            "weights": [
                [
                    [
                        0.7101419568061829,
                        -0.043076761066913605,
                        -0.6147524118423462,
                        0.13963662087917328,
                        -0.4584919512271881,
                        -0.3180345594882965,
                        -0.0890100970864296,
                        0.5521509647369385,
                        0.14057809114456177,
                        -0.7131903767585754,
                        -0.6603144407272339,
                        -0.10499264299869537,
                        0.26964807510375977,
                        0.5873156785964966,
                        -0.29592931270599365,
                        -0.6182911396026611
                    ],
                    [
                        0.17432262003421783,
                        0.1295682042837143,
                        -0.2533882260322571,
                        -0.05574129521846771,
                        0.09393490850925446,
                        -0.12276517599821091,
                        -0.21122363209724426,
                        0.11752712726593018,
                        0.07298114895820618,
                        0.044500190764665604,
                        -0.3604732155799866,
                        0.05124540254473686,
                        0.2756064832210541,
                        -0.44879066944122314,
                        -0.03077438659965992,
                        0.6608293056488037
                    ],
                    [
                        0.11743590235710144,
                        -0.06348513066768646,
                        0.03911055997014046,
                        0.1271669715642929,
                        -0.4335974454879761,
                        4.171248656348325e-05,
                        0.15935567021369934,
                        0.2582923471927643,
                        -0.003768410300835967,
                        0.07931742817163467,
                        -0.17363044619560242,
                        0.23211485147476196,
                        -0.2997036576271057,
                        0.3524034321308136,
                        0.47437945008277893,
                        0.3298078179359436
                    ],
                    [
                        0.011871402151882648,
                        0.39576345682144165,
                        -0.213055819272995,
                        0.3586854636669159,
                        -0.1366358995437622,
                        -0.11650477349758148,
                        0.6296966671943665,
                        -0.006598080508410931,
                        -0.10665460675954819,
                        -0.8953836560249329,
                        -0.11748965084552765,
                        -0.48363906145095825,
                        0.14774122834205627,
                        -0.09497608244419098,
                        0.35347890853881836,
                        -0.6448292136192322
                    ],
                    [
                        -0.061599552631378174,
                        -0.03398658707737923,
                        -0.2156849503517151,
                        0.14606352150440216,
                        0.4061315655708313,
                        -0.36984631419181824,
                        -0.08166869729757309,
                        0.30601978302001953,
                        0.21238501369953156,
                        0.1925451159477234,
                        0.045235924422740936,
                        0.29711368680000305,
                        0.24181677401065826,
                        0.025306014344096184,
                        0.48337775468826294,
                        -0.31000545620918274
                    ],
                    [
                        0.2797214090824127,
                        -0.04970267787575722,
                        0.466044157743454,
                        0.0952395424246788,
                        0.373468279838562,
                        -0.18899567425251007,
                        -0.1029953807592392,
                        -0.08173266798257828,
                        -0.21972671151161194,
                        -0.30991482734680176,
                        0.037593573331832886,
                        -0.5740553140640259,
                        0.1709657907485962,
                        0.3303197920322418,
                        0.12032069265842438,
                        0.08059719949960709
                    ],
                    [
                        -0.3164774775505066,
                        0.3102038502693176,
                        0.5293985605239868,
                        -0.5474777221679688,
                        0.38020363450050354,
                        0.5556589365005493,
                        -0.3555007874965668,
                        -1.0084707736968994,
                        0.35805779695510864,
                        0.0383676178753376,
                        0.8864031434059143,
                        0.42214852571487427,
                        0.02798297442495823,
                        -0.07180630415678024,
                        0.35318005084991455,
                        0.4877331554889679
                    ],
                    [
                        -0.18497580289840698,
                        0.034402038902044296,
                        -0.2522872984409332,
                        -0.154396653175354,
                        0.009513664990663528,
                        0.2227284014225006,
                        -0.17284464836120605,
                        0.5357128381729126,
                        0.8222256898880005,
                        0.5402904748916626,
                        0.13330772519111633,
                        0.16815724968910217,
                        -0.1312991827726364,
                        -0.29450342059135437,
                        0.1095927506685257,
                        0.6479288339614868
                    ],
                    [
                        0.07422136515378952,
                        -0.31373316049575806,
                        -0.0817422866821289,
                        -0.514420747756958,
                        0.28573060035705566,
                        -0.30529412627220154,
                        0.5281773209571838,
                        -0.09311538934707642,
                        0.040885262191295624,
                        -0.17351274192333221,
                        0.07046224176883698,
                        -0.1174885705113411,
                        -0.13150204718112946,
                        0.19289332628250122,
                        -0.26861292123794556,
                        -0.12064230442047119
                    ],
                    [
                        -0.3791634142398834,
                        0.353899747133255,
                        -0.26297736167907715,
                        -0.33687418699264526,
                        0.2679985463619232,
                        0.004773027263581753,
                        -0.18863724172115326,
                        0.2774774730205536,
                        -0.1284225732088089,
                        -0.05520894005894661,
                        -0.31369465589523315,
                        0.16340558230876923,
                        -0.3130466043949127,
                        0.23299024999141693,
                        0.028223048895597458,
                        0.27964672446250916
                    ],
                    [
                        -0.1736941635608673,
                        0.2762126326560974,
                        0.2888789176940918,
                        0.7669382095336914,
                        0.038804180920124054,
                        0.12413305789232254,
                        0.13358737528324127,
                        0.2801820635795593,
                        0.5737804770469666,
                        -0.06317228823900223,
                        -1.2238612174987793,
                        0.4353833794593811,
                        -0.013278224505484104,
                        -0.02344234474003315,
                        -0.10177645832300186,
                        -0.11152176558971405
                    ],
                    [
                        0.2228778451681137,
                        -0.13243092596530914,
                        -0.11081423610448837,
                        0.33958306908607483,
                        0.4598783850669861,
                        0.6150746941566467,
                        -0.08867792785167694,
                        0.08997310698032379,
                        -0.13398779928684235,
                        -0.20563159883022308,
                        -0.13885504007339478,
                        -0.04441790282726288,
                        -0.33125635981559753,
                        -0.12110187113285065,
                        0.19242027401924133,
                        -0.24221689999103546
                    ],
                    [
                        0.4320841133594513,
                        0.4073411822319031,
                        0.021444393321871758,
                        -0.08090047538280487,
                        0.2146848738193512,
                        0.09596572816371918,
                        0.34469136595726013,
                        -0.036313313990831375,
                        -0.214845672249794,
                        0.45741185545921326,
                        0.49637165665626526,
                        0.33709272742271423,
                        0.11793763190507889,
                        0.14192207157611847,
                        -0.3548984229564667,
                        0.39644938707351685
                    ],
                    [
                        0.3285473585128784,
                        -0.1273573637008667,
                        0.0544658787548542,
                        -0.3492087423801422,
                        -0.24553318321704865,
                        -0.011985616758465767,
                        0.09693998843431473,
                        0.5067155361175537,
                        -0.11343643069267273,
                        -0.1505737602710724,
                        -0.4760131239891052,
                        0.4148498475551605,
                        0.17825087904930115,
                        -0.3198334574699402,
                        0.20659472048282623,
                        -0.18411137163639069
                    ],
                    [
                        0.026497041806578636,
                        0.4964412748813629,
                        0.2727813422679901,
                        -0.12358793616294861,
                        0.22396567463874817,
                        -0.1850341558456421,
                        -0.48307567834854126,
                        -0.468818724155426,
                        0.3374292552471161,
                        0.6539591550827026,
                        0.19500216841697693,
                        0.32982224225997925,
                        -0.8017286658287048,
                        -0.5318251252174377,
                        0.19067861139774323,
                        0.46607664227485657
                    ],
                    [
                        0.3507845997810364,
                        -0.06203493848443031,
                        -0.23297487199306488,
                        -0.5203199982643127,
                        -0.0027191501576453447,
                        0.06862916797399521,
                        0.11828632652759552,
                        -0.15118944644927979,
                        0.35005947947502136,
                        1.134753942489624,
                        -0.136983260512352,
                        -0.11649228632450104,
                        -0.06452543288469315,
                        0.01172697078436613,
                        0.16326016187667847,
                        0.5398170351982117
                    ]
                ],
                [
                    0.007162071764469147,
                    0.05527714267373085,
                    -0.19447994232177734,
                    0.0013770000077784061,
                    -0.07950736582279205,
                    0.019380703568458557,
                    -0.034041114151477814,
                    0.10676965117454529,
                    0.0649421364068985,
                    0.25602737069129944,
                    -0.17635738849639893,
                    -0.012524807825684547,
                    0.022474952042102814,
                    0.029137764126062393,
                    0.005484881345182657,
                    -0.0375857949256897
                ]
            ],
            "activation": "tanh"
        },
        {
            "type": "dense",
            "shape": [
                null,
                16
            ],
            "weights": [
                [
                    [
                        0.043484073132276535,
                        -0.3073212802410126,
                        -0.4433554708957672,
                        0.3665480613708496,
                        0.8513439297676086,
                        0.05160359665751457,
                        0.3972656726837158,
                        0.3417915999889374,
                        0.05018384009599686,
                        -0.005743013694882393,
                        0.3085598647594452,
                        -0.45846739411354065,
                        0.00949864275753498,
                        -0.05878358334302902,
                        0.13416434824466705,
                        -0.2612089514732361
                    ],
                    [
                        -0.6561870574951172,
                        0.2251034677028656,
                        0.16138508915901184,
                        -0.13751520216464996,
                        0.026114806532859802,
                        -0.1321856677532196,
                        -0.34471333026885986,
                        0.2605869770050049,
                        -0.25989988446235657,
                        -0.08219912648200989,
                        -0.19870606064796448,
                        0.2016124278306961,
                        0.39667803049087524,
                        0.14489468932151794,
                        0.13171742856502533,
                        -0.3059421479701996
                    ],
                    [
                        -0.8055664300918579,
                        0.180302232503891,
                        0.7245372533798218,
                        -0.07785171270370483,
                        -0.15488435328006744,
                        0.42545512318611145,
                        0.06522578746080399,
                        -0.4381665587425232,
                        0.09461034089326859,
                        0.03863059729337692,
                        -0.1896301805973053,
                        -0.07326220721006393,
                        -0.18864192068576813,
                        -0.4094979166984558,
                        -0.005894551984965801,
                        0.1300448477268219
                    ],
                    [
                        0.124491848051548,
                        -0.1870061308145523,
                        0.40031179785728455,
                        0.16612404584884644,
                        -0.3239589333534241,
                        -0.012261803261935711,
                        -0.3086549639701843,
                        -0.3125697374343872,
                        -0.36009955406188965,
                        -0.14452114701271057,
                        -0.38348105549812317,
                        -0.35819724202156067,
                        0.15804825723171234,
                        -0.26123228669166565,
                        0.3962515890598297,
                        -0.2752520740032196
                    ],
                    [
                        -0.6343831419944763,
                        -0.15413689613342285,
                        0.30593836307525635,
                        -0.1817236691713333,
                        -0.538438618183136,
                        0.01727822981774807,
                        -0.1976207047700882,
                        -0.36561501026153564,
                        -0.08450432866811752,
                        0.064586341381073,
                        -0.6501981616020203,
                        0.0039786347188055515,
                        -0.5676754713058472,
                        -0.05051516741514206,
                        -1.1211750507354736,
                        -0.42510420083999634
                    ],
                    [
                        -0.5277093648910522,
                        -0.1352362036705017,
                        0.7849032282829285,
                        -0.7744107842445374,
                        -0.3089507520198822,
                        -0.18422438204288483,
                        -0.23489591479301453,
                        -0.20354226231575012,
                        -0.3064573109149933,
                        -0.421172559261322,
                        0.08821570128202438,
                        0.5180513858795166,
                        -0.3067631721496582,
                        -0.7008557915687561,
                        -0.36833763122558594,
                        -0.32636573910713196
                    ],
                    [
                        0.13785405457019806,
                        0.18202270567417145,
                        -0.9085835814476013,
                        0.307692289352417,
                        0.1592583954334259,
                        -0.6747263073921204,
                        0.857477605342865,
                        0.1676446497440338,
                        0.251145601272583,
                        0.43170908093452454,
                        0.07519102096557617,
                        -0.9195302128791809,
                        0.5389836430549622,
                        -0.2564351260662079,
                        0.648810088634491,
                        0.41329824924468994
                    ],
                    [
                        0.027427298948168755,
                        0.12962549924850464,
                        -0.05341432988643646,
                        -0.3572102189064026,
                        0.17076124250888824,
                        -0.38649460673332214,
                        -0.10273826867341995,
                        -0.12114556133747101,
                        0.046152036637067795,
                        0.15411733090877533,
                        0.282084196805954,
                        0.2029193490743637,
                        -0.5366020798683167,
                        0.3667356073856354,
                        0.9947001338005066,
                        -0.08956670016050339
                    ],
                    [
                        -0.02692323923110962,
                        0.271296888589859,
                        -0.08335611969232559,
                        0.16180317103862762,
                        -0.3349546492099762,
                        -0.15704657137393951,
                        -0.42470496892929077,
                        0.27626970410346985,
                        -0.06661658734083176,
                        -0.5892532467842102,
                        -0.02624848298728466,
                        0.5366049408912659,
                        -0.6569413542747498,
                        -0.2688685357570648,
                        0.3329131007194519,
                        0.06072905287146568
                    ],
                    [
                        0.14924292266368866,
                        -0.17681142687797546,
                        -0.0993528738617897,
                        0.20032338798046112,
                        0.46235495805740356,
                        -0.13763085007667542,
                        0.4644700288772583,
                        0.29346373677253723,
                        -0.5865336656570435,
                        0.11882048845291138,
                        -0.11173559725284576,
                        0.536717414855957,
                        -0.4512406587600708,
                        0.11601071059703827,
                        -0.11337506771087646,
                        0.2720661461353302
                    ],
                    [
                        0.14900459349155426,
                        -0.08524622023105621,
                        -0.19033095240592957,
                        0.1942809671163559,
                        -0.21964064240455627,
                        0.08549129962921143,
                        1.1345049142837524,
                        0.16473881900310516,
                        0.15842880308628082,
                        0.04937803000211716,
                        0.033739082515239716,
                        0.053602274507284164,
                        -0.02426106296479702,
                        0.07715988159179688,
                        -0.13703691959381104,
                        -0.4290148615837097
                    ],
                    [
                        -0.08177176117897034,
                        0.0927635133266449,
                        -0.028421731665730476,
                        0.1661599725484848,
                        -0.0009408464538864791,
                        -0.018409758806228638,
                        -0.3291550576686859,
                        -0.592369019985199,
                        -0.36789029836654663,
                        -0.3204931616783142,
                        0.10320015996694565,
                        1.0816168785095215,
                        -0.09099002182483673,
                        -0.19216673076152802,
                        -0.029102414846420288,
                        -0.19437168538570404
                    ],
                    [
                        -0.08173135668039322,
                        -0.65544593334198,
                        -0.6721048951148987,
                        0.0723441019654274,
                        -0.02069961279630661,
                        0.21748337149620056,
                        0.254995197057724,
                        0.3471117317676544,
                        0.22536326944828033,
                        0.5991877317428589,
                        0.4048270881175995,
                        -0.19192582368850708,
                        0.29877710342407227,
                        0.10755639523267746,
                        0.591156005859375,
                        0.45559465885162354
                    ],
                    [
                        -0.017286667600274086,
                        -0.598789393901825,
                        0.008125538937747478,
                        0.16243042051792145,
                        0.3894198536872864,
                        -0.45223307609558105,
                        0.31170207262039185,
                        0.12183798849582672,
                        0.6420798897743225,
                        0.01025400310754776,
                        -0.11062964051961899,
                        -0.17966529726982117,
                        0.44352835416793823,
                        0.3715074062347412,
                        0.19102437794208527,
                        0.44109708070755005
                    ],
                    [
                        -0.05786137655377388,
                        0.09255017340183258,
                        -0.3118138611316681,
                        -0.3725675940513611,
                        -0.12912847101688385,
                        0.16978032886981964,
                        0.05291732773184776,
                        -0.26940590143203735,
                        -0.2626984417438507,
                        -0.6499897837638855,
                        -0.21434731781482697,
                        -0.15980201959609985,
                        0.08990584313869476,
                        0.10533810406923294,
                        0.10414837300777435,
                        0.18996156752109528
                    ],
                    [
                        0.4376090168952942,
                        0.08173395693302155,
                        -0.12547335028648376,
                        -0.30798956751823425,
                        0.4803445339202881,
                        0.28703492879867554,
                        -0.27059274911880493,
                        0.18310897052288055,
                        -0.005139889661222696,
                        0.044070951640605927,
                        -0.575156033039093,
                        0.8462871313095093,
                        -0.3155041038990021,
                        -0.3248577117919922,
                        0.07251426577568054,
                        -0.20961138606071472
                    ]
                ],
                [
                    0.10875991731882095,
                    0.06190498173236847,
                    0.012527323327958584,
                    -0.0015626468230038881,
                    0.03530685231089592,
                    0.012132608331739902,
                    -0.007188843563199043,
                    0.04695304483175278,
                    -0.0625089630484581,
                    -0.005484912544488907,
                    0.004826019052416086,
                    0.18323320150375366,
                    0.014640775509178638,
                    0.02077728696167469,
                    0.07692116498947144,
                    0.016986776143312454
                ]
            ],
            "activation": "tanh"
        },
        {
            "type": "dense",
            "shape": [
                null,
                1
            ],
            "weights": [
                [
                    [
                        -0.3835732638835907
                    ],
                    [
                        0.22408758103847504
                    ],
                    [
                        0.48252609372138977
                    ],
                    [
                        -0.4682343900203705
                    ],
                    [
                        -0.9057372212409973
                    ],
                    [
                        0.13098329305648804
                    ],
                    [
                        -0.6627870798110962
                    ],
                    [
                        -0.22173671424388885
                    ],
                    [
                        -0.7624707221984863
                    ],
                    [
                        -0.4485011100769043
                    ],
                    [
                        -0.5725989937782288
                    ],
                    [
                        0.3515605032444
                    ],
                    [
                        -0.2660255432128906
                    ],
                    [
                        -0.5178925395011902
                    ],
                    [
                        -0.621830940246582
                    ],
                    [
                        -0.5426481366157532
                    ]
                ],
                [
                    -0.003407623153179884
                ]
            ],
            "activation": ""
        }
    ]
}