{
    "in_shape": 2,
    "layers": [
        {
            "type": "dense",
            "shape": 8,
            "weights": [
                [
                    [
                        [
                            -0.03241334110498428,
                            0.05878809094429016,
                            -0.1371205449104309,
                            -0.7710852026939392,
                            -0.15311530232429504,
                            -0.7624662518501282,
                            -0.5704820156097412,
                            1.3442802429199219
                        ],
                        [
                            -2.666835308074951,
                            2.7540128231048584,
                            0.02410159818828106,
                            -0.051403820514678955,
                            -0.020206959918141365,
                            0.06935026496648788,
                            0.058129895478487015,
                            0.03742397576570511
                        ]
                    ]
                ],
                [
                    [
                        -1.7138586044311523,
                        1.6914676427841187,
                        -0.42300674319267273,
                        0.36671561002731323,
                        0.3837546706199646,
                        -0.7819252014160156,
                        -0.010190577246248722,
                        -0.3418997824192047
                    ]
                ]
            ],
            "activation": "tanh"
        },
        {
            "type": "dense",
            "shape": 8,
            "weights": [
                [
                    [
                        [
                            0.13681955635547638,
                            -0.4032767415046692,
                            -0.8098962903022766,
                            0.2195974737405777,
                            -0.04004461690783501,
                            -0.41587749123573303,
                            0.20422832667827606,
                            -0.198711097240448
                        ],
                        [
                            0.19108523428440094,
                            0.5487414598464966,
                            0.2038443237543106,
                            0.23607879877090454,
                            0.35217177867889404,
                            -0.6075518727302551,
                            0.14503268897533417,
                            0.38624197244644165
                        ],
                        [
                            -0.0862928032875061,
                            -0.3913381099700928,
                            0.08579470217227936,
                            0.5912215709686279,
                            -0.929397702217102,
                            -0.505495011806488,
                            0.770856499671936,
                            -1.1065330505371094
                        ],
                        [
                            0.8315758109092712,
                            0.36746764183044434,
                            -0.01959291659295559,
                            0.8279860615730286,
                            0.08864127844572067,
                            0.7302889227867126,
                            0.32817205786705017,
                            -0.4527166187763214
                        ],
                        [
                            -0.6895027160644531,
                            1.0473668575286865,
                            1.2536098957061768,
                            -0.14259777963161469,
                            -0.38245368003845215,
                            -0.1612491011619568,
                            0.686629593372345,
                            0.616257905960083
                        ],
                        [
                            -0.1988721489906311,
                            -0.04378892853856087,
                            0.0671275407075882,
                            1.4556955099105835,
                            -0.8141920566558838,
                            0.021778246387839317,
                            -0.3528813421726227,
                            -0.1173335462808609
                        ],
                        [
                            -0.42247408628463745,
                            -0.018170520663261414,
                            -0.37185314297676086,
                            0.7097727060317993,
                            0.7347040772438049,
                            0.6923736929893494,
                            0.1675511598587036,
                            0.05028067156672478
                        ],
                        [
                            0.5475409030914307,
                            -1.006618857383728,
                            -0.0071400911547243595,
                            -0.4450875520706177,
                            -0.14551518857479095,
                            -0.35736602544784546,
                            0.3543596565723419,
                            0.27142977714538574
                        ]
                    ]
                ],
                [
                    [
                        0.0505826510488987,
                        0.18103601038455963,
                        -0.04197859391570091,
                        -0.04923691600561142,
                        -0.05804085731506348,
                        0.0678931474685669,
                        -0.0379873551428318,
                        0.18725937604904175
                    ]
                ]
            ],
            "activation": "tanh"
        },
        {
            "type": "dense",
            "shape": 8,
            "weights": [
                [
                    [
                        [
                            -0.6789509654045105,
                            0.22756683826446533,
                            -0.2126578688621521,
                            0.24809060990810394,
                            -1.2023506164550781,
                            -0.4534727931022644,
                            0.11818945407867432,
                            -0.2994901239871979
                        ],
                        [
                            -0.20105409622192383,
                            -1.179679274559021,
                            0.37902766466140747,
                            -0.02495289221405983,
                            0.5606634020805359,
                            -0.5999054908752441,
                            -0.15216824412345886,
                            1.0996743440628052
                        ],
                        [
                            -0.24566435813903809,
                            -0.088091179728508,
                            -0.03639750927686691,
                            -0.6734678149223328,
                            0.42591458559036255,
                            -0.18548651039600372,
                            -0.012716259807348251,
                            1.0507493019104004
                        ],
                        [
                            -0.22387216985225677,
                            0.06444042921066284,
                            -0.0030727211851626635,
                            0.2334916889667511,
                            -0.8241109251976013,
                            0.33604785799980164,
                            -0.039153825491666794,
                            0.28565648198127747
                        ],
                        [
                            0.33663731813430786,
                            0.7727790474891663,
                            -0.05828229337930679,
                            0.5789247751235962,
                            -0.3177605867385864,
                            -1.3240587711334229,
                            1.046454668045044,
                            0.06759796291589737
                        ],
                        [
                            -1.847961664199829,
                            0.11201118677854538,
                            -0.75478595495224,
                            0.9737886190414429,
                            -0.08602159470319748,
                            0.12185317277908325,
                            1.0414708852767944,
                            -0.4498136639595032
                        ],
                        [
                            -1.4722709655761719,
                            0.5122193694114685,
                            0.5345751643180847,
                            -0.17935964465141296,
                            0.29201146960258484,
                            0.3018331527709961,
                            -0.8932499885559082,
                            0.4011930823326111
                        ],
                        [
                            0.6923596262931824,
                            0.33722564578056335,
                            -0.9063617587089539,
                            0.3738872706890106,
                            -0.09887196123600006,
                            -1.0465278625488281,
                            -0.1104632094502449,
                            0.19700828194618225
                        ]
                    ]
                ],
                [
                    [
                        -0.0002656501019373536,
                        -0.02368660271167755,
                        0.023453405126929283,
                        0.00882710050791502,
                        0.06839396804571152,
                        -0.1198306679725647,
                        -0.005712974816560745,
                        0.07819444686174393
                    ]
                ]
            ],
            "activation": "tanh"
        },
        {
            "type": "dense",
            "shape": 1,
            "weights": [
                [
                    [
                        [
                            0.6344184279441833
                        ],
                        [
                            1.1256177425384521
                        ],
                        [
                            -0.9046749472618103
                        ],
                        [
                            0.7690500617027283
                        ],
                        [
                            -1.18970787525177
                        ],
                        [
                            -0.5031179785728455
                        ],
                        [
                            1.136542797088623
                        ],
                        [
                            -0.807532548904419
                        ]
                    ]
                ],
                [
                    [
                        -0.014651535078883171
                    ]
                ]
            ]
        }
    ]
}