{
    "in_shape": 2,
    "layers": [
        {
            "type": "dense",
            "shape": 8,
            "weights": [
                [
                    [
                        [
                            -0.03241334110498428,
                            0.05878809094429016,
                            -0.14038972556591034,
                            -0.7652047872543335,
                            -0.16082751750946045,
                            -0.7776581645011902,
                            -0.562620997428894,
                            1.3755666017532349
                        ],
                        [
                            -2.666835308074951,
                            2.7540128231048584,
                            0.0260004960000515,
                            -0.050812143832445145,
                            -0.02268294431269169,
                            0.06937217712402344,
                            0.06079176440834999,
                            0.048471640795469284
                        ]
                    ]
                ],
                [
                    [
                        -1.7138586044311523,
                        1.6914676427841187,
                        -0.421107679605484,
                        0.36730706691741943,
                        0.3812786340713501,
                        -0.7819033861160278,
                        -0.0075287106446921825,
                        -0.33085212111473083
                    ]
                ]
            ],
            "activation": "tanh"
        },
        {
            "type": "dense",
            "shape": 8,
            "weights": [
                [
                    [
                        [
                            0.13818605244159698,
                            -0.39734122157096863,
                            -0.8114169239997864,
                            0.22247108817100525,
                            -0.03859236091375351,
                            -0.417853981256485,
                            0.2023373246192932,
                            -0.19555296003818512
                        ],
                        [
                            0.18971873819828033,
                            0.5428066849708557,
                            0.2053644210100174,
                            0.233205184340477,
                            0.3507196307182312,
                            -0.6055749654769897,
                            0.14692369103431702,
                            0.38308390974998474
                        ],
                        [
                            -0.08864868432283401,
                            -0.38432902097702026,
                            0.08754938095808029,
                            0.5940786600112915,
                            -0.9312884211540222,
                            -0.508215606212616,
                            0.7718619704246521,
                            -1.1036410331726074
                        ],
                        [
                            0.8254765272140503,
                            0.37934431433677673,
                            -0.016313498839735985,
                            0.8305982351303101,
                            0.08503472805023193,
                            0.7235636711120605,
                            0.33047905564308167,
                            -0.45206838846206665
                        ],
                        [
                            -0.6923616528511047,
                            1.0431424379348755,
                            1.2567135095596313,
                            -0.14522148668766022,
                            -0.38575616478919983,
                            -0.16066910326480865,
                            0.689785897731781,
                            0.613193929195404
                        ],
                        [
                            -0.20411990582942963,
                            -0.03431789577007294,
                            0.07038640230894089,
                            1.455318808555603,
                            -0.8174870014190674,
                            0.01692201755940914,
                            -0.35027042031288147,
                            -0.11857964098453522
                        ],
                        [
                            -0.4255850911140442,
                            -0.02142178639769554,
                            -0.36857840418815613,
                            0.70734041929245,
                            0.7311834096908569,
                            0.6929004788398743,
                            0.17081919312477112,
                            0.04734725132584572
                        ],
                        [
                            0.5528850555419922,
                            -1.0195367336273193,
                            -0.00967057328671217,
                            -0.4482104778289795,
                            -0.1424422711133957,
                            -0.3493800163269043,
                            0.3529273271560669,
                            0.27006372809410095
                        ]
                    ]
                ],
                [
                    [
                        0.049216147512197495,
                        0.17510062456130981,
                        -0.04045844078063965,
                        -0.05211044102907181,
                        -0.059493113309144974,
                        0.06986977905035019,
                        -0.036096375435590744,
                        0.18410123884677887
                    ]
                ]
            ],
            "activation": "tanh"
        },
        {
            "type": "dense",
            "shape": 8,
            "weights": [
                [
                    [
                        [
                            -0.6769292950630188,
                            0.23159685730934143,
                            -0.21703144907951355,
                            0.2525959014892578,
                            -1.2043699026107788,
                            -0.45521312952041626,
                            0.12358833104372025,
                            -0.3045373260974884
                        ],
                        [
                            -0.20423737168312073,
                            -1.1825757026672363,
                            0.3817201554775238,
                            -0.027432141825556755,
                            0.5629191398620605,
                            -0.5974831581115723,
                            -0.15193063020706177,
                            1.0980677604675293
                        ],
                        [
                            -0.24887815117835999,
                            -0.08881208300590515,
                            -0.03650235757231712,
                            -0.6731273531913757,
                            0.42794305086135864,
                            -0.18306709825992584,
                            -0.010001619346439838,
                            1.0466513633728027
                        ],
                        [
                            -0.21915696561336517,
                            0.06318937242031097,
                            -0.0014909271849319339,
                            0.23333534598350525,
                            -0.8238219022750854,
                            0.3345528244972229,
                            -0.04206043854355812,
                            0.29040762782096863
                        ],
                        [
                            0.33344560861587524,
                            0.7730483412742615,
                            -0.05937789008021355,
                            0.5800409317016602,
                            -0.3157789409160614,
                            -1.3215926885604858,
                            1.0495221614837646,
                            0.06316353380680084
                        ],
                        [
                            -1.8479716777801514,
                            0.10857293754816055,
                            -0.7508530020713806,
                            0.9703847765922546,
                            -0.08450058102607727,
                            0.12273304909467697,
                            1.0356184244155884,
                            -0.4433401823043823
                        ],
                        [
                            -1.4778598546981812,
                            0.5122430324554443,
                            0.534063458442688,
                            -0.17998497188091278,
                            0.29368484020233154,
                            0.3045033812522888,
                            -0.8908022046089172,
                            0.39728862047195435
                        ],
                        [
                            0.6891632676124573,
                            0.33834898471832275,
                            -0.9081563353538513,
                            0.37547844648361206,
                            -0.0969337671995163,
                            -1.044015884399414,
                            -0.10724074393510818,
                            0.1924368441104889
                        ]
                    ]
                ],
                [
                    [
                        -0.003467165632173419,
                        -0.024171138182282448,
                        0.023092932999134064,
                        0.009382165037095547,
                        0.07040177285671234,
                        -0.11741222441196442,
                        -0.002883350010961294,
                        0.07398506253957748
                    ]
                ]
            ],
            "activation": "tanh"
        },
        {
            "type": "dense",
            "shape": 1,
            "weights": [
                [
                    [
                        [
                            0.6358031630516052
                        ],
                        [
                            1.1303132772445679
                        ],
                        [
                            -0.9018440246582031
                        ],
                        [
                            0.7665267586708069
                        ],
                        [
                            -1.188419222831726
                        ],
                        [
                            -0.5014656186103821
                        ],
                        [
                            1.1330962181091309
                        ],
                        [
                            -0.8095055818557739
                        ]
                    ]
                ],
                [
                    [
                        -0.016413360834121704
                    ]
                ]
            ]
        }
    ]
}