{
    "in_shape": 2,
    "layers": [
        {
            "type": "dense",
            "shape": 8,
            "weights": [
                [
                    [
                        [
                            -0.03241334110498428,
                            0.05878809094429016,
                            -0.13740161061286926,
                            -0.7726687788963318,
                            -0.15218283236026764,
                            -0.7597646117210388,
                            -0.5726965665817261,
                            1.3519309759140015
                        ],
                        [
                            -2.666835308074951,
                            2.7540128231048584,
                            0.024099797010421753,
                            -0.05108146369457245,
                            -0.020270206034183502,
                            0.06907107681035995,
                            0.05833917483687401,
                            0.03950989618897438
                        ]
                    ]
                ],
                [
                    [
                        -1.7138586044311523,
                        1.6914676427841187,
                        -0.4230084717273712,
                        0.36703768372535706,
                        0.38369157910346985,
                        -0.7822043299674988,
                        -0.009981345385313034,
                        -0.33981382846832275
                    ]
                ]
            ],
            "activation": "tanh"
        },
        {
            "type": "dense",
            "shape": 8,
            "weights": [
                [
                    [
                        [
                            0.13679739832878113,
                            -0.4031760096549988,
                            -0.8097947239875793,
                            0.21988746523857117,
                            -0.03999069705605507,
                            -0.41572028398513794,
                            0.2041240632534027,
                            -0.19853749871253967
                        ],
                        [
                            0.1911073923110962,
                            0.5486416816711426,
                            0.2037423849105835,
                            0.23578880727291107,
                            0.35211777687072754,
                            -0.6077082753181458,
                            0.14513695240020752,
                            0.38606807589530945
                        ],
                        [
                            -0.08641213923692703,
                            -0.3913203477859497,
                            0.08606713265180588,
                            0.5913581848144531,
                            -0.929489016532898,
                            -0.5053930282592773,
                            0.770933985710144,
                            -1.1064904928207397
                        ],
                        [
                            0.8325983285903931,
                            0.3634824752807617,
                            -0.018967915326356888,
                            0.8284651041030884,
                            0.08855803310871124,
                            0.7326380610466003,
                            0.328969806432724,
                            -0.4524831175804138
                        ],
                        [
                            -0.6895767450332642,
                            1.0472608804702759,
                            1.2536824941635132,
                            -0.14304298162460327,
                            -0.38265493512153625,
                            -0.1615244746208191,
                            0.6869203448295593,
                            0.6159603595733643
                        ],
                        [
                            -0.19800710678100586,
                            -0.04615868628025055,
                            0.06702396273612976,
                            1.456507921218872,
                            -0.813764214515686,
                            0.022501422092318535,
                            -0.35307255387306213,
                            -0.11663036048412323
                        ],
                        [
                            -0.42241179943084717,
                            -0.018447645008563995,
                            -0.3718760013580322,
                            0.709415078163147,
                            0.7346133589744568,
                            0.6929823160171509,
                            0.16775105893611908,
                            0.05008922517299652
                        ],
                        [
                            0.546768844127655,
                            -1.0019878149032593,
                            -0.008046349510550499,
                            -0.44504305720329285,
                            -0.145097553730011,
                            -0.3607701361179352,
                            0.35319969058036804,
                            0.27139797806739807
                        ]
                    ]
                ],
                [
                    [
                        0.05060489475727081,
                        0.18093542754650116,
                        -0.04208046570420265,
                        -0.04952698573470116,
                        -0.058094777166843414,
                        0.06773612648248672,
                        -0.03788311406970024,
                        0.18708577752113342
                    ]
                ]
            ],
            "activation": "tanh"
        },
        {
            "type": "dense",
            "shape": 8,
            "weights": [
                [
                    [
                        [
                            -0.6783377528190613,
                            0.2277989536523819,
                            -0.21294814348220825,
                            0.24839478731155396,
                            -1.2025179862976074,
                            -0.4536812901496887,
                            0.11851973831653595,
                            -0.2996266782283783
                        ],
                        [
                            -0.20133580267429352,
                            -1.1796658039093018,
                            0.37904471158981323,
                            -0.024872520938515663,
                            0.5607744455337524,
                            -0.5997757315635681,
                            -0.1521100252866745,
                            1.0994175672531128
                        ],
                        [
                            -0.24590402841567993,
                            -0.08807922154664993,
                            -0.03638380765914917,
                            -0.6733481884002686,
                            0.4260205924510956,
                            -0.1853262037038803,
                            -0.012658811174333096,
                            1.0504851341247559
                        ],
                        [
                            -0.22323520481586456,
                            0.06350453197956085,
                            -0.002095694188028574,
                            0.23206709325313568,
                            -0.8243857026100159,
                            0.3345913589000702,
                            -0.0400189645588398,
                            0.28625914454460144
                        ],
                        [
                            0.336453914642334,
                            0.7728540897369385,
                            -0.05833499878644943,
                            0.5791206359863281,
                            -0.3176850378513336,
                            -1.32391357421875,
                            1.0465742349624634,
                            0.06726142019033432
                        ],
                        [
                            -1.848591685295105,
                            0.1126631498336792,
                            -0.7554476857185364,
                            0.9742668867111206,
                            -0.08617369830608368,
                            0.1214883103966713,
                            1.042301893234253,
                            -0.4507254660129547
                        ],
                        [
                            -1.4739986658096313,
                            0.5114047527313232,
                            0.535321056842804,
                            -0.1794508397579193,
                            0.29390260577201843,
                            0.30430665612220764,
                            -0.8941516876220703,
                            0.40269234776496887
                        ],
                        [
                            0.6921830177307129,
                            0.33729231357574463,
                            -0.9064057469367981,
                            0.37408357858657837,
                            -0.09877997636795044,
                            -1.046339988708496,
                            -0.11034087091684341,
                            0.19668452441692352
                        ]
                    ]
                ],
                [
                    [
                        -0.00048016864457167685,
                        -0.023649023845791817,
                        0.023440951481461525,
                        0.008974521420896053,
                        0.06847980618476868,
                        -0.11968595534563065,
                        -0.0056286826729774475,
                        0.0779016837477684
                    ]
                ]
            ],
            "activation": "tanh"
        },
        {
            "type": "dense",
            "shape": 1,
            "weights": [
                [
                    [
                        [
                            0.6350833177566528
                        ],
                        [
                            1.125765085220337
                        ],
                        [
                            -0.9047286510467529
                        ],
                        [
                            0.7693547010421753
                        ],
                        [
                            -1.1896589994430542
                        ],
                        [
                            -0.5031327605247498
                        ],
                        [
                            1.1366161108016968
                        ],
                        [
                            -0.8075336217880249
                        ]
                    ]
                ],
                [
                    [
                        -0.014638673514127731
                    ]
                ]
            ]
        }
    ]
}