{
    "in_shape": [
        null,
        2
    ],
    "layers": [
        {
            "type": "unknown",
            "activation": "",
            "shape": [
                [
                    null,
                    2
                ]
            ],
            "weights": []
        },
        {
            "type": "dense",
            "activation": "tanh",
            "shape": [
                null,
                8
            ],
            "weights": [
                [
                    [
                        0.2078048288822174,
                        -1.4896293878555298,
                        0.45500868558883667,
                        -0.29990971088409424,
                        0.04559028148651123,
                        0.22950957715511322,
                        0.19478531181812286,
                        0.03623172268271446
                    ],
                    [
                        -0.013866137713193893,
                        0.018337253481149673,
                        -1.0067346096038818,
                        0.4836949110031128,
                        -0.05976465716958046,
                        0.012795276939868927,
                        0.1049480065703392,
                        -0.4472396969795227
                    ]
                ],
                [
                    -0.10190548747777939,
                    -0.06727845966815948,
                    -0.9702704548835754,
                    0.246108278632164,
                    0.5739039182662964,
                    -0.09280446171760559,
                    0.31083351373672485,
                    -0.332642525434494
                ]
            ]
        },
        {
            "type": "dense",
            "activation": "tanh",
            "shape": [
                null,
                8
            ],
            "weights": [
                [
                    [
                        -0.589076578617096,
                        -0.18644146621227264,
                        0.46056121587753296,
                        1.0393273830413818,
                        -0.08620496094226837,
                        -0.21863536536693573,
                        0.33438557386398315,
                        0.566694438457489
                    ],
                    [
                        0.6371690034866333,
                        0.1093897894024849,
                        -0.3585983216762543,
                        0.04953915253281593,
                        1.5383073091506958,
                        1.4114570617675781,
                        -0.6374833583831787,
                        -0.09501293301582336
                    ],
                    [
                        0.2773098945617676,
                        0.06153320521116257,
                        0.021939091384410858,
                        0.36412209272384644,
                        -0.16750527918338776,
                        -0.34343305230140686,
                        -0.7259839177131653,
                        0.12656709551811218
                    ],
                    [
                        0.34154951572418213,
                        0.33500346541404724,
                        0.7391878366470337,
                        0.3478013575077057,
                        -0.04469864442944527,
                        0.011394274421036243,
                        0.3340567350387573,
                        -0.43691661953926086
                    ],
                    [
                        -0.2711881399154663,
                        0.05181768536567688,
                        0.15141841769218445,
                        -0.06044900417327881,
                        1.6514685153961182,
                        -0.49832507967948914,
                        0.605798065662384,
                        -0.7434220314025879
                    ],
                    [
                        -0.26213493943214417,
                        0.846280038356781,
                        0.6860542893409729,
                        0.14946626126766205,
                        -0.39022716879844666,
                        -0.8481621146202087,
                        0.3970850110054016,
                        1.0347044467926025
                    ],
                    [
                        -0.6929596662521362,
                        0.3785478174686432,
                        0.181030735373497,
                        -0.014826424419879913,
                        -0.23385745286941528,
                        -0.2518954575061798,
                        -0.2788875102996826,
                        -0.4898965060710907
                    ],
                    [
                        -0.13816842436790466,
                        0.42712366580963135,
                        -0.44033676385879517,
                        0.46898242831230164,
                        -0.18065130710601807,
                        0.5131611824035645,
                        0.11091125011444092,
                        0.2279730886220932
                    ]
                ],
                [
                    -0.06279608607292175,
                    0.07860014587640762,
                    0.12813971936702728,
                    0.04498159512877464,
                    0.029071776196360588,
                    -0.18309441208839417,
                    0.06464798003435135,
                    -0.06078982725739479
                ]
            ]
        },
        {
            "type": "dense",
            "activation": "tanh",
            "shape": [
                null,
                8
            ],
            "weights": [
                [
                    [
                        -0.4441778063774109,
                        0.20480771362781525,
                        0.03273506835103035,
                        0.4649524390697479,
                        0.2985125482082367,
                        -0.1686079502105713,
                        -1.0683965682983398,
                        -0.5888431668281555
                    ],
                    [
                        0.6863488554954529,
                        -0.3397184908390045,
                        -0.8628779053688049,
                        0.14244088530540466,
                        0.011963484808802605,
                        0.06827128678560257,
                        0.5118352770805359,
                        -0.6899257898330688
                    ],
                    [
                        0.3112802505493164,
                        0.11775756627321243,
                        0.1364307403564453,
                        -0.09109776467084885,
                        0.6843173503875732,
                        0.06328199058771133,
                        1.339559555053711,
                        -0.23566123843193054
                    ],
                    [
                        0.25858163833618164,
                        -0.8031991720199585,
                        -0.48785725235939026,
                        -0.3515247404575348,
                        0.7432963848114014,
                        -0.7392744421958923,
                        -0.06942636519670486,
                        0.013728223741054535
                    ],
                    [
                        0.0023529441095888615,
                        0.7632115483283997,
                        -0.7605454921722412,
                        0.32290810346603394,
                        0.3938809037208557,
                        0.368332177400589,
                        0.4623640179634094,
                        0.4572121202945709
                    ],
                    [
                        0.6363987326622009,
                        0.5323399305343628,
                        -0.34671255946159363,
                        0.480846107006073,
                        0.01236657053232193,
                        -0.7178753614425659,
                        0.43260014057159424,
                        -0.09967944771051407
                    ],
                    [
                        -0.16575494408607483,
                        0.009100959636271,
                        -0.6436037421226501,
                        -1.0278449058532715,
                        0.06858276575803757,
                        -0.6397078037261963,
                        1.1947510242462158,
                        -0.3356100022792816
                    ],
                    [
                        0.28039783239364624,
                        -1.007063627243042,
                        -0.37686625123023987,
                        0.3969651162624359,
                        0.18358679115772247,
                        -0.39158543944358826,
                        0.19796165823936462,
                        -0.7581080794334412
                    ]
                ],
                [
                    0.034266840666532516,
                    0.003322972683236003,
                    -0.1081315279006958,
                    -0.0900244191288948,
                    0.015827175229787827,
                    -0.0286816768348217,
                    0.20325100421905518,
                    0.05184699967503548
                ]
            ]
        },
        {
            "type": "dense",
            "activation": "",
            "shape": [
                null,
                1
            ],
            "weights": [
                [
                    [
                        0.5865504741668701
                    ],
                    [
                        -0.7085940837860107
                    ],
                    [
                        -0.9219925999641418
                    ],
                    [
                        -0.6761230230331421
                    ],
                    [
                        0.7621054649353027
                    ],
                    [
                        -0.9292126893997192
                    ],
                    [
                        0.9521148800849915
                    ],
                    [
                        -0.8772109746932983
                    ]
                ],
                [
                    0.05415115877985954
                ]
            ]
        }
    ]
}