{
    "in_shape": [
        null,
        2
    ],
    "layers": [
        {
            "type": "unknown",
            "activation": "",
            "shape": [
                [
                    null,
                    2
                ]
            ],
            "weights": []
        },
        {
            "type": "dense",
            "activation": "tanh",
            "shape": [
                null,
                8
            ],
            "weights": [
                [
                    [
                        -0.5163514614105225,
                        0.4797876477241516,
                        0.3302103281021118,
                        -0.1935109794139862,
                        -0.2546115517616272,
                        0.150440976023674,
                        -1.1913889646530151,
                        -0.19182485342025757
                    ],
                    [
                        0.8274129629135132,
                        0.87624591588974,
                        -0.03652218356728554,
                        0.014202079735696316,
                        -0.037995610386133194,
                        0.020951678976416588,
                        -0.016938554123044014,
                        0.00661698542535305
                    ]
                ],
                [
                    0.5126200914382935,
                    0.8330878019332886,
                    0.15042118728160858,
                    -0.29918622970581055,
                    0.10283652693033218,
                    -0.1792779117822647,
                    0.20849063992500305,
                    0.0376180075109005
                ]
            ]
        },
        {
            "type": "dense",
            "activation": "tanh",
            "shape": [
                null,
                8
            ],
            "weights": [
                [
                    [
                        -0.47886067628860474,
                        0.0020696232095360756,
                        0.11832509934902191,
                        0.24288460612297058,
                        0.0716528370976448,
                        0.5521848201751709,
                        0.3430371582508087,
                        0.6091131567955017
                    ],
                    [
                        0.40971267223358154,
                        0.28135132789611816,
                        0.13290686905384064,
                        -0.21483832597732544,
                        -0.17928960919380188,
                        0.3775026798248291,
                        -0.5703548789024353,
                        0.7165762782096863
                    ],
                    [
                        0.3204149901866913,
                        0.11865903437137604,
                        0.2414252609014511,
                        0.07509423047304153,
                        0.713309109210968,
                        0.37020280957221985,
                        -0.08743468672037125,
                        -0.026514967903494835
                    ],
                    [
                        0.5920426845550537,
                        -1.3878498077392578,
                        0.6560713052749634,
                        0.20783232152462006,
                        -0.8155929446220398,
                        -0.04841873049736023,
                        0.5195863842964172,
                        -0.7648547291755676
                    ],
                    [
                        -0.5127846002578735,
                        0.035145681351423264,
                        0.15795309841632843,
                        0.0871029868721962,
                        -0.15436474978923798,
                        0.274458110332489,
                        -0.5953084230422974,
                        -0.21791602671146393
                    ],
                    [
                        -0.2602880299091339,
                        -0.7985885143280029,
                        -0.5349363088607788,
                        0.4145299792289734,
                        0.5160456299781799,
                        -0.703180730342865,
                        -0.32781875133514404,
                        0.3371196687221527
                    ],
                    [
                        0.19640259444713593,
                        -1.2536612749099731,
                        -0.21390531957149506,
                        0.2913059890270233,
                        -1.3563200235366821,
                        0.8520399928092957,
                        -0.1261429637670517,
                        -0.5613783597946167
                    ],
                    [
                        0.2046445608139038,
                        -1.0900100469589233,
                        0.046279873698949814,
                        -0.9126918911933899,
                        -0.7757420539855957,
                        0.6109346151351929,
                        0.38878077268600464,
                        -0.38063594698905945
                    ]
                ],
                [
                    -0.032202791422605515,
                    0.0977693498134613,
                    0.03278477117419243,
                    -0.06715484708547592,
                    0.06200549378991127,
                    0.06782735139131546,
                    -0.11962802708148956,
                    0.14374864101409912
                ]
            ]
        },
        {
            "type": "dense",
            "activation": "tanh",
            "shape": [
                null,
                8
            ],
            "weights": [
                [
                    [
                        -0.06363943219184875,
                        -0.6661157011985779,
                        -0.12273091822862625,
                        -0.8981969356536865,
                        0.6506316065788269,
                        0.09783568978309631,
                        -0.944665253162384,
                        0.30693867802619934
                    ],
                    [
                        0.11314387619495392,
                        -0.2838515341281891,
                        -0.06647726893424988,
                        -0.07943829149007797,
                        -1.082293152809143,
                        0.3840077221393585,
                        0.07224806398153305,
                        -0.05765775218605995
                    ],
                    [
                        0.673740804195404,
                        -0.7419413328170776,
                        -0.7485580444335938,
                        -0.7939230799674988,
                        0.2606421411037445,
                        1.0463483333587646,
                        -0.15703539550304413,
                        0.3248704969882965
                    ],
                    [
                        -1.5862462520599365,
                        0.5885846614837646,
                        0.3763318359851837,
                        0.20402027666568756,
                        -0.4009799361228943,
                        -0.4951537549495697,
                        0.9992008805274963,
                        -0.4015143811702728
                    ],
                    [
                        0.16515153646469116,
                        0.34610506892204285,
                        1.0627402067184448,
                        -0.5903553366661072,
                        0.07191189378499985,
                        -0.012033937498927116,
                        -0.2693955898284912,
                        0.07358216494321823
                    ],
                    [
                        1.2477219104766846,
                        -0.2960413694381714,
                        -1.3152683973312378,
                        -0.6145942211151123,
                        -0.3525545299053192,
                        0.05404019355773926,
                        0.19199497997760773,
                        -0.004844777751713991
                    ],
                    [
                        0.27609485387802124,
                        -0.7079188227653503,
                        0.8780685663223267,
                        -0.24813392758369446,
                        0.5426784157752991,
                        -0.08547529578208923,
                        -0.05607546493411064,
                        1.1489269733428955
                    ],
                    [
                        0.4308021068572998,
                        -0.5260544419288635,
                        0.14348098635673523,
                        0.17322084307670593,
                        -0.15110275149345398,
                        -0.1907389611005783,
                        0.3126332461833954,
                        -1.1309400796890259
                    ]
                ],
                [
                    0.19840960204601288,
                    -0.035505976527929306,
                    0.002359245903789997,
                    -0.029382944107055664,
                    -0.11803881824016571,
                    -0.005403799936175346,
                    0.047226861119270325,
                    -0.16244961321353912
                ]
            ]
        },
        {
            "type": "dense",
            "activation": "",
            "shape": [
                null,
                1
            ],
            "weights": [
                [
                    [
                        -0.5789167284965515
                    ],
                    [
                        0.3933662176132202
                    ],
                    [
                        0.3928028643131256
                    ],
                    [
                        1.4966440200805664
                    ],
                    [
                        -0.9964712262153625
                    ],
                    [
                        -0.3615262508392334
                    ],
                    [
                        0.4811795949935913
                    ],
                    [
                        -0.5908822417259216
                    ]
                ],
                [
                    0.021480683237314224
                ]
            ]
        }
    ]
}