{
    "in_shape": [
        null,
        2
    ],
    "layers": [
        {
            "type": "unknown",
            "activation": "",
            "shape": [
                [
                    null,
                    2
                ]
            ],
            "weights": []
        },
        {
            "type": "dense",
            "activation": "tanh",
            "shape": [
                null,
                4
            ],
            "weights": [
                [
                    [
                        -0.257692813873291,
                        0.3971126973628998,
                        -0.09506235271692276,
                        -1.278134822845459
                    ],
                    [
                        -0.04000711068511009,
                        -0.01560046523809433,
                        -0.019911587238311768,
                        0.056318171322345734
                    ]
                ],
                [
                    0.01763245090842247,
                    0.5551778674125671,
                    0.2687884569168091,
                    -0.045516811311244965
                ]
            ]
        },
        {
            "type": "dense",
            "activation": "tanh",
            "shape": [
                null,
                4
            ],
            "weights": [
                [
                    [
                        0.2673038840293884,
                        1.4721120595932007,
                        0.9362116456031799,
                        0.3894318640232086
                    ],
                    [
                        0.725978434085846,
                        -0.02227381058037281,
                        -0.20216873288154602,
                        0.20845361053943634
                    ],
                    [
                        0.05260930955410004,
                        1.9230304956436157,
                        0.4554606080055237,
                        -1.255774736404419
                    ],
                    [
                        0.24627701938152313,
                        0.20567117631435394,
                        0.5505903959274292,
                        -0.07468473166227341
                    ]
                ],
                [
                    0.24465544521808624,
                    0.4154489040374756,
                    0.08444348722696304,
                    -0.11240050196647644
                ]
            ]
        },
        {
            "type": "dense",
            "activation": "tanh",
            "shape": [
                null,
                4
            ],
            "weights": [
                [
                    [
                        -0.4470577538013458,
                        0.12549540400505066,
                        0.7139376401901245,
                        -0.02306676283478737
                    ],
                    [
                        0.9249762296676636,
                        -0.809275209903717,
                        0.2594674825668335,
                        0.1992182731628418
                    ],
                    [
                        -0.5709682106971741,
                        -0.891517162322998,
                        0.2868497371673584,
                        0.74798184633255
                    ],
                    [
                        -0.13825780153274536,
                        0.1542128473520279,
                        0.989254891872406,
                        -1.509176254272461
                    ]
                ],
                [
                    -0.15915539860725403,
                    -0.16783563792705536,
                    -0.03450045362114906,
                    0.016890382394194603
                ]
            ]
        },
        {
            "type": "dense",
            "activation": "",
            "shape": [
                null,
                1
            ],
            "weights": [
                [
                    [
                        -0.7154239416122437
                    ],
                    [
                        -0.44550126791000366
                    ],
                    [
                        1.3745871782302856
                    ],
                    [
                        -0.8051180839538574
                    ]
                ],
                [
                    0.014223054982721806
                ]
            ]
        },
        {
            "type": "dense",
            "activation": "",
            "shape": [
                null,
                1
            ],
            "weights": [
                [
                    [
                        -1.9875246286392212
                    ]
                ],
                [
                    -0.014409183524549007
                ]
            ]
        },
        {
            "type": "dense",
            "activation": "",
            "shape": [
                null,
                1
            ],
            "weights": [
                [
                    [
                        -1.9869608879089355
                    ]
                ],
                [
                    0.014596131630241871
                ]
            ]
        }
    ]
}