{
    "in_shape": [
        null,
        2
    ],
    "layers": [
        {
            "type": "unknown",
            "activation": "",
            "shape": [
                [
                    null,
                    2
                ]
            ],
            "weights": []
        },
        {
            "type": "dense",
            "activation": "tanh",
            "shape": [
                null,
                8
            ],
            "weights": [
                [
                    [
                        0.48526912927627563,
                        -0.589325487613678,
                        0.33579131960868835,
                        0.4734135866165161,
                        0.18810565769672394,
                        -1.0457590818405151,
                        0.09728085249662399,
                        0.3491554260253906
                    ],
                    [
                        -0.03597208857536316,
                        -0.36152219772338867,
                        -0.0163053497672081,
                        0.9957894086837769,
                        0.32902055978775024,
                        -0.03358988091349602,
                        0.025781434029340744,
                        0.03051093965768814
                    ]
                ],
                [
                    0.27228882908821106,
                    -0.8731390237808228,
                    0.4258030652999878,
                    0.30423977971076965,
                    0.056157927960157394,
                    0.5593332648277283,
                    -0.5504665970802307,
                    -0.2947361469268799
                ]
            ]
        },
        {
            "type": "dense",
            "activation": "tanh",
            "shape": [
                null,
                8
            ],
            "weights": [
                [
                    [
                        0.6838873624801636,
                        -0.7565509676933289,
                        0.07856110483407974,
                        -0.23518705368041992,
                        1.613229751586914,
                        0.1809886395931244,
                        0.21004660427570343,
                        0.05086270347237587
                    ],
                    [
                        -0.10717856884002686,
                        0.07727205753326416,
                        0.019764428958296776,
                        -0.18495498597621918,
                        -0.3374391496181488,
                        -0.009846829809248447,
                        -0.27599185705184937,
                        -0.9099316596984863
                    ],
                    [
                        0.06096689775586128,
                        -0.10657043755054474,
                        -0.6090113520622253,
                        0.31661170721054077,
                        2.713186264038086,
                        -0.8212045431137085,
                        -0.4749373495578766,
                        -0.32629117369651794
                    ],
                    [
                        0.34427782893180847,
                        0.2763158679008484,
                        0.07720829546451569,
                        0.5257067084312439,
                        -0.24347789585590363,
                        -0.4536357820034027,
                        0.4374420940876007,
                        -0.09856517612934113
                    ],
                    [
                        -0.09036047756671906,
                        0.5082050561904907,
                        -0.4021124243736267,
                        -0.5882626175880432,
                        -0.007593095302581787,
                        -0.06084946542978287,
                        0.3598295748233795,
                        0.10668142884969711
                    ],
                    [
                        -0.12209469825029373,
                        0.5127348303794861,
                        -0.8237664103507996,
                        0.5140523314476013,
                        -1.066980004310608,
                        0.3928702771663666,
                        -0.1700083166360855,
                        0.18695364892482758
                    ],
                    [
                        -0.13961899280548096,
                        -1.0598169565200806,
                        -0.06233104690909386,
                        0.031201662495732307,
                        -0.4029964506626129,
                        0.9032149314880371,
                        0.3221622109413147,
                        -0.8100940585136414
                    ],
                    [
                        -0.23115727305412292,
                        -1.83241605758667,
                        -0.369946151971817,
                        -0.36185720562934875,
                        0.01545320451259613,
                        -0.07259570807218552,
                        0.34065747261047363,
                        -0.5278640985488892
                    ]
                ],
                [
                    0.09254926443099976,
                    0.053585365414619446,
                    -0.0017294513527303934,
                    0.015725668519735336,
                    0.10151449590921402,
                    -0.09721838682889938,
                    -0.12737292051315308,
                    0.11460813879966736
                ]
            ]
        },
        {
            "type": "dense",
            "activation": "tanh",
            "shape": [
                null,
                8
            ],
            "weights": [
                [
                    [
                        0.03883836045861244,
                        -0.45090627670288086,
                        0.19425703585147858,
                        0.36837688088417053,
                        0.26681947708129883,
                        0.5346559286117554,
                        0.010504694655537605,
                        0.8415151834487915
                    ],
                    [
                        -0.13198857009410858,
                        -0.6956495642662048,
                        -0.41150057315826416,
                        -0.35520875453948975,
                        0.48529893159866333,
                        0.1313309222459793,
                        0.1284649521112442,
                        0.14274363219738007
                    ],
                    [
                        0.16178281605243683,
                        -0.48012733459472656,
                        0.06987936794757843,
                        0.023145098239183426,
                        0.3625905215740204,
                        -0.2258281409740448,
                        -0.9576665759086609,
                        -0.27671122550964355
                    ],
                    [
                        0.12113693356513977,
                        -0.5111971497535706,
                        0.20064817368984222,
                        -0.1722005158662796,
                        -0.6630054712295532,
                        -0.21198587119579315,
                        0.2425071895122528,
                        0.27994635701179504
                    ],
                    [
                        -0.17672550678253174,
                        0.693952739238739,
                        0.17136527597904205,
                        -0.1868281364440918,
                        0.21642155945301056,
                        -0.0278726015239954,
                        -0.2574036717414856,
                        1.004447102546692
                    ],
                    [
                        0.09405370056629181,
                        -0.1775161623954773,
                        0.562389612197876,
                        -0.5911433696746826,
                        0.7489763498306274,
                        0.45595628023147583,
                        -0.253640353679657,
                        -0.9191940426826477
                    ],
                    [
                        -0.446671724319458,
                        -0.015006990171968937,
                        -0.1632925122976303,
                        -0.17399802803993225,
                        -0.2887280285358429,
                        0.43466266989707947,
                        -0.4149825870990753,
                        -0.29586270451545715
                    ],
                    [
                        0.8524201512336731,
                        -0.14543382823467255,
                        0.002358563942834735,
                        -0.4485889673233032,
                        0.2505798637866974,
                        0.7807092666625977,
                        -0.535552442073822,
                        -0.10240580141544342
                    ]
                ],
                [
                    0.14439024031162262,
                    -0.013599508441984653,
                    -0.03910977393388748,
                    0.015496364794671535,
                    0.09209466725587845,
                    -0.021128104999661446,
                    0.014900879003107548,
                    -0.000125130100059323
                ]
            ]
        },
        {
            "type": "dense",
            "activation": "",
            "shape": [
                null,
                1
            ],
            "weights": [
                [
                    [
                        0.35591256618499756
                    ],
                    [
                        -0.5062499046325684
                    ],
                    [
                        0.20743253827095032
                    ],
                    [
                        -0.4010075628757477
                    ],
                    [
                        0.5846871137619019
                    ],
                    [
                        0.5005936622619629
                    ],
                    [
                        -1.2466018199920654
                    ],
                    [
                        -0.363738089799881
                    ]
                ],
                [
                    0.026129351928830147
                ]
            ]
        },
        {
            "type": "dense",
            "activation": "",
            "shape": [
                null,
                1
            ],
            "weights": [
                [
                    [
                        -1.6832348108291626
                    ]
                ],
                [
                    -0.02572046034038067
                ]
            ]
        },
        {
            "type": "dense",
            "activation": "",
            "shape": [
                null,
                1
            ],
            "weights": [
                [
                    [
                        1.6845598220825195
                    ]
                ],
                [
                    -0.025310147553682327
                ]
            ]
        }
    ]
}