{
    "in_shape": [
        null,
        2
    ],
    "layers": [
        {
            "type": "unknown",
            "activation": "",
            "shape": [
                [
                    null,
                    2
                ]
            ],
            "weights": []
        },
        {
            "type": "dense",
            "activation": "tanh",
            "shape": [
                null,
                16
            ],
            "weights": [
                [
                    [
                        0.2740933895111084,
                        -0.20954230427742004,
                        -1.304518461227417,
                        2.1787939071655273,
                        1.2092009782791138,
                        0.11608392745256424,
                        0.33887091279029846,
                        0.2783549129962921,
                        -2.5578112602233887,
                        0.048226624727249146,
                        -0.45123517513275146,
                        -1.461696982383728,
                        0.4292915165424347,
                        -0.23749028146266937,
                        0.21575573086738586,
                        -0.48667287826538086
                    ],
                    [
                        0.0015134994173422456,
                        -0.0001315370900556445,
                        0.05501851066946983,
                        -0.08421406149864197,
                        0.058622900396585464,
                        -0.21187707781791687,
                        0.06139237433671951,
                        0.14378494024276733,
                        -0.1080133318901062,
                        0.2025926262140274,
                        -0.019834093749523163,
                        0.03462304547429085,
                        -0.0709158256649971,
                        -0.0029972924385219812,
                        -0.002019603503867984,
                        -0.16068468987941742
                    ]
                ],
                [
                    -0.18420666456222534,
                    -0.08752137422561646,
                    0.12685717642307281,
                    0.9088613390922546,
                    0.2109915167093277,
                    -0.008678202517330647,
                    -0.14283610880374908,
                    -0.03464306890964508,
                    1.1168218851089478,
                    -0.11290277540683746,
                    0.13325467705726624,
                    -0.330487996339798,
                    -0.022801898419857025,
                    0.15065008401870728,
                    0.19439402222633362,
                    -0.05889098346233368
                ]
            ]
        },
        {
            "type": "dense",
            "activation": "",
            "shape": [
                null,
                1
            ],
            "weights": [
                [
                    [
                        -0.34289732575416565
                    ],
                    [
                        0.4795239567756653
                    ],
                    [
                        -0.2605326175689697
                    ],
                    [
                        0.321338027715683
                    ],
                    [
                        0.2288772016763687
                    ],
                    [
                        0.36394166946411133
                    ],
                    [
                        0.5155836343765259
                    ],
                    [
                        -0.31117692589759827
                    ],
                    [
                        -0.14816607534885406
                    ],
                    [
                        0.41121187806129456
                    ],
                    [
                        0.4571511149406433
                    ],
                    [
                        0.4716840982437134
                    ],
                    [
                        0.37199321389198303
                    ],
                    [
                        0.6775265336036682
                    ],
                    [
                        -0.6063820123672485
                    ],
                    [
                        -0.1967819482088089
                    ]
                ],
                [
                    0.04216056689620018
                ]
            ]
        },
        {
            "type": "dense",
            "activation": "",
            "shape": [
                null,
                1
            ],
            "weights": [
                [
                    [
                        1.9273277521133423
                    ]
                ],
                [
                    0.042330481112003326
                ]
            ]
        },
        {
            "type": "dense",
            "activation": "",
            "shape": [
                null,
                1
            ],
            "weights": [
                [
                    [
                        -1.933794617652893
                    ]
                ],
                [
                    -0.042506348341703415
                ]
            ]
        }
    ]
}